tree
version=v3
num_class=1
num_tree_per_iteration=1
label_index=0
max_feature_idx=273
objective=binary sigmoid:1
feature_names=age job_year frs_agn_dt_cnt l12mon_buy_fin_mng_whl_tms l12_mon_fnd_buy_whl_tms l12_mon_insu_buy_whl_tms l12_mon_gld_buy_whl_tms ovd_30d_loan_tot_cnt his_lng_ovd_day cur_debit_cnt cur_credit_cnt cur_debit_min_opn_dt_cnt cur_credit_min_opn_dt_cnt Trx_Cod2_Cd trx/Flg1_B trx/Flg1_C Trx_Cod1_Cd page_no gdr_cd_flag_0 mrg_situ_cd_flag_0 edu_deg_cd_flag_0 acdm_deg_cd_flag_0 deg_cd_flag_0 job_year_flag_0 ic_ind_flag_0 fr_or_sh_ind_flag_0 dnl_mbl_bnk_ind_flag_0 dnl_bind_cmb_lif_ind_flag_0 hav_car_grp_ind_flag_0 hav_hou_grp_ind_flag_0 l6mon_agn_ind_flag_0 frs_agn_dt_cnt_flag_0 vld_rsk_ases_ind_flag_0 fin_rsk_ases_grd_cd_flag_0 confirm_rsk_ases_lvl_typ_cd_flag_0 cust_inv_rsk_endu_lvl_cd_flag_0 l6mon_daim_aum_cd_flag_0 tot_ast_lvl_cd_flag_0 pot_ast_lvl_cd_flag_0 bk1_cur_year_mon_avg_agn_amt_cd_flag_0 l12mon_buy_fin_mng_whl_tms_flag_0 l12_mon_fnd_buy_whl_tms_flag_0 l12_mon_insu_buy_whl_tms_flag_0 l12_mon_gld_buy_whl_tms_flag_0 loan_act_ind_flag_0 pl_crd_lmt_cd_flag_0 ovd_30d_loan_tot_cnt_flag_0 his_lng_ovd_day_flag_0 hld_crd_card_grd_cd_flag_0 crd_card_act_ind_flag_0 l1y_crd_card_csm_amt_dlm_cd_flag_0 atdd_type_flag_0 perm_crd_lmt_cd_flag_0 cur_debit_min_opn_dt_cnt_flag_0 cur_credit_min_opn_dt_cnt_flag_0 gdr_cd_0 gdr_cd_1 gdr_cd_2 mrg_situ_cd_0 mrg_situ_cd_1 mrg_situ_cd_2 mrg_situ_cd_3 mrg_situ_cd_4 edu_deg_cd_0 edu_deg_cd_1 edu_deg_cd_2 edu_deg_cd_3 edu_deg_cd_4 edu_deg_cd_5 edu_deg_cd_6 edu_deg_cd_7 edu_deg_cd_8 edu_deg_cd_9 edu_deg_cd_10 edu_deg_cd_11 edu_deg_cd_12 acdm_deg_cd_0 acdm_deg_cd_1 acdm_deg_cd_2 acdm_deg_cd_3 acdm_deg_cd_4 acdm_deg_cd_5 acdm_deg_cd_6 acdm_deg_cd_7 ic_ind_0 ic_ind_1 ic_ind_2 fr_or_sh_ind_0 fr_or_sh_ind_1 fr_or_sh_ind_2 dnl_mbl_bnk_ind_0 dnl_mbl_bnk_ind_1 dnl_mbl_bnk_ind_2 dnl_bind_cmb_lif_ind_0 dnl_bind_cmb_lif_ind_1 dnl_bind_cmb_lif_ind_2 hav_car_grp_ind_0 hav_car_grp_ind_1 hav_car_grp_ind_2 hav_hou_grp_ind_0 hav_hou_grp_ind_1 hav_hou_grp_ind_2 l6mon_agn_ind_0 l6mon_agn_ind_1 l6mon_agn_ind_2 vld_rsk_ases_ind_0 vld_rsk_ases_ind_1 vld_rsk_ases_ind_2 fin_rsk_ases_grd_cd_0 fin_rsk_ases_grd_cd_1 fin_rsk_ases_grd_cd_2 fin_rsk_ases_grd_cd_3 fin_rsk_ases_grd_cd_4 fin_rsk_ases_grd_cd_5 fin_rsk_ases_grd_cd_6 fin_rsk_ases_grd_cd_7 fin_rsk_ases_grd_cd_8 fin_rsk_ases_grd_cd_9 fin_rsk_ases_grd_cd_10 fin_rsk_ases_grd_cd_11 confirm_rsk_ases_lvl_typ_cd_0 confirm_rsk_ases_lvl_typ_cd_1 confirm_rsk_ases_lvl_typ_cd_2 confirm_rsk_ases_lvl_typ_cd_3 confirm_rsk_ases_lvl_typ_cd_4 confirm_rsk_ases_lvl_typ_cd_5 confirm_rsk_ases_lvl_typ_cd_6 confirm_rsk_ases_lvl_typ_cd_7 confirm_rsk_ases_lvl_typ_cd_8 confirm_rsk_ases_lvl_typ_cd_9 confirm_rsk_ases_lvl_typ_cd_10 confirm_rsk_ases_lvl_typ_cd_11 confirm_rsk_ases_lvl_typ_cd_12 confirm_rsk_ases_lvl_typ_cd_13 cust_inv_rsk_endu_lvl_cd_0 cust_inv_rsk_endu_lvl_cd_1 cust_inv_rsk_endu_lvl_cd_2 cust_inv_rsk_endu_lvl_cd_3 cust_inv_rsk_endu_lvl_cd_4 cust_inv_rsk_endu_lvl_cd_5 cust_inv_rsk_endu_lvl_cd_6 cust_inv_rsk_endu_lvl_cd_7 cust_inv_rsk_endu_lvl_cd_8 cust_inv_rsk_endu_lvl_cd_9 l6mon_daim_aum_cd_0 l6mon_daim_aum_cd_1 l6mon_daim_aum_cd_2 l6mon_daim_aum_cd_3 l6mon_daim_aum_cd_4 l6mon_daim_aum_cd_5 l6mon_daim_aum_cd_6 l6mon_daim_aum_cd_7 l6mon_daim_aum_cd_8 l6mon_daim_aum_cd_9 l6mon_daim_aum_cd_10 tot_ast_lvl_cd_0 tot_ast_lvl_cd_1 tot_ast_lvl_cd_2 tot_ast_lvl_cd_3 tot_ast_lvl_cd_4 tot_ast_lvl_cd_5 tot_ast_lvl_cd_6 tot_ast_lvl_cd_7 tot_ast_lvl_cd_8 tot_ast_lvl_cd_9 tot_ast_lvl_cd_10 tot_ast_lvl_cd_11 tot_ast_lvl_cd_12 tot_ast_lvl_cd_13 tot_ast_lvl_cd_14 pot_ast_lvl_cd_0 pot_ast_lvl_cd_1 pot_ast_lvl_cd_2 pot_ast_lvl_cd_3 pot_ast_lvl_cd_4 pot_ast_lvl_cd_5 pot_ast_lvl_cd_6 pot_ast_lvl_cd_7 bk1_cur_year_mon_avg_agn_amt_cd_0 bk1_cur_year_mon_avg_agn_amt_cd_1 bk1_cur_year_mon_avg_agn_amt_cd_2 bk1_cur_year_mon_avg_agn_amt_cd_3 bk1_cur_year_mon_avg_agn_amt_cd_4 bk1_cur_year_mon_avg_agn_amt_cd_5 bk1_cur_year_mon_avg_agn_amt_cd_6 bk1_cur_year_mon_avg_agn_amt_cd_7 bk1_cur_year_mon_avg_agn_amt_cd_8 bk1_cur_year_mon_avg_agn_amt_cd_9 bk1_cur_year_mon_avg_agn_amt_cd_10 bk1_cur_year_mon_avg_agn_amt_cd_11 loan_act_ind_0 loan_act_ind_1 loan_act_ind_2 pl_crd_lmt_cd_0 pl_crd_lmt_cd_1 pl_crd_lmt_cd_2 pl_crd_lmt_cd_3 pl_crd_lmt_cd_4 pl_crd_lmt_cd_5 pl_crd_lmt_cd_6 pl_crd_lmt_cd_7 pl_crd_lmt_cd_8 pl_crd_lmt_cd_9 pl_crd_lmt_cd_10 hld_crd_card_grd_cd_0 hld_crd_card_grd_cd_1 hld_crd_card_grd_cd_2 hld_crd_card_grd_cd_3 hld_crd_card_grd_cd_4 hld_crd_card_grd_cd_5 hld_crd_card_grd_cd_6 hld_crd_card_grd_cd_7 hld_crd_card_grd_cd_8 hld_crd_card_grd_cd_9 hld_crd_card_grd_cd_10 hld_crd_card_grd_cd_11 hld_crd_card_grd_cd_12 crd_card_act_ind_0 crd_card_act_ind_1 crd_card_act_ind_2 l1y_crd_card_csm_amt_dlm_cd_0 l1y_crd_card_csm_amt_dlm_cd_1 l1y_crd_card_csm_amt_dlm_cd_2 l1y_crd_card_csm_amt_dlm_cd_3 l1y_crd_card_csm_amt_dlm_cd_4 l1y_crd_card_csm_amt_dlm_cd_5 l1y_crd_card_csm_amt_dlm_cd_6 atdd_type_0 atdd_type_1 atdd_type_2 perm_crd_lmt_cd_0 perm_crd_lmt_cd_1 perm_crd_lmt_cd_2 perm_crd_lmt_cd_3 perm_crd_lmt_cd_4 perm_crd_lmt_cd_5 perm_crd_lmt_cd_6 perm_crd_lmt_cd_7 perm_crd_lmt_cd_8 perm_crd_lmt_cd_9 cur_debit_crd_lvl_0 cur_debit_crd_lvl_1 cur_debit_crd_lvl_2 cur_debit_crd_lvl_3 cur_debit_crd_lvl_4 cur_debit_crd_lvl_5 Dat_Flg3_Cd_0 Dat_Flg3_Cd_1 Dat_Flg3_Cd_2 Dat_Flg3_Cd_3 page_cls_0 page_cls_1 page_cls_2 page_cls_3 page_cls_4 page_cls_5 page_cls_6 page_cls_7 page_cls_8 page_cls_9 page_cls_10 page_cls_11 page_cls_12 page_cls_13 page_cls_14 page_cls_15 page_cls_16 page_cls_17 page_cls_18 page_cls_19 page_cls_20 page_cls_21 page_cls_22 page_cls_23
feature_infos=[19:84] [-1:99] [-1:1278] [-1:260] [-1:610] [-1:7] [-1:333] [-1:28] [-1:1623] [0:177] [0:173] [-1:9538] [-1:6056] [-1:34] [-1:2000000.0049999999] [-1:4609157.5782352937] [-1:3] [-1:3175.644554167282] [0:1] [0:1] [0:1] [0:1] [0:1] [0:1] [0:1] [0:1] [0:1] [0:1] [0:1] [0:1] [0:1] [0:1] [0:1] [0:1] [0:1] [0:1] [0:1] [0:1] [0:1] [0:1] [0:1] [0:1] [0:1] [0:1] [0:1] [0:1] [0:1] [0:1] [0:1] [0:1] [0:1] none none [0:1] [0:1] [0:1] [0:1] [0:1] [0:1] [0:1] [0:1] [0:1] [0:1] [0:1] [0:1] [0:1] [0:1] [0:1] [0:1] none [0:1] [0:1] [0:1] [0:1] [0:1] [0:1] [0:1] [0:1] [0:1] [0:1] [0:1] [0:1] [0:1] [0:1] [0:1] [0:1] [0:1] [0:1] [0:1] [0:1] [0:1] [0:1] [0:1] [0:1] [0:1] [0:1] [0:1] [0:1] [0:1] [0:1] [0:1] [0:1] [0:1] [0:1] [0:1] [0:1] [0:1] [0:1] [0:1] [0:1] none [0:1] [0:1] [0:1] [0:1] none none none none [0:1] [0:1] [0:1] none none none none [0:1] [0:1] [0:1] [0:1] [0:1] none none [0:1] [0:1] [0:1] [0:1] [0:1] [0:1] [0:1] [0:1] [0:1] none [0:1] [0:1] [0:1] [0:1] [0:1] [0:1] [0:1] [0:1] [0:1] [0:1] [0:1] none [0:1] none [0:1] [0:1] [0:1] none [0:1] [0:1] [0:1] [0:1] [0:1] [0:1] [0:1] [0:1] [0:1] [0:1] [0:1] [0:1] [0:1] [0:1] [0:1] [0:1] [0:1] [0:1] [0:1] [0:1] [0:1] [0:1] [0:1] [0:1] [0:1] [0:1] [0:1] [0:1] none [0:1] [0:1] [0:1] [0:1] [0:1] [0:1] [0:1] [0:1] [0:1] [0:1] [0:1] [0:1] [0:1] none [0:1] [0:1] [0:1] [0:1] [0:1] [0:1] [0:1] [0:1] [0:1] [0:1] none none [0:1] [0:1] [0:1] [0:1] [0:1] [0:1] [0:1] [0:1] [0:1] [0:1] [0:1] [0:1] [0:1] [0:1] none [0:1] [0:1] [0:1] [0:1] [0:1] [0:1] [0:1] [0:1] [0:1] [0:1] [0:1] [0:1] [0:1] none none [0:1] [0:1] [0:1] [0:1] [0:1] [0:1] none [0:1] none none [0:1] [0:1] none [0:1] none none [0:1] none none none none none none [0:1] [0:1] [0:1] [0:1] [0:1]
tree_sizes=1411 1422 1420 1419 1432 1412 1411 1417 1523 1416 1520 1522 1418 1307 1420 1519 1411 1521 1744 1434 1636 1396 1409 1527 1422 1744 1420 1638 1408 1637 1419 1639 1524 1629 1434 1425 1393 1651 1415 1420 1411 1426 1421 1414 1524 1529 1402 1533 1364 1537 1530 1526 1412 1409 1421 1396 1421 1521 1527 1518 1525 1420 1419 1422 1524 1532 1413 1419 1521 1386 1521 1412 1420 1614 1430 1524 1499 1431 1425 1420 1417 1420 1638 1417 1500 1636 1424 1410 1405 1602 1416 1434 1526 1298 1535 1495 1636 1396 1529 1515 1531 1274 1416 1504 1348 1512 1420 1520 1403 1532 1382 1164 1387 1520 1690 1527 1418 1644 1268 1414 1479 1422 1402 1714 1270 1407 1402 1626 1520 1308 1533 1419 1387 1179 1412 1391 1416 1532 1512 1517 1409 1391 1511 1514 1312 1515 1634 1275 1183 1518 1514 1168 1189 1401 1300 1398 1073 1306 1289 1737 1393 1411 1495 1079 1388 1411 1204 1294 1530 1513 1482 1161 1305 1421 1533 1175 1175 1421 1533 1302 1518 1423 1417 1590 1405 1397 1629 1401 1097 1577 1609 1409 1588 1081 1417 1707 1406 1404 1515 1076 1410 1417 1408 1685 1427 1604 1730 1393 1624 1515 1532 1077 1692 1517 1519 1496 1287 1389 1426 1399 1089 1619 1182 1424 1425 1176 1159 1182 1315 1293 1175 1167 1230 1194 1070 1167 1141 1268 1261 1684 1074 1220 1413 1080 1380 1174 1388 1507 1475 1243 1045 1248 1158 1351 1386 1414 1425 1071 850 1511 1293 1399 770 1394 1208 1199 1163 1347 749 1480 1074 1153 1511 1082 1734 1072 1082 1486 1514 1267 1404 1048 1457 1286 1471 1223 1415 997 1291 1363 1180 1293 1024 982 990 941 935 1296 1399 1211 1399 1076 1089 968 1544 938 1094 1401 941 1491 962 1300 984 946 1697 1595 1495 1254 1488 1620 1387 1068 1574 1612 1708 1726 1538 1498 1065 1255 1608 1506 1466 1068 1734 1506 1257 967 1312 1492 1076 1300 1419 1501 1154 1614 1401 1695 1375 1691 1522 1072 1085 1184 1482 1084 1575 750 1410 1710 1738 1763 1749 999 1578 1608 778 989 781 993 997 1746 1094 1710 1072 977 1624 1525 1691 958 1087 1633 989 1530 994 1742 984 1070 1592 1287 1748 1589 1652 889 1095 1468 1726 1404 1090 963 1102 1284 1272 769 1423 1691 1648 1503 1514 1657 1477 1725 1659 1065 1500 1072 1493 1705 1074 1572 1506 1607 1090 1519 1375 1620 1089 1711 1710 1672 1002 1490 1706 1725 1272 1500 1463 1527 1087 1490 1496 1504 1533 1378 1193 1379

Tree=0
num_leaves=12
num_cat=0
split_feature=55 55 81 81 87 81 81 96 96 224 205
split_gain=3357.07 5148.52 1448.76 2463.82 505.117 334.611 1059.73 100.695 548.66 75.7658 29.3403
threshold=0.99999723166213117 1.0000000180025095e-35 1.0000000180025095e-35 0.99995048850461588 0.99975439783188735 1.0000000180025095e-35 0.99995048850461588 0.99990256883134154 1.0000000180025095e-35 0.0092523369586252086 1.0000000180025095e-35
decision_type=2 2 2 2 2 2 2 2 2 2 2
left_child=1 2 4 -4 -1 7 -7 8 -2 -8 -9
right_child=5 -3 3 -5 -6 6 9 10 -10 -11 -12
leaf_value=0.014305128964072399 -0.054558546347817399 0.10128247700350378 0.10118269251223121 -0.0081345148637426354 -0.035569885865594023 0.10040844362101349 -0.047504073679927629 -0.070874282849008374 0.099037803924517526 -0.0055421514044808398 -0.053630631710940832
leaf_weight=639.24965707957745 621.99966633319855 1529.7491793781519 757.24959377944469 1606.9991379380226 2431.9986953735352 153.24991779029369 760.99959176778793 768.49958774447441 62.999966204166412 128.99993079900742 447.99975967407227
leaf_count=2557 2488 6119 3029 6428 9728 613 3044 3074 252 516 1792
internal_value=0 0.376584 -0.0794441 0.508642 -0.532497 -0.896811 -0.439565 -1.14679 -0.833813 -0.858915 -1.32137
internal_weight=0 6965.25 5435.5 2364.25 3071.25 2944.75 1043.25 1901.5 685 890 1216.5
internal_count=39640 27861 21742 9457 12285 11779 4173 7606 2740 3560 4866
shrinkage=1


Tree=1
num_leaves=12
num_cat=0
split_feature=56 56 81 81 176 81 81 205 205 224 87
split_gain=3137.23 4727.15 1246.76 2175.18 436.873 327.667 1043.28 91.22 570.542 68.3852 27.0194
threshold=1.0000000180025095e-35 0.99997593805284424 1.0000000180025095e-35 0.99995048850461588 1.0000000180025095e-35 1.0000000180025095e-35 0.99995048850461588 1.0000000180025095e-35 0.99995048850461588 0.0092523369586252086 0.99975439783188735
decision_type=2 2 2 2 2 2 2 2 2 2 2
left_child=5 -2 4 -4 -3 7 -7 10 -9 -8 -1
right_child=1 2 3 -5 -6 6 9 8 -10 -11 -12
leaf_value=-0.041286550258192382 0.095244636442873676 -0.035568138496334979 0.094989269131353526 -0.0091086076270074593 0.01223426942779219 0.094364538267847076 -0.046539084435560568 0.096898538648983762 -0.05316625114123711 -0.0066481540326573567 -0.064880273624632265
leaf_weight=158.58888822793961 1561.0873789787292 2308.6346015632153 728.13475370407104 1606.9733718633652 600.35906571149826 168.82342858612537 760.5708572268486 68.390986010432243 711.46548356115818 128.99900811910629 1098.5735876262188
leaf_count=635 6260 9237 2920 6428 2402 677 3044 274 2848 516 4399
internal_value=0 0.377897 -0.0767521 0.467132 -0.513693 -0.836236 -0.382894 -1.07099 -0.796695 -0.81649 -1.23958
internal_weight=0 6805.19 5244.1 2335.11 2908.99 3095.41 1058.39 2037.02 779.856 889.57 1257.16
internal_count=39640 27247 20987 9348 11639 12393 4237 8156 3122 3560 5034
shrinkage=0.05


Tree=2
num_leaves=12
num_cat=0
split_feature=55 55 15 96 96 96 146 13 94 94 239
split_gain=2748.82 4243.88 1091.48 857.281 287.589 980.615 272.444 203.703 57.6087 291.969 4.03174
threshold=0.99999723166213117 1.0000000180025095e-35 1007.7271317562144 0.99990256883134154 0.99990256883134154 1.0000000180025095e-35 1.0000000180025095e-35 3.9858965823886625 1.0000000180025095e-35 0.99993571913706703 0.3882549771265002
decision_type=2 2 2 2 2 2 2 2 2 2 2
left_child=1 2 3 -1 5 7 -4 -2 10 -10 -6
right_child=4 -3 6 -5 8 -7 -8 -9 9 -11 -12
leaf_value=0.044668326526771343 -0.0019809017813048062 0.091029427255182663 -0.041894222219872594 -0.0076525046176745661 -0.069979314916641736 0.093972011090472471 -0.0041849668260161834 -0.054315278153317305 0.094554759961476068 -0.051286876028689768 -0.01879540679808861
leaf_weight=1392.4163536280394 259.51222184300423 1515.1626122146845 1552.0317108929157 1783.4693495929241 416.79459576308727 159.29966945946217 697.39445106685162 673.99299973249435 34.066199392080307 1383.6125999242067 7.4762565791606894
leaf_count=5585 1041 6119 6216 7146 1673 641 2795 2704 137 5553 30
internal_value=0 0.341471 -0.0716874 0.305557 -0.812792 -0.404365 -0.604648 -0.796753 -1.05421 -0.953659 -1.38483
internal_weight=0 6940.47 5425.31 3175.89 2934.75 1092.8 2249.43 933.505 1841.95 1417.68 424.271
internal_count=39640 27861 21742 12731 11779 4386 9011 3745 7393 5690 1703
shrinkage=0.05


Tree=3
num_leaves=12
num_cat=0
split_feature=56 56 81 81 77 81 81 80 80 96 96
split_gain=2582.36 3949.73 1101.52 1954.36 411.432 287.179 894.163 94.2762 135.77 65.3345 64.302
threshold=1.0000000180025095e-35 0.99997593805284424 1.0000000180025095e-35 0.99995048850461588 1.0000000180025095e-35 1.0000000180025095e-35 0.99995048850461588 0.018755359186824087 0.99987735474400352 0.99990256883134154 0.99990256883134154
decision_type=2 2 2 2 2 2 2 2 2 2 2
left_child=5 -2 4 -4 -3 7 -7 10 -9 -8 -1
right_child=1 2 3 -5 -6 6 9 8 -10 -11 -12
leaf_value=-0.039258318529750612 0.087716788518360372 -0.041303727593349084 0.090403736744941371 -0.0085643974631496398 -0.0034988734828168611 0.088995466115467159 -0.017849030232274812 0.091979153147986284 -0.034114747202258051 -0.046767250422757527 -0.058838088912115782
leaf_weight=688.34569764137268 1534.1142100840807 1575.3701405525208 721.91744449734688 1606.442539691925 1330.3510230183601 166.83356153964996 307.49943988025188 26.349133655428886 95.542966425418854 578.55501353740692 1214.0758972167969
leaf_count=2771 6260 6311 2920 6428 5328 677 1234 106 385 2326 4894
internal_value=0 0.343836 -0.0696476 0.442505 -0.480391 -0.760882 -0.335409 -0.981411 -0.118476 -0.736383 -1.03608
internal_weight=0 6768.2 5234.08 2328.36 2905.72 3077.2 1052.89 2024.31 121.892 886.054 1902.42
internal_count=39640 27247 20987 9348 11639 12393 4237 8156 491 3560 7665
shrinkage=0.05


Tree=4
num_leaves=12
num_cat=0
split_feature=56 56 273 17 81 81 146 80 80 224 205
split_gain=2342.62 3624.13 999.544 1312.97 260.653 814.419 129.65 85.7396 123.469 58.8987 52.6053
threshold=1.0000000180025095e-35 0.99997593805284424 1.0000000180025095e-35 -0.99796071166628442 1.0000000180025095e-35 0.99995048850461588 1.0000000180025095e-35 0.018755359186824087 0.99987735474400352 0.0092523369586252086 1.0000000180025095e-35
decision_type=2 2 2 2 2 2 2 2 2 2 2
left_child=4 -2 6 -4 7 -6 -3 10 -9 -7 -1
right_child=1 2 3 -5 5 9 -8 8 -10 -11 -12
leaf_value=-0.056070065519441027 0.084544998538515256 -0.055851940129584658 -0.00052926733777220478 0.094978909726614408 0.085622044290287289 -0.040417218146816564 -0.023599753530601855 0.087979885815405667 -0.032527466638435462 -0.0033704160985369306 -0.038411223161042174
leaf_weight=1178.9363707154989 1512.6554569602013 714.49602080881596 3539.8720727711916 399.43608093261719 164.82521589100361 754.83120132982731 569.00411404669285 26.217944249510765 95.251231819391251 128.74157491326332 714.54583294689655
leaf_count=4777 6260 2868 14222 1614 677 3044 2283 106 385 516 2888
internal_value=0 0.328413 -0.0662539 0.18328 -0.726209 -0.319947 -0.832445 -0.936831 -0.112057 -0.701715 -0.989126
internal_weight=0 6735.46 5222.81 3939.31 3063.35 1048.4 1283.5 2014.95 121.469 883.573 1893.48
internal_count=39640 27247 20987 15836 12393 4237 5151 8156 491 3560 7665
shrinkage=0.05


Tree=5
num_leaves=12
num_cat=0
split_feature=56 56 81 81 87 81 81 80 80 15 87
split_gain=2126.48 3338.03 969.913 1750.28 412.996 236.859 743.438 78.0548 112.585 60.2636 60.1418
threshold=1.0000000180025095e-35 0.99997593805284424 1.0000000180025095e-35 0.99995048850461588 0.99975439783188735 1.0000000180025095e-35 0.99995048850461588 0.018755359186824087 0.99987735474400352 1056.7023230476179 0.99975439783188735
decision_type=2 2 2 2 2 2 2 2 2 2 2
left_child=5 -2 4 -4 -3 7 -7 10 -9 -8 -1
right_child=1 2 3 -5 -6 6 9 8 -10 -11 -12
leaf_value=-0.023218786376208042 0.081739681436127948 0.013788415213501876 0.086197889172521247 -0.0079493694036279969 -0.032239963016172803 0.082643791770031477 -0.02293452460586818 0.084460445597423037 -0.031026482718805721 -0.050218772235014135 -0.050690332636450001
leaf_weight=237.66680170595646 1487.0185161828995 617.2180445343256 711.21433764696121 1605.7701032161713 2282.8500825613737 162.32525911927223 544.37021988630295 25.992048591375351 94.923056587576866 336.20226547122002 1645.0438105911016
leaf_count=964 6260 2473 2920 6428 9166 677 2202 106 385 1358 6701
internal_value=0 0.313619 -0.063006 0.419059 -0.448504 -0.693811 -0.305468 -0.895194 -0.10604 -0.66907 -0.945263
internal_weight=0 6704.07 5217.05 2316.98 2900.07 3046.52 1042.9 2003.63 120.915 880.572 1882.71
internal_count=39640 27247 20987 9348 11639 12393 4237 8156 491 3560 7665
shrinkage=0.05


Tree=6
num_leaves=12
num_cat=0
split_feature=56 56 15 220 96 96 87 15 81 81 80
split_gain=1932.9 3083.06 909.857 897.588 234.009 859.724 222.984 172.222 59.1525 289.828 25.5943
threshold=1.0000000180025095e-35 0.99997593805284424 1007.7271317562144 0.99999723166213117 0.99990256883134154 1.0000000180025095e-35 0.99975439783188735 251.88552229756291 1.0000000180025095e-35 0.99995048850461588 0.052542277298053448
decision_type=2 2 2 2 2 2 2 2 2 2 2
left_child=4 -2 3 -3 5 7 -4 -1 10 -10 -6
right_child=1 2 6 -5 8 -7 -8 -9 9 -11 -12
leaf_value=0.0062142411226825504 0.079243332252775328 0.028464460469206827 0.0018547515457834924 -0.038531835992785236 -0.052074183628688181 0.088446236319030397 -0.036505887152545768 -0.04455127750862066 0.079520752299496164 -0.041516461573217964 -0.020448530293852941
leaf_weight=211.97265432775021 1457.9339184612036 2414.943700492382 486.5135859400034 628.94262664020061 1190.5896347016096 169.12782754004002 1671.1109562963247 755.84477028250694 52.956337824463844 571.9628189355135 75.082200840115547
leaf_count=860 6260 9759 1960 2528 4894 701 6740 3083 223 2326 306
internal_value=0 0.300187 -0.0599402 0.291937 -0.663366 -0.303139 -0.556722 -0.66772 -0.879192 -0.621382 -1.0051
internal_weight=0 6659.44 5201.51 3043.89 3027.54 1136.95 2157.62 967.817 1890.59 624.919 1265.67
internal_count=39640 27247 20987 12287 12393 4644 8700 3943 7749 2549 5200
shrinkage=0.05


Tree=7
num_leaves=12
num_cat=0
split_feature=56 56 81 81 88 96 96 13 93 93 239
split_gain=1757.37 2856.61 854.717 1593.27 344.03 213.913 784.503 171.146 54.4327 245.709 3.49172
threshold=1.0000000180025095e-35 0.99997593805284424 1.0000000180025095e-35 0.99995048850461588 1.0000000180025095e-35 0.99990256883134154 1.0000000180025095e-35 3.9858965823886625 0.99999723166213117 1.0000000180025095e-35 0.3882549771265002
decision_type=2 2 2 2 2 2 2 2 2 2 2
left_child=5 -2 4 -4 -3 6 7 -1 9 -7 -10
right_child=1 2 3 -5 -6 8 -8 -9 10 -11 -12
leaf_value=0.0011922044997718633 0.077009910366450676 -0.029641418802802272 0.082842754914518701 -0.0075592376656098406 0.013225749281816489 -0.040641344910695015 0.085231819726778069 -0.04521172589862172 -0.058862822116714099 0.091436690004359805 -0.012651483526740497
leaf_weight=276.37559947371483 1426.0403537601233 2307.1489041298628 698.42691116034985 1604.5401879101992 584.67572699487209 1418.2286164611578 166.82589167356491 687.15298350155354 414.6509312838316 34.967571333050728 7.5575288832187644
leaf_count=1122 6260 9296 2920 6428 2343 5853 701 2821 1719 146 31
internal_value=0 0.287024 -0.057027 0.397191 -0.419112 -0.634857 -0.289525 -0.637242 -0.842198 -0.747363 -1.16371
internal_weight=0 6620.83 5194.79 2302.97 2891.82 3005.76 1130.35 963.529 1875.4 1453.2 422.208
internal_count=39640 27247 20987 9348 11639 12393 4644 3943 7749 5999 1750
shrinkage=0.05


Tree=8
num_leaves=13
num_cat=0
split_feature=81 81 87 87 15 220 76 76 15 10 13 55
split_gain=1614.49 2742.68 607.034 1196.86 478.665 442.585 408.223 1347.05 100.179 81.6864 17.2192 4.22471
threshold=1.0000000180025095e-35 0.99995048850461588 0.99975439783188735 1.0000000180025095e-35 998.74215492076053 0.99999723166213117 0.99987377275471911 1.0000000180025095e-35 500.00166666666672 1.0000487847809636 7.9990707954880813 1.0000000180025095e-35
decision_type=2 2 2 2 2 2 2 2 2 2 2 2
left_child=2 -2 3 8 5 -3 7 -4 -1 -6 -8 -5
right_child=1 4 6 11 9 -7 10 -9 -10 -11 -12 -13
leaf_value=-0.00016411598636575594 0.077784774029583767 0.021273625220648375 -0.027040686983390752 0.095611507887658029 -0.047892644191103603 -0.04508893411287046 -0.046204384031145872 0.091346903375335964 -0.039676808812615906 -0.019142091807384836 -0.059608722763306698 0.078648961662045228
leaf_weight=270.54562011361122 1484.6011748164892 1406.0539295375347 2873.9030083864927 189.45948845148087 517.97689527273178 304.56621004641056 684.40495212376118 261.06881484389305 402.45019809901714 490.973907366395 482.00690957903862 183.36471308767796
leaf_count=1099 6496 5748 11828 762 2106 1240 2812 1107 1634 2008 1989 811
internal_value=0 0.462954 -0.365178 0.317304 -0.133554 0.18819 -0.531381 -0.342798 -0.477813 -0.679688 -1.03665 1.75271
internal_weight=0 4204.17 5347.2 1045.82 2719.57 1710.62 4301.38 3134.97 672.996 1008.95 1166.41 372.824
internal_count=39640 17598 22042 4306 11102 6988 17736 12935 2733 4114 4801 1573
shrinkage=0.05


Tree=9
num_leaves=12
num_cat=0
split_feature=56 56 273 17 96 96 13 146 93 93 239
split_gain=1516.02 2528.6 788.386 1076.37 188.028 683.713 150.597 102.789 48.2618 216.541 3.26608
threshold=1.0000000180025095e-35 0.99997593805284424 1.0000000180025095e-35 -0.99796071166628442 0.99990256883134154 1.0000000180025095e-35 3.9858965823886625 1.0000000180025095e-35 0.99999723166213117 1.0000000180025095e-35 0.3882549771265002
decision_type=2 2 2 2 2 2 2 2 2 2 2
left_child=4 -2 7 -4 5 6 -1 -3 9 -6 -10
right_child=1 2 3 -5 8 -7 -8 -9 10 -11 -12
leaf_value=0.0014472773842676727 0.073851228032641505 -0.049615770889489444 -0.00015109775211487 0.087808561296461696 -0.03804862658784347 0.08126756019133935 -0.042199807049935416 -0.020702038795391904 -0.055413756780615789 0.08710695319690949 -0.010753471992226392
leaf_weight=275.59051901102066 1368.1770152002573 703.70595391094685 3499.363250464201 385.05117139220238 1400.749200835824 161.83188982307911 678.01120595633984 563.41535969078541 406.859694480896 34.281459808349609 7.5024093836545935
leaf_count=1122 6260 2868 14222 1614 5853 701 2821 2283 1719 146 31
internal_value=0 0.2691 -0.0517391 0.171512 -0.593256 -0.267296 -0.590903 -0.736508 -0.789063 -0.699308 -1.09507
internal_weight=0 6519.71 5151.54 3884.41 2964.83 1115.43 953.602 1267.12 1849.39 1435.03 414.362
internal_count=39640 27247 20987 15836 12393 4644 3943 5151 7749 5999 1750
shrinkage=0.05


Tree=10
num_leaves=13
num_cat=0
split_feature=81 81 77 77 15 220 80 80 176 88 10 56
split_gain=1404.13 2448.27 547.563 2142.52 426.68 424.262 233.625 285.185 155.91 135.514 91.8652 15.8574
threshold=1.0000000180025095e-35 0.99995048850461588 1.0000000180025095e-35 0.99996625117671289 610.9100000000002 0.99999723166213117 1.0000000180025095e-35 0.99987735474400352 1.0000000180025095e-35 0.0052566690599682451 1.0000487847809636 0.99997593805284424
decision_type=2 2 2 2 2 2 2 2 2 2 2 2
left_child=2 -2 6 11 5 -3 9 -8 -5 -1 -6 -4
right_child=1 4 3 8 10 -7 7 -9 -10 -11 -12 -13
leaf_value=-0.041942445844316417 0.074802978321529545 0.024866471091564632 0.077664212833182381 -0.03242218434094972 -0.041690150597989251 -0.04186640834621716 0.085172724648542503 -0.018966280298864879 0.0040038659547188462 -0.009032393188689869 -0.013853527911439532 0.097868599295069289
leaf_weight=2154.0871030241251 1426.284447491169 1202.5720475018024 304.17289620637894 1485.7292107343674 622.05677784979343 295.57472471892834 85.400362119078636 273.049769744277 362.88771992921829 371.35687363147736 581.5679274648428 247.1669829338789
leaf_count=8991 6496 4944 1384 6144 2549 1215 369 1120 1503 1536 2394 995
internal_value=0 0.436571 -0.341727 0.0107683 -0.122718 0.23296 -0.635321 0.117471 -0.504927 -0.742569 -0.566084 1.73946
internal_weight=0 4128.06 5283.85 2399.96 2701.77 1498.15 2883.89 358.45 1848.62 2525.44 1203.62 551.34
internal_count=39640 17598 22042 10026 11102 6159 12016 1489 7647 10527 4943 2379
shrinkage=0.05


Tree=11
num_leaves=13
num_cat=0
split_feature=81 81 205 205 15 223 15 77 77 59 76 55
split_gain=1278.98 2283 501.593 1717.72 390.684 364.983 191.851 182.217 932.966 103.57 52.9035 8.93485
threshold=1.0000000180025095e-35 0.99995048850461588 1.0000000180025095e-35 0.99995048850461588 294.49784900380826 1.0000000180025095e-35 407.32023018746219 1.0000000180025095e-35 0.99996625117671289 0.99999723166213117 0.99987377275471911 1.0000000180025095e-35
decision_type=2 2 2 2 2 2 2 2 2 2 2 2
left_child=2 -2 7 11 5 -3 -5 10 -9 -6 -1 -4
right_child=1 4 3 6 9 -7 -8 8 -10 -11 -12 -13
leaf_value=-0.030211721261072008 0.073026543381149028 -0.0050460324463002023 0.094405792022977039 -0.0043804570645859962 -0.010788619993565137 0.051712840016811673 -0.039384300859216098 0.084899041636884304 -0.032269347480920356 -0.037679317855407041 -0.04727923989583438 0.076646509928785841
leaf_weight=957.29234057664871 1388.9024270474911 811.69912454485893 228.60100725293159 766.50895555317402 769.54978732764721 432.83195374906063 807.26254923641682 199.51572535932064 1107.787884503603 682.01680254936218 930.77783147990704 254.15066394209862
leaf_count=4004 6496 3334 930 3194 3173 1793 3377 869 4593 2802 3906 1169
internal_value=0 0.419407 -0.32658 0.0581979 -0.116903 0.29359 -0.447619 -0.574474 -0.285962 -0.469497 -0.773454 1.70675
internal_weight=0 4085 5251.9 2056.52 2696.1 1244.53 1573.77 3195.37 1307.3 1451.57 1888.07 482.752
internal_count=39640 17598 22042 8670 11102 5127 6571 13372 5462 5975 7910 2099
shrinkage=0.05


Tree=12
num_leaves=12
num_cat=0
split_feature=55 55 15 220 227 96 96 15 205 205 81
split_gain=1203.94 2129.77 668.98 732.98 198.76 157.257 523.086 124.395 40.817 289.377 16.3207
threshold=0.99999723166213117 1.0000000180025095e-35 571.35078446600062 0.99999723166213117 0.99999723166213117 0.99990256883134154 1.0000000180025095e-35 251.88552229756291 1.0000000180025095e-35 0.99995048850461588 0.0034149391990482285
decision_type=2 2 2 2 2 2 2 2 2 2 2
left_child=1 2 3 -1 -4 6 7 -2 10 -10 -7
right_child=5 -3 4 -5 -6 8 -8 -9 9 -11 -12
leaf_value=0.029454047239130678 0.0082580175636615509 0.070380502546322735 -0.010129672781996378 -0.032289550938780685 -0.039301739571628552 -0.047796942151506192 0.077122634783129973 -0.036414775594122858 0.089147165338714696 -0.036296261458429145 -0.033614879117413406
leaf_weight=2073.2400092035532 198.57225202023983 1249.3773535788059 1647.8120820969343 624.0859399586916 910.03332524001598 704.99889320135117 140.34862647950649 690.18494574725628 48.486654981970787 622.55833995342255 348.05026639997959
leaf_count=8611 814 6119 6825 2555 3751 3074 641 2931 208 2647 1464
internal_value=0 0.234588 -0.044314 0.302862 -0.410788 -0.554202 -0.243084 -0.527588 -0.73908 -0.540775 -0.863866
internal_weight=0 6504.55 5255.17 2697.33 2557.85 2753.2 1029.11 888.757 1724.09 671.045 1053.05
internal_count=39640 27861 21742 11166 10576 11779 4386 3745 7393 2855 4538
shrinkage=0.05


Tree=13
num_leaves=11
num_cat=0
split_feature=205 205 15 76 76 93 223 146 8 87
split_gain=1051.5 2621.81 467.05 386.769 915.993 365.538 269.085 79.9339 24.8817 12.9473
threshold=1.0000000180025095e-35 0.99995048850461588 407.32023018746219 0.99987377275471911 1.0000000180025095e-35 0.99999723166213117 1.0000000180025095e-35 0.010424442597727459 9.5202887108945298 0.99975439783188735
decision_type=2 2 2 2 2 2 2 2 2 2
left_child=3 -2 5 4 6 -3 -1 -4 9 -5
right_child=1 2 7 8 -6 -7 -8 -9 -10 -11
leaf_value=-0.024370157839489672 0.077810506338531649 0.02181505164487977 -0.038380673835670842 -0.028939023374285569 0.078527811369577788 -0.047705536835526585 0.003110517964574587 -0.011575612021820865 0.038327077461272924 -0.047821325619697617
leaf_weight=2572.7273817062378 1291.502179607749 1227.4631032645702 902.22563444077969 125.92066575586796 280.21329464018345 222.19126871228218 1357.3686556667089 412.29678389430046 7.6242512017488471 781.77342277765274
leaf_count=10857 6005 5247 3821 521 1297 934 5814 1759 32 3353
internal_value=0 0.380465 -0.168879 -0.300937 -0.172459 0.22199 -0.297357 -0.600531 -0.889989 -0.905832
internal_weight=0 4055.68 2764.18 5125.63 4210.31 1449.65 3930.1 1314.52 915.318 907.694
internal_count=39640 17766 11761 21874 17968 6181 16671 5580 3906 3874
shrinkage=0.05


Tree=14
num_leaves=12
num_cat=0
split_feature=56 56 273 90 96 96 13 225 224 224 223
split_gain=1082.07 1945.6 592.117 891.756 143.19 503.572 119.099 92.0112 43.8907 95.6055 29.8319
threshold=1.0000000180025095e-35 0.99997593805284424 1.0000000180025095e-35 0.99956853810825497 0.99990256883134154 1.0000000180025095e-35 4.999270647171099 1.0000000180025095e-35 0.0026245750980576359 0.99997593805284424 1.0000000180025095e-35
decision_type=2 2 2 2 2 2 2 2 2 2 2
left_child=4 -2 7 -4 5 6 -1 -3 10 -10 -6
right_child=1 2 3 -5 8 -7 -8 -9 9 -11 -12
leaf_value=-0.000416944046605043 0.068309278042478661 -0.039832395899036144 0.027943260906089441 -0.02120101665219102 -0.041536134006787337 0.074397252099070624 -0.038049044964665574 -0.0078849203163939372 0.086018146772292234 -0.024319440247469817 -0.026446097700623797
leaf_weight=328.61444288492203 1218.4132830649614 936.04268901050091 2240.8111113607883 1567.3676255792379 1098.0679167509079 147.48618665337563 596.47114300727844 302.97773906588554 21.546796604990959 146.72922122478485 511.68018563091755
leaf_count=1363 6260 3889 9400 6436 4804 701 2580 1262 92 634 2219
internal_value=0 0.23256 -0.0411195 0.154062 -0.510496 -0.220268 -0.495 -0.641465 -0.684788 -0.189425 -0.7358
internal_weight=0 6265.61 5047.2 3808.18 2850.6 1072.57 925.086 1239.02 1778.02 168.276 1609.75
internal_count=39640 27247 20987 15836 12393 4644 3943 5151 7749 726 7023
shrinkage=0.05


Tree=15
num_leaves=13
num_cat=0
split_feature=81 81 96 96 15 220 13 88 88 80 59 56
split_gain=1015.04 1927.88 420.988 1412.56 322.099 299.528 247.109 125.721 247.299 121.682 60.9496 14.8909
threshold=1.0000000180025095e-35 0.99995048850461588 0.99990256883134154 1.0000000180025095e-35 1007.7271317562144 0.99999723166213117 4.999270647171099 0.0091450949017961598 0.99994488409908888 0.0032773639762837541 0.99999723166213117 0.99997593805284424
decision_type=2 2 2 2 2 2 2 2 2 2 2 2
left_child=2 -2 3 6 5 -3 -1 9 -9 -4 -6 -5
right_child=1 4 7 11 10 -7 -8 8 -10 -11 -12 -13
leaf_value=0.0068680366278256926 0.069465830593340355 0.017734356801559222 -0.035448117612855143 0.06957199411586211 -0.015297018068298841 -0.037565127881474647 -0.030819538538410247 0.07978923113379055 -0.023621636581951988 0.0047889560103772768 -0.040662932053318342 0.090845980666891937
leaf_weight=654.80224537849426 1280.3432182073593 1388.8178249746561 2200.9346165508032 245.32507993280888 478.89304991066456 295.88565103709698 1281.3455867469311 75.65370774269104 233.95994564890862 202.81723269820213 488.89895002543926 210.55600988864899
leaf_count=2735 6496 5800 9522 1237 2008 1243 5496 345 978 866 2051 863
internal_value=0 0.382033 -0.29384 0.0116097 -0.104139 0.159518 -0.361018 -0.56339 0.0332247 -0.640635 -0.563829 1.59369
internal_weight=0 3932.84 5105.39 2392.03 2652.5 1684.7 1936.15 2713.37 309.614 2403.75 967.792 455.881
internal_count=39640 17598 22042 10331 11102 7043 8231 11711 1323 10388 4059 2100
shrinkage=0.05


Tree=16
num_leaves=12
num_cat=0
split_feature=56 56 15 220 10 96 96 13 224 224 13
split_gain=936.098 1758.23 524.811 549.036 161.365 121.006 439.884 102.713 40.326 84.6363 27.1774
threshold=1.0000000180025095e-35 0.99997593805284424 851.94100000000014 0.99999723166213117 1.0000487847809636 0.99990256883134154 1.0000000180025095e-35 3.9858965823886625 0.0026245750980576359 0.99997593805284424 3.9858965823886625
decision_type=2 2 2 2 2 2 2 2 2 2 2
left_child=5 -2 3 -3 -4 6 7 -1 10 -10 -7
right_child=1 2 4 -5 -6 8 -8 -9 9 -11 -12
leaf_value=0.0023959477620875032 0.066519095801711697 0.024018772848066097 -0.034113318061634389 -0.029696025907983866 -0.0069263493236844456 -0.028422824516518553 0.071620887258299668 -0.034087529039750479 0.082667406848544456 -0.02217239965620409 -0.042061895894303376
leaf_weight=271.89552865922451 1154.2841754555702 2200.3270792216063 1071.159761428833 605.25743134319782 1124.4515925049782 881.94201941788197 140.0937247723341 641.94650758802891 21.092643067240715 144.58820870518684 698.07751093804836
leaf_count=1122 6260 9257 4494 2509 4727 3917 701 2821 92 634 3106
internal_value=0 0.218462 -0.0381851 0.248129 -0.404443 -0.478886 -0.209631 -0.463744 -0.640659 -0.16219 -0.690064
internal_weight=0 6155.48 5001.2 2805.58 2195.61 2799.64 1053.94 913.842 1745.7 165.681 1580.02
internal_count=39640 27247 20987 11766 9221 12393 4644 3943 7749 726 7023
shrinkage=0.05


Tree=17
num_leaves=13
num_cat=0
split_feature=81 81 87 87 15 220 76 76 15 15 13 56
split_gain=887.557 1760.44 383.94 796.428 283.492 315.908 245.827 885.117 77.8201 68.5878 12.5563 2.37825
threshold=1.0000000180025095e-35 0.99995048850461588 0.99975439783188735 1.0000000180025095e-35 294.49784900380826 0.99999723166213117 0.99987377275471911 1.0000000180025095e-35 2413.6323855664114 3188.1492857142862 7.9990707954880813 0.99997593805284424
decision_type=2 2 2 2 2 2 2 2 2 2 2 2
left_child=2 -2 3 9 5 -3 7 -4 -6 -1 -8 -5
right_child=1 4 6 11 8 -7 10 -9 -10 -11 -12 -13
leaf_value=-0.0052903559426686515 0.067783948204041419 0.026728438477035772 -0.021098504587363648 0.068929665724997841 -0.010744100819025885 -0.033819121084984291 -0.036029680981148997 0.080416893779745591 -0.034976355543813169 -0.039115707542084661 -0.047920371662515421 0.084306547801471954
leaf_weight=411.59714113175869 1217.5295261740685 935.55481359362602 2730.9177730381489 157.85021185874939 870.14311987161636 278.27481341362 643.04250647127628 231.90821632742882 544.450663164258 238.89628665149212 442.97558459639549 172.59468701481819
leaf_count=1722 6496 3942 11828 850 3669 1185 2812 1107 2306 1011 1989 723
internal_value=0 0.362089 -0.275987 0.284502 -0.0981181 0.255802 -0.412064 -0.262226 -0.402482 -0.356611 -0.819308 1.54684
internal_weight=0 3845.95 5029.78 980.938 2628.42 1213.83 4048.84 2962.83 1414.59 650.493 1086.02 330.445
internal_count=39640 17598 22042 4306 11102 5127 17736 12935 5975 2733 4801 1573
shrinkage=0.05


Tree=18
num_leaves=15
num_cat=0
split_feature=205 205 15 81 81 94 176 176 15 96 146 56 56 81
split_gain=813.098 2127.71 347.231 335.171 937.721 293.617 146.264 432.77 115.186 93.6028 74.8232 13.6796 3.63249 2.61843
threshold=1.0000000180025095e-35 0.99995048850461588 251.88552229756291 1.0000000180025095e-35 0.99995048850461588 1.0000000180025095e-35 1.0000000180025095e-35 0.99997593805284424 100.00166666666668 0.99990256883134154 1.0000000180025095e-35 0.99997593805284424 1.0000000180025095e-35 0.99995048850461588
decision_type=2 2 2 2 2 2 2 2 2 2 2 2 2 2
left_child=3 11 5 6 -5 -3 9 -8 -6 -1 -4 12 -2 -13
right_child=1 2 10 4 8 -7 7 -9 -10 -11 -12 13 -14 -15
leaf_value=-0.017808404014469363 0.077692202582831132 -0.043145729734194858 -0.032892945524956016 0.067341171187203383 0.002157348827482052 0.021628209571206758 0.084668150512514473 -0.02408734637323913 -0.026793338713033001 -0.037315373723416194 -0.0077778714438123068 0.076401604102880674 0.063909295411412881 0.090866798989455211
leaf_weight=1128.6938103735447 137.63057367503643 207.06450325250626 930.97764302790165 436.50501872599125 541.66787883639336 1089.02478300035 117.13879719376564 404.19626770913601 923.6219154894352 1396.147746950388 444.59757424890995 437.98437722027302 466.06505298614502 128.27260442078114
leaf_count=4913 672 903 4088 2351 2277 4812 532 1742 3874 6185 1958 2052 2758 523
internal_value=0 0.345769 -0.146469 -0.267334 0.0615843 0.224321 -0.472967 0.00737039 -0.32126 -0.572507 -0.496468 1.46985 1.34515 1.59842
internal_weight=0 3841.62 2671.66 4947.97 1901.79 1296.09 3046.18 521.335 1465.29 2524.84 1375.58 1169.95 603.696 566.257
internal_count=39640 17766 11761 21874 8502 5715 13372 2274 6151 11098 6046 6005 3430 2575
shrinkage=0.05


Tree=19
num_leaves=12
num_cat=0
split_feature=56 56 273 17 224 224 15 225 223 223 225
split_gain=769.296 1539.96 448.326 757.236 108.086 245.682 112.001 80.0746 66.555 362.992 48.8399
threshold=1.0000000180025095e-35 0.99997593805284424 1.0000000180025095e-35 -0.99796071166628442 1.0000000180025095e-35 0.99997593805284424 238.89652234832366 1.0000000180025095e-35 1.0000000180025095e-35 0.99994488409908888 0.037582724350453962
decision_type=2 2 2 2 2 2 2 2 2 2 2
left_child=4 -2 7 -4 8 -6 -7 -3 10 -10 -1
right_child=1 2 3 -5 5 6 -8 -9 9 -11 -12
leaf_value=-0.03781473848684036 0.064534622003100423 -0.035566929697830423 -0.00034364409620217415 0.077486017092251017 0.076339766226848182 0.047444388421785277 -0.031990963421070502 -0.0053956734517974564 0.081363476753793185 -0.026072898114656552 -0.017257220583791418
leaf_weight=1105.8634707331657 1065.6000901311636 909.87397158145905 3366.9803877770901 343.35972295701504 86.123897388577461 52.059778064489365 261.38693185150623 295.83930872380733 87.036658778786659 724.79332947731018 408.70939302444458
leaf_count=5039 6260 3889 14222 1614 428 218 1180 1262 421 3255 1852
internal_value=0 0.201448 -0.0346669 0.137286 -0.439406 0.0386646 -0.370595 -0.56432 -0.521927 -0.288143 -0.646306
internal_weight=0 5981.65 4916.05 3710.34 2725.97 399.571 313.447 1205.71 2326.4 811.83 1514.57
internal_count=39640 27247 20987 15836 12393 1826 1398 5151 10567 3676 6891
shrinkage=0.05


Tree=20
num_leaves=14
num_cat=0
split_feature=205 205 15 273 17 93 90 146 146 146 8 56 56
split_gain=715.483 1920.74 310.447 274.211 751.168 250.461 222.43 55.186 50.8029 175.448 16.9344 10.8886 2.62896
threshold=1.0000000180025095e-35 0.99995048850461588 407.32023018746219 1.0000000180025095e-35 -0.99796071166628442 0.99999723166213117 0.99956853810825497 0.010424442597727459 1.0000000180025095e-35 0.99997593805284424 5.9428723641827021 0.99997593805284424 1.0000000180025095e-35
decision_type=2 2 2 2 2 2 2 2 2 2 2 2 2
left_child=3 11 5 8 6 -3 -5 -4 10 -10 -1 12 -2
right_child=1 2 7 4 -6 -7 -8 -9 9 -11 -12 -13 -14
leaf_value=-0.040679936716187054 0.075257193326160488 0.018492073596202797 -0.031973487386331378 0.0016244751581387246 0.073846085964179728 -0.040545316771549211 -0.024377417843997027 -0.0091709499264636275 0.080741901943343727 -0.028158258185407077 0.023496071881853396 0.077371396910275517 0.062204961484350133
leaf_weight=807.37311033904552 132.46719805896282 1177.9651585519314 856.95933957397938 1558.6843699961901 274.77592469751835 210.60266357660294 1732.0859478414059 395.74145840108395 39.130936160683632 450.42076031863689 8.8147711455821973 549.71825410425663 432.47892273962498
leaf_count=3650 672 5247 3821 6948 1411 934 7677 1759 192 1956 40 2575 2758
internal_value=0 0.328834 -0.135478 -0.251933 -0.107945 0.189584 -0.240992 -0.496457 -0.643968 -0.384097 -0.797955 1.42908 1.30963
internal_weight=0 3755.93 2641.27 4871.29 3565.55 1388.57 3290.77 1252.7 1305.74 489.552 816.188 1114.66 564.946
internal_count=39640 17766 11761 21874 16036 6181 14625 5580 5838 2148 3690 6005 3430
shrinkage=0.05


Tree=21
num_leaves=12
num_cat=0
split_feature=96 96 13 93 93 15 146 221 176 176 218
split_gain=671.644 2027.53 366.534 227.264 541.286 298.507 175.388 104.069 21.1102 78.8509 8.61615
threshold=0.99990256883134154 1.0000000180025095e-35 4.999270647171099 0.99999723166213117 1.0000000180025095e-35 85.492914172548694 1.0000000180025095e-35 0.99995121521903674 0.003993398764898016 0.99997593805284424 0.0032076211999546027
decision_type=2 2 2 2 2 2 2 2 2 2 2
left_child=1 2 7 4 5 -2 -4 -1 10 -10 -5
right_child=3 -3 6 8 -6 -7 -8 -9 9 -11 -12
leaf_value=0.017727767498483579 0.0056067649896379846 0.071308032373610289 -0.032257885316826725 -0.044301242703302289 0.074559409824404677 -0.025008880026290415 -0 -0.046549727614113717 0.078439724749724063 -0.03266795398106364 -0.028089769089287005
leaf_weight=1171.4034372270107 1316.1149390488863 1136.4656491726637 1195.2427699267864 541.02143806219101 185.93032538890839 2004.3588171154261 653.15425287187099 65.21489155292511 16.826742842793465 140.95534180104733 127.8989106118679
leaf_count=5193 5903 6139 5375 2479 969 9087 2949 268 83 625 570
internal_value=0 0.284887 -0.13554 -0.275497 -0.163823 -0.257217 -0.417604 0.285255 -0.747177 -0.401691 -0.826455
internal_weight=0 4221.48 3085.02 4333.11 3506.4 3320.47 1848.4 1236.62 826.702 157.782 668.92
internal_count=39640 19924 13785 19716 15959 14990 8324 5461 3757 708 3049
shrinkage=0.05


Tree=22
num_leaves=12
num_cat=0
split_feature=56 56 15 220 87 224 224 15 221 221 60
split_gain=638.187 1365.45 380.449 498.395 174.508 93.6929 209.854 95.5184 57.0073 205.095 13.6363
threshold=1.0000000180025095e-35 0.99997593805284424 238.89652234832366 0.99999723166213117 0.99975439783188735 1.0000000180025095e-35 0.99997593805284424 238.89652234832366 0.99995121521903674 0.0016833473583657279 0.26470422654707426
decision_type=2 2 2 2 2 2 2 2 2 2 2
left_child=5 -2 3 -3 -4 8 -7 -8 9 -1 -10
right_child=1 2 4 -5 -6 6 7 -9 10 -11 -12
leaf_value=-0.02335022323353934 0.062868019310570164 0.029260896061431396 0.010640968502188188 -0.0255821517978361 -0.020338357557570907 0.073517829088214914 0.044213429581761034 -0.029229182580449681 -0.045378283751914883 0.082792546762844449 0.0072898261081142963
leaf_weight=1893.6151582896709 987.44069316983223 1529.6042584478855 571.75587053596973 566.21082755923271 2173.2589697688818 81.012267999351025 52.174305379390717 254.57576470077038 319.06215640902519 45.477339766919613 10.82499162852764
leaf_count=8828 6260 6674 2489 2405 9419 428 218 1180 1464 226 49
internal_value=0 0.186272 -0.0322184 0.288308 -0.27732 -0.405 0.046821 -0.32944 -0.482642 -0.415874 -0.869642
internal_weight=0 5828.27 4840.83 2095.82 2745.01 2656.74 387.762 306.75 2268.98 1939.09 329.887
internal_count=39640 27247 20987 9079 11908 12393 1826 1398 10567 9054 1513
shrinkage=0.05


Tree=23
num_leaves=13
num_cat=0
split_feature=81 81 77 77 15 221 80 80 176 87 10 56
split_gain=637.824 1389.44 294.809 1241.95 199.554 195.127 135.392 164.615 99.6825 87.8749 48.0108 4.09625
threshold=1.0000000180025095e-35 0.99995048850461588 1.0000000180025095e-35 0.99996625117671289 1007.7271317562144 0.99995121521903674 1.0000000180025095e-35 0.99987735474400352 1.0000000180025095e-35 0.99975439783188735 1.0000487847809636 0.99997593805284424
decision_type=2 2 2 2 2 2 2 2 2 2 2 2
left_child=2 -2 6 11 5 -3 9 -8 -5 -1 -6 -4
right_child=1 4 3 8 10 -7 7 -9 -10 -11 -12 -13
leaf_value=-0.0053175611223532319 0.064202322546749166 0.013387518493713745 0.067502950990179875 -0.023703944465726184 -0.033785960220655463 -0.037286687515359282 0.073518785413523469 -0.011745030080168804 0.0063930998732737365 -0.031823620189545515 -0.010768559919023084 0.081755131325152205
leaf_weight=379.81034442782402 1054.5164943933487 1407.6007567644119 228.28577861189842 1381.121498093009 469.52549342811108 218.26481780409813 71.179128229618073 259.57758821547031 339.9767698943615 1914.8876122385263 455.68242762982845 228.71587757766247
leaf_count=1693 6496 6133 1384 6144 2072 910 369 1120 1503 8834 1987 995
internal_value=0 0.319047 -0.237372 0.0341984 -0.0798014 0.130705 -0.462977 0.132388 -0.354589 -0.549249 -0.450546 1.49816
internal_weight=0 3605.59 4803.55 2178.1 2551.07 1625.87 2625.45 330.757 1721.1 2294.7 925.208 457.002
internal_count=39640 17598 22042 10026 11102 7043 12016 1489 7647 10527 4059 2379
shrinkage=0.05


Tree=24
num_leaves=12
num_cat=0
split_feature=81 81 176 176 15 220 220 220 59 15 239
split_gain=582.271 1311.43 273.559 562.771 186.537 262.327 174.228 410.141 76.6318 67.3915 7.42305
threshold=1.0000000180025095e-35 0.99995048850461588 1.0000000180025095e-35 0.99997593805284424 100.00166666666668 0.99999723166213117 0.99999723166213117 0.0044063762741154986 0.99999723166213117 201.36875000000001 0.05832144106492871
decision_type=2 2 2 2 2 2 2 2 2 2 2
left_child=2 -2 6 -4 5 -3 7 -1 -6 -5 -8
right_child=1 4 3 9 8 -7 10 -9 -10 -11 -12
leaf_value=-0.015791626937569161 0.0633408757613418 0.027706239981211973 0.07559226386409873 0.0045913968629050219 -0.0045567294496726835 -0.029861422702733245 -0.040599537298587562 0.077740883245904974 -0.027168293935349686 -0.027268337053823994 -0.0048073431264225013
leaf_weight=3023.4767773747444 1016.3949980437756 757.19945624470711 258.09797871112823 327.52532140910625 827.76518385112286 266.17069959640503 684.35358123481274 120.79837667196989 694.15089944005013 330.44087259471416 18.343398630619049
leaf_count=13866 6496 3294 1333 1445 3604 1166 3206 628 3038 1483 81
internal_value=0 0.307122 -0.227347 0.262934 -0.0760619 0.2534 -0.344393 -0.243176 -0.298277 -0.227006 -0.794888
internal_weight=0 3561.68 4763.04 916.064 2545.29 1023.37 3846.97 3144.28 1521.92 657.966 702.697
internal_count=39640 17598 22042 4261 11102 4460 17781 14494 6642 2928 3287
shrinkage=0.05


Tree=25
num_leaves=15
num_cat=0
split_feature=205 205 15 227 227 93 13 146 146 146 15 55 55 81
split_gain=553.895 1599.43 226.616 217.536 806.603 185.016 152.507 48.6222 224.27 42.947 18.4669 5.36365 1.635 0.798977
threshold=1.0000000180025095e-35 0.99995048850461588 407.32023018746219 0.99999723166213117 1.0000000180025095e-35 0.99999723166213117 6.9772455692875583 1.0000000180025095e-35 0.99997593805284424 0.010424442597727459 100.00166666666668 1.0000000180025095e-35 0.99999723166213117 0.99995048850461588
decision_type=2 2 2 2 2 2 2 2 2 2 2 2 2 2
left_child=3 11 5 4 6 -3 -1 10 -9 -4 -5 13 -13 -2
right_child=1 2 9 7 -6 -7 -8 8 -10 -11 -12 12 -14 -15
leaf_value=-0.0038834932957235329 0.070009969767484997 0.015919635640119417 -0.028190759198192111 -0.021747147087020833 0.074911232150941726 -0.035936944629042254 -0.029001827370807334 0.074664180670478683 -0.02524970097699485 -0.0077278055665025826 -0.037789122296554623 0.059867870471156097 0.072798202512881341 0.082441790889886679
leaf_weight=1936.6798618882895 403.34335170686245 1140.5757272616029 824.20323127508163 273.39425423741341 295.59192046523094 201.13557189702988 881.56839969009161 61.313055343925953 555.21543392539024 384.42742356657982 692.91730605810881 362.48692595213652 111.52674401551485 122.66180950403214
leaf_count=8885 2175 5247 3821 1233 1607 934 4076 332 2491 1759 3250 2692 615 523
internal_value=0 0.299455 -0.120582 -0.223874 -0.0700068 0.161752 -0.235318 -0.525704 -0.302552 -0.434705 -0.666586 1.37072 1.26325 1.4631
internal_weight=0 3550.36 2550.34 4696.68 3113.84 1341.71 2818.25 1582.84 616.528 1208.63 966.312 1000.02 474.014 526.005
internal_count=39640 17766 11761 21874 14568 6181 12961 7306 2823 5580 4483 6005 3307 2698
shrinkage=0.05


Tree=26
num_leaves=12
num_cat=0
split_feature=76 76 273 17 146 87 87 13 232 225 94
split_gain=505.323 959.065 403.415 742.264 81.6193 37.327 63.8063 13.2681 11.4844 11.4463 8.04986
threshold=0.99987377275471911 1.0000000180025095e-35 1.0000000180025095e-35 -0.99796071166628442 0.0043146209060841443 0.99975439783188735 0.0029102118949686511 13.908314978617755 0.088497785482407013 0.037582724350453962 0.06622686905040194
decision_type=2 2 2 2 2 2 2 2 2 2 2
left_child=1 2 4 -4 -1 6 7 -2 9 -7 -10
right_child=5 -3 3 -5 -6 8 -8 -9 10 -11 -12
leaf_value=-0.035311087472377455 -0.010896652884900179 0.068581438416312313 0.00045233510804828717 0.069152671693287052 -0.01053718082297201 -0.037804556401155598 0.070005217510966153 -0.044919377269824971 -0.033601929732779132 -0.02175616048099218 0.0014137097233150406
leaf_weight=757.08249919116497 120.37189902365208 548.93340670317411 4644.4896641597152 428.69159324467182 606.96519187837839 788.6063583791256 21.335215747356415 40.08512370288372 24.602099806070328 154.04214796423912 38.602963864803314
leaf_count=3575 517 3319 21863 2523 2750 3772 112 180 120 732 177
internal_value=0 0.104065 -0.00406732 0.125599 -0.486796 -0.601232 -0.175553 -0.398628 -0.676923 -0.705217 -0.234964
internal_weight=0 6986.16 6437.23 5073.18 1364.05 1187.65 181.792 160.457 1005.85 942.649 63.2051
internal_count=39640 34030 30711 24386 6325 5610 809 697 4801 4504 297
shrinkage=0.05


Tree=27
num_leaves=14
num_cat=0
split_feature=96 96 13 81 81 247 176 176 225 223 80 56 81
split_gain=519.437 1628.86 278.792 190.16 594.041 145.415 88.1187 209.967 74.2778 66.6748 57.8462 10.7853 2.03229
threshold=0.99990256883134154 1.0000000180025095e-35 3.9858965823886625 1.0000000180025095e-35 0.99995048850461588 0.99995121521903674 1.0000000180025095e-35 0.99997593805284424 0.0046932042226402468 1.0000000180025095e-35 0.0032773639762837541 0.99997593805284424 0.99995048850461588
decision_type=2 2 2 2 2 2 2 2 2 2 2 2 2
left_child=1 2 8 6 -5 -4 10 -8 -1 -6 -2 -3 -13
right_child=3 11 5 4 9 -7 7 -9 -10 -11 -12 12 -14
leaf_value=0.0080676279141545498 -0.027928202928299607 0.061475952937594093 0.00032386948709122018 0.062361864699124192 -0.022125993470484693 -0.027441305174822142 0.075940676142711314 -0.016291857096220885 0.040003602839300552 0.00086673782079040018 0.0021400791230257086 0.070224156700389284 0.083603995514227147
leaf_weight=756.73914206027985 1877.9181925430894 476.73054857552052 772.25002609193325 316.1356408521533 854.95325377583504 1196.016599804163 73.33302365988493 362.00510642677546 241.78341691195965 492.58786554634571 171.33849203586578 392.55664309114218 132.9659633487463
leaf_count=3377 8905 3433 3744 2101 3735 5494 386 1637 1170 2169 783 2137 569
internal_value=0 0.26012 -0.112015 -0.245869 0.0152121 -0.330552 -0.421027 -0.0100439 0.317659 -0.273792 -0.5078 1.36169 1.47714
internal_weight=0 3969.04 2966.79 4148.27 1663.68 1968.27 2484.59 435.338 998.523 1347.54 2049.26 1002.25 525.523
internal_count=39640 19924 13785 19716 8005 9238 11711 2023 4547 5904 9688 6139 2706
shrinkage=0.05


Tree=28
num_leaves=12
num_cat=0
split_feature=93 93 15 221 87 176 176 65 217 15 232
split_gain=474.411 769.583 431.721 370.265 234.148 15.6244 77.4301 12.5758 9.0231 34.2017 5.34943
threshold=0.99999723166213117 1.0000000180025095e-35 100.00166666666668 0.99995121521903674 0.99975439783188735 0.003993398764898016 0.99997593805284424 0.02050485028936572 0.99999723166213117 0.02008407261451289 0.029795560282597059
decision_type=2 2 2 2 2 2 2 2 2 2 2
left_child=1 2 3 -1 -4 8 -7 -8 9 -2 -10
right_child=5 -3 4 -5 -6 6 7 -9 10 -11 -12
leaf_value=0.0270598540781746 0.023333403435163005 0.070483354242174598 0.015433215004339943 -0.028356744149225822 -0.01423325117643575 0.072487473323460602 -0.037646542064002149 -0.005102271668988881 -0.041674119684878247 -0.03301739238372238 -0.027991110092868168
leaf_weight=1900.2283860966563 28.870628006756306 417.0023211017251 816.464957639575 356.52420188486576 3542.1182058304548 19.708102211356163 124.91509011387825 44.196631267666817 442.38603690266609 220.21653186529875 128.23141399770975
leaf_count=9452 131 2504 4111 1587 17169 111 573 199 2160 1020 623
internal_value=0 0.0937164 0.0104129 0.365485 -0.173246 -0.639348 -0.365588 -0.590303 -0.700668 -0.524378 -0.774821
internal_weight=0 7032.34 6615.34 2256.75 4358.58 1008.52 188.82 169.112 819.705 249.087 570.617
internal_count=39640 34823 32319 11039 21280 4817 883 772 3934 1151 2783
shrinkage=0.05


Tree=29
num_leaves=14
num_cat=0
split_feature=96 96 13 81 81 247 234 234 14 223 15 56 81
split_gain=459.456 1504.33 244.601 167.942 542.983 142.258 76.856 369.935 73.1814 58.5215 15.1569 7.71148 0.402783
threshold=0.99990256883134154 1.0000000180025095e-35 4.999270647171099 1.0000000180025095e-35 0.99995048850461588 0.99995121521903674 0.99996625117671289 1.0000000180025095e-35 1964.0530000000001 1.0000000180025095e-35 0.040067171239989333 0.99997593805284424 0.99995048850461588
decision_type=2 2 2 2 2 2 2 2 2 2 2 2 2
left_child=1 2 8 6 -5 -4 7 -2 -1 -6 -8 -3 -13
right_child=3 11 5 4 9 -7 10 -9 -10 -11 -12 12 -14
leaf_value=0.017543777146483797 -0.020188358087304327 0.060653345089340165 -0.00036870678479672956 0.061399117699193644 -0.020814556278306858 -0.029284959067411704 -0.024021606770447967 0.078331718545393392 -0.016078804354858874 0.00077454437924485314 -0.041706890331556445 0.068660680006781147 0.080382971526750724
leaf_weight=1000.8397229090333 1756.4106857255101 452.85413076728582 734.79763270169497 300.39232002198696 848.72260041534901 1020.6925632357597 210.26938518881798 99.599668942391872 190.67782033979893 490.75210357457399 385.04247100651264 376.16479844599962 129.75276249647141
leaf_count=4605 8345 3433 3573 2101 3735 4751 990 514 856 2169 1862 2137 569
internal_value=0 0.24694 -0.106834 -0.232517 0.0146204 -0.34434 -0.398192 -0.296704 0.242246 -0.257457 -0.711898 1.33437 1.43837
internal_weight=0 3905.78 2947.01 4091.19 1639.87 1755.49 2451.32 1856.01 1191.52 1339.47 595.312 958.772 505.918
internal_count=39640 19924 13785 19716 8005 8324 11711 8859 5461 5904 2852 6139 2706
shrinkage=0.05


Tree=30
num_leaves=12
num_cat=0
split_feature=56 56 15 220 10 224 224 15 221 221 60
split_gain=419.268 1064.62 256.923 285.678 86.4462 75.2776 152.336 72.5892 44.2473 151.642 12.1725
threshold=1.0000000180025095e-35 0.99997593805284424 1007.7271317562144 0.99999723166213117 1.0000487847809636 1.0000000180025095e-35 0.99997593805284424 238.89652234832366 0.99995121521903674 0.0016833473583657279 0.26470422654707426
decision_type=2 2 2 2 2 2 2 2 2 2 2
left_child=5 -2 3 -3 -4 8 -7 -8 9 -1 -10
right_child=1 2 4 -5 -6 6 7 -9 10 -11 -12
leaf_value=-0.019604212552446598 0.060313939601021174 0.016845263621698567 -0.026465177640923751 -0.022976451354065314 -0.0050534496947624904 0.069643288162297229 0.041116859527311776 -0.023543497682305931 -0.039951128512254248 0.077364613395334181 0.010658997695764047
leaf_weight=1786.4471237286925 820.85689256340265 2133.4343957155943 928.36047421395779 569.04241150617599 971.86032133549452 70.463143363595009 51.626190930604935 238.78678913414478 298.66039760410786 40.087988056242466 10.376337170600889
leaf_count=8828 6260 9759 4257 2528 4443 428 218 1180 1464 226 49
internal_value=0 0.157856 -0.0291263 0.168728 -0.310979 -0.337288 0.0826433 -0.235514 -0.408722 -0.348149 -0.761233
internal_weight=0 5423.55 4602.7 2702.48 1900.22 2496.45 360.876 290.413 2135.57 1826.54 309.037
internal_count=39640 27247 20987 12287 8700 12393 1826 1398 10567 9054 1513
shrinkage=0.05


Tree=31
num_leaves=14
num_cat=0
split_feature=205 205 221 221 15 227 220 146 232 12 3 56 56
split_gain=426.621 1322.68 170.771 288.459 170.054 162.684 159.47 57.2048 7.21229 10.7202 3.51388 2.54484 0.675065
threshold=1.0000000180025095e-35 0.99995048850461588 0.99995121521903674 1.0000000180025095e-35 100.00166666666668 0.99999723166213117 0.99999723166213117 1.0000000180025095e-35 0.014559908757468156 81.4380613946566 3.8955791342466051 0.99997593805284424 1.0000000180025095e-35
decision_type=2 2 2 2 2 2 2 2 2 2 2 2 2
left_child=2 11 3 5 6 -1 -3 -6 10 -10 -4 12 -2
right_child=1 4 8 -5 7 -7 -8 -9 9 -11 -12 -13 -14
leaf_value=-0.0017542640243023715 0.069781807204331123 0.021201439784163893 -0.045787856820818353 0.069939546253962995 -0.024027612931802028 -0.02307739772448366 -0.022625687306516859 -0.0023837670540681824 -0.057662564099800175 -0.019613621770734405 -0.0038225353989896531 0.070078130245449829 0.057914279634793613
leaf_weight=2604.7531863749027 109.46198358386755 790.15878120064735 290.22862198203802 117.76070777326822 921.72082602977753 1366.1547267884016 279.53277453035116 464.64068891108036 25.735274270176888 96.846982948482037 7.9262081682682028 460.76643957942724 315.66313839703798
leaf_count=12618 672 3818 1382 714 4418 6571 1323 2202 116 431 42 2575 2758
internal_value=0 0.272532 -0.198852 -0.136028 -0.105039 -0.182137 0.193827 -0.336333 -0.805223 -0.568165 -0.897118 1.31938 1.22488
internal_weight=0 3341.94 4509.41 4088.67 2456.05 3970.91 1069.69 1386.36 420.737 122.582 298.155 885.892 425.125
internal_count=39640 17766 21874 19903 11761 19189 5141 6620 1971 547 1424 6005 3430
shrinkage=0.05


Tree=32
num_leaves=13
num_cat=0
split_feature=96 96 13 81 81 247 221 176 176 59 80 56
split_gain=391.202 1345.34 206.846 140.24 480.965 127.736 77.5129 74.542 173.379 50.7526 49.2354 5.56915
threshold=0.99990256883134154 1.0000000180025095e-35 4.999270647171099 1.0000000180025095e-35 0.99995048850461588 0.99995121521903674 0.99995121521903674 1.0000000180025095e-35 0.99997593805284424 0.99999723166213117 0.0032773639762837541 0.99997593805284424
decision_type=2 2 2 2 2 2 2 2 2 2 2 2
left_child=1 2 6 7 -5 -4 -1 10 -9 -6 -2 -3
right_child=3 11 5 4 9 -7 -8 8 -10 -11 -12 -13
leaf_value=0.014343410743900898 -0.024946356325669248 0.05945027663461603 2.0382845267816937e-06 0.060341016448007136 -0.0026814981719342013 -0.02749084312610536 -0.041837664153050957 0.072892401955080316 -0.013546027383487123 -0.022405251768557215 0.0031102313049294469 0.069991986502799045
leaf_weight=1112.701793000102 1808.4403720349073 411.58981645852327 723.74690315127373 277.67231264710426 705.38016868382692 1001.8867188990116 63.623061850667 68.380153067409992 352.79245757311583 616.84497480839491 167.50448040664196 480.50257899612188
leaf_count=5193 8905 3433 3573 2101 3130 4751 268 386 1637 2774 783 2706
internal_value=0 0.231785 -0.0981628 -0.216466 0.0122212 -0.318756 0.224587 -0.369457 0.0101761 -0.238616 -0.450846 1.30513
internal_weight=0 3794.05 2901.96 3997.01 1599.9 1725.63 1176.32 2397.12 421.173 1322.23 1975.94 892.092
internal_count=39640 19924 13785 19716 8005 8324 5461 11711 2023 5904 9688 6139
shrinkage=0.05


Tree=33
num_leaves=14
num_cat=0
split_feature=205 205 10 10 13 10 93 15 217 146 146 56 56
split_gain=374.867 1209.05 160.488 699.123 159.546 155.007 138.903 71.0133 77.0784 55.3737 36.2075 1.00791 0.0613512
threshold=1.0000000180025095e-35 0.99995048850461588 1.0000487847809636 1.9998795580064164 2.9809475619689798 2.0000623265902084 0.99999723166213117 100.00166666666668 0.99999723166213117 0.0043146209060841443 1.0000000180025095e-35 0.99997593805284424 1.0000000180025095e-35
decision_type=2 2 2 2 2 2 2 2 2 2 2 2 2
left_child=2 11 7 -4 6 -5 -3 8 -1 -6 -9 12 -2
right_child=1 4 3 5 9 -7 -8 10 -10 -11 -12 -13 -14
leaf_value=0.011373293642295787 0.068567337585136501 0.016786222507707994 0.071184692534463287 -0.021539090641804193 -0.024512653368230733 0.0075406714926823486 -0.03054586080487497 -0.032501281402026114 -0.018810254754761294 -0.0029648260344690954 -0.013904182410049305 0.068458502466133789 0.057297316985892882
leaf_weight=319.43328706920147 103.83703715354204 935.71558853238821 298.40780431032181 1242.8314583972096 833.49850412458181 721.71892724186182 184.2163834348321 864.83399484306574 613.94058208167553 473.15359874814749 394.54138716310263 436.51713026314974 295.45061345398426
leaf_count=1502 672 4547 1824 5859 4055 3560 916 4225 2995 2243 1909 2575 2758
internal_value=0 0.259428 -0.186645 0 -0.0975887 -0.216644 0.178714 -0.37938 -0.168515 -0.335128 -0.534609 1.29602 1.21034
internal_weight=0 3262.39 4455.71 2262.96 2426.58 1964.55 1119.93 2192.75 933.374 1306.65 1259.38 835.805 399.288
internal_count=39640 17766 21874 11243 11761 9419 5463 10631 4497 6298 6134 6005 3430
shrinkage=0.05


Tree=34
num_leaves=12
num_cat=0
split_feature=273 17 90 90 224 146 146 246 242 242 15
split_gain=349.6 816.452 380.179 752.426 101.006 71.7321 216.791 43.7089 18.9459 128.261 9.0334
threshold=1.0000000180025095e-35 -0.99796071166628442 0.99956853810825497 1.0000000180025095e-35 1.0000000180025095e-35 1.0000000180025095e-35 0.99997593805284424 0.0090084594984000694 0.0033616167524329614 0.99993571913706703 3832.0958333333333
decision_type=2 2 2 2 2 2 2 2 2 2 2
left_child=5 2 3 -2 -4 8 -7 -8 10 -10 -1
right_child=1 -3 4 -5 -6 6 7 -9 9 -11 -12
leaf_value=-0.027457558975844138 0.00078879091840824891 0.065942209753038813 -0.017210302431291895 0.068742419112161973 0.010623914945352675 0.072138679732563646 -0.031454105327840008 -0.0051568938131130899 0.077916158188822027 -0.027403472034482075 -0.040189525084254468
leaf_weight=408.25804605334997 2202.2183718383312 516.52283618599176 2281.7773059904575 499.25710124522448 377.20275697112083 75.795812003314495 281.86304352432489 371.64288382977247 30.559016108512878 325.10573241114616 278.47162215411663
leaf_count=2058 10747 3593 11175 3276 1965 468 1299 1759 176 1694 1430
internal_value=0 0.119375 0.00338516 0.267731 -0.264809 -0.387268 -0.144569 -0.332125 -0.555811 -0.360421 -0.654881
internal_weight=0 5876.98 5360.46 2701.48 2658.98 1771.7 729.302 653.506 1042.39 355.665 686.73
internal_count=39640 30756 27163 14023 13140 8884 3526 3058 5358 1870 3488
shrinkage=0.05


Tree=35
num_leaves=12
num_cat=0
split_feature=87 87 76 76 223 15 225 181 232 224 217
split_gain=339.144 759.989 243.552 548.957 213.661 75.514 47.8232 24.0471 10.4123 10.0359 6.01595
threshold=0.99975439783188735 1.0000000180025095e-35 0.99987377275471911 1.0000000180025095e-35 1.0000000180025095e-35 2894.7477500000005 0.0046932042226402468 0.0075715653788390189 0.088497785482407013 1.0000000180025095e-35 0.99999723166213117
decision_type=2 2 2 2 2 2 2 2 2 2 2
left_child=1 5 3 4 -2 6 -1 -7 9 -4 -10
right_child=2 -3 8 -5 -6 7 -8 -9 10 -11 -12
leaf_value=-0.0037656542128982058 -0.013091290025141226 0.065773276190682364 -0.032213521662267805 0.065875993075579217 0.0084715475698193942 -0.02920240949652993 0.031420810691498977 0.058107672646085677 0.0090214487230060487 -0.015603057460705994 -0.021669649844398085
leaf_weight=477.3653908893466 3010.8860636278987 586.29545647650957 754.75061233341694 289.60969292372465 1853.6256732903421 306.851536847651 119.58896678686142 6.8215375915169707 26.823442555963993 120.9981577694416 32.677823081612587
leaf_count=2166 14811 4088 3882 2091 9622 1443 583 35 128 622 169
internal_value=0 0.428333 -0.10279 -0.0173564 -0.0972885 -0.142555 0.0648091 -0.539323 -0.572021 -0.599919 -0.141742
internal_weight=0 1496.92 6089.37 5154.12 4864.51 910.627 596.954 313.673 935.25 875.749 59.5013
internal_count=39640 8315 31325 26524 24433 4227 2749 1478 4801 4504 297
shrinkage=0.05


Tree=36
num_leaves=12
num_cat=0
split_feature=93 93 13 221 246 176 176 65 217 15 18
split_gain=324.964 602.344 308.334 292.818 176.04 12.8502 59.6542 11.419 6.67023 26.7678 4.2353
threshold=0.99999723166213117 1.0000000180025095e-35 5.9947038443570291 0.99995121521903674 1.0000000180025095e-35 0.003993398764898016 0.99997593805284424 0.02050485028936572 0.99999723166213117 0.02008407261451289 0.14725678545359064
decision_type=2 2 2 2 2 2 2 2 2 2 2
left_child=1 2 3 -1 -4 8 -7 -8 9 -2 -10
right_child=5 -3 4 -5 -6 6 7 -9 10 -11 -12
leaf_value=0.014836487487446402 0.022037164171473712 0.067266559748086915 -0.024293784753680023 -0.027420693043043006 0.0026096900853829256 0.069263407370475635 -0.032438863548048182 -0.0010303305535876981 -0.034109309303079961 -0.028574541497689183 0
leaf_weight=3264.5743501856923 27.956430405378342 355.34405996277928 1466.6448884010315 467.17702410370111 1032.5515507943928 17.785223640501499 118.22912860661745 42.72264064848423 521.38052505999804 208.93030374497175 9.1708735823631269
leaf_count=17131 131 2504 7431 2182 5575 111 573 199 2732 1020 51
internal_value=0 0.0808361 0.00835859 0.19054 -0.263239 -0.545594 -0.2906 -0.489369 -0.603225 -0.446477 -0.670359
internal_weight=0 6586.29 6230.95 3731.75 2499.2 946.175 178.737 160.952 767.438 236.887 530.551
internal_count=39640 34823 32319 19313 13006 4817 883 772 3934 1151 2783
shrinkage=0.05


Tree=37
num_leaves=14
num_cat=0
split_feature=96 96 15 225 15 223 223 233 210 225 225 229 56
split_gain=307.555 1141.91 163.103 251.615 123.423 178.935 271.763 88.1899 34.4387 26.6451 75.7334 16.5454 2.46254
threshold=0.99990256883134154 1.0000000180025095e-35 3188.1492857142862 1.0000000180025095e-35 1007.7271317562144 1.0000000180025095e-35 0.99994488409908888 0.99995048850461588 0.0047103293320351911 0.0084521289887443691 0.99974500549202838 1.0000000180025095e-35 0.99997593805284424
decision_type=2 2 2 2 2 2 2 2 2 2 2 2 2
left_child=1 2 3 -1 5 7 -7 -2 -4 11 -11 -6 -3
right_child=4 12 8 -5 9 6 -8 -9 -10 10 -12 -13 -14
leaf_value=-0.0062479420089216345 -0.0056673962849648866 0.058145162173164504 -0.024231421612488577 0.036173533744804635 -0.034256130589610134 0.067748528982288697 -0.00063291019394135471 -0.030709340827838112 0.016974379515963849 0.068478349052943879 -0.018792171347554704 -0.020719996160057739 0.067242363200805885
leaf_weight=1457.7203999459743 1434.0535128861666 363.8931578360498 856.52722088247538 458.34191900491714 406.78283770382404 193.77965724468231 566.31623546779156 468.3806037902832 51.760229796171188 28.087298311293125 166.70473998039961 605.24493070319295 436.48338141292334
leaf_count=6889 7207 3433 4253 2383 2158 1301 2653 2284 260 181 836 3096 2706
internal_value=0 0.211283 -0.0872919 0.0777442 -0.194042 -0.0732893 0.336015 -0.237438 -0.436243 -0.459342 -0.113354 -0.524772 1.26493
internal_weight=0 3624.73 2824.35 1916.06 3869.35 2662.53 760.096 1902.43 908.287 1206.82 194.792 1012.03 800.377
internal_count=39640 19924 13785 9272 19716 13445 3954 9491 4513 6271 1017 5254 6139
shrinkage=0.05


Tree=38
num_leaves=12
num_cat=0
split_feature=205 205 176 176 10 10 10 224 15 218 13
split_gain=298.823 1033.93 131.936 167.166 129.255 586.77 127.833 75.862 61.3433 59.7798 31.7738
threshold=1.0000000180025095e-35 0.99995048850461588 1.0000000180025095e-35 0.99997593805284424 1.0000487847809636 1.9998795580064164 2.0000623265902084 1.0000000180025095e-35 100.00166666666668 0.0032076211999546027 1.9880708012109933
decision_type=2 2 2 2 2 2 2 2 2 2 2
left_child=4 -2 7 -4 8 -6 -7 -3 9 -1 -10
right_child=1 2 3 -5 5 6 -8 -9 10 -11 -12
leaf_value=-0.0156429880418868 0.062976317980052363 -0.014886500359167497 0.065909146500061841 0.00068979997679450167 0.068661426810463 -0.019488598388314293 0.0072488209283339718 0.012470004987267434 0.010470543447754967 0.012262301443206829 -0.026362706121214021
leaf_weight=639.27577269822359 750.96199279278517 1563.6198723465204 134.34972832351923 364.358094856143 272.32100557535887 1212.6784058511257 703.65849179774523 299.61988566070795 59.149196110665798 271.30589886754751 1159.5710903182626
leaf_count=3186 6005 7617 892 1729 1824 5859 3560 1523 277 1311 5857
internal_value=0 0.238193 -0.0865036 0.369128 -0.168194 0.00202463 -0.192923 -0.209125 -0.343545 -0.14539 -0.490539
internal_weight=0 3112.91 2361.95 498.708 4317.96 2188.66 1916.34 1863.24 2129.3 910.582 1218.72
internal_count=39640 17766 11761 2621 21874 11243 9419 9140 10631 4497 6134
shrinkage=0.05


Tree=39
num_leaves=12
num_cat=0
split_feature=87 87 76 76 15 15 176 181 224 224 15
split_gain=283.298 665.13 202.238 478.911 183.364 61.7527 29.1893 21.3406 8.99805 37.1456 6.42283
threshold=0.99975439783188735 1.0000000180025095e-35 0.99987377275471911 1.0000000180025095e-35 1030.5007962456632 2894.7477500000005 1.0000000180025095e-35 0.0075715653788390189 1.0000000180025095e-35 0.99997593805284424 0.0099769323200753976
decision_type=2 2 2 2 2 2 2 2 2 2 2
left_child=1 5 3 4 -2 6 -1 -7 10 -10 -4
right_child=2 -3 8 -5 -6 7 -8 -9 9 -11 -12
leaf_value=-0.0032642307445256572 0.0033359288580356392 0.064159127561647322 -0.019785343329647195 0.064425245712535675 -0.01679878799783904 -0.026603784397773795 0.022141948666718595 0.056531184120255921 0.075569407202453087 -0.02153330166389688 -0.03125765248088979
leaf_weight=439.39814444631338 2923.2448540888727 534.64609005302191 199.84069339931011 265.62775376439095 1839.858827073127 298.90548814833164 150.23368848860264 6.6415752321481696 9.6613116562366468 110.34461519867182 586.76222368329763
leaf_count=2008 14930 4088 1017 2091 9503 1443 741 35 51 579 3154
internal_value=0 0.4016 -0.094096 -0.0154742 -0.0886594 -0.124653 0.0630189 -0.489102 -0.528592 -0.254855 -0.568707
internal_weight=0 1429.82 5935.34 5028.73 4763.1 895.179 589.632 305.547 906.609 120.006 786.603
internal_count=39640 8315 31325 26524 24433 4227 2749 1478 4801 630 4171
shrinkage=0.05


Tree=40
num_leaves=12
num_cat=0
split_feature=93 93 15 223 146 2 10 239 175 185 232
split_gain=266.83 526.124 259.28 223.252 161.228 11.3726 12.9923 14.8066 3.65955 2.99636 1.5096
threshold=0.99999723166213117 1.0000000180025095e-35 100.00166666666668 1.0000000180025095e-35 1.0000000180025095e-35 340.0774589827663 1.9998795580064164 0.11816148574860265 0.99994488409908888 0.37595132969200268 0.10333836361305278
decision_type=2 2 2 2 2 2 2 2 2 2 2
left_child=1 2 3 -1 -4 6 7 -2 -8 10 -7
right_child=5 -3 4 -5 -6 9 8 -9 -10 -11 -12
leaf_value=0.0029200569798629103 -0.020446529766404171 0.065664630632489437 -0.014249324298369784 0.037598991030802172 0.0068989790999187594 -0.042576810822818063 -0.039460455214136284 0.023792105669444643 -0.0036405928295059095 -0.002397045833749304 -0.022181749851380817
leaf_weight=1365.0199674293399 607.91735186800361 324.44555277749896 2636.2917510904372 705.12589525803924 1364.6810204721987 123.43080632388592 122.52328266948462 17.680650178343058 11.105241596698759 8.7739115059375745 26.028455331921577
leaf_count=6873 3189 2504 13839 4166 7441 669 623 91 53 51 141
internal_value=0 0.0745742 0.00800596 0.295377 -0.14047 -0.501818 -0.446555 -0.38161 -0.738084 -0.756229 -0.790567
internal_weight=0 6395.56 6071.12 2070.15 4000.97 917.46 759.227 625.598 133.629 158.233 149.459
internal_count=39640 34823 32319 11039 21280 4817 3956 3280 676 861 810
shrinkage=0.05


Tree=41
num_leaves=12
num_cat=0
split_feature=234 234 176 176 227 224 224 15 223 223 225
split_gain=260.329 1013.18 205.485 411.578 135.803 35.5738 63.9238 47.6491 30.6139 61.0102 18.9602
threshold=0.99996625117671289 1.0000000180025095e-35 1.0000000180025095e-35 0.99997593805284424 0.99999723166213117 0.0059890727314406153 0.99997593805284424 676.48355243151263 1.0000000180025095e-35 0.99994488409908888 0.037582724350453962
decision_type=2 2 2 2 2 2 2 2 2 2 2
left_child=1 2 4 -4 -1 8 -7 -8 10 -10 -2
right_child=5 -3 3 -5 -6 6 7 -9 9 -11 -12
leaf_value=-0.0012905889206562449 -0.034903506239049427 0.066986331641168184 0.06474337787249701 -0.0029601247448915627 -0.020571099383098843 0.063419654053526675 0.026502844323138642 -0.031478258329684809 0.06215942362405355 -0.01826830308026017 -0.0096550683253867481
leaf_weight=3046.6332712471485 530.44458812102675 583.92737388983369 319.86760233342648 742.7686618976295 1307.2773948535323 31.449012398719788 49.712073124945164 112.87400557100773 23.729282505810261 432.40157365426421 94.231094107031822
leaf_count=16051 2706 4300 2445 3637 6782 221 213 549 180 2101 455
internal_value=0 0.08934 -0.0454949 0.348285 -0.14189 -0.408072 -0.00847397 -0.267815 -0.478812 -0.27696 -0.623925
internal_weight=0 6000.47 5416.55 1062.64 4353.91 1274.84 194.035 162.586 1080.81 456.131 624.676
internal_count=39640 33215 28915 6082 22833 6425 983 762 5442 2281 3161
shrinkage=0.05


Tree=42
num_leaves=12
num_cat=0
split_feature=87 87 224 224 81 81 13 77 13 176 8
split_gain=249.746 600.41 191.253 483.935 147.058 530.632 68.2231 57.5267 45.1458 29.1799 15.4948
threshold=0.99975439783188735 1.0000000180025095e-35 1.0000000180025095e-35 0.99997593805284424 1.0000000180025095e-35 0.99995048850461588 4.999270647171099 1.0000000180025095e-35 6.9772455692875583 1.0000000180025095e-35 5.4498244933441642
decision_type=2 2 2 2 2 2 2 2 2 2 2
left_child=1 8 4 -4 7 -6 -5 -2 9 -1 -10
right_child=2 -3 3 6 5 -7 -8 -9 10 -11 -12
leaf_value=-0.004050142385161261 -0.021673208356035881 0.062996418752683608 0.066752266353163961 0.010394314762356532 0.058351972065539527 -0.0096874601707597208 -0.023122357122347059 -0.0073057773428438057 -0.022567355406872644 0.021157306881284813 0.043141277644432346
leaf_weight=412.29180617630482 1665.4225240088999 499.1049227565527 314.18461898341775 256.00016503408551 344.90155996754766 1667.8514618948102 365.56304370611906 1222.3106972165406 307.79896777495742 157.12044852972031 7.8376541584730139
leaf_count=1893 8754 4088 2288 1178 3204 7757 1885 6259 1508 788 38
internal_value=0 0.383911 -0.088405 0.325271 -0.167651 0.0394001 -0.184864 -0.312275 -0.109836 0.056854 -0.412934
internal_weight=0 1384.15 5836.23 935.748 4900.49 2012.75 621.563 2887.73 885.049 569.412 315.637
internal_count=39640 8315 31325 5351 25974 10961 3063 15013 4227 2681 1546
shrinkage=0.05


Tree=43
num_leaves=12
num_cat=0
split_feature=221 221 220 15 176 232 232 13 13 17 12
split_gain=236.403 423.645 214.522 451.896 74.1002 31.6682 31.336 19.2744 10.5726 8.66271 7.62736
threshold=0.99995121521903674 1.0000000180025095e-35 0.99999723166213117 100.00166666666668 0.003993398764898016 0.0033731824484570243 0.99987735474400352 4.999270647171099 1.9880708012109933 1.0013520661665007 1440.1409817181564
decision_type=2 2 2 2 2 2 2 2 2 2 2
left_child=1 2 3 -1 -4 8 -7 -8 10 -10 -2
right_child=5 -3 4 -5 -6 6 7 -9 9 -11 -12
leaf_value=0.029604968193636484 -0.015772399463674258 0.064808447734440902 -0.026393968646032242 -0.0041531441821572469 0.0047719538884539387 0.061472497091086278 -0.0059858367562880994 -0.040305708831432502 -0.050137128478700145 -0.030099996740164822 -0.039082457439831367
leaf_weight=1342.3816542066634 106.85492939502001 265.03733201697469 866.12360664084554 3776.2025832720101 240.83983175829053 12.411244310438631 136.20128913968801 60.733841933310032 164.13670029491186 116.86237381771207 64.601405259221792
leaf_count=7719 512 2114 4636 20643 1251 88 618 286 810 653 310
internal_value=0 0.0603618 0.00739003 0.0938885 -0.391399 -0.566601 -0.236283 -0.339454 -0.716372 -0.842353 -0.500416
internal_weight=0 6490.59 6225.55 5118.58 1106.96 661.802 209.346 196.935 452.455 280.999 171.456
internal_count=39640 36363 34249 28362 5887 3277 992 904 2285 1463 822
shrinkage=0.05


Tree=44
num_leaves=13
num_cat=0
split_feature=146 146 13 220 221 247 247 15 58 58 90 8
split_gain=227.503 840.097 159.65 174.963 184.723 93.1146 176.359 103.144 68.545 490.398 31.0689 15.6198
threshold=1.0000000180025095e-35 0.99997593805284424 3.9858965823886625 0.99999723166213117 0.99995121521903674 0.99995121521903674 1.0000000180025095e-35 62.391405516127008 0.99997593805284424 1.0000000180025095e-35 0.99956853810825497 2.9751786193884602
decision_type=2 2 2 2 2 2 2 2 2 2 2 2
left_child=2 -2 3 4 -1 6 -3 -7 9 -4 -5 -10
right_child=1 5 8 10 -6 7 -8 -9 11 -11 -12 -13
leaf_value=0.017142070978542572 0.065273698185091322 -0.0015668742418248451 -0.021011398832072516 -0.004035741258889061 -0.02399117703489179 0.022775160663469362 0.064433683075859921 -0.025467117200769385 -0.026045498506035988 0.069144748188437993 -0.028043180316174584 0.043844012840270646
leaf_weight=1570.6765885651112 575.55826462805271 892.75151489302516 1031.0306566655636 204.88019013404846 328.52790995314717 131.92135390639305 112.97918779402971 643.18107383698225 1014.1803381107748 175.52986123412848 426.90057212859392 6.6628929227590552
leaf_count=8808 4557 4527 5572 1040 1578 638 875 3131 5390 1230 2259 35
internal_value=0 0.256213 -0.123662 0.0478317 0.199831 -0.0828857 0.117086 -0.343463 -0.318912 -0.156154 -0.40711 -0.509959
internal_weight=0 2356.39 4758.39 2530.99 1899.2 1780.83 1005.73 775.102 2227.4 1206.56 631.781 1020.84
internal_count=39640 13728 25912 13685 10386 9171 5402 3769 12227 6802 3299 5425
shrinkage=0.05


Tree=45
num_leaves=13
num_cat=0
split_feature=146 146 13 220 221 247 247 15 10 10 58 105
split_gain=232.465 769.483 159.936 159.108 177.52 78.3932 162.601 88.097 53.8831 287.957 25.6406 10.5852
threshold=1.0000000180025095e-35 0.99997593805284424 4.999270647171099 0.99999723166213117 0.99995121521903674 0.99995121521903674 1.0000000180025095e-35 50.000977854832648 1.0000487847809636 1.9998795580064164 0.011979414382199795 0.99959269134562267
decision_type=2 2 2 2 2 2 2 2 2 2 2 2
left_child=2 -2 3 4 -1 6 -3 -7 11 -10 -5 -4
right_child=1 5 8 10 -6 7 -8 -9 9 -11 -12 -13
leaf_value=0.013985918562208356 0.064556367547624324 -0.00091309289297158134 -0.016951506295774587 -0.028633691463866587 -0.024385033757254121 0.022275169453257117 0.063355443476192791 -0.022924873720104752 0.066686729983388787 -0.019017845570061517 -0.0079836531845838849 -0.029707442966401515
leaf_weight=1836.6118693687022 552.18794057145715 893.6390822045505 251.75926264747977 389.30536797642708 358.88126383721828 128.15668084099889 109.40514459833503 628.54991897195578 109.46368798241019 859.24680572748184 259.12243732064962 661.81956368684769
leaf_count=10275 4542 4532 1509 2057 1738 620 881 3098 823 4606 1370 3589
internal_value=0 0.262301 -0.124583 0.0247625 0.153654 -0.0605138 0.122064 -0.303689 -0.350651 -0.184459 -0.409672 -0.525386
internal_weight=0 2311.94 4726.21 2843.92 2195.49 1759.75 1003.04 756.707 1882.29 968.71 648.428 913.579
internal_count=39640 13673 25967 15440 12013 9131 5413 3718 10527 5429 3427 5098
shrinkage=0.05


Tree=46
num_leaves=12
num_cat=0
split_feature=205 205 229 229 13 90 13 225 82 82 2
split_gain=213.827 839.547 100.293 462.251 99.5467 89.4275 71.0076 55.7693 27.5104 106.502 3.89654
threshold=1.0000000180025095e-35 0.99995048850461588 1.0000000180025095e-35 0.99990998050801871 2.9809475619689798 0.99956853810825497 7.9990707954880813 1.0000000180025095e-35 0.99954129293597427 1.0000000180025095e-35 1195.2047137681436
decision_type=2 2 2 2 2 2 2 2 2 2 2
left_child=2 -2 8 -4 5 -3 -5 -6 9 -1 -10
right_child=1 4 3 6 7 -7 -8 -9 10 -11 -12
leaf_value=-0.01719863956940192 0.060968657943797459 0.020960586500913411 0.06719052125784479 -0.0026448024651750442 -0.019870861690210077 -0.0084104438820856945 -0.022311549541388656 0.0047421054152218152 -0.035543233615031151 0.07049102487505314 -0
leaf_weight=1218.5478750988841 641.04864447936416 562.92768745496869 223.8761931322515 1773.4957759343088 902.6118697412312 475.80608179420233 622.03460884839296 304.3080053254962 210.78150150924921 34.464904144406319 10.312320455908774
leaf_count=6460 6056 3100 1663 9052 4625 2357 3277 1638 1121 234 57
internal_value=0 0.210875 -0.144466 -0.0265952 -0.0769824 0.149271 -0.155592 -0.272497 -0.353079 -0.29385 -0.681411
internal_weight=0 2886.7 4093.51 2619.41 2245.65 1038.73 2395.53 1206.92 1474.11 1253.01 221.094
internal_count=39640 17776 21864 13992 11720 5457 12329 6263 7872 6694 1178
shrinkage=0.05


Tree=47
num_leaves=13
num_cat=0
split_feature=146 146 13 220 221 12 247 225 225 176 176 58
split_gain=205.629 703.369 138.514 141.15 157.979 71.272 70.9346 62.5652 223.319 42.0473 30.7784 21.8076
threshold=1.0000000180025095e-35 0.99997593805284424 4.999270647171099 0.99999723166213117 0.99995121521903674 430.06251375626044 0.99995121521903674 1.0000000180025095e-35 0.99974500549202838 0.040779500853555646 0.0090314418023511606 0.99997593805284424
decision_type=2 2 2 2 2 2 2 2 2 2 2 2
left_child=2 -2 3 4 -1 10 -7 11 -9 -5 -3 -4
right_child=1 5 7 9 -6 6 -8 8 -10 -11 -12 -13
leaf_value=0.013138762878045824 0.063537590987359505 -0.022498041067823799 -0.015994070457992542 -0.027736150161073583 -0.023222893101798037 0.015348000157373641 -0.0088389029221042966 0.068211048903694491 -0.016598396123589168 0.00014170364658772742 0.014571127491509149 -0.029322309883106398
leaf_weight=1822.7039663717151 518.94632439315319 465.47208511456847 658.27577882632613 452.915258936584 355.50130899995565 641.44988203048706 570.63650697469711 92.054312892258167 465.78558257967234 187.59026055783033 61.245662398636341 630.15066891536117
leaf_count=10275 4542 2378 3852 2480 1738 3555 2857 676 2538 947 341 3461
internal_value=0 0.250192 -0.117372 0.0217688 0.143467 -0.0543744 0.0784393 -0.330238 -0.0483344 -0.390118 -0.36147 -0.451384
internal_weight=0 2257.75 4664.98 2818.71 2178.21 1738.8 1212.09 1846.27 557.84 640.506 526.718 1288.43
internal_count=39640 13673 25967 15440 12013 9131 6412 10527 3214 3427 2719 7313
shrinkage=0.05


Tree=48
num_leaves=12
num_cat=0
split_feature=93 93 206 206 10 12 10 239 2 12 12
split_gain=195.132 405.882 177.676 706.037 102.844 14.317 10.5788 15.0248 4.50998 0.865722 0.892127
threshold=0.99999723166213117 1.0000000180025095e-35 0.99997593805284424 1.0000000180025095e-35 1.0000487847809636 2923.0044912661465 1.9998795580064164 0.11816148574860265 886.03951281879051 4839.6797815914069 4474.006669024011
decision_type=2 2 2 2 2 2 2 2 2 2 2
left_child=1 2 3 -1 -4 6 7 -2 -8 10 -7
right_child=5 -3 4 -5 -6 9 8 -9 -10 -11 -12
leaf_value=-0.0025977843337383366 -0.017643869404071501 0.063090251018900409 -0.018927488910550568 0.06139738379017199 0 -0.038163257778438542 -0.035421437123820884 0.031580015642171708 -0 -0.057064652033846974 -0.01768847669667083
leaf_weight=2276.2973035089672 619.45144613832235 270.41530235856771 1254.3155026063323 530.28730291500688 1665.4569450579584 76.648081287741661 118.864198602736 14.303987585008143 9.9537330567836744 16.798021093010902 19.640338376164436
leaf_count=11882 3465 2479 6449 4981 8970 438 639 77 56 96 108
internal_value=0 0.0668881 0.0100755 0.189869 -0.162412 -0.438199 -0.385386 -0.328122 -0.654713 -0.779065 -0.694512
internal_weight=0 5996.77 5726.36 2806.58 2919.77 875.66 762.573 633.755 128.818 113.086 96.2884
internal_count=39640 34761 32282 16863 15419 4879 4237 3542 695 642 546
shrinkage=0.05


Tree=49
num_leaves=13
num_cat=0
split_feature=90 90 273 17 13 223 223 246 59 227 87 14
split_gain=186.381 785.606 180.188 319.425 59.8403 67.3191 203.593 45.1852 37.8345 12.0854 11.1819 2.75628
threshold=0.99956853810825497 1.0000000180025095e-35 1.0000000180025095e-35 -0.99796071166628442 5.9947038443570291 1.0000000180025095e-35 0.99994488409908888 1.0000000180025095e-35 0.99999723166213117 0.99999723166213117 0.99975439783188735 970.20890109890126
decision_type=2 2 2 2 2 2 2 2 2 2 2 2
left_child=1 2 7 -4 5 8 -7 -1 -2 10 -6 -11
right_child=4 -3 3 -5 9 6 -8 -9 -10 11 -12 -13
leaf_value=-0.025351516139329417 -0.0051075271038940042 0.063859748151797013 0.00093884267239166248 0.061174008030878052 0.002267134883166569 0.063892033021377026 -0.0075744755117040027 -0.0077785889591016708 -0.022297022543577912 -0.049888254144005779 -0.024470530355749653 -0.023587742177793223
leaf_weight=597.51975506916642 697.83869421854615 521.27768742665648 2028.9973723068833 246.13840251788497 39.302243482321501 123.94140077382326 488.32169329375029 976.13445976376534 607.02471363171935 62.836888313293457 409.42703694850206 25.573760151863098
leaf_count=3185 3748 4610 10761 2312 222 1016 2357 5608 3133 345 2201 142
internal_value=0 0.126297 -0.029611 0.150029 -0.21801 -0.134507 0.137833 -0.289894 -0.263067 -0.51338 -0.440354 -0.863773
internal_weight=0 4370.07 3848.79 2275.14 2454.27 1917.13 612.263 1573.65 1304.86 537.14 448.729 88.4106
internal_count=39640 26476 21866 13073 13164 10254 3373 8793 6881 2910 2423 487
shrinkage=0.05


Tree=50
num_leaves=13
num_cat=0
split_feature=96 96 13 90 15 217 221 221 217 90 247 272
split_gain=179.263 786.284 101.934 97.821 78.7594 155.671 51.1042 135.628 43.448 43.1934 40.4749 9.79919
threshold=0.99990256883134154 1.0000000180025095e-35 10.998628750119455 0.99956853810825497 0.0099769323200753976 0.99999723166213117 0.99995121521903674 1.0000000180025095e-35 1.0000000180025095e-35 0.99956853810825497 0.99995121521903674 0.0574029693972068
decision_type=2 2 2 2 2 2 2 2 2 2 2 2
left_child=1 2 3 -1 5 8 7 -6 -2 -7 -4 -8
right_child=4 -3 10 -5 6 9 11 -9 -10 -11 -12 -13
leaf_value=0.011735684509243987 0.020428034184483947 0.059816996229348857 -0.0075259033062132809 -0.012625272243694112 -0.012464041049864719 0.004787065502443847 -0.033216093244630741 0.062578581027960239 0.063185529998226339 -0.017651698923871664 -0.03032147435393677 0.0079389965912118367
leaf_weight=1188.1476009301841 294.87403734400868 608.2256129719317 429.69368160143495 628.35559321194887 1890.5036259442568 346.2994152083993 316.54244403913617 61.018966943025589 76.631860703229904 548.81328286975622 368.36133797466755 12.761993389576672
leaf_count=6385 1442 6181 2367 3023 10432 1846 1705 530 637 2999 2021 72
internal_value=0 0.173155 -0.0648524 0.0655809 -0.152609 0.0466503 -0.263675 -0.201224 0.590559 -0.178384 -0.362702 -0.629011
internal_weight=0 3222.78 2614.56 1816.5 3547.45 1266.62 2280.83 1951.52 371.506 895.113 798.055 329.304
internal_count=39640 19977 13796 9408 19663 6924 12739 10962 2079 4845 4388 1777
shrinkage=0.05


Tree=51
num_leaves=13
num_cat=0
split_feature=234 234 146 146 13 15 218 221 12 146 11 121
split_gain=172.664 767.035 134.623 456.018 86.054 23.8345 34.2218 24.816 13.218 21.0327 7.40286 6.3148
threshold=0.99996625117671289 1.0000000180025095e-35 1.0000000180025095e-35 0.99997593805284424 5.9947038443570291 0.040067171239989333 0.011558780890309261 0.99995121521903674 423.02898501264133 0.0043146209060841443 387.5338837717963 0.090975014399459833
decision_type=2 2 2 2 2 2 2 2 2 2 2 2
left_child=1 2 4 -4 -1 6 11 -8 10 -10 -7 -2
right_child=5 -3 3 -5 -6 8 7 -9 9 -11 -12 -13
leaf_value=-0.0016439363488592704 -0.01907238030529039 0.064172416057113851 0.062515130308679154 -0.0032064824783666693 -0.018366738313629786 -0.023344980982275304 0.026155905372547111 -0.036628878042396361 -0.022945167369619577 -0.001772857531578824 -0.041795760634268035 0.011004041608785025
leaf_weight=2157.3683884255588 218.96646926924586 480.62223089113832 327.60174562595785 1335.0702999327332 1201.4558914378285 174.28294824808836 98.907232590019703 17.194791577756405 415.77359682694077 170.86121164634824 104.92789660394192 16.144521839916706
leaf_count=11746 1144 4342 3092 6960 6989 969 491 85 2238 907 596 81
internal_value=0 0.0778902 -0.0375308 0.194852 -0.152885 -0.338192 -0.114131 0.323941 -0.427687 -0.337544 -0.611633 -0.33515
internal_weight=0 5502.12 5021.5 1662.67 3358.82 1217.06 351.213 116.102 865.846 586.635 279.211 235.111
internal_count=39640 33129 28787 10052 18735 6511 1801 576 4710 3145 1565 1225
shrinkage=0.05


Tree=52
num_leaves=12
num_cat=0
split_feature=224 224 58 58 15 13 12 13 206 14 9
split_gain=167.099 445.092 127.21 1001.34 116.753 65.3369 63.6642 56.8777 42.0097 17.879 12.7811
threshold=1.0000000180025095e-35 0.99997593805284424 1.0000000180025095e-35 0.99997593805284424 2120.7620000000011 6.9772455692875583 229.02129899181543 3.9858965823886625 0.99997593805284424 995.0215614760574 1.0000055366757381
decision_type=2 2 2 2 2 2 2 2 2 2 2
left_child=2 -2 6 -4 5 -3 10 -5 -8 -6 -1
right_child=1 4 3 7 9 -7 8 -9 -10 -11 -12
leaf_value=-0.031109702473912662 0.062284028083851667 0.029537157017152645 0.065088158126544171 -0.0017676899993467111 -0.011388384150870004 -0.013363982090809199 -0.00065175977874024798 -0.01718407258401394 -0.014747071569058304 -0.036206597626406156 -0.008555916857119086
leaf_weight=415.03203098848462 372.50713892094791 239.4472814835608 542.36614025756717 1129.746197335422 125.46820204332471 138.05517462641001 1089.5941600818187 1290.6421750690788 1040.3566053174436 203.15206844359636 82.700323339551687
leaf_count=2274 3477 1139 4793 5979 700 756 6284 7160 5500 1081 497
internal_value=0 0.362632 -0.0670823 0.0747175 -0.102899 0.274439 -0.227312 -0.200253 -0.151273 -0.538918 -0.549744
internal_weight=0 1078.63 5590.44 2962.75 706.123 377.502 2627.68 2420.39 2129.95 328.62 497.732
internal_count=39640 7153 32487 17932 3676 1895 14555 13139 11784 1781 2771
shrinkage=0.05


Tree=53
num_leaves=12
num_cat=0
split_feature=93 93 13 91 247 12 2 10 2 15 161
split_gain=157.539 343.311 144.732 168.947 78.8333 13.3047 10.2318 12.9182 3.27785 1.47326 0.263949
threshold=0.99999723166213117 1.0000000180025095e-35 9.9998788957956624 1.0000000180025095e-35 0.99995121521903674 2923.0044912661465 320.00092140404269 1.9998795580064164 1168.9845557686861 26393.421875000004 0.47686406692325495
decision_type=2 2 2 2 2 2 2 2 2 2 2
left_child=1 2 3 -1 -4 6 7 -2 -8 10 -7
right_child=5 -3 4 -5 -6 9 8 -9 -10 -11 -12
leaf_value=-0.0065555819398405409 -0.011062367346898064 0.061565500457702198 -0.001590512658640607 0.013604372743346192 -0.026467526995316251 -0.040328228953221773 -0.037997162729360615 -0.030614244814131469 -0.017794039729402213 -0.0064350080348115311 -0.015378074285646965
leaf_weight=1810.0173129867762 509.51324641704559 239.50718674995005 636.33582659810781 2431.1442391443998 646.01035114750266 90.757683828473091 76.564757756888866 106.54366763308644 47.511691220104694 8.0979843065142614 9.6364184096455556
leaf_count=9643 2892 2479 3861 15033 3745 533 459 591 295 52 57
internal_value=0 0.061707 0.0105967 0.0997865 -0.283454 -0.399537 -0.348124 -0.291378 -0.617296 -0.734763 -0.772036
internal_weight=0 5763.01 5523.51 4241.16 1282.35 848.625 740.133 616.057 124.076 108.492 100.394
internal_count=39640 34761 32282 24676 7606 4879 4237 3483 754 642 590
shrinkage=0.05


Tree=54
num_leaves=12
num_cat=0
split_feature=224 224 225 225 13 218 15 15 233 13 14
split_gain=152.486 416.976 128.598 303.685 124.961 118.506 117.812 105.886 57.8521 56.7716 17.0435
threshold=1.0000000180025095e-35 0.99997593805284424 1.0000000180025095e-35 0.99974500549202838 2.9809475619689798 1.0000000180025095e-35 2833.4433333333336 2120.7620000000011 1.0000000180025095e-35 6.9772455692875583 995.0215614760574
decision_type=2 2 2 2 2 2 2 2 2 2 2
left_child=2 -2 4 -4 5 -1 -5 9 -6 -3 -9
right_child=1 7 3 6 8 -7 -8 10 -10 -11 -12
leaf_value=-0.0089759229533114132 0.061590123341870209 0.027848562633233789 0.06270657199592046 0.020593422275399169 -0.021100934939613424 0.014435109747112327 -0.015265948100865068 -0.010531536767221268 -0.0029996388206658207 -0.012273628757526939 -0.034913598311826902
leaf_weight=1244.7685841061175 355.01693262346089 239.18119885027409 230.76000417768955 377.60485966876149 1512.1433567106724 953.2377204503864 578.30566568300128 124.19270248152316 633.37130648829043 136.53346076235175 199.68905323371291
leaf_count=6905 3477 1139 2238 1959 8548 5809 3273 700 3755 756 1081
internal_value=0 0.350555 -0.0641924 0.2271 -0.144039 0.023125 -0.0208354 -0.0963345 -0.31569 0.262834 -0.515587
internal_weight=0 1054.61 5530.19 1186.67 4343.52 2198.01 955.911 699.596 2145.51 375.715 323.882
internal_count=39640 7153 32487 7470 25017 12714 5232 3676 12303 1895 1781
shrinkage=0.05


Tree=55
num_leaves=12
num_cat=0
split_feature=221 221 93 93 232 232 13 249 31 17 0
split_gain=147.643 307.054 128.174 267.288 30.8921 20.3078 15.6128 9.84033 9.65129 7.49664 3.85557
threshold=0.99995121521903674 1.0000000180025095e-35 0.99999723166213117 1.0000000180025095e-35 0.0033731824484570243 0.99987735474400352 3.9858965823886625 0.052067740322307217 0.064665155319871229 5.0029521708340576 29.999364704051761
decision_type=2 2 2 2 2 2 2 2 2 2 2
left_child=1 2 3 -1 7 -6 -7 9 -4 -2 -9
right_child=4 -3 8 -5 5 6 -8 10 -10 -11 -12
leaf_value=0.00099065820528624607 -0.040999243476221511 0.061502579635389458 -0.029804011785714679 0.06086973986236497 0.059986475965297652 0 -0.030279185106715907 -0.0023915229567669739 -0.015365920598835296 -0.022779114973449741 -0.023397114273458079
leaf_weight=4717.0284115653485 210.4078734703362 212.02620708756149 156.43169149011374 193.13668787293136 9.7636896520853025 125.3328242637217 63.081977818161249 38.745594762265682 633.08238383382559 105.24267137795687 75.968854792416096
leaf_count=27474 1116 2153 973 2089 81 580 318 192 3633 652 379
internal_value=0 0.0512703 0.00703652 0.0673608 -0.458129 -0.124212 -0.20407 -0.608931 -0.366479 -0.703468 -0.336328
internal_weight=0 5911.71 5699.68 4910.17 628.543 198.178 188.415 430.365 789.514 315.651 114.714
internal_count=39640 36322 34169 29563 3318 979 898 2339 4606 1768 571
shrinkage=0.05


Tree=56
num_leaves=12
num_cat=0
split_feature=81 81 12 80 225 225 80 14 224 14 59
split_gain=141.028 557.258 93.8909 85.2605 98.906 204.117 94.8184 77.5923 54.7537 28.7683 26.1727
threshold=1.0000000180025095e-35 0.99995048850461588 351.41974666014767 1.0000000180025095e-35 1.0000000180025095e-35 0.99974500549202838 0.99987735474400352 1840.7541865079372 1.0000000180025095e-35 852.73215803385267 0.99999723166213117
decision_type=2 2 2 2 2 2 2 2 2 2 2
left_child=3 -2 10 4 8 -6 -5 -4 -1 -8 -3
right_child=1 2 7 6 5 -7 9 -9 -10 -11 -12
leaf_value=-0.015993765787572854 0.056168824046162816 -0.0086033481085380625 0.0083097556276965252 0.062191601077889784 0.063641162945720794 -0.004359988156147839 0.011457230863140141 -0.022619060222019167 0.0026137357272379112 -0.029603173187505549 -0.030964453529915056
leaf_weight=2268.4772548899055 504.80327503755689 265.64967177808285 1416.1183903664351 88.695133771747351 132.97383849136531 620.03030203282833 176.29569844529033 235.11554182693362 473.03351719118655 55.02357329428196 275.20166258141398
leaf_count=12778 6514 1323 7209 774 1164 3360 838 1202 2815 276 1387
internal_value=0 0.177169 -0.0406853 -0.12155 -0.167014 0.153012 0.37077 0.0772917 -0.255302 0.027793 -0.402196
internal_weight=0 2696.89 2192.09 3814.53 3494.51 753.004 320.014 1651.23 2741.51 231.319 540.851
internal_count=39640 17635 11121 22005 20117 4524 1888 8411 15593 1114 2710
shrinkage=0.05


Tree=57
num_leaves=13
num_cat=0
split_feature=146 146 13 96 96 13 12 14 223 223 9 233
split_gain=136.641 528.032 90.619 91.4284 197.136 58.332 55.6462 49.2452 38.5829 202.846 7.49029 6.28531
threshold=1.0000000180025095e-35 0.99997593805284424 4.999270647171099 0.99990256883134154 1.0000000180025095e-35 15.952318891078839 430.06251375626044 1121.5799958337159 0.99994488409908888 1.0000000180025095e-35 3.0943467045071462 0.0096478907464071523
decision_type=2 2 2 2 2 2 2 2 2 2 2 2
left_child=2 -2 3 4 -1 6 -3 -5 9 -4 -7 -10
right_child=1 5 8 7 -6 10 -8 -9 11 -11 -12 -13
leaf_value=0.0016085974309979622 0.061024569939611251 -0.013345678391511785 -0.014544406681747408 -0.002740729085581916 0.057956213250845413 -0.034733923947730928 0.0073820007632296597 -0.028337244181215127 -0.028426086553449956 0.065513907845455896 0.010885984706607245 -0.013981740986508812
leaf_weight=749.63655291497707 415.38986290246248 466.47515294142067 1117.8483429998159 1507.384415294975 195.44594522379339 138.42815820872784 1050.1244214586914 214.90532353892922 400.69234420917928 83.996423089876771 7.4316824451088896 115.76559850201011
leaf_count=3683 4542 2534 6833 8336 2247 723 5833 1174 2338 722 41 634
internal_value=0 0.213383 -0.0978653 0.0171678 0.267265 -0.0382392 0.019381 -0.119565 -0.276922 -0.177156 -0.640216 -0.506365
internal_weight=0 2077.85 4385.67 2667.37 945.082 1662.46 1516.6 1722.29 1718.3 1201.84 145.86 516.458
internal_count=39640 13673 25967 15440 5930 9131 8367 9510 10527 7555 764 2972
shrinkage=0.05


Tree=58
num_leaves=13
num_cat=0
split_feature=234 234 87 87 15 15 218 221 222 221 65 12
split_gain=129.155 640.197 103.791 303.442 75.0786 19.1344 26.1026 20.6701 13.1136 15.1147 6.31255 5.22301
threshold=0.99996625117671289 1.0000000180025095e-35 0.99975439783188735 1.0000000180025095e-35 1110.9465686765186 0.040067171239989333 0.011558780890309261 0.99995121521903674 0.99987735474400352 0.99995121521903674 0.015401263609385764 236.04050360499787
decision_type=2 2 2 2 2 2 2 2 2 2 2 2
left_child=1 2 3 -1 -4 6 10 -8 9 -7 -2 -10
right_child=5 -3 4 -5 -6 8 7 -9 11 -11 -12 -13
leaf_value=-0.0040944094577946002 -0.01823348940641295 0.062630516740771344 0.00020948947595601645 0.060034512201328119 -0.014024775913701682 -0.01403200975018239 0.023785416932414941 -0.034256814113319128 -0.0067172242605446578 -0.035398367862086638 0.0031140739274965745 -0.046854729955885396
leaf_weight=675.44302624464035 191.26588649302721 419.60180314257741 2394.8624960761517 252.09291035123169 1502.821178637445 661.02337745949626 96.758489981293678 16.67092052847147 13.387197803705929 99.288846053183079 37.232982210814953 56.912053607404232
leaf_count=3432 1037 4342 13611 2780 8964 3713 491 85 81 609 188 307
internal_value=0 0.069306 -0.0336254 0.266542 -0.105363 -0.297671 -0.0942903 0.291862 -0.379977 -0.338615 -0.290774 -0.802279
internal_weight=0 5244.82 4825.22 927.536 3897.68 1172.54 341.928 113.429 830.611 760.312 228.499 70.2993
internal_count=39640 33129 28787 6212 22575 6511 1801 576 4710 4322 1225 388
shrinkage=0.05


Tree=59
num_leaves=13
num_cat=0
split_feature=221 221 15 96 120 232 247 13 249 15 11 0
split_gain=123.856 271.906 123.485 151.003 31.392 27.2957 18.0155 8.81375 8.67613 9.18023 7.51653 3.56097
threshold=0.99995121521903674 1.0000000180025095e-35 3832.0958333333333 0.99990256883134154 0.99989468590629771 0.0033731824484570243 0.99995121521903674 3.9858965823886625 0.052067740322307217 972.19520944691556 195.75589282300567 29.999364704051761
decision_type=2 2 2 2 2 2 2 2 2 2 2 2
left_child=1 2 3 -1 -4 8 10 -8 9 -2 -7 -10
right_child=5 -3 4 -5 -6 6 7 -9 11 -11 -12 -13
leaf_value=0.013937524330658278 -0.038742158173013942 0.060624166700663763 -0.0039349822085248181 -0.0044494408156898887 -0.021601169944176248 0.021587514646089181 -0.0078531368671317867 -0.040414235979971895 -0.0016199581346877053 -0.01793857858937396 -0.0051716361095558317 -0.021909239898522608
leaf_weight=2067.9310760572553 217.39864747971296 192.6966007258743 418.66137919574976 2419.5176068004221 661.3735187035054 54.596929363906384 60.027654718607664 36.218572769314051 38.3422513268888 87.775675904005766 44.632951129227877 74.791726984083652
leaf_count=13774 1176 2153 2806 13722 3867 277 285 190 192 592 227 379
internal_value=0 0.0477302 0.00702678 0.0802764 -0.296187 -0.424449 -0.108839 -0.4182 -0.568938 -0.659999 0.182421 -0.31091
internal_weight=0 5760.18 5567.48 4487.45 1080.03 613.784 195.476 96.2462 418.308 305.174 99.2299 113.134
internal_count=39640 36322 34169 27496 6673 3318 979 475 2339 1768 504 571
shrinkage=0.05


Tree=60
num_leaves=13
num_cat=0
split_feature=225 225 15 220 15 221 146 146 13 9 13 210
split_gain=125.696 341.955 105.374 145.534 95.8531 81.0405 74.0082 310.6 59.4763 45.401 39.5076 27.0626
threshold=1.0000000180025095e-35 0.99974500549202838 0.0099769323200753976 0.99999723166213117 2833.4433333333336 0.99995121521903674 1.0000000180025095e-35 0.99997593805284424 1.9880708012109933 1.0000055366757381 13.908314978617755 0.0093376433059787507
decision_type=2 2 2 2 2 2 2 2 2 2 2 2
left_child=2 -2 3 5 10 -1 8 -8 -4 -5 -3 -6
right_child=1 4 6 9 11 -7 7 -9 -10 -11 -12 -13
leaf_value=0.027068370902400496 0.061377670351131924 0.026534476707367406 0.0098052397096128358 -0.016856491021721178 -0.016569335799089306 -0.007535340673525329 0.060556739910941196 -0.0088920314140290887 -0.016481167689460518 0.020887121639966779 -0.016448641464607425 0.024341633309624987
leaf_weight=758.87820870429277 294.10860625095665 312.07454912550747 237.90735124982893 543.85814280435443 520.2844538744539 214.50797818042338 188.12033991143107 1080.2368954550475 2004.8861910924315 91.352595733478665 62.247325317934155 42.006625834852457
leaf_count=5084 3196 1621 1440 3103 3016 1062 2152 5898 11959 514 338 257
internal_value=0 0.288856 -0.0669409 0.144624 -0.00583501 0.387829 -0.164165 0.0281736 -0.273348 -0.22651 0.384573 -0.26773
internal_weight=0 1230.72 5119.75 1608.6 936.613 973.386 3511.15 1268.36 2242.79 635.211 374.322 562.291
internal_count=39640 8428 31212 9763 5232 6146 21449 8050 13399 3617 1959 3273
shrinkage=0.05


Tree=61
num_leaves=12
num_cat=0
split_feature=58 58 13 90 224 224 15 225 225 223 63
split_gain=119.531 997.74 62.0495 50.7471 46.4033 108.143 43.7487 36.9808 71.423 44.5307 6.7716
threshold=1.0000000180025095e-35 0.99997593805284424 15.952318891078839 0.99956853810825497 1.0000000180025095e-35 0.99997593805284424 2170.0988374761632 1.0000000180025095e-35 0.99974500549202838 1.0000000180025095e-35 0.024620659091904699
decision_type=2 2 2 2 2 2 2 2 2 2 2
