tree
version=v3
num_class=1
num_tree_per_iteration=1
label_index=0
max_feature_idx=277
objective=binary sigmoid:1
feature_names=age job_year frs_agn_dt_cnt l12mon_buy_fin_mng_whl_tms l12_mon_fnd_buy_whl_tms l12_mon_insu_buy_whl_tms l12_mon_gld_buy_whl_tms ovd_30d_loan_tot_cnt his_lng_ovd_day cur_debit_cnt cur_credit_cnt cur_debit_min_opn_dt_cnt cur_credit_min_opn_dt_cnt Trx_Cod2_Cd trx/Flg1_B trx/Flg1_C Trx_Cod1_Cd cny_trx_amt_thisMonth trd_count page_no gdr_cd_flag_0 mrg_situ_cd_flag_0 edu_deg_cd_flag_0 acdm_deg_cd_flag_0 deg_cd_flag_0 job_year_flag_0 ic_ind_flag_0 fr_or_sh_ind_flag_0 dnl_mbl_bnk_ind_flag_0 dnl_bind_cmb_lif_ind_flag_0 hav_car_grp_ind_flag_0 hav_hou_grp_ind_flag_0 l6mon_agn_ind_flag_0 frs_agn_dt_cnt_flag_0 vld_rsk_ases_ind_flag_0 fin_rsk_ases_grd_cd_flag_0 confirm_rsk_ases_lvl_typ_cd_flag_0 cust_inv_rsk_endu_lvl_cd_flag_0 l6mon_daim_aum_cd_flag_0 tot_ast_lvl_cd_flag_0 pot_ast_lvl_cd_flag_0 bk1_cur_year_mon_avg_agn_amt_cd_flag_0 l12mon_buy_fin_mng_whl_tms_flag_0 l12_mon_fnd_buy_whl_tms_flag_0 l12_mon_insu_buy_whl_tms_flag_0 l12_mon_gld_buy_whl_tms_flag_0 loan_act_ind_flag_0 pl_crd_lmt_cd_flag_0 ovd_30d_loan_tot_cnt_flag_0 his_lng_ovd_day_flag_0 hld_crd_card_grd_cd_flag_0 crd_card_act_ind_flag_0 l1y_crd_card_csm_amt_dlm_cd_flag_0 atdd_type_flag_0 perm_crd_lmt_cd_flag_0 cur_debit_min_opn_dt_cnt_flag_0 cur_credit_min_opn_dt_cnt_flag_0 is_inTrd is_inBeh gdr_cd_0 gdr_cd_1 gdr_cd_2 mrg_situ_cd_0 mrg_situ_cd_1 mrg_situ_cd_2 mrg_situ_cd_3 mrg_situ_cd_4 edu_deg_cd_0 edu_deg_cd_1 edu_deg_cd_2 edu_deg_cd_3 edu_deg_cd_4 edu_deg_cd_5 edu_deg_cd_6 edu_deg_cd_7 edu_deg_cd_8 edu_deg_cd_9 edu_deg_cd_10 edu_deg_cd_11 edu_deg_cd_12 acdm_deg_cd_0 acdm_deg_cd_1 acdm_deg_cd_2 acdm_deg_cd_3 acdm_deg_cd_4 acdm_deg_cd_5 acdm_deg_cd_6 acdm_deg_cd_7 ic_ind_0 ic_ind_1 ic_ind_2 fr_or_sh_ind_0 fr_or_sh_ind_1 fr_or_sh_ind_2 dnl_mbl_bnk_ind_0 dnl_mbl_bnk_ind_1 dnl_mbl_bnk_ind_2 dnl_bind_cmb_lif_ind_0 dnl_bind_cmb_lif_ind_1 dnl_bind_cmb_lif_ind_2 hav_car_grp_ind_0 hav_car_grp_ind_1 hav_car_grp_ind_2 hav_hou_grp_ind_0 hav_hou_grp_ind_1 hav_hou_grp_ind_2 l6mon_agn_ind_0 l6mon_agn_ind_1 l6mon_agn_ind_2 vld_rsk_ases_ind_0 vld_rsk_ases_ind_1 vld_rsk_ases_ind_2 fin_rsk_ases_grd_cd_0 fin_rsk_ases_grd_cd_1 fin_rsk_ases_grd_cd_2 fin_rsk_ases_grd_cd_3 fin_rsk_ases_grd_cd_4 fin_rsk_ases_grd_cd_5 fin_rsk_ases_grd_cd_6 fin_rsk_ases_grd_cd_7 fin_rsk_ases_grd_cd_8 fin_rsk_ases_grd_cd_9 fin_rsk_ases_grd_cd_10 fin_rsk_ases_grd_cd_11 confirm_rsk_ases_lvl_typ_cd_0 confirm_rsk_ases_lvl_typ_cd_1 confirm_rsk_ases_lvl_typ_cd_2 confirm_rsk_ases_lvl_typ_cd_3 confirm_rsk_ases_lvl_typ_cd_4 confirm_rsk_ases_lvl_typ_cd_5 confirm_rsk_ases_lvl_typ_cd_6 confirm_rsk_ases_lvl_typ_cd_7 confirm_rsk_ases_lvl_typ_cd_8 confirm_rsk_ases_lvl_typ_cd_9 confirm_rsk_ases_lvl_typ_cd_10 confirm_rsk_ases_lvl_typ_cd_11 confirm_rsk_ases_lvl_typ_cd_12 confirm_rsk_ases_lvl_typ_cd_13 cust_inv_rsk_endu_lvl_cd_0 cust_inv_rsk_endu_lvl_cd_1 cust_inv_rsk_endu_lvl_cd_2 cust_inv_rsk_endu_lvl_cd_3 cust_inv_rsk_endu_lvl_cd_4 cust_inv_rsk_endu_lvl_cd_5 cust_inv_rsk_endu_lvl_cd_6 cust_inv_rsk_endu_lvl_cd_7 cust_inv_rsk_endu_lvl_cd_8 cust_inv_rsk_endu_lvl_cd_9 l6mon_daim_aum_cd_0 l6mon_daim_aum_cd_1 l6mon_daim_aum_cd_2 l6mon_daim_aum_cd_3 l6mon_daim_aum_cd_4 l6mon_daim_aum_cd_5 l6mon_daim_aum_cd_6 l6mon_daim_aum_cd_7 l6mon_daim_aum_cd_8 l6mon_daim_aum_cd_9 l6mon_daim_aum_cd_10 tot_ast_lvl_cd_0 tot_ast_lvl_cd_1 tot_ast_lvl_cd_2 tot_ast_lvl_cd_3 tot_ast_lvl_cd_4 tot_ast_lvl_cd_5 tot_ast_lvl_cd_6 tot_ast_lvl_cd_7 tot_ast_lvl_cd_8 tot_ast_lvl_cd_9 tot_ast_lvl_cd_10 tot_ast_lvl_cd_11 tot_ast_lvl_cd_12 tot_ast_lvl_cd_13 tot_ast_lvl_cd_14 pot_ast_lvl_cd_0 pot_ast_lvl_cd_1 pot_ast_lvl_cd_2 pot_ast_lvl_cd_3 pot_ast_lvl_cd_4 pot_ast_lvl_cd_5 pot_ast_lvl_cd_6 pot_ast_lvl_cd_7 bk1_cur_year_mon_avg_agn_amt_cd_0 bk1_cur_year_mon_avg_agn_amt_cd_1 bk1_cur_year_mon_avg_agn_amt_cd_2 bk1_cur_year_mon_avg_agn_amt_cd_3 bk1_cur_year_mon_avg_agn_amt_cd_4 bk1_cur_year_mon_avg_agn_amt_cd_5 bk1_cur_year_mon_avg_agn_amt_cd_6 bk1_cur_year_mon_avg_agn_amt_cd_7 bk1_cur_year_mon_avg_agn_amt_cd_8 bk1_cur_year_mon_avg_agn_amt_cd_9 bk1_cur_year_mon_avg_agn_amt_cd_10 bk1_cur_year_mon_avg_agn_amt_cd_11 loan_act_ind_0 loan_act_ind_1 loan_act_ind_2 pl_crd_lmt_cd_0 pl_crd_lmt_cd_1 pl_crd_lmt_cd_2 pl_crd_lmt_cd_3 pl_crd_lmt_cd_4 pl_crd_lmt_cd_5 pl_crd_lmt_cd_6 pl_crd_lmt_cd_7 pl_crd_lmt_cd_8 pl_crd_lmt_cd_9 pl_crd_lmt_cd_10 hld_crd_card_grd_cd_0 hld_crd_card_grd_cd_1 hld_crd_card_grd_cd_2 hld_crd_card_grd_cd_3 hld_crd_card_grd_cd_4 hld_crd_card_grd_cd_5 hld_crd_card_grd_cd_6 hld_crd_card_grd_cd_7 hld_crd_card_grd_cd_8 hld_crd_card_grd_cd_9 hld_crd_card_grd_cd_10 hld_crd_card_grd_cd_11 hld_crd_card_grd_cd_12 crd_card_act_ind_0 crd_card_act_ind_1 crd_card_act_ind_2 l1y_crd_card_csm_amt_dlm_cd_0 l1y_crd_card_csm_amt_dlm_cd_1 l1y_crd_card_csm_amt_dlm_cd_2 l1y_crd_card_csm_amt_dlm_cd_3 l1y_crd_card_csm_amt_dlm_cd_4 l1y_crd_card_csm_amt_dlm_cd_5 l1y_crd_card_csm_amt_dlm_cd_6 atdd_type_0 atdd_type_1 atdd_type_2 perm_crd_lmt_cd_0 perm_crd_lmt_cd_1 perm_crd_lmt_cd_2 perm_crd_lmt_cd_3 perm_crd_lmt_cd_4 perm_crd_lmt_cd_5 perm_crd_lmt_cd_6 perm_crd_lmt_cd_7 perm_crd_lmt_cd_8 perm_crd_lmt_cd_9 cur_debit_crd_lvl_0 cur_debit_crd_lvl_1 cur_debit_crd_lvl_2 cur_debit_crd_lvl_3 cur_debit_crd_lvl_4 cur_debit_crd_lvl_5 Dat_Flg3_Cd_0 Dat_Flg3_Cd_1 Dat_Flg3_Cd_2 Dat_Flg3_Cd_3 page_cls_0 page_cls_1 page_cls_2 page_cls_3 page_cls_4 page_cls_5 page_cls_6 page_cls_7 page_cls_8 page_cls_9 page_cls_10 page_cls_11 page_cls_12 page_cls_13 page_cls_14 page_cls_15 page_cls_16 page_cls_17 page_cls_18 page_cls_19 page_cls_20 page_cls_21 page_cls_22 page_cls_23
feature_infos=[19:84] [-1:99] [-1:1278] [-1:260] [-1:610] [-1:7] [-1:333] [-1:28] [-1:1623] [0:177] [0:173] [-1:9538] [-1:6056] [-1:34] [-1:2000000.0049999999] [-1:4609157.5782352937] [-1:3] [-8893334.8100000005:8443832.879999999] [-1:1359] [-1:3175.644554167282] [0:1] [0:1] [0:1] [0:1] [0:1] [0:1] [0:1] [0:1] [0:1] [0:1] [0:1] [0:1] [0:1] [0:1] [0:1] [0:1] [0:1] [0:1] [0:1] [0:1] [0:1] [0:1] [0:1] [0:1] [0:1] [0:1] [0:1] [0:1] [0:1] [0:1] [0:1] [0:1] [0:1] none none [0:1] [0:1] [0:1] [0:1] [0:1] [0:1] [0:1] [0:1] [0:1] [0:1] [0:1] [0:1] [0:1] [0:1] [0:1] [0:1] [0:1] [0:1] none [0:1] [0:1] [0:1] [0:1] [0:1] [0:1] [0:1] [0:1] [0:1] [0:1] [0:1] [0:1] [0:1] [0:1] [0:1] [0:1] [0:1] [0:1] [0:1] [0:1] [0:1] [0:1] [0:1] [0:1] [0:1] [0:1] [0:1] [0:1] [0:1] [0:1] [0:1] [0:1] [0:1] [0:1] [0:1] [0:1] [0:1] [0:1] [0:1] [0:1] none [0:1] [0:1] [0:1] [0:1] none none none none [0:1] [0:1] [0:1] none none none none [0:1] [0:1] [0:1] [0:1] [0:1] none none [0:1] [0:1] [0:1] [0:1] [0:1] [0:1] [0:1] [0:1] [0:1] none [0:1] [0:1] [0:1] [0:1] [0:1] [0:1] [0:1] [0:1] [0:1] [0:1] [0:1] none [0:1] none [0:1] [0:1] [0:1] none [0:1] [0:1] [0:1] [0:1] [0:1] [0:1] [0:1] [0:1] [0:1] [0:1] [0:1] [0:1] [0:1] [0:1] [0:1] [0:1] [0:1] [0:1] [0:1] [0:1] [0:1] [0:1] [0:1] [0:1] [0:1] [0:1] [0:1] [0:1] none [0:1] [0:1] [0:1] [0:1] [0:1] [0:1] [0:1] [0:1] [0:1] [0:1] [0:1] [0:1] [0:1] none [0:1] [0:1] [0:1] [0:1] [0:1] [0:1] [0:1] [0:1] [0:1] [0:1] none none [0:1] [0:1] [0:1] [0:1] [0:1] [0:1] [0:1] [0:1] [0:1] [0:1] [0:1] [0:1] [0:1] [0:1] none [0:1] [0:1] [0:1] [0:1] [0:1] [0:1] [0:1] [0:1] [0:1] [0:1] [0:1] [0:1] [0:1] none none [0:1] [0:1] [0:1] [0:1] [0:1] [0:1] none [0:1] none none [0:1] [0:1] none [0:1] none none [0:1] none none none none none none [0:1] [0:1] [0:1] [0:1] [0:1]
tree_sizes=2248 2230 2025 2249 2137 2251 2250 2128 2255 2230 2331 2140 2149 1946 2283 2222 2207 2401 2373 2382 1582 2323 2030 1996 2336 1879 2338 1998 1959 2344 2251 2379 1691 2291 2101 1566 2018 2228 1990 1674 2268 2206 2171 2312 2044 2629 2074 2493 2261 2350 2615 2212 2194 1745 2158 2124 2354 2429 1997 2495 2031 2258 2591 2303 2276 2096 2400 2277 2166 1823 2256 2486 2404 1797 2336 2011 2199 2468 2337 2355 2335 2384 2321 2154 2395 2032 2390 1818 2598 2263 2141 2253 2574 2461 2644 1941 2243 2321 2091 1647 2499 2542 1932 2341 2096 2567 1621 2581 2382 2157 2292 1927 1888 2211 2322 2375 2689 1865 1311 2466 1710 2388 1644 1413 2310 2172 1424 2389 2158 1945 1449 2295 2366 2001 1950 2191 1906 2128 1981 1717 1813 2532 2105 2168 1913 2316 1709 2181 2494 2432 2013 2497 2182 2516 1371 2304 2086 2145 1672 2811 1804 1288 2502 2027 1847 2559 2172 1205 2308 2297 2310 1576 1591 2135 1980 2429 2605 2174 1793 1519 2079 2369 1834 1751 2233 1833 2032 2267 2086 2156 2634 1574 2642 2895 1760 2013 1627 1596 1912 2546 2835 2689 1677 2399 2072 1492 1941 2762 2142 1689 1482 2134 2090 2434 1678 2548 1656 1692 1632 2652 1860 1799 1913 2385 3202 2021 1389 1800 2502 1411 2385 2075 1498 2027 1723 2393 2261 2240 2969 1412 1390 1627 2065 1894 1867 1675 1916 2231 1677 2293 2519 2485 2279 1512 2609 1628 1893 2311 2808 1428 2221 1810 2203 2509 2269 2710 1725 2602 1851 1729 2505 2433 2628 2485 2834 2451 2174 2605 2404 2726 2802 2225 1678 2217 1715 1825 2435 1819 1788 1804 2868 2093 2447 1830 2737 2214 1797 1791 2222 1863 1570 2906 2506 2840 1900 1543 2598 1676 2794 2045 1331 2314 1816 1751 1505 2960 2369 2964 2817 2204 2758 2236 2065 3207 2692 2016 1972 2092 2603 2337 1864 2211 1800 2616 2308 2075 2278 2035 2652 2742 2507 3231 2774 2179 1696 3102 2682 1961 1896 2607 2862 2538 2612 1707 2179 2084 1923 2443 1650 2213 2312 2189 2405 3089 2472 2400 2380 2377 2491 2387 2265 2602 2502 2518 2363 2537 2940 2482 2964 2550 3047 2105 2448 2829 2018 2660 2071 2193 2734 2052 2639 2972 2977 2800 2041 2749 2350 3158 3055 2064 1963 2305 2360 2270 1382 2639 2537 2861 1822 2508 2508 1579 2472 2972 2620 1825 2289 2551 2611 1899 2465 2615 2475 1576 2196 1899 2612 2280 2049 2540 2534 2208 2376 2478 2014 1577 2566 1972 2733 2346 2587 2627 2515 2352 2436 2085 2296 2526 2672 2416

Tree=0
num_leaves=20
num_cat=0
split_feature=60 60 85 85 15 91 91 85 85 81 84 84 228 91 91 228 227 228 228
split_gain=3432.38 5139.66 1357.29 2339.13 476.001 470.525 705.239 343.524 1073.21 225.082 95.3413 97.3115 69.7762 52.4664 191.815 46.0756 14.6118 11.831 2.703
threshold=1.0000000180025095e-35 0.99997593805284424 1.0000000180025095e-35 0.99995048850461588 918.74266138191376 0.99975439783188735 1.0000000180025095e-35 1.0000000180025095e-35 0.99995048850461588 0.0032749574280696585 0.018755359186824087 0.99987735474400352 0.0092523369586252086 0.99975439783188735 1.0000000180025095e-35 0.99997593805284424 0.020083273272031302 0.037505350627687069 0.56919981205380943
decision_type=2 2 2 2 2 2 2 2 2 2 2 2 2 2 2 2 2 2 2
left_child=7 -2 5 -4 -5 6 -3 10 -9 -7 13 -12 16 14 -1 -14 -10 -15 -13
right_child=1 2 3 4 -6 9 -8 8 12 -11 11 18 15 17 -16 -17 -18 -19 -20
leaf_value=-0.047873475284464159 0.10042850029310002 -0.020964386143612564 0.099354373771619625 0.013500030014479206 -0.04174572222260578 -0.049620054716495658 0.09352052682763265 0.0930162658619825 -0.054128162734712909 -0.016739382494510003 0.060304404400141939 -0.035619893166536194 0.050123171430724776 -0.063491880828041372 0.065894630775731849 -0.018446557536725677 -0.030074968295927183 -0.038056172600928966 0.0014530193063364597
leaf_weight=208.74988801777363 1564.9991604685783 437.4997653067112 729.99960839748383 982.24947308003902 624.74966485798359 1301.2493019551039 180.74990303814411 169.24990920722485 477.74974371492863 990.2494687885046 26.499985784292221 85.249954268336296 19.249989673495293 1453.2492204159498 32.249982699751854 109.74994112551212 283.24984805285931 221.99988090991974 10.999994099140165
leaf_count=835 6260 1750 2920 3929 2499 5205 723 677 1911 3961 106 341 77 5813 129 439 1133 888 44
internal_value=0 0.395002 -0.0785892 0.485558 -0.185118 -0.535227 0.223799 -0.872839 -0.390965 -0.744441 -1.11516 -0.148236 -0.840326 -1.17082 -0.602989 -0.0660967 -0.956039 -1.24251 -0.683669
internal_weight=0 6811.75 5246.75 2337 1607 2909.75 618.25 3098.25 1059.25 2291.5 2039 122.75 890 1916.25 241 129 761 1675.25 96.2499
internal_count=39640 27247 20987 9348 6428 11639 2473 12393 4237 9166 8156 491 3560 7665 964 516 3044 6701 385
shrinkage=1


Tree=1
num_leaves=20
num_cat=0
split_feature=60 60 85 85 15 180 180 85 85 81 84 84 228 100 100 15 100 202 241
split_gain=3103.97 4654.6 1227.01 2120 430.602 418.485 573.854 310.433 975.081 201.804 86.413 89.9779 63.7068 52.2144 438.279 45.2815 21.748 7.97634 2.61806
threshold=1.0000000180025095e-35 0.99997593805284424 1.0000000180025095e-35 0.99995048850461588 918.74266138191376 1.0000000180025095e-35 0.99997593805284424 1.0000000180025095e-35 0.99995048850461588 1.0000000180025095e-35 0.018755359186824087 0.99987735474400352 0.0092523369586252086 0.99990256883134154 1.0000000180025095e-35 1083.6693333333335 0.99990256883134154 0.36857835083504215 0.297969171799841
decision_type=2 2 2 2 2 2 2 2 2 2 2 2 2 2 2 2 2 2 2
left_child=7 -2 5 -4 -5 9 -7 10 -9 -3 13 -12 16 14 -1 -14 -10 -15 -13
right_child=1 2 3 4 -6 6 -8 8 12 -11 11 18 15 17 -16 -17 -18 -19 -20
leaf_value=-0.053803330307136688 0.094298127632044038 -0.048388578042521037 0.093303182765722553 0.011451250276556319 -0.04109072352690768 0.090129770286719632 -0.017646642415058766 0.087421896310757641 -0.026032319331296301 -0.01737124197409674 0.056753078003303127 -0.034755641320235696 0.02535740909261144 -0.063463460781740949 0.078661435842023772 -0.029324494851734911 -0.05267805198826199 -0 -0
leaf_weight=634.72883541882038 1561.0605454444885 1296.0061917454004 728.20145666599274 982.2052703499794 624.47790192067623 158.34089608490467 441.81629604101181 168.88443802297115 235.3802133500576 1012.2739112973213 26.475921750068665 89.47446408867836 53.489207774400711 1214.8773770928383 57.451861679553986 75.4893718957901 525.20597720146179 7.4933980107307425 6.7484924346208564
leaf_count=2541 6260 5187 2920 3929 2499 634 1768 677 942 4050 106 358 214 4864 230 302 2102 30 27
internal_value=0 0.375855 -0.0745703 0.462005 -0.175782 -0.508865 0.219599 -0.830352 -0.37138 -0.70271 -1.06095 -0.136228 -0.799908 -1.114 -0.822657 -0.0571327 -0.910513 -1.26284 -0.654093
internal_weight=0 6804.38 5243.32 2334.88 1606.68 2908.44 600.157 3095.7 1058.45 2308.28 2037.25 122.699 889.565 1914.55 692.181 128.979 760.586 1222.37 96.223
internal_count=39640 27247 20987 9348 6428 11639 2402 12393 4237 9237 8156 491 3560 7665 2771 516 3044 4894 385
shrinkage=0.05


Tree=2
num_leaves=18
num_cat=0
split_feature=59 59 58 19 15 100 100 13 229 229 15 209 209 15 84 13 65
split_gain=2732.12 4199.68 1015.06 1313.66 687.837 267.717 922.125 191.323 90.1428 244.224 46.8469 33.6817 360.64 19.7873 13.6691 13.4527 5.48327
threshold=0.99999723166213117 1.0000000180025095e-35 0.99987377275471911 -0.99796071166628442 1030.5007962456632 0.99990256883134154 1.0000000180025095e-35 3.9858965823886625 1.0000000180025095e-35 0.99974500549202838 549.62295918367306 1.0000000180025095e-35 0.99995048850461588 2659.2045853915211 0.090967187880417147 10.998628750119455 0.069785432943476625
decision_type=2 2 2 2 2 2 2 2 2 2 2 2 2 2 2 2 2
left_child=1 2 3 4 -1 6 7 13 10 -10 -4 16 -13 -2 -14 -9 -7
right_child=5 -3 8 -5 -6 11 -8 15 9 -11 -12 12 14 -15 -16 -17 -18
leaf_value=0.013329803633996832 0.0031174497704992729 0.090331169888801022 -0.024974345071373739 0.092177053148041879 -0.0331474762664229 -0.059388794864159482 0.086887785612968754 -0.038230220821493008 0.072311375509152703 -0.036694116901714952 -0.056823297577124135 0.074041476416087229 -0.052183506987972784 -0.032917072250545236 -0 -0.063852429918840811 -0
leaf_weight=2578.6852989345789 225.95277681946754 1515.4763055443764 241.38404378294945 411.65255595743656 1138.713119328022 1124.2462588697672 159.5580347776413 318.68053013086319 51.489467158913612 264.59442684054375 735.77093514800072 51.737447336316109 631.17833966016769 33.678254365921021 28.451573431491852 355.53454303741455 6.4807398021221152
leaf_count=10340 906 6119 967 1655 4565 4512 641 1278 207 1060 2948 208 2533 135 114 1426 26
internal_value=0 0.340569 -0.0699098 0.170553 -0.0164741 -0.808686 -0.396509 -0.786314 -0.84075 -0.314619 -0.995899 -1.04448 -0.798091 -0.0149975 -1.01121 -1.06416 -1.18237
internal_weight=0 6937.77 5422.29 4129.05 3717.4 2935.5 1093.4 933.846 1293.24 316.084 977.155 1842.09 711.367 259.631 659.63 674.215 1130.73
internal_count=39640 27861 21742 16560 14905 11779 4386 3745 5182 1267 3915 7393 2855 1041 2647 2704 4538
shrinkage=0.05


Tree=3
num_leaves=20
num_cat=0
split_feature=59 59 85 85 91 91 15 85 85 81 84 84 100 100 100 100 202 241 241
split_gain=2477.98 3840.32 1133.59 1926.41 423.963 622.645 361.737 250.541 765.972 192.912 68.6056 70.3726 45.5517 116.125 36.7146 320.069 7.51551 3.26678 2.27697
threshold=0.99999723166213117 1.0000000180025095e-35 1.0000000180025095e-35 0.99995048850461588 0.99975439783188735 1.0000000180025095e-35 278.6233369863466 1.0000000180025095e-35 0.99995048850461588 0.0032749574280696585 0.018755359186824087 0.99987735474400352 0.99990256883134154 0.0075900663314021908 0.99990256883134154 1.0000000180025095e-35 0.36857835083504215 0.22103324527187054 0.297969171799841
decision_type=2 2 2 2 2 2 2 2 2 2 2 2 2 2 2 2 2 2 2
left_child=1 2 4 -4 5 -1 -5 10 -9 -6 14 -12 13 -10 15 -2 -16 -14 -13
right_child=7 -3 3 6 9 -7 -8 8 12 -11 11 18 17 -15 16 -17 -18 -19 -20
leaf_value=-0.019249561914926258 -0.049659199301913204 0.086782448193220785 0.088373649660807366 0.017207973164866882 -0.044942740919349022 0.086258783846657777 -0.029950452445493804 0.081760356230843961 -0.028779546585208173 -0.015165350309549725 0.050883498801281041 -0.031742479054155961 -0.046218102131952397 0.059917397119359533 -0.059204048300285583 0.069513521072516488 -0 -0.00048681640205886357 -0
leaf_weight=448.02613596618176 585.53575725853443 1499.3773547708988 747.94033575057983 734.40446199476719 1425.2845622003078 189.25968885421753 869.92178376019001 151.36715219914913 277.81547479331493 1000.6396190673113 24.079368725419044 89.250611066818237 551.62929655611515 29.935065075755119 1124.9376575797796 50.198785781860352 7.4771044850349417 26.63206447660923 6.7427774816751471
leaf_count=1795 2356 6119 3029 2939 5721 762 3489 613 1114 4007 97 358 2219 120 4536 202 30 107 27
internal_value=0 0.324812 -0.0664408 0.452426 -0.468313 0.243203 -0.161608 -0.771519 -0.356552 -0.659563 -0.991152 -0.142631 -0.722438 -0.339285 -1.04202 -0.77088 -1.17741 -0.900119 -0.596584
internal_weight=0 6914.85 5415.48 2352.27 3063.21 637.286 1604.33 2925.6 1037.38 2425.92 1888.22 120.073 886.012 307.751 1768.15 635.735 1132.41 578.261 95.9934
internal_count=39640 27861 21742 9457 12285 2557 6428 11779 4173 9728 7606 482 3560 1234 7124 2558 4566 2326 385
shrinkage=0.05


Tree=4
num_leaves=19
num_cat=0
split_feature=59 59 85 85 91 91 15 85 85 81 209 209 228 15 4 15 15 9
split_gain=2249.58 3524.17 1027.59 1764.37 384.401 569.047 333.112 227.843 700.043 174.89 55.8199 390.346 54.8819 38.3745 17.4925 16.6318 12.3849 4.9884
threshold=0.99999723166213117 1.0000000180025095e-35 1.0000000180025095e-35 0.99995048850461588 0.99975439783188735 1.0000000180025095e-35 998.74215492076053 1.0000000180025095e-35 0.99995048850461588 0.0032749574280696585 1.0000000180025095e-35 0.99995048850461588 0.0092523369586252086 1083.6693333333335 -1.0000000180025095e-35 471.79627313617294 0.02008407261451289 7.0004491689459494
decision_type=2 2 2 2 2 2 2 2 2 2 2 2 2 2 2 2 2 2
left_child=1 2 4 -4 5 -1 -5 10 -9 -6 14 -12 15 -14 -2 -10 -13 -16
right_child=7 -3 3 6 9 -7 -8 8 12 -11 11 16 13 -15 17 -17 -18 -19
leaf_value=-0.018320882852481107 -0 0.083658259265740609 0.084998552528162977 0.0095686712389311188 -0.042835237407715582 0.08280310939491764 -0.036999890447908045 0.078703174827542396 -0.027660701721694519 -0.014419078984539153 0.076410990625876946 -0.023414009019565109 0.025731553711758139 -0.025178403324296064 -0.056274425559086405 -0.049909431625362058 -0.050914633499980155 -0
leaf_weight=447.71431429684162 23.325839787721634 1478.4951795786619 739.36540931463242 1002.9574943780899 1421.2305838465691 187.75387592613697 599.91716057062149 149.8113646954298 390.1307183355093 1000.3322732150555 61.002732187509537 158.59805266559124 53.354989185929298 75.163535833358765 1129.3459585905075 364.69388873875141 499.0488079637289 6.9161038100719443
leaf_count=1795 94 6119 3029 4015 5721 762 2413 613 1574 4007 246 642 214 302 4576 1470 2020 28
internal_value=0 0.310578 -0.0630972 0.432105 -0.445944 0.232046 -0.153443 -0.736626 -0.339452 -0.628198 -0.946848 -0.670836 -0.689158 -0.00202999 -1.10216 -0.791519 -0.90963 -1.12015
internal_weight=0 6877.77 5399.27 2342.24 3057.03 635.468 1602.87 2911.39 1033.15 2421.56 1878.24 718.65 883.343 128.519 1159.59 754.825 657.647 1136.26
internal_count=39640 27861 21742 9457 12285 2557 6428 11779 4173 9728 7606 2908 3560 516 4698 3044 2662 4604
shrinkage=0.05


Tree=5
num_leaves=20
num_cat=0
split_feature=60 60 85 85 180 180 15 85 85 224 84 84 228 91 91 15 227 209 228
split_gain=2119.5 3305.12 889.518 1579.23 344.561 468.2 305.287 225.84 699.222 175.794 67.4032 66.6598 50.128 42.6714 138.86 35.1556 16.3994 12.8363 2.6356
threshold=1.0000000180025095e-35 0.99997593805284424 1.0000000180025095e-35 0.99995048850461588 1.0000000180025095e-35 0.99997593805284424 294.49784900380826 1.0000000180025095e-35 0.99995048850461588 0.99999723166213117 0.018755359186824087 0.99987735474400352 0.0092523369586252086 0.99975439783188735 1.0000000180025095e-35 1083.6693333333335 0.020083273272031302 1.0000000180025095e-35 0.56919981205380943
decision_type=2 2 2 2 2 2 2 2 2 2 2 2 2 2 2 2 2 2 2
left_child=7 -2 4 -4 9 -6 -5 10 -9 -3 13 -12 16 14 -1 -14 -10 -15 -13
right_child=1 2 3 6 5 -7 -8 8 12 -11 11 18 15 17 -16 -17 -18 -19 -20
leaf_value=-0.038399207711282753 0.08112605683510081 -0.023187168687530055 0.081933839578781809 0.015638489902905565 0.083586169637907895 -0.014225279343417703 -0.027674278764913338 0.076505108637856922 -0.045166602516520278 -0.060059336957709701 0.05111926547950725 -0.029173080107031509 0.024648328934726235 -0.055714713358402071 0.058734816615569299 -0.02410021801255282 -0.022617411041758576 -0.039222958175060996 -0
leaf_weight=205.50538861751556 1488.4543932080269 1870.0281834751368 702.30753870308399 742.89360599219799 155.99676392972469 439.89144366979599 857.95070162415504 163.11856935918331 471.60706335306168 423.48154456913471 26.09036423265934 84.514749377965927 53.354218617081642 1022.1194819957018 31.74352839589119 75.050103679299355 280.45032097399235 621.87314167618752 10.942774042487143
leaf_count=835 6260 7532 2920 2975 634 1768 3453 677 1911 1705 106 341 214 4171 129 302 1133 2530 44
internal_value=0 0.313938 -0.0616453 0.398731 -0.432172 0.230247 -0.145834 -0.691166 -0.295478 -0.608872 -0.889883 -0.0677752 -0.658309 -0.937073 -0.430614 -0 -0.75642 -1.00107 -0.529255
internal_weight=0 6681 5192.55 2303.15 2889.4 595.888 1600.84 3046.37 1043.58 2293.51 2002.79 121.548 880.462 1881.24 237.249 128.404 752.057 1643.99 95.4575
internal_count=39640 27247 20987 9348 11639 2402 6428 12393 4237 9237 8156 491 3560 7665 964 516 3044 6701 385
shrinkage=0.05


Tree=6
num_leaves=20
num_cat=0
split_feature=60 60 85 85 91 91 15 85 85 80 84 84 228 91 91 228 13 228 228
split_gain=1929.4 3052.26 807.5 1456.35 325.087 482.388 282.198 205.459 641.538 167.901 61.9226 61.8101 45.8281 39.0631 128.384 33.3729 17.5581 12.6313 2.38848
threshold=1.0000000180025095e-35 0.99997593805284424 1.0000000180025095e-35 0.99995048850461588 0.99975439783188735 1.0000000180025095e-35 1007.7271317562144 1.0000000180025095e-35 0.99995048850461588 0.99987377275471911 0.018755359186824087 0.99987735474400352 0.0092523369586252086 0.99975439783188735 1.0000000180025095e-35 0.99997593805284424 3.9858965823886625 0.037505350627687069 0.56919981205380943
decision_type=2 2 2 2 2 2 2 2 2 2 2 2 2 2 2 2 2 2 2
left_child=7 -2 4 -4 5 -3 -5 10 -9 -6 13 -12 16 14 -1 -14 -10 -15 -13
right_child=1 2 3 6 9 -7 -8 8 12 -11 11 18 15 17 -16 -17 -18 -19 -20
leaf_value=-0.036745958146697781 0.07863474002721825 -0.016419566354968562 0.079281482146743645 0.0087351314359310015 -0.020159910498881647 0.079135472981157973 -0.034302025383866196 0.074018184926312333 -0.024691633819644412 -0.05160296932615166 0.049509190176769552 -0.027941303283845687 0.04447549982640002 -0.050485919049049671 0.056754956213082956 -0.014743297495923895 -0.046624719402543202 -0.027686125662142902 -0
leaf_weight=204.48961129784584 1459.868042960763 435.43384540081024 690.15291287004948 1009.7243541479111 1638.3733053207397 175.52538569271564 589.02899000048637 160.56929062306881 395.94297297298908 633.18135446310043 25.92133241891861 84.275450170040131 19.082932144403458 1414.9773282706738 31.561664029955864 109.17376554012299 352.88466662168503 217.35231830179691 10.942774042487143
leaf_count=835 6260 1750 2920 4045 6599 723 2383 677 1609 2567 106 341 77 5813 129 439 1435 888 44
internal_value=0 0.300839 -0.0586119 0.381648 -0.411775 0.2212 -0.138498 -0.661331 -0.282175 -0.586627 -0.851682 -0.0593495 -0.62917 -0.897141 -0.408272 -0 -0.723294 -0.958831 -0.507058
internal_weight=0 6631.29 5171.42 2288.91 2882.51 610.959 1598.75 3027.17 1037.65 2271.55 1989.52 121.14 877.084 1868.38 236.051 128.257 748.828 1632.33 95.2182
internal_count=39640 27247 20987 9348 11639 2473 6428 12393 4237 9166 8156 491 3560 7665 964 516 3044 6701 385
shrinkage=0.05


Tree=7
num_leaves=19
num_cat=0
split_feature=59 59 277 94 94 100 100 224 13 150 150 209 209 117 12 150 72 65
split_gain=1701.95 2779.62 771.705 1030.52 810.566 201.394 668.71 175.205 163.137 108.033 220.695 25.2149 268.52 23.2854 19.1743 18.089 4.9599 4.59861
threshold=0.99999723166213117 1.0000000180025095e-35 1.0000000180025095e-35 0.99956853810825497 1.0000000180025095e-35 0.99990256883134154 1.0000000180025095e-35 0.99999723166213117 3.9858965823886625 1.0000000180025095e-35 0.99997593805284424 1.0000000180025095e-35 0.99995048850461588 0.04096574785772273 411.00083712536031 0.0043146209060841443 0.088483625398918311 0.069785432943476625
decision_type=2 2 2 2 2 2 2 2 2 2 2 2 2 2 2 2 2 2
left_child=1 2 9 4 -4 6 8 -5 14 13 -11 17 -13 -1 -2 -10 -14 -7
right_child=5 -3 3 7 -6 11 -8 -9 15 10 -12 12 16 -15 -16 -17 -18 -19
leaf_value=-0.051991298285719759 -0.026842389404053625 0.076269377014067108 0.013781326577249169 -0.012689905251579656 0.086063927928010875 -0.048995989089093084 0.078284986930947847 -0.053431210690942192 -0.050304264933076076 0.068234129166918553 -0.029379556630658128 0.067552094813775929 -0.041820679015785463 -0 0.0084547285472354704 -0.021955291106118453 -0 -0
leaf_weight=676.24480028450489 33.942755579948425 1394.8134159296751 1845.4073668271303 1377.104778200388 492.01651777327061 1090.5175100415945 153.59989596903324 339.68311521410942 484.42523095011711 53.18541656434536 508.47804091870785 49.959826827049255 631.31891214847565 36.334381729364395 221.80803665518761 173.0013620108366 12.105261534452437 6.3648897111415854
leaf_count=2749 138 6119 7538 5595 2052 4512 641 1375 1993 222 2063 208 2598 148 903 711 49 26
internal_value=0 0.273805 -0.0541882 0.157419 0.590226 -0.646188 -0.284214 -0.426065 -0.619799 -0.731222 -0.364594 -0.853548 -0.636121 -0.997318 0.0210984 -0.880682 -0.824037 -0.97497
internal_weight=0 6723.27 5328.45 4054.21 2337.42 2857.04 1066.78 1716.79 913.177 1274.24 561.663 1790.27 693.384 712.579 255.751 657.427 643.424 1096.88
internal_count=39640 27861 21742 16560 9590 11779 4386 6970 3745 5182 2285 7393 2855 2897 1041 2704 2647 4538
shrinkage=0.05


Tree=8
num_leaves=20
num_cat=0
split_feature=60 60 85 85 180 180 85 85 14 224 84 84 228 91 91 228 239 209 228
split_gain=1606.03 2631.78 704.842 1305.88 292.677 401.502 182.206 556.347 169.075 149.992 55.1456 52.9967 40.9183 34.3378 111.222 27.7855 12.7975 12.0775 2.13578
threshold=1.0000000180025095e-35 0.99997593805284424 1.0000000180025095e-35 0.99995048850461588 1.0000000180025095e-35 0.99997593805284424 1.0000000180025095e-35 0.99995048850461588 1094.556303052784 0.99999723166213117 0.018755359186824087 0.99987735474400352 0.0092523369586252086 0.99975439783188735 1.0000000180025095e-35 0.99997593805284424 0.04060993002073577 1.0000000180025095e-35 0.56919981205380943
decision_type=2 2 2 2 2 2 2 2 2 2 2 2 2 2 2 2 2 2 2
left_child=6 -2 4 -4 9 -6 10 -8 -5 -3 13 -12 16 14 -1 -14 -9 -15 -13
right_child=1 2 3 8 5 -7 7 12 -10 -11 11 18 15 17 -16 -17 -18 -19 -20
leaf_value=-0.03377745709043526 0.074473595125884043 -0.020639388251820226 0.076074988506386595 0.001769450848468322 0.07896849415603488 -0.012252270019921511 0.07088785848588347 -0.035439983105344658 -0.0372634523655965 -0.054936976161924035 0.046891165125275053 -0.025359275291222633 0.041830626366778874 -0.04987764115041525 0.053668876018709691 -0.012632044675749918 -0.0038803144930264519 -0.034232378917913753 -0
leaf_weight=202.07830147445202 1395.6648593991995 1857.5674116164446 670.54296864569187 1255.9488098919392 152.76884883642197 437.83588668704033 155.90787118673325 665.95931988954544 338.75666287541389 417.97873243689537 25.492336079478264 83.609093397855759 18.87028768658638 996.18292012810707 30.988390296697617 108.73536375164986 74.744575262069702 610.3390998095274 10.9107598811388
leaf_count=835 6260 7532 2920 5052 634 1768 677 2738 1376 1705 106 341 77 4171 129 439 306 2530 44
internal_value=0 0.276915 -0.0531927 0.360545 -0.383782 0.228656 -0.607464 -0.247843 -0.127822 -0.547417 -0.788136 -0.0354258 -0.571029 -0.831378 -0.367279 -0 -0.660309 -0.889833 -0.458203
internal_weight=0 6527.06 5131.4 2265.25 2866.15 590.605 2983.82 1024.22 1594.71 2275.55 1959.6 120.012 868.31 1839.59 233.067 127.606 740.704 1606.52 94.5199
internal_count=39640 27247 20987 9348 11639 2402 12393 4237 6428 9237 8156 491 3560 7665 964 516 3044 6701 385
shrinkage=0.05


Tree=9
num_leaves=20
num_cat=0
split_feature=59 59 15 224 225 150 150 100 100 13 180 229 85 85 15 150 65 202 84
split_gain=1415.22 2403.27 700.366 756.13 630.369 189.871 640.813 177.556 586.742 148.854 106.201 84.8751 33.819 177.403 22.2433 14.5659 11.6788 7.49628 5.71849
threshold=0.99999723166213117 1.0000000180025095e-35 1007.7271317562144 0.99999723166213117 0.99995121521903674 1.0000000180025095e-35 0.99997593805284424 0.99990256883134154 1.0000000180025095e-35 4.999270647171099 0.003993398764898016 1.0000000180025095e-35 1.0000000180025095e-35 0.99995048850461588 2659.2045853915211 0.0043146209060841443 0.069785432943476625 0.34420779188722384 0.052542277298053448
decision_type=2 2 2 2 2 2 2 2 2 2 2 2 2 2 2 2 2 2 2
left_child=1 2 3 4 -1 11 -7 8 9 14 -5 -4 17 -14 -2 -11 -15 18 -9
right_child=7 -3 5 10 -6 6 -8 12 -10 15 -12 -13 13 16 -16 -17 -18 -19 -20
leaf_value=0.035780753440481317 0.0065315082204086264 0.072492086898369015 -0.042459972237139744 -0.047166556038555935 -0.035947952115868508 0.079975430284520255 -0.030032903120813016 -0.047243765154516323 0.075162245268231412 -0.048821766085992917 -0 -0.014922354097720362 0.055620245684193187 -0.036316400554872258 -0.026126694948716764 -0.020739499174547586 0 0 -0.014972202429830314
leaf_weight=2113.1489963829517 251.97920642793179 1327.3021345585585 1017.4661008119583 466.93907229602337 342.90708646178246 167.55279402434826 508.28992056846619 1072.4639054834843 149.74078088998795 438.27466134727001 172.83921831846237 496.16215144097805 46.199750393629074 554.86246626079082 55.092096447944641 157.02084931731224 6.8591970652341834 7.521857261657714 72.934837341308594
leaf_count=8727 1032 6119 4176 1908 1389 714 2081 4536 641 1834 707 2040 201 2298 227 652 28 31 299
internal_value=0 0.251998 -0.0490984 0.254654 0.509166 -0.482345 -0.0252504 -0.593589 -0.251058 -0.566417 -0.699806 -0.678372 -0.790032 -0.537403 0 -0.854111 -0.707669 -0.908875 -0.915379
internal_weight=0 6612.61 5285.31 3095.83 2456.06 2189.47 675.843 2812.95 1052.11 902.367 639.778 1513.63 1760.84 607.921 307.071 595.296 561.722 1152.92 1145.4
internal_count=39640 27861 21742 12731 10116 9011 2795 11779 4386 3745 2615 6216 7393 2527 1259 2486 2326 4866 4835
shrinkage=0.05


Tree=10
num_leaves=21
num_cat=0
split_feature=85 85 91 91 15 224 225 100 100 13 84 84 15 15 150 150 98 241 242 185
split_gain=1325.54 2323.59 501.958 797.493 301.209 401.946 299.941 275.973 1252.96 171.108 135.299 132.966 86.142 66.7695 54.7056 196.506 52.9804 29.7649 17.8322 10.4094
threshold=1.0000000180025095e-35 0.99995048850461588 0.99975439783188735 1.0000000180025095e-35 1007.7271317562144 0.99999723166213117 0.99995121521903674 0.99990256883134154 1.0000000180025095e-35 3.9858965823886625 0.0032773639762837541 0.99987735474400352 500.00166666666672 0.0099769323200753976 0.010424442597727459 0.99997593805284424 0.06622686905040194 0.01526494829002545 0.11140379287401354 0.0075715653788390189
decision_type=2 2 2 2 2 2 2 2 2 2 2 2 2 2 2 2 2 2 2 2
left_child=2 -2 3 12 5 6 -3 8 9 -4 13 -12 16 -9 17 -16 -1 -6 -7 -14
right_child=1 4 7 -5 14 18 -8 10 -10 -11 11 -13 19 -15 15 -17 -18 -19 -20 -21
leaf_value=-0.024788078942219752 0.072939748918736946 0.028331685911428928 0.00032304071869117723 0.07434113476130759 -0.038840068010772749 -0.046742415886823041 -0.033164655459248689 -0.024202101842744642 0.082190990571514008 -0.037970087248608675 0.065169457735029093 -0.020064582939665915 -0.033273391350126413 -0.045080948560870936 0.068271455265141265 -0.029209052666797852 0.019825826594562182 -0 0 0
leaf_weight=88.205838724970818 1412.3797110617161 1181.137782856822 361.1953010559082 353.22818277776241 635.07051612436771 292.18473781645298 222.23601646721363 742.06122033298016 300.71513769030571 1095.5727909356356 52.649457156658173 155.55500654876232 387.44574947655201 1526.12669095397 54.885160326957703 227.47958742082119 179.71095702052116 59.21533527970314 11.211786746978758 9.0620887428522092
leaf_count=361 6496 4890 1482 1573 2632 1197 910 3109 1300 4566 228 638 1596 6413 238 941 738 248 46 38
internal_value=0 0.424947 -0.33319 0.289142 -0.118887 0.129948 0.361474 -0.485458 -0.173363 -0.563944 -0.701341 0.0239261 -0.345359 -0.772118 -0.56079 -0.137277 0.0595029 -0.714439 -0.88644 -0.638254
internal_weight=0 4095.8 5251.53 1017.65 2683.42 1706.77 1403.37 4233.88 1757.48 1456.77 2476.39 208.204 664.425 2268.19 976.651 282.365 267.917 694.286 303.397 396.508
internal_count=39640 17598 22042 4306 11102 7043 5800 17736 7348 6048 10388 866 2733 9522 4059 1179 1099 2880 1243 1634
shrinkage=0.05


Tree=11
num_leaves=19
num_cat=0
split_feature=60 60 58 19 94 100 100 13 150 150 85 85 117 15 150 84 84 241
split_gain=1263.1 2181.8 606.685 866.207 442.148 155.265 554.853 128.633 80.5844 170.653 27.9864 167.742 21.103 17.5083 15.4948 6.08895 14.831 4.2402
threshold=1.0000000180025095e-35 0.99997593805284424 0.99987377275471911 -0.99796071166628442 0.99956853810825497 0.99990256883134154 1.0000000180025095e-35 3.9858965823886625 1.0000000180025095e-35 0.99997593805284424 1.0000000180025095e-35 0.99995048850461588 0.04096574785772273 2659.2045853915211 0.0043146209060841443 0.052542277298053448 0.99987735474400352 0.22103324527187054
decision_type=2 2 2 2 2 2 2 2 2 2 2 2 2 2 2 2 2 2
left_child=5 -2 3 4 -3 6 7 13 12 -10 15 -12 -4 -1 -9 -7 -17 -13
right_child=1 2 8 -5 -6 10 -8 14 9 -11 11 17 -14 -15 -16 16 -18 -19
leaf_value=0.0074152849733562821 0.070035454239123426 0.015916547467826062 -0.04643474426815037 0.079270071682803797 -0.019956038277133728 -0.042943849554304969 0.071588529307633569 -0.043986673594787029 0.061366635520697856 -0.026208512075858927 0.053517434239659357 -0.034185969458697521 -0 -0.025397509030766593 -0.017846566081235863 0.015238120605513919 -0.024668705586244313 -0
leaf_weight=236.45873959362507 1297.8861617147923 1874.9444276690483 655.07467599213123 368.47958149015903 1567.2226611971855 1135.3744274824858 157.77080550789833 495.76518803834915 50.134852573275566 501.88698977231979 48.970705717802048 529.56846438348293 35.84786556661129 36.948533654212952 170.13580894470215 9.6615650504827482 64.387630581855774 25.997204765677452
leaf_count=969 6260 7788 2720 1614 6434 4894 701 2108 220 2063 223 2219 148 153 713 41 265 107
internal_value=0 0.24927 -0.0466547 0.14934 -0.00563883 -0.545065 -0.23153 -0.533579 -0.651917 -0.328298 -0.726898 -0.490433 -0.887838 0.00954005 -0.768211 -0.831905 -0.246389 -0.662183
internal_weight=0 6351.48 5053.59 3810.65 3442.17 2911.04 1097.08 939.308 1242.94 552.022 1813.96 604.536 690.923 273.407 665.901 1209.42 74.0492 555.566
internal_count=39640 27247 20987 15836 14222 12393 4644 3943 5151 2283 7749 2549 2868 1122 2821 5200 306 2326
shrinkage=0.05


Tree=12
num_leaves=19
num_cat=0
split_feature=60 60 209 209 15 85 85 85 85 180 209 209 13 221 13 4 179 8
split_gain=1153.33 2039.54 580.122 1389.48 307.858 230.429 565.477 132.813 420.569 91.1881 45.1197 306.626 35.3325 60.045 15.8431 12.2833 10.5329 0.302558
threshold=1.0000000180025095e-35 0.99997593805284424 1.0000000180025095e-35 0.99995048850461588 303.04666666666674 1.0000000180025095e-35 0.99995048850461588 1.0000000180025095e-35 0.99995048850461588 0.013725538653315385 1.0000000180025095e-35 0.99995048850461588 3.9858965823886625 0.99999723166213117 3.9858965823886625 -1.0000000180025095e-35 0.042425538927397373 1.3005844204979573
decision_type=2 2 2 2 2 2 2 2 2 2 2 2 2 2 2 2 2 2
left_child=7 -2 5 -4 -5 9 -7 10 -9 -3 15 -12 13 -10 -13 -1 -14 -17
right_child=1 2 3 4 -6 6 -8 8 12 -11 11 14 16 -15 -16 17 -18 -19
leaf_value=-0 0.068606784272363483 -0.032831658351482912 0.082099957057688203 0.013395287544401481 -0.031867524093995202 0.068215277193787088 -0.016854665757469425 0.064932617217391353 0.0020853010144289011 -0.0023111717234655669 0.07234997463120639 -0.019777654433594749 -0.039364321020903509 -0.033422668037059115 -0.041834135427895096 -0.041866750072767071 -0.0054438605438035222 -0
leaf_weight=27.039084553718567 1259.840825676918 1479.7650156766176 591.46031233668327 773.65595234930515 698.51535719633102 237.31845955550671 916.91954749822617 143.81346850097179 250.79357297718525 337.82151149213314 64.89211617410183 300.05893452465534 351.99090559780598 181.35142144560814 365.35011917352676 1120.936231970787 66.417568489909172 11.13576929271221
leaf_count=112 6260 6101 2575 3200 2894 1103 3726 677 1037 1388 274 1275 1480 766 1573 4874 277 48
internal_value=0 0.239325 -0.0442728 0.359741 -0.156275 -0.328439 0.0128492 -0.523215 -0.209678 -0.549526 -0.680987 -0.443502 -0.488457 -0.242076 -0.661368 -0.816989 -0.707994 -0.833084
internal_weight=0 6295.3 5035.46 2063.63 1472.17 2971.82 1154.24 2883.78 994.367 1817.59 1889.41 730.301 850.553 432.145 665.409 1159.11 418.408 1132.07
internal_count=39640 27247 20987 8669 6094 12318 4829 12393 4237 7489 8156 3122 3560 1803 2848 5034 1757 4922
shrinkage=0.05


Tree=13
num_leaves=17
num_cat=0
split_feature=60 60 58 19 94 100 100 13 150 150 98 98 13 117 12 150
split_gain=1054.53 1908.74 523.573 771.612 386.774 137.925 488.25 112.742 71.5765 149.599 28.1239 170.876 36.919 19.2958 15.1418 14.0447
threshold=1.0000000180025095e-35 0.99997593805284424 0.99987377275471911 -0.99796071166628442 0.99956853810825497 0.99990256883134154 1.0000000180025095e-35 3.9858965823886625 1.0000000180025095e-35 0.99997593805284424 1.0000000180025095e-35 0.99993571913706703 3.9858965823886625 0.04096574785772273 440.07060256019702 0.0043146209060841443
decision_type=2 2 2 2 2 2 2 2 2 2 2 2 2 2 2 2
left_child=5 -2 3 4 -3 6 7 14 13 -10 -7 -12 -13 -4 -1 -9
right_child=1 2 8 -5 -6 10 -8 15 9 -11 11 12 -14 -15 -16 -17
leaf_value=-0.021762923433808451 0.067296764152566649 0.014974636808240606 -0.043587438201663213 0.075997695905986609 -0.018671262004026884 -0.048036904669369468 0.069134213034195494 -0.040915967813381915 0.058594604611282977 -0.024224577504372805 0.066586866858127924 -0.020833441815821085 -0.040728005715164661 -0 0.0076620080214484217 -0.015863603724529673
leaf_weight=40.434730395674706 1221.318750217557 1863.4914005994797 645.75717121362686 356.29207260906696 1559.0136626511812 400.03090834617615 152.47699703276157 485.37234736979008 48.716492205858231 498.03771334886551 33.023876130580902 619.68198780715466 725.82802012562752 35.685819655656815 231.86009097099304 168.13303823769093
leaf_count=167 6260 7788 2720 1614 6434 1750 701 2108 220 2063 146 2683 3170 148 955 713
internal_value=0 0.230247 -0.0420417 0.140397 -0.00431529 -0.502471 -0.204107 -0.488116 -0.608027 -0.300547 -0.675615 -0.579351 -0.643112 -0.832357 0.0181035 -0.711207
internal_weight=0 6228.31 5006.99 3778.8 3422.51 2856.84 1078.28 925.8 1228.2 546.754 1778.56 1378.53 1345.51 681.443 272.295 653.505
internal_count=39640 27247 20987 15836 14222 12393 4644 3943 5151 2283 7749 5999 5853 2868 1122 2821
shrinkage=0.05


Tree=14
num_leaves=21
num_cat=0
split_feature=60 60 15 224 80 231 231 209 209 15 98 94 91 91 241 228 228 8 84 3
split_gain=963.431 1789.23 525.201 659.839 213.591 162.758 641.719 112.259 527.82 59.1561 68.66 52.234 26.0938 73.8835 23.584 19.7335 51.4715 12.6473 5.255 1.20761
threshold=1.0000000180025095e-35 0.99997593805284424 571.35078446600062 0.99999723166213117 0.99987377275471911 0.99999723166213117 1.0000000180025095e-35 1.0000000180025095e-35 0.99995048850461588 471.79627313617294 0.030154329161542818 0.99956853810825497 0.99975439783188735 1.0000000180025095e-35 0.038517540927285106 0.037505350627687069 0.99997593805284424 0.15774427299864988 0.17474440139171446 -1.0000000180025095e-35
decision_type=2 2 2 2 2 2 2 2 2 2 2 2 2 2 2 2 2 2 2 2
left_child=7 -2 3 4 -3 6 -4 12 -9 10 -10 -5 13 19 -7 17 -17 -14 -11 -1
right_child=1 2 5 11 -6 14 -8 8 9 18 -12 -13 15 -15 -16 16 -18 -19 -20 -21
leaf_value=-0 0.066091895791547159 0.033022298972266474 -0.020744755749797637 -0.013678182656038609 -0.021086711406429717 -0.038094966935813657 0.0764473154027 0.073260434349275316 -0.04347881129844347 -0.037226582473031379 0 -0.047038950187628409 -0.038389281305776804 0.047599779786307896 -0 0.041134521298102147 -0.025631751462783722 0 -0 -0.028483214856643475
leaf_weight=33.949002772569656 1182.5695910900831 1790.1806612461805 1346.6297836452723 296.46298733353615 184.51210437715054 826.22934022545815 183.06162987649441 147.17868620157242 106.90651331841946 525.52721245586872 371.15692979097366 299.42090015113354 1248.4065662026405 29.061648681759834 60.546617314219475 20.399829789996147 169.1623894572258 10.61766631901264 19.195458859205246 148.99843396246433
leaf_count=140 6260 7555 5654 1227 758 3477 817 672 465 2286 1591 1241 5513 131 258 92 730 47 81 645
internal_value=0 0.221228 -0.0398796 0.272015 0.552675 -0.37554 -0.167357 -0.482386 -0.228861 -0.494147 -0.201112 -0.635326 -0.652582 -0.231599 -0.717635 -0.705329 -0.2848 -0.758021 -0.725033 -0.511038
internal_weight=0 6169.61 4987.04 2570.58 1974.69 2416.47 1529.69 2830.56 1169.96 1022.79 478.063 595.884 1660.6 212.009 886.776 1448.59 189.562 1259.02 544.723 182.947
internal_count=39640 27247 20987 10781 8313 10206 6471 12393 5095 4423 2056 2468 7298 916 3735 6382 822 5560 2367 785
shrinkage=0.05


Tree=15
num_leaves=20
num_cat=0
split_feature=60 60 209 209 15 15 221 228 228 15 241 91 91 209 209 180 236 13 17
split_gain=878.662 1680.52 496.024 1226.26 254.888 171.512 233.45 102.409 244.819 95.5025 68.3469 59.7892 143.426 38.4206 264.679 7.32164 5.79196 4.27913 1.51737
threshold=1.0000000180025095e-35 0.99997593805284424 1.0000000180025095e-35 0.99995048850461588 303.04666666666674 827.98676993256197 0.99999723166213117 1.0000000180025095e-35 0.99997593805284424 238.89652234832366 1.0000000180025095e-35 0.99975439783188735 1.0000000180025095e-35 1.0000000180025095e-35 0.99995048850461588 0.090497642700102757 0.0085134780200811794 1.9880708012109933 919.71500000000071
decision_type=2 2 2 2 2 2 2 2 2 2 2 2 2 2 2 2 2 2 2
left_child=7 -2 5 -4 -5 6 -3 11 -9 18 -7 12 15 16 -15 -1 -13 -11 -10
right_child=1 2 3 4 -6 10 -8 8 9 17 -12 13 -14 14 -16 -17 -18 -19 -20
leaf_value=-0.0257950012781696 0.064980593016772822 0.011294668288470741 0.078377110352231161 0.012075176341374205 -0.029276465299997636 -0.030720279330484376 -0.029821300213170018 0.067320754010349107 0.034970949625467221 0 0.0047843528266280451 -0.039039957544573907 0.059159695380387095 0.066205137354093765 -0.029151196934329649 -0 -0.020528882792404109 -0.034779373132715501 0
leaf_weight=215.64650884270668 1143.8083815574646 970.08330002427101 571.72201959788799 769.32651837170124 689.66118511557579 1324.3445167392492 518.93413490056992 92.557269036769867 45.505342975258827 6.400237411260604 121.55143313109875 1029.3993853032589 56.687501594424248 68.179365530610085 762.8496153652668 39.272598311305046 215.83447352051735 264.97792832553387 7.159438267350196
leaf_count=931 6260 4039 2575 3200 2894 5607 2153 428 188 27 519 4607 263 312 3331 170 953 1153 30
internal_value=0 0.212209 -0.038368 0.338319 -0.143951 -0.302663 -0.0560872 -0.462905 -0 -0.419908 -0.547595 -0.542419 -0.0910816 -0.604601 -0.400786 -0.446161 -0.728378 -0.676483 0.639596
internal_weight=0 6109.43 4965.62 2030.71 1458.99 2934.91 1489.02 2804.47 416.6 324.043 1445.9 2387.87 311.607 2076.26 831.029 254.919 1245.23 271.378 52.6648
internal_count=39640 27247 20987 8669 6094 12318 6192 12393 1826 1398 6126 10567 1364 9203 3643 1101 5560 1180 218
shrinkage=0.05


Tree=16
num_leaves=20
num_cat=0
split_feature=85 85 91 91 80 80 15 224 225 84 10 10 15 150 209 242 214 8 74
split_gain=912.067 1737.17 362.714 581.821 240.507 912.449 221.3 363.882 255.957 139.248 77.7318 285.439 60.3412 35.2098 30.2006 14.9199 12.5396 10.1741 1.92194
threshold=1.0000000180025095e-35 0.99995048850461588 0.99975439783188735 1.0000000180025095e-35 0.99987377275471911 1.0000000180025095e-35 294.49784900380826 0.99999723166213117 0.99995121521903674 1.0000000180025095e-35 1.0000487847809636 1.9998795580064164 3188.1492857142862 0.0043146209060841443 0.01412083203125847 0.11140379287401354 0.034322701785569794 7.0647652774514667 0.10748536248046184
decision_type=2 2 2 2 2 2 2 2 2 2 2 2 2 2 2 2 2 2 2
left_child=2 -2 3 12 5 9 7 8 -3 -4 13 -12 14 -8 -1 -9 -14 18 -6
right_child=1 6 4 -5 17 -7 10 15 -10 -11 11 -13 16 -15 -16 -17 -18 -19 -20
leaf_value=-0.012216840655191224 0.067002682158867247 0.039007223973535968 -0.025542705851423139 0.068128442622080898 -0.041493517732950159 0.079088634469308527 -0.037922193964150787 -0.039960563192958973 -0.025800064792789554 0.0080842882652161999 0.071742694122195833 -0.019030704911952571 -0.036414162895878892 -0.010353933505493587 0.014732086405788656 0 0 0 -0
leaf_weight=249.85942193865776 1231.8868465870619 748.52687177062035 2391.4089560359716 314.03185747563839 1073.5748990178108 235.33373607695103 485.78786253929138 270.64425168931484 173.48503114283085 323.70689226686954 90.819737181067467 574.55851922929287 216.78101253509521 238.5732980966568 159.5220961868763 10.514414101839064 19.043081730604172 6.0585412234067908 9.4576799869537336
leaf_count=1046 6496 3217 10426 1573 4733 1107 2071 1141 725 1402 429 2456 929 1019 676 44 82 27 41
internal_value=0 0.366956 -0.281066 0.263326 -0.413139 -0.258323 -0.0948908 0.212945 0.522614 -0.426703 -0.368162 -0.100432 -0.269061 -0.595758 -0.00845278 -0.751285 -0.662041 -0.817286 -0.825208
internal_weight=0 3824.8 4998.78 959.237 4039.54 2950.45 2592.91 1203.17 922.012 2715.12 1389.74 665.378 645.206 724.361 409.382 281.159 235.824 1089.09 1083.03
internal_count=39640 17598 22042 4306 17736 12935 11102 5127 3942 11828 5975 2885 2733 3090 1722 1185 1011 4801 4774
shrinkage=0.05


Tree=17
num_leaves=21
num_cat=0
split_feature=85 85 100 100 13 13 100 100 227 180 180 251 251 84 84 229 95 91 10 209
split_gain=832.201 1632.93 342.306 1121.58 221.981 179.181 223.773 163.754 119.173 102.62 214.426 79.5461 163.478 67.8879 79.2096 53.8637 46.805 39.423 37.3421 25.5322
threshold=1.0000000180025095e-35 0.99995048850461588 0.99990256883134154 1.0000000180025095e-35 4.999270647171099 3.9858965823886625 0.99990256883134154 1.0000000180025095e-35 1.0000000180025095e-35 1.0000000180025095e-35 0.99997593805284424 0.99995121521903674 0.0023012017075260132 0.0032773639762837541 0.99987735474400352 0.0046932042226402468 0.0045685639895528549 0.99975439783188735 1.0000487847809636 1.0000000180025095e-35
decision_type=2 2 2 2 2 2 2 2 2 2 2 2 2 2 2 2 2 2 2 2
left_child=2 -2 3 4 16 6 7 -3 -8 13 -11 12 -7 19 -15 -6 -1 -12 -13 -4
right_child=1 5 9 -5 15 11 8 -9 -10 10 17 18 -14 14 -16 -17 -18 -19 -20 -21
leaf_value=-0.0074477820711289907 0.065838689995299404 0.011478926794414104 -0.037896030958068601 0.072949744375228193 -0.037559528653401564 -0.015722591089896484 -0.021095059670479178 0.072055687160720597 0.018057275683002898 0.065672821036119933 0.0090852722594890033 -0.040026250744017028 0.065181881967585981 0.054022203789372704 -0.018770529716746268 -0.014068515744030403 0.018719951983330877 -0.027594242876769523 -0.014860356566120498 -0.022733930609633166
leaf_weight=264.62078610062599 1192.1669847220182 378.18575716018677 1287.8992076069117 425.70897236466408 724.16428156197071 316.5197591483593 590.00082205235958 169.59816052019596 266.50987982749939 79.553882598876953 65.569545686244965 381.25993952155113 67.195786878466606 39.623588383197784 141.00073303282261 523.34807558357716 377.38159373402596 313.10548365116119 410.55634585022926 717.26303724944592
leaf_count=1117 6496 1580 5744 2100 3176 1363 2501 794 1147 386 279 1631 313 189 594 2320 1618 1358 1773 3161
internal_value=0 0.353622 -0.268884 0.00785324 -0.319785 -0.0909657 0.144708 0.641719 -0.165354 -0.514092 -0.0575798 -0.379783 -0 -0.604543 -0 -0.565852 0.144369 -0.397725 -0.558988 -0.657205
internal_weight=0 3771.99 4959.24 2315.22 1889.51 2579.83 1404.29 547.784 856.511 2644.02 458.229 1175.53 383.716 2185.79 180.624 1247.51 642.002 378.675 791.816 2005.16
internal_count=39640 17598 22042 10331 8231 11102 6022 2374 3648 11711 2023 5080 1676 9688 783 5496 2735 1637 3404 8905
shrinkage=0.05


Tree=18
num_leaves=21
num_cat=0
split_feature=85 85 81 81 15 224 225 84 84 15 229 91 91 10 10 15 150 228 242 10
split_gain=761.395 1535.06 329.581 1408.5 192.049 318.018 223.405 139.107 144.387 95.8633 138.12 95.3568 153.727 67.4213 257.485 41.4924 31.5357 22.8418 13.7314 7.01406
threshold=1.0000000180025095e-35 0.99995048850461588 1.0000000180025095e-35 0.99996625117671289 294.49784900380826 0.99999723166213117 0.99995121521903674 1.0000000180025095e-35 0.99987735474400352 2217.1681309009232 1.0000000180025095e-35 0.99975439783188735 1.0000000180025095e-35 1.0000487847809636 1.9998795580064164 212.77265601482915 0.0043146209060841443 1.0000000180025095e-35 0.11140379287401354 2.0000623265902084
decision_type=2 2 2 2 2 2 2 2 2 2 2 2 2 2 2 2 2 2 2 2
left_child=2 -2 7 -4 5 6 -3 11 -9 10 -5 12 -1 16 -15 -10 -6 -13 -7 -11
right_child=1 4 3 9 13 18 -8 8 15 19 -12 17 -14 14 -16 -17 -18 -19 -20 -21
leaf_value=-0.021045180083843575 0.064762619900202573 0.03675138979872742 0.075892154154467109 -0.017688217872860634 -0.035549379722524789 -0.037501461509602194 -0.023876711197311523 0.061873019074097535 0.0069627279223445542 -0.040075200825245065 0.031508169198183021 -0.035827224361456571 0.055538583416615994 0.06920290467413405 -0.017842594909968156 -0.029371601634315209 -0.0092547402084570286 -0.01488048574311956 0 -0.0098764896028949584
leaf_weight=308.82886071503162 1152.5478258728981 741.28362514078617 484.27225707471371 1041.8307822644711 479.47749279439449 268.01889516413212 172.56841990351677 74.78644397854805 113.56278184056282 478.01572063565254 149.64835448563099 1711.568553969264 71.215492561459541 88.660642430186272 571.2734818905592 151.59663005173206 237.067800745368 256.84426341950893 10.49005740880966 76.465307801961899
leaf_count=1319 6496 3217 2379 4545 2071 1141 725 369 477 2099 667 7682 374 429 2456 643 1019 1152 44 336
internal_value=0 0.341247 -0.257531 0.022545 -0.086267 0.201396 0.492537 -0.492803 0.0777249 -0.392789 -0.217645 -0.579608 -0.0871294 -0.34232 -0.0908694 -0.246113 -0.555703 -0.668716 -0.703204 -0.740904
internal_weight=0 3721.39 4918.64 2230.23 2568.84 1192.36 913.852 2688.4 339.946 1745.96 1191.48 2348.46 380.044 1376.48 659.934 265.159 716.545 1968.41 278.509 554.481
internal_count=39640 17598 22042 10026 11102 5127 3942 12016 1489 7647 5212 10527 1693 5975 2885 1120 3090 8834 1185 2435
shrinkage=0.05


Tree=19
num_leaves=21
num_cat=0
split_feature=85 85 81 81 15 224 225 84 84 13 100 91 91 15 241 241 150 150 228 242
split_gain=695.728 1446.17 300.149 1302.9 178.391 242.939 197.862 127.906 134.034 93.7653 150.994 87.4764 142.568 38.1871 32.8641 34.0591 25.5303 24.0898 20.7038 12.5155
threshold=1.0000000180025095e-35 0.99995048850461588 1.0000000180025095e-35 0.99996625117671289 1007.7271317562144 0.99999723166213117 0.99995121521903674 1.0000000180025095e-35 0.99987735474400352 4.999270647171099 0.99990256883134154 0.99975439783188735 1.0000000180025095e-35 212.77265601482915 0.0024650511064803764 0.99947148099025906 0.010424442597727459 0.010424442597727459 1.0000000180025095e-35 0.11140379287401354
decision_type=2 2 2 2 2 2 2 2 2 2 2 2 2 2 2 2 2 2 2 2
left_child=2 -2 7 -4 5 6 -3 11 -9 10 -5 12 -1 -10 17 -16 -11 -6 -13 -7
right_child=1 4 3 9 14 19 -8 8 13 16 -12 18 -14 -15 15 -17 -18 -19 -20 -21
leaf_value=-0.020112079657481165 0.063765319900268222 0.023435497351731831 0.074064972057186929 0.018476818240434158 -0.030531890009333835 -0.03683580214654008 -0.027168026060758761 0.060319852297427062 0.0066380740250908989 -0.038684799490654398 -0.022654913439804591 -0.034400892949946804 0.054311028094981444 -0.02816682587442107 0.046092273451713225 -0.012030707419632584 -0.015552425623968559 -0.0076139382014805803 -0.014209709957095654 0
leaf_weight=307.49766790866852 1113.1994557380676 1127.6346795558929 471.96734607219696 337.70088292658329 598.62758728861809 279.34312681853771 215.51878261566162 73.175020918250084 113.64789178967476 520.94007380306721 582.85361495614052 1694.2688643485308 69.454761907458305 150.62951724231243 25.00425261259079 66.893102630972862 296.37869670987129 231.02469049394131 256.01398998498917 10.963643580675123
leaf_count=1319 6496 4890 2379 1461 2632 1197 910 369 477 2332 2553 7682 374 643 119 288 1301 1020 1152 46
internal_value=0 0.329015 -0.246817 0.0214972 -0.0827427 0.110956 0.29611 -0.472318 0.0756055 -0.375438 -0.139844 -0.55603 -0.0811608 -0.233606 -0.434316 0.036968 -0.623804 -0.498247 -0.641829 -0.693729
internal_weight=0 3668.21 4874.53 2209.84 2555.01 1633.46 1343.15 2664.69 337.452 1737.87 920.554 2327.24 376.952 264.277 921.55 91.8974 817.319 829.652 1950.28 290.307
internal_count=39640 17598 22042 10026 11102 7043 5800 12016 1489 7647 4014 10527 1693 1120 4059 407 3633 3652 8834 1243
shrinkage=0.05


Tree=20
num_leaves=14
num_cat=0
split_feature=97 97 15 225 224 150 150 85 236 180 180 243 20
split_gain=649.912 879.123 602.842 416.501 509.216 258.404 806.418 147.613 53.232 5.48106 56.5596 1.44156 1.22738
threshold=0.99999723166213117 1.0000000180025095e-35 212.77265601482915 0.99995121521903674 0.99999723166213117 1.0000000180025095e-35 0.99997593805284424 1.0000000180025095e-35 0.0033731824484570243 0.003993398764898016 0.99997593805284424 0.11816148574860265 0.10918618430946582
decision_type=2 2 2 2 2 2 2 2 2 2 2 2 2
left_child=1 2 3 4 -1 7 -7 -4 -5 12 -11 -12 -2
right_child=9 -3 5 8 -6 6 -8 -9 -10 10 11 -13 -14
leaf_value=0.039682240864412355 -0.039533353661814707 0.071156070080662784 -0.028577956142389661 -0.037486240603305999 -0.021238435625620222 0.06810894135608081 -0.015804776062563586 -0.0044546396382775712 -0 0.037131233580578987 -0.032070955847238507 -0 -0
leaf_weight=1812.6391943842173 854.48658101260662 464.52673438191414 1750.7873612195253 276.02066089212894 404.25895388424397 378.31697197258472 1067.8988618403673 1082.2820376604795 145.49702507257462 21.370154723525047 168.71059896051884 7.3644361346960059 13.406565874814985
leaf_count=8715 3871 2504 8006 1219 1794 2072 4791 5080 642 111 740 32 63
internal_value=0 0.106191 0.0143883 0.390856 0.566063 -0.215763 0.122398 -0.391728 -0.499205 -0.725852 -0.397781 -0.622405 -0.783715
internal_weight=0 7382.23 6917.7 2638.42 2216.9 4279.29 1446.22 2833.07 421.518 1065.34 197.445 176.075 867.893
internal_count=39640 34823 32319 12370 10509 19949 6863 13086 1861 4817 883 772 3934
shrinkage=0.05


Tree=21
num_leaves=21
num_cat=0
split_feature=209 209 15 85 85 97 225 100 100 13 15 227 91 91 15 227 74 91 91 100
split_gain=617.217 1715.78 269.661 240.742 704.459 231.165 134.235 97.6765 422.381 68.938 68.0172 87.3586 42.9001 61.3913 32.4454 65.2723 21.6122 21.1556 17.8422 4.75556
threshold=1.0000000180025095e-35 0.99995048850461588 407.32023018746219 1.0000000180025095e-35 0.99995048850461588 0.99999723166213117 0.99995121521903674 0.99990256883134154 1.0000000180025095e-35 4.999270647171099 100.00166666666668 0.0080685426337966399 0.99975439783188735 1.0000000180025095e-35 100.00166666666668 0.01650315297310884 0.0069892041941364566 0.99975439783188735 0.99975439783188735 0.99990256883134154
decision_type=2 2 2 2 2 2 2 2 2 2 2 2 2 2 2 2 2 2 2 2
left_child=3 -2 5 7 -5 6 -3 8 9 -1 11 -6 13 -4 15 -9 -14 -12 -16 -7
right_child=1 2 12 4 10 19 -8 14 -10 -11 17 -13 16 -15 18 -17 -18 -19 -20 -21
leaf_value=-0.00043194731417143503 0.068468481682958271 0.025610081282215286 -0.016728449029027037 0.061206222891113077 -0.012369701448757868 -0 -0.018562661223616075 -0.025233310142869919 0.066895808280613991 -0.028268688091894718 -0 0.031689479239863406 -0.029634038660321462 0.046191676724531977 -0.0070842490326662776 0.015762691884734271 -0 -0.025427911410049686 -0.038840899391619388 -0.040427636525228364
leaf_weight=354.79369550943375 1068.1900821626186 953.32771077752113 150.43901886045933 388.84963092207909 379.5727577060461 20.563214674592018 188.29557165503502 611.40460097789764 145.51288501918316 821.06123073399067 129.89752055704594 148.12041114270687 951.78736026585102 40.889191463589668 94.036452278494835 92.318761959671974 78.03969632089138 761.65186534821987 809.49259877204895 189.19909118115902
leaf_count=1513 6005 4431 662 2351 1633 88 816 2800 752 3716 573 644 4327 229 430 409 362 3301 3752 846
internal_value=0 0.30955 -0.130242 -0.237347 0.0445601 0.171697 0.355846 -0.414355 -0.199005 -0.407311 -0.277928 0 -0.471185 -0 -0.582891 -0.380183 -0.551473 -0.444861 -0.723936 -0.755609
internal_weight=0 3640.73 2572.54 4736.71 1808.09 1351.39 1141.62 2928.62 1321.37 1175.85 1419.24 527.693 1221.16 191.328 1607.25 703.723 1029.83 891.549 903.529 209.762
internal_count=39640 17766 11761 21874 8502 6181 5247 13372 5981 5229 6151 2277 5580 891 7391 3209 4689 3874 4182 934
shrinkage=0.05


Tree=22
num_leaves=18
num_cat=0
split_feature=60 60 209 209 15 231 231 100 100 15 180 97 97 15 229 14 15
split_gain=570.077 1235.49 316.747 877.027 159.206 129.989 436.928 79.381 300.162 71.9451 42.7351 17.3053 113.745 39.0643 15.4304 10.9096 0.59629
threshold=1.0000000180025095e-35 0.99997593805284424 1.0000000180025095e-35 0.99995048850461588 212.77265601482915 0.99999723166213117 1.0000000180025095e-35 0.99990256883134154 1.0000000180025095e-35 456.27928571428578 0.003993398764898016 0.99999723166213117 1.0000000180025095e-35 3.5769461750124654 0.045111771830426035 4.9990787748987344 22910.066875000004
decision_type=2 2 2 2 2 2 2 2 2 2 2 2 2 2 2 2 2
left_child=7 -2 5 -4 -5 6 -3 8 9 14 -7 12 13 -9 -1 -11 -13
right_child=1 2 3 4 -6 10 -8 11 -10 15 -12 16 -14 -15 -16 -17 -18
leaf_value=-0.0012315305653077969 0.060744445596834118 -0.012085367295467379 0.070512582957803521 0.010257811959974007 -0.022955042733481298 -0.033251349702115247 0.070559367576404811 -0.007724944050064568 0.06073931138742758 0 -0.0066667239389259034 -0.038747862438145361 0.058118483841500458 -0.030322464510917902 0.027238699934702067 -0.028438686797454749 -0
leaf_weight=198.78424829244614 947.50214426219463 1654.8068228662014 497.88388766348362 708.06644746661186 694.7537285387516 724.39922222495079 166.22575050592422 334.88188794255257 127.44466054439545 15.44734840095043 262.00115998089314 350.44825783371925 30.145954176783562 910.10645002126694 44.352074235677719 609.43678362667561 9.1356816142797452
leaf_count=847 6260 7170 2575 3057 3037 3191 826 1536 701 67 1131 1705 146 4317 190 2839 45
internal_value=0 0.179132 -0.029326 0.282622 -0.117663 -0.244326 -0.0784849 -0.38349 -0.144617 -0.367159 -0.536594 -0.521109 -0.439345 -0.49505 0.0571515 -0.546305 -0.764264
internal_weight=0 5655.64 4708.14 1900.7 1402.82 2807.43 1821.03 2630.18 995.465 868.02 986.4 1634.72 1275.13 1244.99 243.136 624.884 359.584
internal_count=39640 27247 20987 8669 6094 12318 7996 12393 4644 3943 4322 7749 5999 5853 1037 2906 1750
shrinkage=0.05


Tree=23
num_leaves=18
num_cat=0
split_feature=100 100 13 97 97 15 227 251 251 14 229 277 214 149 243 19 226
split_gain=538.764 1642.68 289.412 188.67 410.468 230.484 179.537 137.896 280.48 67.722 70.8947 55.7135 23.2774 19.3647 4.96625 4.97826 2.2521
threshold=0.99990256883134154 1.0000000180025095e-35 4.999270647171099 0.99999723166213117 1.0000000180025095e-35 85.492914172548694 1.0000000180025095e-35 0.99995121521903674 1.0000000180025095e-35 1964.0530000000001 0.0046932042226402468 1.0000000180025095e-35 0.0047103293320351911 0.99970529392831864 0.11816148574860265 240.70966425811693 0.075286379128833139
decision_type=2 2 2 2 2 2 2 2 2 2 2 2 2 2 2 2 2
left_child=1 2 9 4 5 6 -2 8 -4 10 -1 -7 -9 -11 15 16 -5
right_child=3 -3 7 14 -6 11 -8 12 -10 13 -12 -13 -14 -15 -16 -17 -18
leaf_value=0.010002764335923647 -0.0064268315039778985 0.066961787286500069 -0.015996793772872633 -0.036229043301105039 0.066161158717767371 -0.035329348234971213 0.034712222299913165 -0.031905188804678263 0.063563187009990876 0.003765779725326393 0.042839788686611091 -0.015532303013615202 0 -0.023961985119487387 -0 0 -0
leaf_weight=779.17816172540188 918.17998212575912 1038.173805385828 618.61896584928036 742.91775052249432 169.28579494357109 612.01734848320484 355.78848157823086 990.10467167198658 124.08879789710045 64.087671086192131 230.04624252021313 1321.3425737768412 44.105491608381271 126.0549156665802 27.700347065925598 7.7015232890844336 24.745615720748901
leaf_count=3479 4183 6139 2877 3478 969 2876 1720 4540 696 298 1126 6211 211 558 128 38 113
internal_value=0 0.26186 -0.113823 -0.250453 -0.142091 -0.226413 0.0970752 -0.371497 -0.0274416 0.25958 0.366504 -0.44412 -0.606371 -0.247938 -0.686424 -0.702937 -0.710926
internal_weight=0 4014.46 2976.28 4179.68 3376.61 3207.33 1273.97 1776.92 742.708 1199.37 1009.22 1933.36 1034.21 190.143 803.065 775.365 767.663
internal_count=39640 19924 13785 19716 15959 14990 5903 8324 3573 5461 4605 9087 4751 856 3757 3629 3591
shrinkage=0.05


Tree=24
num_leaves=21
num_cat=0
split_feature=209 209 15 85 85 97 225 81 81 15 221 150 150 84 84 91 10 8 15 221
split_gain=498.555 1470.53 211.586 199.517 608.296 191.126 113.29 88.765 493.26 55.9182 116.342 38.324 108.584 35.4148 37.8614 29.8064 19.3819 15.4255 12.9081 11.4671
threshold=1.0000000180025095e-35 0.99995048850461588 407.32023018746219 1.0000000180025095e-35 0.99995048850461588 0.99999723166213117 0.99995121521903674 1.0000000180025095e-35 0.99996625117671289 100.00166666666668 0.99999723166213117 0.010424442597727459 0.99997593805284424 1.0000000180025095e-35 0.99987735474400352 0.99975439783188735 2.0000623265902084 5.9428723641827021 1030.5007962456632 0.99999723166213117
decision_type=2 2 2 2 2 2 2 2 2 2 2 2 2 2 2 2 2 2 2 2
left_child=3 -2 5 7 -5 6 -3 13 -9 10 -6 18 -13 17 -15 -10 -11 -1 -4 -7
right_child=1 2 11 4 9 19 -8 8 15 16 -12 12 -14 14 -16 -17 -18 -19 -20 -21
leaf_value=-0.029504933187099493 0.065861134642611327 0.023317266436394118 -0.00981951826927587 0.059546501059422122 0.022248199961294582 -0 -0.017373762682188095 0.069460343681245651 -0.0005089139404451464 -0.02359045481659414 -0.024176853487676536 0.052440932274019227 -0.018366665922013341 0.040873748886296302 -0.014573084459639072 -0.025369559751655897 -0.00055687371077226455 0 -0.031236316100166125 -0.040653170388690207
leaf_weight=1485.9337496161461 981.77413837611675 936.54766543209553 176.33218261599541 359.80934555083513 278.27967701852322 37.275941863656044 186.7176693379879 164.45403166115284 190.27621927857399 720.65298806130886 243.47684788703918 53.031314998865128 320.52955232560635 26.371090523898602 153.4517492800951 822.27377960085869 156.76500532031059 14.033836193382738 641.45179452002048 166.97958382964134
leaf_count=7041 6005 4431 806 2351 1207 165 816 869 852 3186 1070 308 1451 135 669 3741 688 65 3015 769
internal_value=0 0.284907 -0.117121 -0.214881 0.0449634 0.151547 0.320369 -0.377959 -0.153305 -0.248995 0 -0.423591 -0.11812 -0.527614 -0.0416571 -0.424749 -0.401824 -0.578588 -0.547936 -0.701811
internal_weight=0 3500.64 2518.87 4615.78 1758.98 1327.52 1123.27 2856.79 1177 1399.17 521.757 1191.34 373.561 1679.79 179.823 1012.55 877.418 1499.97 817.784 204.256
internal_count=39640 17766 11761 21874 8502 6181 5247 13372 5462 6151 2277 5580 1759 7910 804 4593 3874 7106 3821 934
shrinkage=0.05


Tree=25
num_leaves=17
num_cat=0
split_feature=100 100 97 97 150 150 58 19 14 251 10 227 8 19 9 20
split_gain=471.253 1479.83 161.705 366.755 152.509 295.269 147.398 234.516 117.022 73.6567 55.7371 16.0072 15.1686 4.46356 2.42037 2.46152
threshold=0.99990256883134154 1.0000000180025095e-35 0.99999723166213117 1.0000000180025095e-35 1.0000000180025095e-35 0.99997593805284424 0.99987377275471911 -0.99796071166628442 19.075853828297245 0.99995121521903674 1.0000487847809636 0.0033731824484570243 0.33845495069011766 240.70966425811693 5.5580384757955352 0.10918618430946582
decision_type=2 2 2 2 2 2 2 2 2 2 2 2 2 2 2 2
left_child=1 4 3 6 8 -6 7 -2 11 -7 -10 -1 -8 14 15 -4
right_child=2 -3 13 -5 5 9 12 -9 10 -11 -12 -13 -14 -15 -16 -17
leaf_value=0.00037255465519928891 -0.0084167211954417568 0.065397106177583778 -0.033222002158376833 0.064267922065162991 0.063926629827801437 0.012696748180088535 -0.032338664194381465 0.060803957860067474 -0.028731215027796242 -0.01748064221048955 -0.0087460995237528 0.024424741576636669 0 0 -0 -0
leaf_weight=216.97657284140587 2360.8308599665761 978.35915108770132 758.560816667974 160.90557028353214 196.09178318083286 362.06525988131762 671.56534770876169 117.96305110305548 804.78796507418156 417.19845359027386 797.17060332000256 138.07860286533833 15.713942050933836 7.6077101230621329 8.2460740804672223 11.894090354442595
leaf_count=940 11021 6139 3621 969 1161 1669 3197 698 3735 1854 3781 645 74 38 39 59
internal_value=0 0.248927 -0.235308 -0.134149 -0.10425 0.211722 -0.213259 -0.0938122 -0.267086 -0.0568551 -0.384246 0.230176 -0.622201 -0.643709 -0.651166 -0.656962
internal_weight=0 3910.73 4113.29 3326.98 2932.37 975.355 3166.07 2478.79 1957.01 779.264 1601.96 355.055 687.279 786.309 778.701 770.455
internal_count=39640 19924 19716 15959 13785 4684 14990 11719 9101 3523 7516 1585 3271 3757 3719 3680
shrinkage=0.05


Tree=26
num_leaves=21
num_cat=0
split_feature=60 60 15 224 15 229 229 180 228 228 15 227 227 15 63 229 15 7 15 13
split_gain=445.519 1044.61 247.88 310.107 143.868 82.2926 314.903 68.4956 67.0528 136.731 58.9894 44.1063 223.724 61.7927 33.5394 30.6903 63.3508 10.8598 7.89676 1.0335
threshold=1.0000000180025095e-35 0.99997593805284424 1030.5007962456632 0.99999723166213117 85.492914172548694 1.0000000180025095e-35 0.99974500549202838 0.003993398764898016 1.0000000180025095e-35 0.99997593805284424 238.89652234832366 1.0000000180025095e-35 0.99994488409908888 425.49300000000005 0.99999723166213117 0.037582724350453962 1030.5007962456632 -1.0000000180025095e-35 2120.7620000000011 3.9858965823886625
decision_type=2 2 2 2 2 2 2 2 2 2 2 2 2 2 2 2 2 2 2 2
left_child=8 -2 3 4 -3 14 -7 -5 11 -10 19 15 -13 -14 -4 17 -17 -1 -12 -11
right_child=1 2 5 7 -6 6 -8 -9 9 10 18 12 13 -15 -16 16 -18 -19 -20 -21
leaf_value=-0 0.058916738991182521 0.028334239555518087 -0.013964333102761442 -0.034534546023493831 0.0015692202005168404 0.067291984159339693 -0.018369699619211696 0.00091613104196042606 0.058044500950983992 0.030235659263543109 -0.0065317426709700435 0.064145798530220455 0.00051555147096279843 -0.029706177871833314 -0.033104353282328802 0.023658134270081732 -0.022518270070861851 -0.031870017835253624 -0.033523619621425187 0
leaf_weight=35.755158208310604 844.3832062035799 1222.5643933936954 685.919773042202 409.87458688020706 919.24456708878279 125.05069293826818 510.73165463656187 161.42484910786152 75.748569875955582 44.952051907777786 107.95235784351826 78.488848991692066 212.70385774224997 465.94518540799618 531.89917941391468 79.25539842247963 302.09957751631737 988.1947086006403 139.40218302607536 6.8849202543497077
leaf_count=160 6260 5668 3206 1822 4164 658 2312 708 428 189 508 421 956 2299 2449 356 1496 4879 672 29
internal_value=0 0.163219 -0.0244556 0.165538 0.3428 -0.30731 -0 -0.476282 -0.343802 0.0215566 -0.262771 -0.411561 -0.191556 -0.39276 -0.458655 -0.520836 -0.225694 -0.61784 -0.48796 0.555203
internal_weight=0 5411.09 4566.71 2713.11 2141.81 1853.6 635.782 571.299 2537.38 374.94 299.192 2162.44 757.138 678.649 1217.82 1405.3 381.355 1023.95 247.355 51.837
internal_count=39640 27247 20987 12362 9832 8625 2970 2530 12393 1826 1398 10567 3676 3255 5655 6891 1852 5039 1180 218
shrinkage=0.05


Tree=27
num_leaves=18
num_cat=0
split_feature=58 58 91 91 13 224 150 150 251 251 15 224 8 15 67 67 172
split_gain=420.422 850.5 298.263 430.76 215.405 295.175 76.8616 148.227 34.637 33.6247 32.6226 30.019 21.4268 20.0369 7.10257 17.9343 2.94524
threshold=0.99987377275471911 1.0000000180025095e-35 0.99975439783188735 1.0000000180025095e-35 5.9947038443570291 0.99999723166213117 1.0000000180025095e-35 0.99997593805284424 0.99995121521903674 0.99995121521903674 3061.1208196055145 0.99999723166213117 5.9428723641827021 50.000977854832648 1.0000000180025095e-35 0.99811090739826158 1.0000000180025095e-35
decision_type=2 2 2 2 2 2 2 2 2 2 2 2 2 2 2 2 2
left_child=1 2 3 10 5 -4 12 -8 11 -6 -1 -9 14 -10 16 -16 -2
right_child=6 -3 4 -5 9 -7 7 8 13 -11 -12 -13 -14 -15 15 -17 -18
leaf_value=0.0038839133244638413 -0.032152371639702873 0.064749177180487658 0.0090607247585006 0.062739584668544221 -0 -0.025612349656348673 0.054821404572687964 0.00077689565139247912 0 -0.028397502400846861 -0.022538942128197882 -0.032465446795891979 0.0068316574075845578 -0.034173777661880969 0.026738188327225621 -0.020886087922986775 0
leaf_weight=488.12600646913052 986.56621459126472 556.2180635407567 2597.237346932292 421.29833324998617 149.00422421097755 791.63684160262346 72.105438061058521 324.34157329052687 26.032845228910446 913.39335314929485 138.30097196996212 68.562782794237137 13.859472781419752 241.13909262418747 12.173296436667441 60.395338624715805 6.613848812878131
leaf_count=2181 4885 3593 12715 2728 735 3801 468 1505 114 4371 632 330 70 1109 65 304 34
internal_value=0 0.127908 0.00590819 0.485033 -0.10546 0.0152501 -0.419888 -0.14821 -0.313429 -0.49638 -0.0285302 -0.0888959 -0.591909 -0.59243 -0.611861 -0.0914171 -0.63863
internal_weight=0 6055.22 5499 1047.73 4451.27 3388.87 1811.79 732.182 660.076 1062.4 626.427 392.904 1079.61 267.172 1065.75 72.5686 993.18
internal_count=39640 30756 27163 5541 21622 16516 8884 3526 3058 5106 2813 1835 5358 1223 5288 369 4919
shrinkage=0.05


Tree=28
num_leaves=18
num_cat=0
split_feature=80 80 15 100 100 98 10 10 91 91 236 243 13 201 15 252 1
split_gain=399.615 835.449 306.492 391.377 548.188 125.949 51.8917 252.296 36.0768 11.814 10.3325 9.23678 6.52579 3.86879 2.24883 1.65762 0.000702572
threshold=0.99987377275471911 1.0000000180025095e-35 2413.6323855664114 0.99990256883134154 1.0000000180025095e-35 1.0000000180025095e-35 1.0000487847809636 1.9998795580064164 0.99975439783188735 0.0029102118949686511 0.088497785482407013 0.062557641724181837 5.9947038443570291 0.055022047511101187 1110.9465686765186 0.18118444775722484 2.999545814488604
decision_type=2 2 2 2 2 2 2 2 2 2 2 2 2 2 2 2 2
left_child=1 2 3 4 -1 -5 11 -8 9 12 13 -4 16 15 -14 -10 -2
right_child=8 -3 6 5 -6 -7 7 -9 10 -11 -12 -13 14 -15 -16 -17 -18
leaf_value=0.0055196375361084762 0.0001768564560439136 0.065586866632959137 -0.030420098373679871 -0.028828468602599518 0.063250381200972303 -0.0010381907142577877 0.059232010150045193 -0.022117189681344827 -0.032893355515642625 0.02364146769373791 -0.00066892765975700959 0 0 -0 -0.021591766261962127 -0 -0
leaf_weight=1456.3486124798656 46.155114039778709 510.91386262327433 739.28731615096331 507.20101877301931 577.29919558763504 2135.34618858248 100.5982221364975 616.1700070053339 891.26669098436832 17.449325531721115 60.733332827687263 10.926369130611418 12.03537558019161 15.135648116469381 69.711526319384575 8.8679567128419858 26.53010493516922
leaf_count=6847 197 3319 3619 2444 3854 10258 640 2990 4386 112 297 59 53 75 329 43 118
internal_value=0 0.0957272 -0.00574787 0.117807 0.447637 -0.132985 -0.404495 -0.187079 -0.540726 -0.0476478 -0.616055 -0.593871 -0.192451 -0.644662 -0.370821 -0.653262 0
internal_weight=0 6654.09 6143.18 4676.2 2033.65 2642.55 1466.98 716.768 1147.89 171.881 976.004 750.214 154.432 915.27 81.7469 900.135 72.6852
internal_count=39640 34030 30711 23403 10701 12702 7308 3630 5610 809 4801 3678 697 4504 382 4429 315
shrinkage=0.05


Tree=29
num_leaves=21
num_cat=0
split_feature=209 209 15 231 231 97 13 100 225 180 180 92 92 251 229 150 150 130 243 19
split_gain=383.705 1224.25 157.609 151.811 545.036 147.421 104.233 153.465 88.8459 48.448 120.093 46.9053 41.1213 39.2087 21.3377 11.8578 58.4045 10.8564 10.0557 4.16888
threshold=1.0000000180025095e-35 0.99995048850461588 238.89652234832366 0.99999723166213117 1.0000000180025095e-35 0.99999723166213117 6.9772455692875583 0.99990256883134154 0.99995121521903674 0.003993398764898016 0.99997593805284424 1.0000000180025095e-35 0.99994488409908888 0.99995121521903674 1.0000000180025095e-35 1.0000000180025095e-35 0.99997593805284424 0.068655053739899344 0.11816148574860265 512.44519740568001
decision_type=2 2 2 2 2 2 2 2 2 2 2 2 2 2 2 2 2 2 2 2
left_child=3 -2 5 4 6 8 7 -1 -3 15 -11 14 -13 -8 -4 19 -17 -12 -7 -5
right_child=1 2 11 9 -6 18 13 -9 -10 10 17 12 -14 -15 -16 16 -18 -19 -20 -21
leaf_value=0.015477101354777263 0.063422293056399001 0.022747746945018729 -0.025735534524528855 -0.034006637717652076 0.065454368441444283 -0.034126055292314619 -0.0074374080345464754 -0.013999919514636106 -0.014879107796806316 0.053781878076330815 -0.021961020943901653 0.043196973351402601 -0.0071622985116853695 -0.032750698696123286 -0.0052145677459170181 0.040439904764133519 -0.023439270950820591 0 0 0
leaf_weight=694.12275824695826 873.01046153903008 820.51808748394251 823.42826318740845 638.08654650300741 255.22811699658632 175.31101482361555 306.06862876564264 1152.1875635236502 169.26572275161743 57.873098470270634 282.49944298714399 41.405245386064053 153.17571417242289 527.09252873808146 233.53082351386547 24.465941607952118 449.6623737886548 36.022362791001797 12.59072060883045 7.4638628661632529
leaf_count=3402 6005 4025 3944 3192 1607 842 1527 5483 748 343 1300 272 707 2549 1164 151 2117 166 59 37
internal_value=0 0.259148 -0.103184 -0.190563 -0.0540177 0.152941 -0.191961 -0.0524993 0.31457 -0.449632 -0.101838 -0.351424 0.0539481 -0.484863 -0.43523 -0.55576 -0.366859 -0.372445 -0.620795 -0.671531
internal_weight=0 3302.24 2429.23 4430.77 2934.7 1177.69 2679.47 1846.31 989.784 1496.07 376.395 1251.54 194.581 833.161 1056.96 1119.68 474.128 318.522 187.902 645.55
internal_count=39640 17766 11761 21874 14568 5674 12961 8885 4773 7306 1809 6087 979 4076 5108 5497 2268 1466 901 3229
shrinkage=0.05


Tree=30
num_leaves=20
num_cat=0
split_feature=85 85 81 81 63 63 84 84 180 180 92 92 13 13 100 100 228 14 74
split_gain=359.244 966.766 166.876 822.035 102.599 449.653 78.295 76.5511 66.9649 63.7825 51.5599 65.96 38.1982 31.7415 55.6815 29.6 17.4857 15.675 9.90499
threshold=1.0000000180025095e-35 0.99995048850461588 1.0000000180025095e-35 0.99996625117671289 0.99999723166213117 1.0000000180025095e-35 1.0000000180025095e-35 0.99987735474400352 1.0000000180025095e-35 0.99997593805284424 0.0052566690599682451 0.99994488409908888 5.9947038443570291 4.999270647171099 0.99990256883134154 0.99990256883134154 1.0000000180025095e-35 88.341458333333335 0.022946465288211374
decision_type=2 2 2 2 2 2 2 2 2 2 2 2 2 2 2 2 2 2 2
left_child=2 -2 6 -4 5 12 10 -8 15 -10 16 -12 -3 14 -6 -5 -1 -9 -15
right_child=1 4 3 8 13 -7 7 17 9 -11 11 -13 -14 18 -16 -17 -18 -19 -20
leaf_value=-0.026781166235083722 0.058689486383559558 0 0.066664664500708612 -0.0095531140497601124 0.0093739303398075076 0.06897731574557224 0.051434639772665602 0.0035814337156315993 0.052034675884386573 -0.0035144878934182744 0.045194773357667584 -0.012723421695443382 -0.019495450391534747 -0.029257682701936238 -0.018106967428883586 -0.026676677316408111 -0.0080676952240869449 -0.018277407860161399 -0
leaf_weight=1570.4116072431207 836.59194492548704 667.35802096873522 380.58744535595179 610.26542393118143 270.1997859030962 224.08347052335739 59.678363338112831 112.3459269925952 50.921373821794987 265.16264170408249 49.285442940890789 262.13629874587059 392.47371540218592 341.8598860502243 456.98322208225727 690.62189961224794 234.6212562546134 139.27864953130484 40.066967666149139
leaf_count=7831 6496 2982 2379 2845 1229 1237 369 491 297 1206 333 1203 1800 1601 2061 3299 1160 629 192
internal_value=0 0.25468 -0.183359 0.0261573 -0.066023 0.120643 -0.35925 0.0805239 -0.281662 0.10445 -0.428713 -0.0176163 -0.146591 -0.290192 -0.144579 -0.383187 -0.493642 -0.136857 -0.531157
internal_weight=0 3229.62 4425.32 1997.56 2393.03 1283.92 2427.76 311.303 1616.97 316.084 2116.45 311.422 1059.83 1109.11 727.183 1300.89 1805.03 251.625 381.927
internal_count=39640 17598 22042 10026 11102 6019 12016 1489 7647 1503 10527 1536 4782 5083 3290 6144 8991 1120 1793
shrinkage=0.05


Tree=31
num_leaves=21
num_cat=0
split_feature=209 209 10 10 13 224 10 10 225 180 180 150 150 180 13 91 91 229 150 130
split_gain=332.423 1108.54 142.407 565.646 140.453 138.041 126.377 262.182 66.6385 52.1394 143.285 51.705 89.6214 37.6024 31.5231 30.1544 58.515 13.1039 12.6343 10.3292
threshold=1.0000000180025095e-35 0.99995048850461588 1.0000487847809636 1.9998795580064164 2.9809475619689798 0.99999723166213117 2.0000623265902084 2.9997475455094382 0.99995121521903674 0.003993398764898016 0.99997593805284424 0.0043146209060841443 0.99997593805284424 0.035308441554477217 3.9858965823886625 0.99975439783188735 0.0073494859278541167 1.0000000180025095e-35 0.0043146209060841443 0.068655053739899344
decision_type=2 2 2 2 2 2 2 2 2 2 2 2 2 2 2 2 2 2 2 2
left_child=2 -2 9 -4 5 8 14 -8 -3 15 -11 17 -13 -7 -5 16 -1 -6 -17 -12
right_child=1 4 3 6 11 13 7 -9 -10 10 19 12 -14 -15 -16 18 -18 -19 -20 -21
leaf_value=-0.015404456541598178 0.06218162221912002 0.025311699827039447 0.065214462204950349 -0.0075756415283263628 -0.027581477072580081 -0.030604924074668301 0.064525119564536659 -0.0084848678602743501 -0.0083753426803381478 0.055869037995569519 -0.019558214310833072 0.050835676818057431 -0.011147906577942653 0.0082316133470273795 -0.02617613246716682 -0.028805562272169793 0.042862676721302242 -0.0078638898488929913 -0.015164050905378102 0
leaf_weight=243.95424374192953 818.0604412406683 676.97937838733196 279.63637179881334 470.92235952615738 626.15755674242973 224.39393244683743 145.06274139136076 556.92431339621544 155.65849161893129 76.053436659276485 292.00413434952497 57.375055007636547 398.71415510773659 55.304033376276493 746.72779401391745 975.84217479079962 39.839160583913326 199.37165207415819 493.32598358392715 35.546198107302189
leaf_count=1113 6005 3440 1824 2200 3052 1069 883 2677 694 486 1364 375 1868 260 3659 4828 267 1003 2408 165
internal_value=0 0.245383 -0.178058 0 -0.0953327 0.157976 -0.194403 0.131889 0.36792 -0.360025 -0.00942296 -0.322446 -0.0270871 -0.423617 -0.390201 -0.434564 -0.0868493 -0.471381 -0.493929 -0.326031
internal_weight=0 3212.01 4355.84 2199.27 2393.95 1112.34 1919.64 701.987 832.638 2156.57 403.604 1281.62 456.089 279.698 1217.65 1752.96 283.793 825.529 1469.17 327.55
internal_count=39640 17766 21874 11243 11761 5463 9419 3560 4134 10631 2015 6298 2243 1329 5859 8616 1380 4055 7236 1529
shrinkage=0.05


Tree=32
num_leaves=15
num_cat=0
split_feature=97 97 15 227 91 91 228 150 227 180 180 228 20 243
split_gain=315.653 548.103 299.165 206.98 161.593 328.703 147.04 110.836 99.6463 3.95125 33.2477 2.69273 2.46035 1.04966
threshold=0.99999723166213117 1.0000000180025095e-35 100.00166666666668 1.0000000180025095e-35 0.99975439783188735 1.0000000180025095e-35 1.0000000180025095e-35 1.0000000180025095e-35 0.99994488409908888 0.003993398764898016 0.99997593805284424 0.029343838686056563 0.10918618430946582 0.11816148574860265
decision_type=2 2 2 2 2 2 2 2 2 2 2 2 2 2
left_child=1 2 3 6 5 -4 -1 -6 -5 11 -11 12 -2 -12
right_child=9 -3 4 8 7 -7 -8 -9 -10 10 13 -13 -14 -15
leaf_value=-0.0030839858999647234 -0.030467174933299708 0.063898199790678498 -0.00980755676983492 0.060741199050622988 -0.018549244151992796 0.059372015525775736 0.039810611763356922 0.00041216014216165941 0.019954245603002137 0.032098697488549599 -0.022787670900593356 -0 -0 -0
leaf_weight=1159.344165340066 719.03584837168455 351.21841144561768 483.98713351786137 284.78660263121128 2233.4893662407994 247.44759481400251 227.92474005371332 1096.0729308202863 449.98372150212526 18.527428559958935 155.09069302678108 39.540259853005409 11.343298777937887 7.0775713473558417
leaf_count=5612 3685 2504 2292 1999 11370 1819 1261 5799 2167 111 740 189 60 32
internal_value=0 0.0804139 0.00882033 0.313784 -0.148459 0.268139 0.0768025 -0.2435 0.740747 -0.533427 -0.248236 -0.583496 -0.601903 -0.439404
internal_weight=0 6534.25 6183.04 2122.04 4061 731.435 1387.27 3329.56 734.77 950.615 180.696 769.919 730.379 162.168
internal_count=39640 34823 32319 11039 21280 4111 6873 17169 4166 4817 883 3934 3745 772
shrinkage=0.05


Tree=33
num_leaves=21
num_cat=0
split_feature=85 85 180 180 12 15 100 100 237 13 92 84 84 15 236 63 63 13 113 113
split_gain=300.068 859.401 142.636 283.999 103.199 105.246 89.9042 410.768 67.1346 57.242 38.2092 33.1858 32.4671 23.9411 23.8589 21.3998 73.0027 10.0603 6.51328 3.81808
threshold=1.0000000180025095e-35 0.99995048850461588 1.0000000180025095e-35 0.99997593805284424 351.41974666014767 2603.5139726541561 0.99990256883134154 1.0000000180025095e-35 0.99995048850461588 4.999270647171099 1.0000000180025095e-35 0.0032773639762837541 0.99987735474400352 201.36875000000001 0.0033731824484570243 0.99999723166213117 1.0000000180025095e-35 6.9772455692875583 0.0041512824258100886 0.031544003698946672
decision_type=2 2 2 2 2 2 2 2 2 2 2 2 2 2 2 2 2 2 2 2
left_child=2 -2 6 -4 15 8 7 9 -6 -1 13 14 -13 -5 -8 16 -3 -12 -7 -17
right_child=1 4 3 10 5 18 11 -9 -10 -11 17 12 -14 -15 -16 19 -18 -19 -20 -21
leaf_value=0 0.057549355572812169 -0.019923845224008457 0.061130311765794004 -0 0.015865620368237292 -0.022436388571502579 -0.024494144872469682 0.060654899356278817 -0.0080385314726081156 -0.020770546896181963 0.021871022310822857 0.040305551696815288 -0.010041862537481655 -0.023947873129929079 -0.0038262751267768348 -0.034098806792180629 0.047243409623484986 -0 0 -0
leaf_weight=448.40156554430723 766.39845700562 246.29491896927357 195.827058814466 231.73478800058365 1040.7153211310506 331.70802468061447 1529.2555403634906 202.88386216759682 369.58799500763416 935.43680324405432 109.88428433984518 31.179988108575344 131.50572273880243 246.0200267881155 223.04581459611654 254.06981637328863 35.467765085399151 26.560204394161701 34.615285269916058 36.742441572248936
leaf_count=1998 6496 1116 1333 1071 4966 1600 7784 1396 1683 4699 530 189 594 1198 1121 1186 200 129 173 178
internal_value=0 0.238204 -0.168513 0.200978 -0.0589583 0.0555633 -0.257161 -0.072626 0.184734 -0.275651 -0.123099 -0.403698 0 -0.267071 -0.443675 -0.426324 -0.168516 0.296542 -0.406851 -0.62896
internal_weight=0 3115.6 4311.74 810.026 2349.2 1776.63 3501.71 1586.72 1410.3 1383.84 614.199 1914.99 162.686 477.755 1752.3 572.575 281.763 136.444 366.323 290.812
internal_count=39640 17598 22042 4261 11102 8422 17781 8093 6649 6697 2928 9688 783 2269 8905 2680 1316 659 1773 1364
shrinkage=0.05


Tree=34
num_leaves=19
num_cat=0
split_feature=60 60 91 91 15 227 10 13 100 100 15 15 227 227 242 17 167 202
split_gain=284.333 786.558 163.959 306.277 121.461 170.12 52.3924 43.3363 72.8233 87.6649 37.7552 17.896 16.5491 55.9406 13.7537 6.45047 6.19345 1.66706
threshold=1.0000000180025095e-35 0.99997593805284424 0.99975439783188735 1.0000000180025095e-35 212.77265601482915 1.0000000180025095e-35 1.0000487847809636 10.998628750119455 0.99990256883134154 1.0000000180025095e-35 3573.1238190556483 2960.8300000000004 1.0000000180025095e-35 0.99994488409908888 0.027622954763645961 -10808.271617690483 1.0000000180025095e-35 0.10900106423580415
decision_type=2 2 2 2 2 2 2 2 2 2 2 2 2 2 2 2 2 2
left_child=7 -2 3 10 5 -4 -6 8 9 11 -3 -1 14 -14 -10 -9 17 -17
right_child=1 2 4 -5 6 -7 -8 15 12 -11 -12 -13 13 -15 -16 16 -18 -19
leaf_value=0.0011813022218855843 0.05645066431084092 0.0059764976434039671 -0.0062380637787218494 0.060607886199413277 -0.022135483250215988 0.030398160674151305 -0.0049532220227614908 -0 -0.022613278247464907 0.049940033739089583 -0.020501938530668382 -0.018297182955770874 0.047895569276422606 -0.013305520687470145 -0 -0.03022411398055222 0 -0
leaf_weight=389.39640684425831 680.26431285589933 415.56001552194357 1011.0629756972194 277.12832950055599 1014.5734022036195 442.24508561193943 957.13434733450413 32.987915739417076 821.54851049184799 78.642134718596935 181.44001446664333 139.07438895106316 30.3526266887784 312.12555996328592 77.688116446137428 464.08171556890011 16.478366412222385 10.34433241933584
leaf_count=1784 6260 1842 4648 1883 4858 2224 4669 181 4319 590 863 706 169 1570 402 2522 92 58
internal_value=0 0.137871 -0.0188956 0.362407 -0.119894 0.0940057 -0.28228 -0.28201 -0.19941 0.0703585 -0.0290456 -0.0652156 -0.338806 -0.10516 -0.414657 -0.545581 -0.574578 -0.595109
internal_weight=0 4979.41 4299.14 874.128 3425.02 1453.31 1971.71 2372.72 1848.83 607.113 597 528.471 1241.71 342.478 899.237 523.892 490.904 474.426
internal_count=39640 27247 20987 4588 16399 6872 9527 12393 9540 3080 2705 2490 6460 1739 4721 2853 2672 2580
shrinkage=0.05


Tree=35
num_leaves=14
num_cat=0
split_feature=97 97 13 100 100 150 150 238 62 243 228 226 20
split_gain=270.39 489.507 254.012 227.515 322.146 102.042 270.399 74.1124 31.7263 2.83782 2.27873 1.43642 0.951924
threshold=0.99999723166213117 1.0000000180025095e-35 5.9947038443570291 0.99990256883134154 1.0000000180025095e-35 1.0000000180025095e-35 0.99997593805284424 0.99996625117671289 0.99997593805284424 0.11816148574860265 0.029343838686056563 0.075286379128833139 0.14725678545359064
decision_type=2 2 2 2 2 2 2 2 2 2 2 2 2
left_child=1 2 3 4 -1 8 -7 -5 -4 10 11 12 -2
right_child=9 -3 5 7 -6 6 -8 -9 -10 -11 -12 -13 -14
leaf_value=0.0085419701508743038 -0.027284335877004087 0.062702313530995576 -0.011296638964327071 0.002673800203989106 0.05954582805626947 0.057894109020964452 -0.011617318664695779 -0.020533736880187593 -0.027764898934895223 -0 -0 -0 -0
leaf_weight=1151.3444787561893 799.60751663893461 324.3627365604043 748.33462974429131 1621.2572365775704 432.42496158927679 161.36795168370008 746.21797572821379 419.97500220686197 750.82841021567583 35.563029453158379 45.42846854031086 35.870415113866329 10.209158316254614
leaf_count=5610 4189 2504 4092 8177 3505 1264 3726 2021 3924 178 220 175 55
internal_value=0 0.0760518 0.00907818 0.177702 0.461356 -0.240447 0.0138618 -0.0386825 -0.400102 -0.499365 -0.512207 -0.528155 -0.541207
internal_weight=0 6356.11 6031.75 3625 1583.77 2406.75 907.586 2041.23 1499.16 926.679 891.116 845.687 809.817
internal_count=39640 34823 32319 19313 9115 13006 4990 10198 8016 4817 4639 4419 4244
shrinkage=0.05


Tree=36
num_leaves=19
num_cat=0
split_feature=80 80 15 100 100 224 10 10 91 243 8 92 150 0 185 142 1 229
split_gain=258.671 631.2 214.757 251.264 425.574 102.471 30.5626 169.27 27.3195 6.63901 5.5766 4.92908 4.65209 2.88963 2.12271 1.90142 0.320652 0.298945
threshold=0.99987377275471911 1.0000000180025095e-35 2603.5139726541561 0.99990256883134154 1.0000000180025095e-35 0.99999723166213117 1.0000487847809636 1.9998795580064164 0.99975439783188735 0.062557641724181837 5.9428723641827021 0.99994488409908888 0.1366676903785671 49.003462250290063 0.0089016501054737258 1.0000000180025095e-35 -0.62072051869477651 0.42114884743629682
decision_type=2 2 2 2 2 2 2 2 2 2 2 2 2 2 2 2 2 2
left_child=1 2 3 4 -1 -5 9 -8 11 -4 14 16 13 -13 15 -10 -2 -14
right_child=8 -3 6 5 -6 -7 7 -9 10 -11 -12 12 17 -15 -16 -17 -18 -19
leaf_value=0.0045815271267567034 0 0.062382483986415105 -0.026820788973754714 0.00073649958546730468 0.059501269449789944 -0.021341996001640582 0.054101814659468339 -0.019591946966499005 -0.026768865588944507 0 0 -0.015985164017528471 -0 0 -0 -0 0.016687962896766016 0.0052556652338954755
leaf_weight=1433.0596341863275 6.826158910989764 421.65864989161491 649.0940000936389 1840.2390892803669 469.64820086210966 704.01248526573181 78.534642554819584 546.81739757955074 878.72521806508303 9.8178454115986806 6.0882524102926245 88.388148650527 27.269746214151382 9.0281791388988477 15.23189155757427 10.470928102731703 14.588487051427363 17.056790813803673
leaf_count=7041 29 3319 3405 9317 3899 3584 594 2813 4629 58 30 424 121 44 84 58 113 78
internal_value=0 0.0814227 -0.00466109 0.0977139 0.372781 -0.104733 -0.364893 -0.176886 -0.44833 -0.523062 -0.516043 -0.00472075 -0.128729 -0.258299 -0.523614 -0.530261 0.277458 0
internal_weight=0 6152.88 5731.22 4446.96 1902.71 2544.25 1284.26 625.352 1073.67 658.912 910.516 163.158 141.743 97.4163 904.428 889.196 21.4146 44.3265
internal_count=39640 34030 30711 23841 10940 12901 6870 3407 5610 3463 4801 809 667 468 4771 4687 142 199
shrinkage=0.05


Tree=37
num_leaves=20
num_cat=0
split_feature=58 19 94 94 15 228 228 229 229 15 15 251 251 150 13 13 8 202 15
split_gain=246.03 613.123 246.534 561.625 129.465 74.7429 133.641 51.1643 87.6804 47.6086 45.1205 20.0157 61.9896 27.8265 25.3401 9.07412 7.0625 4.71868 0.500495
threshold=0.99987377275471911 -0.99796071166628442 0.99956853810825497 1.0000000180025095e-35 100.00166666666668 1.0000000180025095e-35 0.99997593805284424 1.0000000180025095e-35 0.99974500549202838 0.010133982497340989 3188.1492857142862 0.99995121521903674 0.0023012017075260132 0.0043146209060841443 2.9809475619689798 19.998335690704028 1.006303757407764 0.27922434149738978 55.335000000000001
decision_type=2 2 2 2 2 2 2 2 2 2 2 2 2 2 2 2 2 2 2
left_child=1 2 3 4 -1 9 -7 11 -9 -4 15 12 13 -2 18 -10 -12 -16 -13
right_child=7 -3 5 -5 -6 6 -8 8 10 -11 16 14 -14 -15 17 -17 -18 -19 -20
leaf_value=0.013059297150223312 -0.02640004575401636 0.060946733359346396 -0.0048853513159789501 0.062935146382715731 -0.011658507799297023 0.056731553172446526 -0.0081061803633771419 0.050697631781584498 0.020250576748016148 -0.02075465348625595 -0.026461748274042064 0.0057975100573221987 0.0406050250748764 -0.0050672119927281829 -0.036842130015672554 -0.0013299747421119811 0 0 -0.0021615677398753104
leaf_weight=1034.1931033059955 496.85392245650291 443.10208051279187 921.85270249843597 425.73850877583027 1062.4590028077364 98.366474464535713 260.22449921071529 58.879001006484032 85.378372028470039 1256.6557473614812 212.98291580379009 22.068849228322506 32.246326930820942 322.0693619325757 366.44462034106255 21.711888857185841 9.3748643174767476 7.8976945579051963 27.105012476444244
leaf_count=5410 2760 3593 4789 3276 5337 708 1257 435 410 6386 1123 102 226 1611 1881 113 50 40 133
internal_value=0 0.104442 0.00265235 0.225529 0.00601102 -0.215022 0.187596 -0.333348 -0 -0.286418 -0.222904 -0.429577 -0.310002 -0.375514 -0.634132 0.237303 -0.488256 -0.720766 0
internal_weight=0 5502.59 5059.49 2522.39 2096.65 2537.1 358.591 1663.01 388.327 2178.51 329.448 1274.69 851.17 818.923 423.516 107.09 222.358 374.342 49.1739
internal_count=39640 30756 27163 14023 10747 13140 1965 8884 2131 11175 1696 6753 4597 4371 2156 523 1173 1921 235
shrinkage=0.05


Tree=38
num_leaves=18
num_cat=0
split_feature=209 209 225 225 231 231 15 97 12 180 91 91 74 243 3 64 113
split_gain=236.845 890.683 105.557 173.579 102.341 317.013 99.6085 89.2911 71.4202 27.3141 19.764 11.0892 9.54042 8.02409 2.70251 2.0543 1.18819
threshold=1.0000000180025095e-35 0.99995048850461588 0.99995121521903674 1.0000000180025095e-35 0.99999723166213117 1.0000000180025095e-35 1030.5007962456632 0.99999723166213117 371.01793094634382 0.003993398764898016 0.99975439783188735 1.0000000180025095e-35 0.026864743341388168 0.11816148574860265 3.8955791342466051 0.87753114585588976 0.26840370300930355
decision_type=2 2 2 2 2 2 2 2 2 2 2 2 2 2 2 2 2
left_child=2 -2 3 4 5 -1 7 8 -3 -6 11 -8 -12 -9 15 16 -4
right_child=1 6 14 -5 9 -7 10 13 -10 -11 12 -13 -14 -15 -16 -17 -18
leaf_value=-0.0060186910067737322 0.060100213637672123 -0.019407265655447484 -0.035324485797888938 0.057439403003862161 -0.022745412203038256 0.060650175665356777 -0.0072540127450674598 -0.028772510619000859 0.013573465385639414 -0.0037797908758736357 -0.023380336632661647 0.026366071916103368 -0 0 -0 -0 -0.0050939666847806403
leaf_weight=2194.4144568219781 693.5127677731216 172.56633525341749 335.08605685830116 97.245567966252565 927.85971724241972 183.86065325886011 113.90072120726109 189.4102725982666 1101.1090727224946 328.66868755221367 618.81232535094023 20.50089718401432 50.295731045305729 13.279604010283945 7.1697602123022071 6.6296944618225089 47.781146720051765
leaf_count=11215 6005 812 1655 714 4890 1403 562 970 5658 1681 3260 165 269 65 42 33 241
internal_value=0 0.21742 -0.152163 -0.0960008 -0.135108 -0.00845804 -0.0816536 0.0670719 0.171983 -0.364968 -0.364679 -0 -0.434066 -0.522246 -0.640626 -0.651561 -0.661003
internal_weight=0 2973.39 4128.72 3732.05 3634.8 2378.28 2279.87 1476.37 1273.68 1256.53 803.51 134.402 669.108 202.69 396.667 389.497 382.867
internal_count=39640 17766 21874 19903 19189 12618 11761 7505 6470 6571 4256 727 3529 1035 1971 1929 1896
shrinkage=0.05


Tree=39
num_leaves=15
num_cat=0
split_feature=97 97 13 225 224 250 250 236 62 243 228 239 239 20
split_gain=217.558 422.025 208.933 183.066 178.113 130.908 261.093 43.126 30.9222 2.41852 2.25274 2.07518 8.47401 1.86369
threshold=0.99999723166213117 1.0000000180025095e-35 5.9947038443570291 0.99995121521903674 0.99999723166213117 1.0000000180025095e-35 0.99999723166213117 0.0033731824484570243 0.99997593805284424 0.11816148574860265 0.029343838686056563 0.015283076065197134 0.99999723166213117 0.10918618430946582
decision_type=2 2 2 2 2 2 2 2 2 2 2 2 2 2
left_child=1 2 3 4 -1 8 -7 -5 -4 10 11 13 -13 -2
right_child=9 -3 5 7 -6 6 -8 -9 -10 -11 -12 12 -14 -15
leaf_value=0.01750548065967886 -0.025710699985473054 0.060913370808133721 -0.011391778993772524 -0.031335596147009419 -0.016990503593752444 0.057873337571902266 -0.0090642609436692098 0 -0.028531753570238072 -0 -0 0.014925480400033764 -0.015291769933712358 -0
leaf_weight=2656.8445458561182 728.55117674171925 294.33434781804681 650.42354746907949 303.07776268571615 412.69346918165684 167.64656229317188 779.99675787985325 151.40580598264933 726.02245312929153 34.931334853172302 44.584306843578815 10.003291092813013 70.239178754389286 9.9164139926433545
leaf_count=15127 3927 2504 3628 1466 2004 1359 4216 716 3803 178 220 58 379 55
internal_value=0 0.0699195 0.00843537 0.163405 0.253302 -0.221955 0.0547231 -0.414598 -0.418674 -0.45435 -0.466326 -0.481537 -0.0949531 -0.508353
internal_weight=0 6142.45 5848.11 3524.02 3069.54 2324.09 947.643 454.484 1376.45 898.226 863.294 818.71 80.2425 738.468
internal_count=39640 34823 32319 19313 17131 13006 5575 2182 7431 4817 4639 4419 437 3982
shrinkage=0.05


Tree=40
num_leaves=20
num_cat=0
split_feature=60 60 62 62 13 91 91 228 228 15 224 229 229 15 227 227 15 15 17
split_gain=209.162 653.461 140.819 756.107 71.8149 48.7201 69.5594 41.0225 72.5913 35.1005 33.855 28.1308 46.3656 29.7946 26.6465 76.0641 8.74288 8.48981 1.54239
threshold=1.0000000180025095e-35 0.99997593805284424 1.0000000180025095e-35 0.99997593805284424 4.999270647171099 0.99975439783188735 1.0000000180025095e-35 1.0000000180025095e-35 0.99997593805284424 238.89652234832366 0.99999723166213117 0.012838523323846942 0.99974500549202838 875.40289739105958 1.0000000180025095e-35 0.99994488409908888 0.040067171239989333 2120.7620000000011 1039.8413746887807
decision_type=2 2 2 2 2 2 2 2 2 2 2 2 2 2 2 2 2 2 2
left_child=7 -2 5 -4 -5 6 -3 11 -9 18 -7 14 -13 -14 16 -16 -1 -11 -10
right_child=1 2 3 4 -6 10 -8 8 9 17 -12 12 13 -15 15 -17 -18 -19 -20
leaf_value=-0.015461029441122195 0.055099342101441164 -0.0052953179550414529 0.065761895290791711 0.0023469985623870444 -0.016735918624720594 -0.011107232412027906 0.047354672506265259 0.049839188958275327 0.026603192669328549 -0.00019584143849348063 -0.032212342986858621 0.044116063977264197 0.016938931855860258 -0.016950546905102584 0.048749486033353252 -0.014104007143483583 -0.030228241191254168 -0.025691965342052026 0
leaf_weight=439.22327283397317 585.27931478619576 367.41133828088641 436.87583776563406 1004.6586975418031 887.82658389955759 1092.0593470036983 63.835082717239857 58.276855975389481 44.521115161478519 99.751724407076836 282.25081009417772 36.544032096862793 62.608258984982967 266.38555961847305 39.636535502970219 620.95435860008001 476.38402785360813 123.99351322650909 6.3097161725163451
leaf_count=2374 6260 1693 2923 4785 4449 5235 498 428 190 508 1404 245 281 1479 268 3255 2665 672 28
internal_value=0 0.122132 -0.0164738 0.14314 -0.12767 -0.227555 0.045232 -0.246316 0.0520524 -0.141301 -0.320086 -0.302591 -0.0213901 -0.174338 -0.360954 -0.178327 -0.478561 -0.339177 0.477884
internal_weight=0 4720.2 4134.92 2329.36 1892.49 1805.56 431.246 2274.59 332.853 274.576 1374.31 1941.74 365.538 328.994 1576.2 660.591 915.607 223.745 50.8308
internal_count=39640 27247 20987 12157 9234 8830 2191 12393 1826 1398 6639 10567 2005 1760 8562 3523 5039 1180 218
shrinkage=0.05


Tree=41
num_leaves=20
num_cat=0
split_feature=209 209 10 10 10 10 180 180 228 228 180 180 14 229 85 85 14 130 8
split_gain=199.759 797.332 94.3513 400.189 92.4436 186.842 85.7336 102.013 50.1336 61.2952 33.1482 96.6532 29.9216 22.3884 18.8102 65.1107 12.8509 7.91652 4.70175
threshold=1.0000000180025095e-35 0.99995048850461588 1.0000487847809636 1.9998795580064164 2.0000623265902084 2.9997475455094382 1.0000000180025095e-35 0.99997593805284424 1.0000000180025095e-35 0.99997593805284424 0.003993398764898016 0.99997593805284424 11.623417364086599 1.0000000180025095e-35 0.0034149391990482285 0.99995048850461588 1066.7498484848486 0.068655053739899344 6.9804437369913366
decision_type=2 2 2 2 2 2 2 2 2 2 2 2 2 2 2 2 2 2 2
left_child=2 -2 10 -4 16 -6 8 -8 13 -10 14 -12 -9 -3 18 -16 -5 -13 -1
right_child=1 6 3 4 5 -7 7 12 9 -11 11 17 -14 -15 15 -17 -18 -19 -20
leaf_value=-0.022426963155236124 0.059022796397041 -0.015655786618002637 0.061264804498411943 -0.011381289448644694 0.060250556029786573 -0.0053868670252549163 0.054088216704560092 0.015517209872917145 0.049970675435147764 -0.0015868124624204294 0.050785429694065 -0.015970997117079565 -0.012821329024118264 -0 0.039834975079306244 -0.01466774407588157 -0.025955693490233318 0 0
leaf_weight=1049.9355348646641 638.83533895388246 1209.6670196093619 229.76878539100289 830.947539255023 123.30978190898895 528.20655757188797 112.62949570268393 171.06088930368423 60.962269064038992 221.42878247052431 62.848557781428099 278.29518354684114 179.84135610237718 284.15451226010919 47.5436000674963 531.43209468573332 320.43698596209288 34.239181064069271 8.2474398761987668
leaf_count=5615 6005 6112 1824 4187 883 2677 892 834 450 1073 486 1364 895 1505 434 2526 1672 165 41
internal_value=0 0.203339 -0.140746 0.00660254 -0.149099 0.140064 -0.0749242 0.296003 -0.178437 0.183234 -0.293809 -0 0 -0.254221 -0.355136 -0.174857 -0.32113 -0.258173 -0.441851
internal_weight=0 2878.58 4045.21 2032.67 1802.9 651.516 2239.74 463.532 1776.21 282.391 2012.54 375.383 350.902 1493.82 1637.16 578.976 1151.38 312.534 1058.18
internal_count=39640 17766 21874 11243 9419 3560 11761 2621 9140 1523 10631 2015 1729 7617 8616 2960 5859 1529 5656
shrinkage=0.05


Tree=42
num_leaves=20
num_cat=0
split_feature=80 80 15 229 228 229 91 229 229 236 150 229 229 13 229 15 19 17 92
split_gain=189.731 511.34 169.63 206.505 194.908 47.1191 23.5696 22.5353 145.578 10.3908 8.45005 3.73779 4.99568 2.98883 2.69236 8.26877 2.34167 0.576715 0.286573
