tree
version=v2
num_class=1
num_tree_per_iteration=1
label_index=0
max_feature_idx=276
objective=binary sigmoid:1
feature_names=age job_year frs_agn_dt_cnt l12mon_buy_fin_mng_whl_tms l12_mon_fnd_buy_whl_tms l12_mon_insu_buy_whl_tms l12_mon_gld_buy_whl_tms ovd_30d_loan_tot_cnt his_lng_ovd_day cur_debit_cnt cur_credit_cnt cur_debit_min_opn_dt_cnt cur_credit_min_opn_dt_cnt Trx_Cod2_Cd trx/Flg1_B trx/Flg1_C Trx_Cod1_Cd page_no gdr_cd_flag_0 mrg_situ_cd_flag_0 edu_deg_cd_flag_0 acdm_deg_cd_flag_0 deg_cd_flag_0 job_year_flag_0 ic_ind_flag_0 fr_or_sh_ind_flag_0 dnl_mbl_bnk_ind_flag_0 dnl_bind_cmb_lif_ind_flag_0 hav_car_grp_ind_flag_0 hav_hou_grp_ind_flag_0 l6mon_agn_ind_flag_0 frs_agn_dt_cnt_flag_0 vld_rsk_ases_ind_flag_0 fin_rsk_ases_grd_cd_flag_0 confirm_rsk_ases_lvl_typ_cd_flag_0 cust_inv_rsk_endu_lvl_cd_flag_0 l6mon_daim_aum_cd_flag_0 tot_ast_lvl_cd_flag_0 pot_ast_lvl_cd_flag_0 bk1_cur_year_mon_avg_agn_amt_cd_flag_0 l12mon_buy_fin_mng_whl_tms_flag_0 l12_mon_fnd_buy_whl_tms_flag_0 l12_mon_insu_buy_whl_tms_flag_0 l12_mon_gld_buy_whl_tms_flag_0 loan_act_ind_flag_0 pl_crd_lmt_cd_flag_0 ovd_30d_loan_tot_cnt_flag_0 his_lng_ovd_day_flag_0 hld_crd_card_grd_cd_flag_0 crd_card_act_ind_flag_0 l1y_crd_card_csm_amt_dlm_cd_flag_0 atdd_type_flag_0 perm_crd_lmt_cd_flag_0 cur_debit_min_opn_dt_cnt_flag_0 cur_credit_min_opn_dt_cnt_flag_0 gdr_cd_0 gdr_cd_1 gdr_cd_2 mrg_situ_cd_0 mrg_situ_cd_1 mrg_situ_cd_2 mrg_situ_cd_3 mrg_situ_cd_4 edu_deg_cd_0 edu_deg_cd_1 edu_deg_cd_2 edu_deg_cd_3 edu_deg_cd_4 edu_deg_cd_5 edu_deg_cd_6 edu_deg_cd_7 edu_deg_cd_8 edu_deg_cd_9 edu_deg_cd_10 edu_deg_cd_11 edu_deg_cd_12 acdm_deg_cd_0 acdm_deg_cd_1 acdm_deg_cd_2 acdm_deg_cd_3 acdm_deg_cd_4 acdm_deg_cd_5 acdm_deg_cd_6 acdm_deg_cd_7 ic_ind_0 ic_ind_1 ic_ind_2 fr_or_sh_ind_0 fr_or_sh_ind_1 fr_or_sh_ind_2 dnl_mbl_bnk_ind_0 dnl_mbl_bnk_ind_1 dnl_mbl_bnk_ind_2 dnl_bind_cmb_lif_ind_0 dnl_bind_cmb_lif_ind_1 dnl_bind_cmb_lif_ind_2 hav_car_grp_ind_0 hav_car_grp_ind_1 hav_car_grp_ind_2 hav_hou_grp_ind_0 hav_hou_grp_ind_1 hav_hou_grp_ind_2 l6mon_agn_ind_0 l6mon_agn_ind_1 l6mon_agn_ind_2 vld_rsk_ases_ind_0 vld_rsk_ases_ind_1 vld_rsk_ases_ind_2 fin_rsk_ases_grd_cd_0 fin_rsk_ases_grd_cd_1 fin_rsk_ases_grd_cd_2 fin_rsk_ases_grd_cd_3 fin_rsk_ases_grd_cd_4 fin_rsk_ases_grd_cd_5 fin_rsk_ases_grd_cd_6 fin_rsk_ases_grd_cd_7 fin_rsk_ases_grd_cd_8 fin_rsk_ases_grd_cd_9 fin_rsk_ases_grd_cd_10 fin_rsk_ases_grd_cd_11 fin_rsk_ases_grd_cd_12 confirm_rsk_ases_lvl_typ_cd_0 confirm_rsk_ases_lvl_typ_cd_1 confirm_rsk_ases_lvl_typ_cd_2 confirm_rsk_ases_lvl_typ_cd_3 confirm_rsk_ases_lvl_typ_cd_4 confirm_rsk_ases_lvl_typ_cd_5 confirm_rsk_ases_lvl_typ_cd_6 confirm_rsk_ases_lvl_typ_cd_7 confirm_rsk_ases_lvl_typ_cd_8 confirm_rsk_ases_lvl_typ_cd_9 confirm_rsk_ases_lvl_typ_cd_10 confirm_rsk_ases_lvl_typ_cd_11 confirm_rsk_ases_lvl_typ_cd_12 confirm_rsk_ases_lvl_typ_cd_13 cust_inv_rsk_endu_lvl_cd_0 cust_inv_rsk_endu_lvl_cd_1 cust_inv_rsk_endu_lvl_cd_2 cust_inv_rsk_endu_lvl_cd_3 cust_inv_rsk_endu_lvl_cd_4 cust_inv_rsk_endu_lvl_cd_5 cust_inv_rsk_endu_lvl_cd_6 cust_inv_rsk_endu_lvl_cd_7 cust_inv_rsk_endu_lvl_cd_8 cust_inv_rsk_endu_lvl_cd_9 l6mon_daim_aum_cd_0 l6mon_daim_aum_cd_1 l6mon_daim_aum_cd_2 l6mon_daim_aum_cd_3 l6mon_daim_aum_cd_4 l6mon_daim_aum_cd_5 l6mon_daim_aum_cd_6 l6mon_daim_aum_cd_7 l6mon_daim_aum_cd_8 l6mon_daim_aum_cd_9 l6mon_daim_aum_cd_10 tot_ast_lvl_cd_0 tot_ast_lvl_cd_1 tot_ast_lvl_cd_2 tot_ast_lvl_cd_3 tot_ast_lvl_cd_4 tot_ast_lvl_cd_5 tot_ast_lvl_cd_6 tot_ast_lvl_cd_7 tot_ast_lvl_cd_8 tot_ast_lvl_cd_9 tot_ast_lvl_cd_10 tot_ast_lvl_cd_11 tot_ast_lvl_cd_12 tot_ast_lvl_cd_13 tot_ast_lvl_cd_14 pot_ast_lvl_cd_0 pot_ast_lvl_cd_1 pot_ast_lvl_cd_2 pot_ast_lvl_cd_3 pot_ast_lvl_cd_4 pot_ast_lvl_cd_5 pot_ast_lvl_cd_6 pot_ast_lvl_cd_7 bk1_cur_year_mon_avg_agn_amt_cd_0 bk1_cur_year_mon_avg_agn_amt_cd_1 bk1_cur_year_mon_avg_agn_amt_cd_2 bk1_cur_year_mon_avg_agn_amt_cd_3 bk1_cur_year_mon_avg_agn_amt_cd_4 bk1_cur_year_mon_avg_agn_amt_cd_5 bk1_cur_year_mon_avg_agn_amt_cd_6 bk1_cur_year_mon_avg_agn_amt_cd_7 bk1_cur_year_mon_avg_agn_amt_cd_8 bk1_cur_year_mon_avg_agn_amt_cd_9 bk1_cur_year_mon_avg_agn_amt_cd_10 bk1_cur_year_mon_avg_agn_amt_cd_11 loan_act_ind_0 loan_act_ind_1 loan_act_ind_2 pl_crd_lmt_cd_0 pl_crd_lmt_cd_1 pl_crd_lmt_cd_2 pl_crd_lmt_cd_3 pl_crd_lmt_cd_4 pl_crd_lmt_cd_5 pl_crd_lmt_cd_6 pl_crd_lmt_cd_7 pl_crd_lmt_cd_8 pl_crd_lmt_cd_9 pl_crd_lmt_cd_10 hld_crd_card_grd_cd_0 hld_crd_card_grd_cd_1 hld_crd_card_grd_cd_2 hld_crd_card_grd_cd_3 hld_crd_card_grd_cd_4 hld_crd_card_grd_cd_5 hld_crd_card_grd_cd_6 hld_crd_card_grd_cd_7 hld_crd_card_grd_cd_8 hld_crd_card_grd_cd_9 hld_crd_card_grd_cd_10 hld_crd_card_grd_cd_11 hld_crd_card_grd_cd_12 crd_card_act_ind_0 crd_card_act_ind_1 crd_card_act_ind_2 l1y_crd_card_csm_amt_dlm_cd_0 l1y_crd_card_csm_amt_dlm_cd_1 l1y_crd_card_csm_amt_dlm_cd_2 l1y_crd_card_csm_amt_dlm_cd_3 l1y_crd_card_csm_amt_dlm_cd_4 l1y_crd_card_csm_amt_dlm_cd_5 l1y_crd_card_csm_amt_dlm_cd_6 atdd_type_0 atdd_type_1 atdd_type_2 perm_crd_lmt_cd_0 perm_crd_lmt_cd_1 perm_crd_lmt_cd_2 perm_crd_lmt_cd_3 perm_crd_lmt_cd_4 perm_crd_lmt_cd_5 perm_crd_lmt_cd_6 perm_crd_lmt_cd_7 perm_crd_lmt_cd_8 perm_crd_lmt_cd_9 cur_debit_crd_lvl_0 cur_debit_crd_lvl_1 cur_debit_crd_lvl_2 cur_debit_crd_lvl_3 cur_debit_crd_lvl_4 cur_debit_crd_lvl_5 Dat_Flg3_Cd_0 Dat_Flg3_Cd_1 Dat_Flg3_Cd_2 Dat_Flg3_Cd_3 page_cls_0 page_cls_1 page_cls_2 page_cls_3 page_cls_4 page_cls_5 page_cls_6 page_cls_7 page_cls_8 page_cls_9 page_cls_10 page_cls_11 page_cls_12 page_cls_13 page_cls_14 page_cls_15 page_cls_16 page_cls_17 page_cls_18 page_cls_19 page_cls_20 page_cls_21 page_cls_22 page_cls_23 page_cls_24 page_cls_25
feature_infos=[19:84] [-1:99] [-1:1278] [-1:260] [-1:610] [-1:7] [-1:333] [-1:28] [-1:1623] [0:177] [0:173] [-1:9538] [-1:6056] [-1:34] [-1:2000000.0049999999] [-1:4609157.5782352937] [-1:3] [-1:3175.644554167282] [0:1] [0:1] [0:1] [0:1] [0:1] [0:1] [0:1] [0:1] [0:1] [0:1] [0:1] [0:1] [0:1] [0:1] [0:1] [0:1] [0:1] [0:1] [0:1] [0:1] [0:1] [0:1] [0:1] [0:1] [0:1] [0:1] [0:1] [0:1] [0:1] [0:1] [0:1] [0:1] [0:1] none none [0:1] [0:1] [0:1] [0:1] [0:1] [0:1] [0:1] [0:1] [0:1] [0:1] [0:1] [0:1] [0:1] none [0:1] [0:1] none [0:1] none none [0:1] [0:1] none [0:1] [0:1] [0:1] none [0:1] [0:1] [0:1] [0:1] [0:1] [0:1] [0:1] [0:1] [0:1] [0:1] [0:1] [0:1] [0:1] [0:1] [0:1] [0:1] [0:1] [0:1] [0:1] [0:1] [0:1] [0:1] [0:1] [0:1] [0:1] [0:1] [0:1] [0:1] [0:1] [0:1] none none [0:1] [0:1] [0:1] none none none none none [0:1] [0:1] [0:1] none none none none [0:1] [0:1] [0:1] [0:1] none none none [0:1] [0:1] [0:1] none [0:1] [0:1] [0:1] [0:1] none none [0:1] [0:1] [0:1] [0:1] [0:1] [0:1] [0:1] [0:1] [0:1] [0:1] none none [0:1] none [0:1] none none none [0:1] [0:1] [0:1] [0:1] [0:1] none none none [0:1] [0:1] none [0:1] [0:1] [0:1] [0:1] [0:1] [0:1] [0:1] [0:1] [0:1] [0:1] [0:1] [0:1] [0:1] [0:1] none none none none [0:1] [0:1] [0:1] [0:1] [0:1] none none [0:1] [0:1] [0:1] none none none none [0:1] [0:1] [0:1] none none none [0:1] none none none none none [0:1] [0:1] [0:1] [0:1] [0:1] [0:1] [0:1] [0:1] [0:1] [0:1] [0:1] [0:1] [0:1] [0:1] none [0:1] [0:1] [0:1] [0:1] [0:1] [0:1] [0:1] [0:1] [0:1] [0:1] [0:1] [0:1] [0:1] none none [0:1] [0:1] [0:1] [0:1] [0:1] none none [0:1] none none none [0:1] none none none none none none none none none none none none none none [0:1] none [0:1] [0:1]
tree_sizes=1683 1898 1521 2013 2336 1513 1175 1724 1794 1652 1408 1841 1701 1819 1820 1348 1787 2002 1406 1760 1518 1602 1617 1731 1826 1801 1855 1582 1676 1746 1868 1744 1872 1946 1804 1819 1851 1646 1520 1515 1854 1701 1738 1765 1518 1864 1914 1861 1460 2108 1916 1652 1367 1659 1880 1366 1536 2119 2097 1439 1505 1753 1342 1532 1161 1761 1422 1761 1934 1593 1353 1661 1552 1746 1708 1929 1611 1725 986 1567 1691 2079 1728 1677 1505 1560 1731 1582 1523 2103 1399 1629 1329 1421 1252 1598 1557 1830 2295 1424 1559 1562 1508 1588 1557 1523 1499 1391 1561 1331 1558 1992 1462 1503 1562 2120 1649 1514 2157 1421 1612 2071 1554 1690 2135 1382 1308 2202 1530 1548 2153 2161 1550 1962 1773 1872 1522 1507 1641 1502 1279 1516 1006 1269 1596 1466 1088 1079 1452 1641 926 1834 1339 1073 1450 1072 1493 1077 1524 1308 2290 1222 1262 990 1724 1646 1794 1307 1250 1517 1389 1873 1429 927 1887 1194 1225 1010 1577 1773 1473 1661 1548 1579 1611 2000 1078 1145 1492 1839 1518 1309 1568 1674 1506 2343 1492 1709 1070 1549 1652 2340 1360 1545 1585 1526 1657 1860 1756 1463 1637 1459 1486 2355 923 1223 1967 1803 1818 1463 1562 1939 1628 1435 1939 1301 1215 1200 1957 1205 1212 1519 1206 1503 1598 2049 2184 1208 1372 1215 1228 2377 1353 1214 1269 1399 1378 1013 1223 1275 1004 1750 1501 1008 2197 1003 1405 1464 1558 1973 1600 1009 1612 1283 1910 1388 1524 2271 1472 1200 1048 1560 1474 1194 1556 1713 1289 1695 1363 1561 1420 1551 1289 1302 1227 1582 1217 1109 1659 1554 1390 1202 1294 1162 1739 1309 1451 1801 1226 1153 1455 1235 1154 990 1540 1541 1197 1520 1466 1274 1442 1739 1294 1414 1576 1561 1528 1544 1655 1551 1473 1425 1604 1660 1685 1585 1496 1281 1449 1515 1466 1659 1485 1714 1614 1607 1885 1641 1622 1571 1566 1625 1497 1600 1670 1879 1784 1634 1437 1418 1554 2203 1546 1879 1530 1433 1127 1683 1331 1673 1379 1360 1542 1354 1714 1631 1314 1347 1466 1312 1371 1604 944 1308 1562 1947 1457 1243 980 1272 1172 1738 1831 1192 1500 966 1401 1325 963 1699 1521 968 1399 1295 1340 1016 1394 1810 1033 1252 1894 1417 1012 1428 1297 1655 1272 1732 1535 1577 1333 1472 1724 1721 1670 1404 1715 1247 1008 1649 1594 1808 1134 1598 1202 1050 1690 1492 1015 1739 1594 1003 1587 1408 980 1212 1757 1065 1760 1374 1010 1465 999 1686 1707 944 1290 1650 919 1673 1066 1127 1490 1371 1660 1000 1121 1025 1034 1138 1583 2056 1007 1919 1363 1113 1487 832 1972 1018 1505 1511 2014 1077 1373 1658 1819 1496 1573 951 983 1495 1470 1755 1008 1425 1743 1365 1775 1586 1367 1607 959 2151 1654 1461 1410 1358 1329 1316 1377 1719 1386 1818 1697 1753 1692 1323 1702 1599 1468 1482 1646 1748 1395 1868 1492 1473 1274 1647 1034 1299 1185 1377 1504 1352 1189 1405 1551 1341 1072 1942 1794 1113 1493 1776 1986 1245 1119 1107 1261 1302 1325 1309 1448 1242 950 1439 1561 1234 1426 1199 1533 1290 1560 1350 1013 1165 1175 1217 1181 1110 1624 1034 1296 1583 1411 1445 996 1532 1547 1604 1588 1611 1382 1590 1555 1607 1545 1289 1169 1190 1149 1121 1603 1386 1750 1937 1894 1466 889 1042 1960 1633 843 1347 1733 1528 1370 893 1577 1655 1011 1744 1472 984 1595 1032 1528 891 1751 1797 1838 1196 1520 1244 1001 1303 1646 1030 1367 1471 1033 1266 1116 1869 1647 1159 1321 891 1183 1238 1140 1389 1488 1372 1304 1289 1219 1156 1294 1413 1407 1486 1414 1111 1394 1448 1271 1306 1343 1390 1438 1112 1261 1383 1023 1317 1411 1349 1399 1465 1302 1524 1242 1538 1099 1352 1550 1205 1561 1075 1384 1463 1582 1261 1556 1200 1004 1539 986 1225 1313 1126 1289 1593 1026 978 1640 1604 1129 1686 1534 1709 1098 961 1367 2051 1151 870 1609 1146 897 855 1080 868 1212 1299 959 762 960 1317 956 1011 1363 893 881 905 852 880 1706 1586 1700 1647 1716 1665 1592 1258 1371 1613 1620 1587 1731 1255 1266 1475 1244 1555 1888 1326 1322 1559 1558 1413 1646 1208 1202 1247 887 1684 1961 806 885 1646 1279 839 1824 1295 782 1332 1670 1222 1646 1144 847 1565 1463 1640 1464 1245 1254 1257 1500 1573 879 1411 944 1760 929 1187 1417 959 989 1957 1086 1529 1269 1983 954 1598 972 889 1669 1865 1042 1162 974 1554 1792 975 1445 1108 1407 1015 1203 1860 1072 1513 1087 1377 1524 1636 1685 2237 1632 1876 1266 1897 1665 1313 2240 1765 1995 2025 1709 1599 1900 1636 1931 1378 1766 1647 1496 1776 1477 1852 1311 1464 2036 1571 1354 1371 1446 1677 1478 1472 1314 1538 1533 1349 1620 1219 1509 1432 1425 1298 1408 1255 1224 1125 1268 1382 1402 1135 1370 1314 1132 969 1120 912 970 934 1126 2118 2017 973 1057 1599 1075 1198 1139 1825 994 2130 1078 973 1399 1756 1201 1135 970 1173 1212 1286 1193 1201 1187 1211 1958 1118 1569 1119 1590 1608 1393 1512 1641 1649 1412 1641 913 1637 1421 991 1229 1295 1609 1515 1266 985 1070 1565 1573 1644 1484 1296 979 1794 1309 982 1600 983 1662 938 995 1079 1043 1358 980 921 978 1555 1260 1150 1239 1777 1843 1566 1268 1475 1543 1449 1574 1475 1398 1550 1573 1443 1466 1263 1665 1424 1407 1171 1430 1381 1609 1621 1412 1647 1671 1475 1262 1298 1501 1792 1018 1423 1734 1828 1021 1462 1449 1172 1502 1590 981 1407 1110 1482 1754 1678 1662 1686 1620 1436 2232 1761 1164 1180 1356 1577 1178 1688 1386 1756 1600 1672 1534 1132 1391 1672 2312 1383 2196 1666 1004 1149 2311 1393 1192 1201 1254 2345 1124 1390 1817 1653 1166 1174 1916 1864 1142 1197 1382 1142 1381 914 1055 1493 1180 1242 1786 1350 1154 1120 1161 1137 1162 1211 1336 1140 1043 1164 1201 1138 1332 1289 1304 1279 1142 1617 1349 1133 1086 1367 1404 1176 1312 1446 972 1280 1420 1537 1286 1525 1199 1056 1232 1024 1366 1305 1341 1363 1306 1307 1090 1913 1375 1280 1246 1451 1093 1056 1371 1031 1034 1308 1340 1119 1439 1362 1402 1231 1080 1548 1351 1087 903 901 1386 1001 1416 1293 1060 1379 1074 1144 1169 1124 1157 1071 1400 1393 1306 1215 1122 1065 1422 985 1153 1152 1022 1305 1626 1311 1070 1158 1137 1396 1141 1515 1210 1429 1458 1677 936 1817 1073 1379 1313 1086 1092 1320 1148 1227 1188 1306 1104 1071 1402 1061 927 1291 1381 1278 1146 1418 1106 1142 1158 1419 1050 1161 1260 1259 1434 1393 1387 1274 915 1493 913 1021 1085 966 1370 1510 1375 1094 838 1024 1525 1036 1516 1351 1179 1262 1345 1098

Tree=0
num_leaves=19
num_cat=0
split_feature=55 76 77 82 81 96 15 15 96 87 76 64 87 77 87 93 58 15
split_gain=3361.98 1665.22 1329.11 1427.37 2168.06 332.218 302.345 200.427 184.382 84.8627 47.7475 40.721 41.4042 39.6293 33.6946 32.5979 28.8195 12.0051
threshold=1.0000000180025095e-35 1.0000000180025095e-35 1.0000000180025095e-35 1.0000000180025095e-35 1.0000000180025095e-35 1.0000000180025095e-35 490.39733333333339 1007.7271317562144 1.0000000180025095e-35 1.0000000180025095e-35 1.0000000180025095e-35 1.0000000180025095e-35 1.0000000180025095e-35 1.0000000180025095e-35 1.0000000180025095e-35 1.0000000180025095e-35 1.0000000180025095e-35 0.0099769323200753976
decision_type=2 2 2 2 2 2 2 2 2 2 2 2 2 2 2 2 2 2
left_child=1 2 3 4 -1 6 10 8 -4 -3 13 12 -8 -2 -9 16 -7 -5
right_child=5 9 7 17 -6 15 11 14 -10 -11 -12 -13 -14 -15 -16 -17 -18 -19
leaf_value=0.016820980525297579 0.0082180518942421999 -0.00022724656040674007 0.0073905522248361132 -0.002514780038011262 0.0026999711598527402 -0.0069013469517504207 0.0013261665584563607 -0.0009662132578210469 -0.0031805230777735118 -0.0096544195527959072 -0.0043720871329443458 -0.011740347482192569 -0.0060748734556362975 0.00087955217307988389 -0.0083029582931304687 -0.013569809373178586 -0.011014686314899085 -0.0087442399163961716
leaf_count=10511 910 584 1116 486 7523 2948 489 517 1497 2677 132 611 1975 281 1664 1699 2695 1325
internal_value=0 0.372637 0.551651 0.780346 0.951522 -0.901279 -0.445784 -0.385388 -0 -0.958116 0.325809 -0.79052 -0.624433 0.47463 -0.827181 -1.16482 -1.04631 -0.886349
internal_count=39640 27900 24639 19845 18034 11740 4398 4794 2613 3261 1323 3075 2464 1191 2181 7342 5643 1811
shrinkage=1


Tree=1
num_leaves=22
num_cat=0
split_feature=55 76 77 82 81 96 13 87 13 87 207 13 13 93 207 58 14 13 14 87 16
split_gain=3296.69 1632.66 1303.18 1400.07 2125.15 325.282 331.936 139.472 86.0985 82.9963 56.7021 48.4572 42.6114 31.7564 46.0433 34.9693 25.2087 16.8607 12.5187 9.57395 8.0511
threshold=1.0000000180025095e-35 1.0000000180025095e-35 1.0000000180025095e-35 1.0000000180025095e-35 1.0000000180025095e-35 1.0000000180025095e-35 5.9947038443570291 1.0000000180025095e-35 2.9809475619689798 1.0000000180025095e-35 1.0000000180025095e-35 6.9772455692875583 10.998628750119455 1.0000000180025095e-35 1.0000000180025095e-35 1.0000000180025095e-35 1730.024003402292 5.9947038443570291 343.50746580400664 1.0000000180025095e-35 2.9998278160077301
decision_type=2 2 2 2 2 2 2 2 2 2 2 2 2 2 2 2 2 2 2 2 2
left_child=1 2 3 4 -1 6 10 11 -9 17 16 -4 20 14 15 -7 -2 -3 -12 -5 -8
right_child=5 9 7 19 -6 13 12 8 -10 -11 18 -13 -14 -15 -16 -17 -18 -19 -20 -21 -22
leaf_value=0.015215932714329108 0.0058055776455768508 0.00074273236003922832 0.0050430291776585546 -0.0030626030553691955 0.0012345501144359484 -0.0045821811052835114 -0.0023316927746812226 -0.0013085259252583132 -0.0080831483988507893 -0.010998247511795314 0 -0.0030798621152778329 -0.011420644633483509 -0.01487671975647261 -0.012291564258977837 -0.010464525219438714 -0.00030540590907714708 -0.0049391716508304373 -0.0050087602879065208 -0.0097386194580771357 -0.0080802612698409586
leaf_count=10511 988 284 758 344 7523 1328 670 1358 2309 2677 367 369 1552 1699 3146 1169 200 300 321 1467 300
internal_value=0 0.36882 0.546091 0.772557 0.942105 -0.89268 -0.441787 -0.381711 -0.572339 -0.948828 0.176301 0.202627 -0.912742 -1.1535 -1.03609 -0.761529 0.447462 -0.166454 -0.235838 -0.87802 -0.475524
internal_count=39640 27900 24639 19845 18034 11740 4398 4794 3667 3261 1876 1127 2522 7342 5643 2497 1188 584 688 1811 970
shrinkage=0.01


Tree=2
num_leaves=17
num_cat=0
split_feature=55 56 15 18 221 222 228 230 93 13 222 90 12 58 22 103
split_gain=3233.21 4293.6 1219.53 1119.07 1019.54 747.812 215 749.757 161.488 219.603 169.123 99.9246 90.7222 43.3083 23.9186 0.379039
threshold=1.0000000180025095e-35 1.0000000180025095e-35 896.71966838652179 1.0000000180025095e-35 1.0000000180025095e-35 1.0000000180025095e-35 1.0000000180025095e-35 1.0000000180025095e-35 1.0000000180025095e-35 3.9858965823886625 1.0000000180025095e-35 1.0000000180025095e-35 442.50000000000006 1.0000000180025095e-35 1.0000000180025095e-35 1.0000000180025095e-35
decision_type=2 2 2 2 2 2 2 2 2 2 2 2 2 2 2 2
left_child=1 3 4 -1 5 -3 7 -4 9 10 12 -6 -2 14 -11 -8
right_child=8 2 6 -5 11 -7 15 -9 -10 13 -12 -13 -14 -15 -16 -17
leaf_value=0.019586194235435898 -0.0067352865801147948 0.0086522387502520077 0.010882557743672597 -0.010486100462842264 -0.0032855690608522702 -0.0074663767538145466 -0.0090403117126809495 -0.0073598832969207044 -0.014292053626184537 -0.0053694239098901232 -0.011899821706076577 -0.011914595342340411 0.00062612694119432643 -0.012170686548860979 -0.010301474152255422 -0.013409060191457574
leaf_count=6385 874 8136 1066 494 1287 1282 2549 4620 1996 1672 771 1236 2209 2957 1261 845
internal_value=0 0.365079 -0.0827587 1.73208 0.334739 0.639345 -0.63525 -0.381807 -0.884261 -0.763168 -0.36976 -0.778897 -0.139219 -1.00961 -0.773451 -1.0388
internal_count=39640 27900 21021 6879 11941 9418 9080 5686 11740 9744 3854 2523 3083 5890 2933 3394
shrinkage=0.01


Tree=3
num_leaves=23
num_cat=0
split_feature=96 97 15 15 221 222 15 1 87 88 222 87 90 228 228 87 10 93 77 207 59 87
split_gain=2027.89 4916.78 937.999 613.341 771.257 820.865 489.198 384.192 257.149 824.05 214.68 113.973 105.535 91.6198 72.8502 57.2161 48.1258 45.0333 36.0753 32.5554 12.5876 6.45526
threshold=1.0000000180025095e-35 1.0000000180025095e-35 500.00166666666672 972.19520944691556 1.0000000180025095e-35 1.0000000180025095e-35 95.144971998911259 -1.0000000180025095e-35 1.0000000180025095e-35 1.0000000180025095e-35 1.0000000180025095e-35 1.0000000180025095e-35 1.0000000180025095e-35 1.0000000180025095e-35 1.0000000180025095e-35 1.0000000180025095e-35 1.0000000180025095e-35 1.0000000180025095e-35 1.0000000180025095e-35 1.0000000180025095e-35 1.0000000180025095e-35 1.0000000180025095e-35
decision_type=2 2 2 2 2 2 2 2 2 2 2 2 2 2 2 2 2 2 2 2 2 2
left_child=1 7 10 4 5 6 -2 -1 9 -4 12 17 -3 -10 15 20 -13 -6 -17 -7 -5 -16
right_child=3 2 8 14 11 19 -8 -9 13 -11 -12 16 -14 -15 21 18 -18 -19 -20 -21 -22 -23
leaf_value=-0.00085150187341737559 0.009721885234774191 0.0087042664908956995 0.018000320899857033 0.0026736776192279881 0.0041143512679294907 -0.0050278328304455078 -0.0010248872891326635 0.01949182226379163 -0.005947494104307725 -0.0082976868091923246 -0.0096753784513107823 -0.0060713221394424902 0.00082355484884576028 -0.011180988643028997 -0.0060057607295809622 -0.0068227317384009344 -0.012050423425114254 -0.0060107087172962762 -0.012878129851357997 -0.011456553339373066 -0.0034900272495269973 -0.013581970962463519
leaf_count=351 3643 2732 652 201 319 937 3013 6341 4348 1492 299 1303 1068 2642 352 2756 2497 291 809 1296 232 2066
internal_value=0 0.443989 -0.260555 -0.459909 -0.209771 0.126069 0.482021 1.83664 -0.618524 -0 0.525726 -0.890745 0.66251 -0.803485 -0.967674 -0.760651 -1.01891 -0.0172823 -0.843553 -0.90709 -0 -1.27575
internal_count=39640 19925 13233 19715 13299 8889 6656 6692 9134 2144 4099 4410 3800 6990 6416 3998 3800 610 3565 2233 433 2418
shrinkage=0.01


Tree=4
num_leaves=27
num_cat=0
split_feature=96 15 15 221 222 254 248 247 15 222 13 82 235 87 228 87 10 93 228 248 77 207 87 16 228 248
split_gain=1988.97 1744.61 601.547 756.188 805.152 527.548 513.445 759.97 479.73 360.524 264.854 137.384 122 111.764 71.3149 56.1221 46.9895 44.2463 41.1367 41.4528 35.3148 31.7599 6.03327 4.88111 2.7037 1.59175
threshold=1.0000000180025095e-35 532.40869753056552 972.19520944691556 1.0000000180025095e-35 1.0000000180025095e-35 1.0000000180025095e-35 1.0000000180025095e-35 1.0000000180025095e-35 95.144971998911259 1.0000000180025095e-35 7.9990707954880813 1.0000000180025095e-35 1.0000000180025095e-35 1.0000000180025095e-35 1.0000000180025095e-35 1.0000000180025095e-35 1.0000000180025095e-35 1.0000000180025095e-35 1.0000000180025095e-35 1.0000000180025095e-35 1.0000000180025095e-35 1.0000000180025095e-35 1.0000000180025095e-35 2.9998278160077301 1.0000000180025095e-35 1.0000000180025095e-35
decision_type=2 2 2 2 2 2 2 2 2 2 2 2 2 2 2 2 2 2 2 2 2 2 2 2 2 2
left_child=1 9 3 4 8 6 7 -3 -2 11 -8 12 -1 17 15 23 -15 -5 19 -7 -17 -6 -16 -4 -13 -11
right_child=2 5 14 13 21 18 10 -9 -10 25 -12 24 -14 16 22 20 -18 -19 -20 -21 -22 -23 -24 -25 -26 -27
leaf_value=0.013778221789345204 0.0096266920622233108 0.018237744430079889 0.00073185590293809333 0.0040778620358217568 -0.0049797835006374436 -0.0015887725804486497 0.001838243501011182 -0.00174773256778684 -0.0010147716449216417 -0.0017252550090104694 -0.0064102242433019844 0.00091511942289465163 0.0040678058140904971 -0.0060127284914380432 -0.0059520920454387231 -0.0067557303389872911 -0.011933655712885925 -0.0059580815711538304 -0.01114941937986836 -0.01044496821543325 -0.012757948528676618 -0.011347036962513419 -0.013451444999849203 -0.0032079441494141077 -0.0022327798465032393 -0.010549084278411681
leaf_count=6781 3643 1517 301 319 937 819 3732 1413 3013 173 2566 168 736 1303 352 2756 2497 291 1373 352 809 1296 2066 132 142 153
internal_value=0 0.439611 -0.455631 -0.207863 0.124647 -0.0502554 0.169173 0.857021 0.477219 1.14869 -0.147859 1.23705 1.29068 -0.882202 -0.958539 -0.753399 -1.00913 -0.0166112 -0.851924 -0.483861 -0.83551 -0.898574 -1.2637 -0 -0 -0.76601
internal_count=39640 19925 19715 13299 8889 11772 9228 2930 6656 8153 6298 7827 7517 4410 6416 3998 3800 610 2544 1171 3565 2233 2418 433 310 326
shrinkage=0.01


Tree=5
num_leaves=17
num_cat=0
split_feature=76 96 97 15 15 221 222 1 87 222 90 87 59 58 13 207
split_gain=2053.48 1759.78 3743.48 761.312 573.548 680.264 704.395 329.582 227.506 159.33 110.363 97.3465 72.166 420.923 28.2428 2.78724
threshold=1.0000000180025095e-35 1.0000000180025095e-35 1.0000000180025095e-35 471.79627313617294 972.19520944691556 1.0000000180025095e-35 1.0000000180025095e-35 -1.0000000180025095e-35 1.0000000180025095e-35 1.0000000180025095e-35 1.0000000180025095e-35 1.0000000180025095e-35 1.0000000180025095e-35 1.0000000180025095e-35 5.9947038443570291 1.0000000180025095e-35
decision_type=2 2 2 2 2 2 2 2 2 2 2 2 2 2 2 2
left_child=1 2 7 9 5 6 -3 -1 -5 -4 -7 14 13 -6 15 -2
right_child=11 4 3 8 12 10 -8 -9 -10 -11 -12 -13 -14 -15 -16 -17
leaf_value=-0.00030453818476748048 0.0014544608572240297 0.0062302692350340132 0.0077596891542518814 0.0013697175630523887 0.0068270763208084307 -0.0030784951981488386 -0.0078738331054256008 0.019201043320624021 -0.0065587623851355034 -0.0075688142901434901 -0.010785065212530413 -0.012329231555719721 -0.011364293078926793 -0.010295775038874678 -0.0070843674760868247 -0.0016866369780464681
leaf_count=323 237 6022 3377 1828 715 1525 1792 6199 5601 237 1987 4817 2227 2175 432 146
internal_value=0 0.179856 0.620264 -0.0868711 -0.288451 -0.032856 0.292113 1.81772 -0.455761 0.657274 -0.762339 -1.12018 -0.8418 -0.588678 -0.380658 0
internal_count=39640 34008 17565 11043 16443 11326 7814 6522 7429 3614 3512 5632 5117 2890 815 383
shrinkage=0.01


Tree=6
num_leaves=13
num_cat=0
split_feature=76 77 82 81 78 13 13 90 221 13 58 221
split_gain=2013.55 1799.21 1942.4 3560.83 1391.8 365.67 166.747 198.486 72.9119 9.01681 7.09914 0.0311457
threshold=1.0000000180025095e-35 1.0000000180025095e-35 1.0000000180025095e-35 1.0000000180025095e-35 1.0000000180025095e-35 3.9858965823886625 4.999270647171099 1.0000000180025095e-35 1.0000000180025095e-35 7.9990707954880813 1.0000000180025095e-35 1.0000000180025095e-35
decision_type=2 2 2 2 2 2 2 2 2 2 2 2
left_child=1 2 3 4 -1 -5 7 8 -3 -2 -8 -9
right_child=9 6 -4 5 -6 -7 10 11 -10 -11 -12 -13
leaf_value=0.015380102959212381 -0.0094464202319098928 0.0020840342200205172 -0.010622791223260359 0.0013598601759904172 -0.013254424224579049 -0.0058682087838841223 -0.0075081563715401747 -0.0066537410165588839 -0.0061247970039259008 -0.012964655259243228 -0.011488332480356396 -0.011511575859690364
leaf_count=11499 3236 1798 3039 6049 677 5056 1646 1181 525 2396 1959 579
internal_value=0 0.178031 0.427682 0.62543 1.37157 -0.190459 -0.669042 -0.370592 0 -1.10946 -0.988314 -0.869425
internal_count=39640 34008 26320 23281 12176 11105 7688 4083 2323 5632 3605 1760
shrinkage=0.01


Tree=7
num_leaves=20
num_cat=0
split_feature=55 56 21 76 77 82 96 13 13 207 13 87 93 207 58 234 13 58 16
split_gain=3054.18 4052.7 1079.48 874.751 662.634 841.41 298.534 304.166 106.659 52.6642 39.2571 35.9259 27.4242 43.1714 33.1648 20.8833 11.243 10.0795 7.60594
threshold=1.0000000180025095e-35 1.0000000180025095e-35 1.0000000180025095e-35 1.0000000180025095e-35 1.0000000180025095e-35 1.0000000180025095e-35 1.0000000180025095e-35 5.9947038443570291 3.9858965823886625 1.0000000180025095e-35 10.998628750119455 1.0000000180025095e-35 1.0000000180025095e-35 1.0000000180025095e-35 1.0000000180025095e-35 1.0000000180025095e-35 5.9947038443570291 1.0000000180025095e-35 2.9998278160077301
decision_type=2 2 2 2 2 2 2 2 2 2 2 2 2 2 2 2 2 2 2
left_child=1 2 -1 4 5 -3 7 9 -6 15 18 16 13 14 -8 -2 -5 -11 -9
right_child=6 3 -4 11 8 -7 12 10 -10 17 -12 -13 -14 -15 -16 -17 -18 -19 -20
leaf_value=0.01906632622564736 0.005309535546572648 0.0050263896584370341 -0.010460066636507455 -0 -0.0022191425414509421 -0.009709488966743016 -0.0043564678649888463 -0.0021909296268619299 -0.0088231979809807459 -0 -0.010996283331016012 -0.011648390925090284 -0.014291325460737161 -0.011856860455566278 -0.010087991597047272 -0.00066118201904380545 -0.0065036908864204357 -0.0052087158694839155 -0.0077870384192936497
leaf_count=6385 1043 11802 494 243 2091 1732 1328 670 2296 434 1552 2581 1699 3146 1169 145 276 254 300
internal_value=0 0.354396 1.68367 -0.0806557 0.0877669 0.308771 -0.860328 -0.427511 -0.581418 0.163492 -0.878551 -1.05589 -1.11053 -0.998238 -0.731382 0.4257 -0.398254 -0.232742 -0.455776
internal_count=39640 27900 6879 21021 17921 13534 11740 4398 4387 1876 2522 3100 7342 5643 2497 1188 519 688 970
shrinkage=0.01


Tree=8
num_leaves=21
num_cat=0
split_feature=55 56 15 18 96 93 96 13 87 222 228 228 15 12 13 93 207 58 15 14
split_gain=2995.99 3976.14 1120.86 1060.06 836.109 322.917 292.518 298.351 257.712 201.163 108.798 92.659 65.4357 39.3048 38.2256 26.7558 42.0939 32.421 16.5092 2.24457
threshold=1.0000000180025095e-35 1.0000000180025095e-35 896.71966838652179 1.0000000180025095e-35 1.0000000180025095e-35 1.0000000180025095e-35 1.0000000180025095e-35 5.9947038443570291 1.0000000180025095e-35 1.0000000180025095e-35 1.0000000180025095e-35 1.0000000180025095e-35 2833.4433333333336 447.50000000000006 10.998628750119455 1.0000000180025095e-35 1.0000000180025095e-35 1.0000000180025095e-35 1030.5007962456632 1840.7541865079372
decision_type=2 2 2 2 2 2 2 2 2 2 2 2 2 2 2 2 2 2 2 2
left_child=1 3 4 -1 9 -6 7 12 11 -3 -10 -4 13 -2 18 16 17 -8 -9 -14
right_child=6 2 8 -5 5 -7 15 14 10 -11 -12 -13 19 -15 -16 -17 -18 -19 -20 -21
leaf_value=0.018892703562037792 -0.0028151514948381207 0.010054803386883684 0.0036299291237156407 -0.010362096404954921 0.00082084155487762681 -0.0096955830318231195 -0.0043144755407213435 -0 -0.0057503461899114042 -0.0071345093575501464 -0.011382858755360247 -0.0048508205047625916 -0 0.0050093735858694607 -0.010892387228311777 -0.01415991356423997 -0.011743916533623073 -0.009993182161708929 -0.0062794352969400367 -0.0067350878188707046
leaf_count=6385 220 5012 1214 494 5252 1444 1328 319 4472 233 2560 834 128 1302 1552 1699 3146 1169 651 226
internal_value=0 0.350843 -0.0799901 1.66811 0.320355 -0.143157 -0.852418 -0.423798 -0.609917 0.91665 -0.790976 0 0.16135 0.357878 -0.870592 -1.10019 -0.988851 -0.724575 -0.452039 -0.532404
internal_count=39640 27900 21021 6879 11941 6696 11740 4398 9080 5245 7032 2048 1876 1522 2522 7342 5643 2497 970 354
shrinkage=0.01


Tree=9
num_leaves=19
num_cat=0
split_feature=55 56 15 21 221 222 96 13 87 59 90 59 15 12 13 93 58 15
split_gain=2939.29 3901.46 1098.91 1041.2 922.923 676.519 286.657 292.504 252.735 156.354 92.8324 92.6547 64.3365 38.6463 37.2892 26.1164 25.8343 16.1557
threshold=1.0000000180025095e-35 1.0000000180025095e-35 896.71966838652179 1.0000000180025095e-35 1.0000000180025095e-35 1.0000000180025095e-35 1.0000000180025095e-35 5.9947038443570291 1.0000000180025095e-35 1.0000000180025095e-35 1.0000000180025095e-35 1.0000000180025095e-35 2833.4433333333336 447.50000000000006 10.998628750119455 1.0000000180025095e-35 1.0000000180025095e-35 1030.5007962456632
decision_type=2 2 2 2 2 2 2 2 2 2 2 2 2 2 2 2 2 2
left_child=1 3 4 -1 5 -3 7 12 9 -4 -6 -10 13 -2 17 16 -8 -9
right_child=6 2 8 -5 10 -7 15 14 11 -11 -12 -13 -14 -15 -16 -17 -18 -19
leaf_value=0.018723860985601123 -0.0027913191543278669 0.0082241871697651785 0.0055720200154380506 -0.010265568603773258 -0.0030744558832694613 -0.0071049133902337525 -0.0077852720073858031 -0 -0.0056962786738844196 -0.0052707305868782443 -0.011403681288873995 -0.010892072443800018 -0.0052856689801300295 0.0049611400950012674 -0.010790071752202321 -0.014031021232373294 -0.011704093733882377 -0.0062210274180484592
leaf_count=6385 220 8136 1023 494 1287 1282 2948 319 4284 1025 1236 2748 354 1302 1552 1699 2695 651
internal_value=0 0.347391 -0.0792676 1.65296 0.317149 0.607276 -0.844624 -0.42013 -0.604031 0 -0.742454 -0.783356 0.159074 0.354122 -0.862619 -1.09001 -0.979601 -0.448029
internal_count=39640 27900 21021 6879 11941 9418 11740 4398 9080 2048 2523 7032 1876 1522 2522 7342 5643 970
shrinkage=0.01


Tree=10
num_leaves=16
num_cat=0
split_feature=76 77 82 81 78 13 87 87 13 13 221 93 13 228 207
split_gain=1902.73 1701.66 1836.24 3403.97 1331 350.634 204.817 90.8151 71.9766 67.6914 67.2909 64.4878 26.6689 17.2051 2.63015
threshold=1.0000000180025095e-35 1.0000000180025095e-35 1.0000000180025095e-35 1.0000000180025095e-35 1.0000000180025095e-35 3.9858965823886625 1.0000000180025095e-35 1.0000000180025095e-35 3.9858965823886625 5.9947038443570291 1.0000000180025095e-35 1.0000000180025095e-35 5.9947038443570291 1.0000000180025095e-35 1.0000000180025095e-35
decision_type=2 2 2 2 2 2 2 2 2 2 2 2 2 2 2
left_child=1 2 3 4 -1 -5 9 12 10 11 -8 -3 14 -11 -2
right_child=7 6 -4 5 -6 -7 8 -9 -10 13 -12 -13 -14 -15 -16
leaf_value=0.015016761069782465 0.0014636939659533562 0.0060369095948267625 -0.010337498958382811 0.0013003926646913142 -0.012990866756292702 -0.0057784882109049064 -0.0028215898275071078 -0.011889473080068807 -0.010245299924333708 -0.00029844150047358096 -0.010056356136890508 -0.0063148445341877869 -0.0068216616518437627 -0.0084989989793037481 -0.0015713508622003673
leaf_count=11499 237 770 3039 6049 677 5056 1927 4817 3388 324 855 150 432 274 146
internal_value=0 0.172517 0.415549 0.60801 1.33859 -0.189623 -0.651529 -1.07982 -0.812666 0 -0.52967 0.342714 -0.3633 -0.498037 0
internal_count=39640 34008 26320 23281 12176 11105 7688 5632 6170 1518 2782 920 815 598 383
shrinkage=0.01


Tree=11
num_leaves=21
num_cat=0
split_feature=55 76 207 206 205 15 15 221 96 13 228 87 15 12 13 93 207 58 15 13
split_gain=2853.76 1411.15 1095.71 1246.45 750.663 536.938 336.811 375.574 279.353 283.253 120.743 71.2529 62.6586 37.7786 36.2863 25.3307 41.0717 30.8744 16.6294 14.4022
threshold=1.0000000180025095e-35 1.0000000180025095e-35 1.0000000180025095e-35 1.0000000180025095e-35 1.0000000180025095e-35 896.71966838652179 998.74215492076053 1.0000000180025095e-35 1.0000000180025095e-35 5.9947038443570291 1.0000000180025095e-35 1.0000000180025095e-35 2833.4433333333336 447.50000000000006 12.936776228671164 1.0000000180025095e-35 1.0000000180025095e-35 1.0000000180025095e-35 1600.6900000000005 5.9947038443570291
decision_type=2 2 2 2 2 2 2 2 2 2 2 2 2 2 2 2 2 2 2 2
left_child=1 2 3 4 -1 -5 7 -4 9 12 -8 19 13 -2 18 16 17 -10 -11 -3
right_child=8 11 6 5 -6 -7 10 -9 15 14 -12 -13 -14 -15 -16 -17 -18 -19 -20 -21
leaf_value=0.016747554941037066 -0.0027616903047411657 0.0006206023617058603 0.0053804316197627591 0.006263379919374765 -0.00056518759810746653 -0.0056271887913627644 -0.0015092897457363126 -0.010639209384260431 -0.0041807502153129042 -0.0013007070167166781 -0.008605513804832569 -0.010241506729191361 -0.0052198385171405119 0.0048956029028390602 -0.011282499041574414 -0.013847100701153093 -0.01149117869520716 -0.0097392986189564126 -0.0072401593138216513 -0.004566568208678525
leaf_count=6534 220 284 4871 4483 1129 2228 3335 614 1328 527 1445 2677 354 1302 1246 1699 3146 1169 749 300
internal_value=0 0.342172 0.5073 0.863598 1.41492 0.224432 0.0036091 0.344869 -0.832787 -0.413499 -0.379131 -0.883717 0.15621 0.348963 -0.849158 -1.07517 -0.965998 -0.705195 -0.520493 -0.152426
internal_count=39640 27900 24639 14374 7663 6711 10265 5485 11740 4398 4780 3261 1876 1522 2522 7342 5643 2497 1276 584
shrinkage=0.01


Tree=12
num_leaves=20
num_cat=0
split_feature=55 56 15 18 221 222 96 13 87 59 228 11 15 12 13 93 207 15 14
split_gain=2799.95 3754.67 1050.58 1022.07 885.128 654.708 273.84 277.896 241.482 151.113 103.458 80.9651 61.4877 37.1476 35.473 24.755 40.0786 15.4909 2.34964
threshold=1.0000000180025095e-35 1.0000000180025095e-35 896.71966838652179 1.0000000180025095e-35 1.0000000180025095e-35 1.0000000180025095e-35 1.0000000180025095e-35 5.9947038443570291 1.0000000180025095e-35 1.0000000180025095e-35 1.0000000180025095e-35 423.50000000000006 2833.4433333333336 447.50000000000006 10.998628750119455 1.0000000180025095e-35 1.0000000180025095e-35 1030.5007962456632 1840.7541865079372
decision_type=2 2 2 2 2 2 2 2 2 2 2 2 2 2 2 2 2 2 2
left_child=1 3 4 -1 5 -3 7 12 9 -4 -10 -6 13 -2 17 16 -8 -9 -14
right_child=6 2 8 -5 11 -7 15 14 10 -11 -12 -13 18 -15 -16 -17 -18 -19 -20
leaf_value=0.018395628119779416 -0.0027383316564140907 0.0080432334766607182 0.005456970051142717 -0.010323027928048322 -0.012120540458057579 -0.0070382498562665107 -0.006987056870239444 -0 -0.0055729418997640754 -0.0052062390883620517 -0.01107453374247175 -0.003994495315585672 -0 0.0048485939339025456 -0.01053275614734083 -0.013724065159151578 -0.011384095400023126 -0.0060582201084432765 -0.0065710867360832164
leaf_count=6385 220 8136 1023 494 933 1282 2497 319 4472 1025 2560 1590 128 1302 1552 1699 3146 651 226
internal_value=0 0.338801 -0.0795959 1.6215 0.308123 0.59246 -0.825264 -0.40994 -0.592878 0 -0.768238 -0.729711 0.154178 0.345302 -0.841583 -1.06538 -0.957072 -0.435467 -0.517333
internal_count=39640 27900 21021 6879 11941 9418 11740 4398 9080 2048 7032 2523 1876 1522 2522 7342 5643 970 354
shrinkage=0.01


Tree=13
num_leaves=21
num_cat=0
split_feature=55 56 15 18 221 222 96 13 87 59 228 90 15 76 13 93 207 58 15 14
split_gain=2746.97 3686.26 1029.86 1004.46 868.299 642.205 268.369 272.491 236.869 148.23 101.471 89.509 60.4542 35.6846 34.838 24.2423 39.2093 30.4552 16.2587 2.24794
threshold=1.0000000180025095e-35 1.0000000180025095e-35 896.71966838652179 1.0000000180025095e-35 1.0000000180025095e-35 1.0000000180025095e-35 1.0000000180025095e-35 5.9947038443570291 1.0000000180025095e-35 1.0000000180025095e-35 1.0000000180025095e-35 1.0000000180025095e-35 2833.4433333333336 1.0000000180025095e-35 12.936776228671164 1.0000000180025095e-35 1.0000000180025095e-35 1.0000000180025095e-35 2960.8300000000004 1840.7541865079372
decision_type=2 2 2 2 2 2 2 2 2 2 2 2 2 2 2 2 2 2 2 2
left_child=1 3 4 -1 5 -3 7 12 9 -4 -10 -6 13 -2 18 16 17 -8 -9 -14
right_child=6 2 8 -5 11 -7 15 14 10 -11 -12 -13 19 -15 -16 -17 -18 -19 -20 -21
leaf_value=0.018240199110202287 0.0045787345797833005 0.0079656919811433077 0.0054049797966213287 -0.010227073063680545 -0.0029552044181506455 -0.0069711716035402152 -0.0040735524463077748 -0.0022011348488039872 -0.0055183694619989777 -0.005156421922563977 -0.010971175974002796 -0.011139196111483689 -0 -0.0039138538673859124 -0.011083481067287893 -0.01360327441498984 -0.011278678032242303 -0.0095851118438031319 -0.0080726501010365825 -0.0065160764485623938
leaf_count=6385 1374 8136 1023 494 1287 1282 1328 748 4472 1025 2560 1236 128 148 1246 1699 3146 1169 528 226
internal_value=0 0.33549 -0.0789373 1.60751 0.304976 0.586671 -0.81779 -0.406433 -0.587197 0 -0.76091 -0.722987 0.151989 0.34168 -0.833991 -1.05563 -0.948144 -0.692014 -0.510589 -0.513608
internal_count=39640 27900 21021 6879 11941 9418 11740 4398 9080 2048 7032 2523 1876 1522 2522 7342 5643 2497 1276 354
shrinkage=0.01


Tree=14
num_leaves=21
num_cat=0
split_feature=55 56 15 18 221 222 96 13 96 97 90 15 12 13 93 207 58 15 14 14
split_gain=2695.59 3619.67 1009.58 987.325 851.783 629.96 263.03 267.264 186.364 1059.72 87.7496 59.4337 36.4582 33.9956 23.7129 38.2774 29.7932 15.884 11.5284 2.14856
threshold=1.0000000180025095e-35 1.0000000180025095e-35 896.71966838652179 1.0000000180025095e-35 1.0000000180025095e-35 1.0000000180025095e-35 1.0000000180025095e-35 5.9947038443570291 1.0000000180025095e-35 1.0000000180025095e-35 1.0000000180025095e-35 2833.4433333333336 447.50000000000006 12.936776228671164 1.0000000180025095e-35 1.0000000180025095e-35 1.0000000180025095e-35 2960.8300000000004 684.56091962286007 1840.7541865079372
decision_type=2 2 2 2 2 2 2 2 2 2 2 2 2 2 2 2 2 2 2 2
left_child=1 3 4 -1 5 -3 7 11 9 -4 -6 12 -2 17 15 16 -8 -9 -10 -13
right_child=6 2 8 -5 10 -7 14 13 18 -11 -12 19 -14 -15 -16 -17 -18 -19 -20 -21
leaf_value=0.018088846506842577 -0.0027480587421821029 0.0078891246523077867 0.016299876694156511 -0.010132508931811904 -0.0029266886329609625 -0.0069048857563907134 -0.0040345047893386747 -0.0021803509663170821 -0.0067770308166208854 -0.0071643219234381614 -0.011036754255466177 -0 0.0047664716171128396 -0.010983258852872855 -0.013484656584583981 -0.011174879123443709 -0.0094972826284967244 -0.0080001566096635484 -0.011266912695246824 -0.0064616386600090617
leaf_count=6385 220 8136 866 494 1287 1282 1328 748 1278 4975 1236 128 1302 1246 1699 3146 1169 528 1961 226
internal_value=0 0.332233 -0.0782833 1.59387 0.301877 0.580953 -0.810515 -0.403065 -0.581586 -0.353091 -0.716329 0.149793 0.338059 -0.826639 -1.04612 -0.939466 -0.68568 -0.506185 -0.972194 -0.50992
internal_count=39640 27900 21021 6879 11941 9418 11740 4398 9080 5841 2523 1876 1522 2522 7342 5643 2497 1276 3239 354
shrinkage=0.01


Tree=15
num_leaves=15
num_cat=0
split_feature=76 77 82 81 78 13 96 13 90 13 248 207 13 96
split_gain=1777.94 1606.64 1733.37 3225.34 1259.73 331.789 179.549 270.04 59.0691 25.5031 20.0613 8.25007 8.24602 75.384
threshold=1.0000000180025095e-35 1.0000000180025095e-35 1.0000000180025095e-35 1.0000000180025095e-35 1.0000000180025095e-35 3.9858965823886625 1.0000000180025095e-35 4.999270647171099 1.0000000180025095e-35 2.9809475619689798 1.0000000180025095e-35 1.0000000180025095e-35 7.9990707954880813 1.0000000180025095e-35
decision_type=2 2 2 2 2 2 2 2 2 2 2 2 2 2
left_child=1 2 3 4 -1 -5 7 8 -3 11 -9 -8 13 -2
right_child=12 6 -4 5 -6 -7 9 10 -10 -11 -12 -13 -14 -15
leaf_value=0.014623068829890815 -0.0030667600159947563 0.0061648244133002943 -0.010066282517679806 0.0012468088231485637 -0.012643314603917044 -0.0056429053726343064 -0.0045381204620486837 -0.0039047060816979119 -0.0018622959548211177 -0.011243455520624899 -0.0093178435497664087 -0.0091596405011164072 -0.012256418143741194 -0.01082800654327269
leaf_count=11499 891 1024 3039 6049 677 5056 1160 886 440 2128 1283 767 2396 2345
internal_value=0 0.166143 0.402728 0.590078 1.30311 -0.186383 -0.635135 -0.290763 0.349844 -0.928305 -0.739962 -0.673046 -1.04591 -0.887284
internal_count=39640 34008 26320 23281 12176 11105 7688 3633 1464 4055 2169 1927 5632 3236
shrinkage=0.01


Tree=16
num_leaves=21
num_cat=0
split_feature=55 56 15 18 96 93 96 13 87 222 59 59 15 12 13 93 207 58 15 14
split_gain=2618 3512.59 980.11 974.73 759.099 288.945 255.243 258.197 229.005 182.62 143.149 88.539 57.945 35.64 33.0556 23.2944 37.0043 28.6788 14.7801 2.05996
threshold=1.0000000180025095e-35 1.0000000180025095e-35 896.71966838652179 1.0000000180025095e-35 1.0000000180025095e-35 1.0000000180025095e-35 1.0000000180025095e-35 5.9947038443570291 1.0000000180025095e-35 1.0000000180025095e-35 1.0000000180025095e-35 1.0000000180025095e-35 2833.4433333333336 447.50000000000006 10.998628750119455 1.0000000180025095e-35 1.0000000180025095e-35 1.0000000180025095e-35 1030.5007962456632 1840.7541865079372
decision_type=2 2 2 2 2 2 2 2 2 2 2 2 2 2 2 2 2 2 2 2
left_child=1 3 4 -1 9 -6 7 12 10 -3 -4 -10 13 -2 18 16 17 -8 -9 -14
right_child=6 2 8 -5 5 -7 15 14 11 -11 -12 -13 19 -15 -16 -17 -18 -19 -20 -21
leaf_value=0.017865103034866398 -0.0027353453180350503 0.0095212478652391859 0.0053568455545034603 -0.0101739700709366 0.0006892541388682184 -0.0092639303493180676 -0.0039740768449890848 -0 -0.0053523033575059676 -0.0068278051909164018 -0.0050230810103870042 -0.010427200448676725 -0 0.0046893786694584046 -0.010197498890484595 -0.013316489727124615 -0.011016674008440799 -0.0093552563015230177 -0.0058587833095173963 -0.0064031106366454014
leaf_count=6385 220 5012 1023 494 5252 1444 1328 319 4284 233 1025 2748 128 1302 1552 1699 3146 1169 651 226
internal_value=0 0.327318 -0.0768956 1.57219 0.297775 -0.143863 -0.799461 -0.39774 -0.573019 0.867068 0 -0.743972 0.145367 0.331614 -0.814338 -1.03179 -0.926046 -0.675586 -0.419645 -0.505784
internal_count=39640 27900 21021 6879 11941 6696 11740 4398 9080 5245 2048 7032 1876 1522 2522 7342 5643 2497 970 354
shrinkage=0.01


Tree=17
num_leaves=23
num_cat=0
split_feature=55 207 93 254 90 15 221 222 96 13 228 34 15 12 13 228 93 207 58 247 87 15
split_gain=2569.31 1273.68 906.92 506.025 368.039 335.53 423.667 368.888 250.31 253.204 158.72 140.449 56.9739 35.0472 32.3062 27.728 22.8092 36.1419 28.0621 20.9835 23.0454 15.3754
threshold=1.0000000180025095e-35 1.0000000180025095e-35 1.0000000180025095e-35 1.0000000180025095e-35 1.0000000180025095e-35 827.98676993256197 1.0000000180025095e-35 1.0000000180025095e-35 1.0000000180025095e-35 5.9947038443570291 1.0000000180025095e-35 1.0000000180025095e-35 2833.4433333333336 447.50000000000006 12.936776228671164 1.0000000180025095e-35 1.0000000180025095e-35 1.0000000180025095e-35 1.0000000180025095e-35 1.0000000180025095e-35 1.0000000180025095e-35 2960.8300000000004
decision_type=2 2 2 2 2 2 2 2 2 2 2 2 2 2 2 2 2 2 2 2 2 2
left_child=1 2 3 4 -1 6 7 -3 9 12 11 -7 13 -2 21 -5 17 18 -10 20 -4 -11
right_child=8 5 19 15 -6 10 -8 -9 16 14 -12 -13 -14 -15 -16 -17 -18 -19 -20 -21 -22 -23
leaf_value=0.011898135775740571 -0.0027122197101706576 0.0063459803500206394 0.00049981952327437205 -0 0.0039041200701957911 0.0026473974628552235 -0.011030979882660193 -0.0081040439128385062 -0.003936050506919718 -0.0020919435431538819 -0.0094468803938847819 -0.0050319124096832634 -0.0050217278783352796 0.0046445587679598789 -0.010730579624265234 -0.0063862122954612376 -0.013202912676917119 -0.010916811869038897 -0.0092704781233701929 -0.010002927071596886 -0.0053941833648834458 -0.0078205090345661553
leaf_count=9517 220 4312 202 628 3353 1341 837 789 1328 748 2061 2781 354 1302 1246 581 1699 3146 1169 620 878 528
internal_value=0 0.324207 0.700104 0.868793 0.986244 -0.161275 0.173678 0.398155 -0.792398 -0.394374 -0.488298 -0.243748 0.143269 0.328133 -0.807086 -0.337009 -1.02263 -0.917669 -0.669445 -0.657129 -0.395512 -0.493089
internal_count=39640 27900 15779 14079 12870 12121 5938 5101 11740 4398 6183 4122 1876 1522 2522 1209 7342 5643 2497 1700 1080 1276
shrinkage=0.01


Tree=18
num_leaves=16
num_cat=0
split_feature=76 96 97 15 15 221 222 1 248 222 90 228 33 8 13
split_gain=1714.27 1483.24 3297.17 627.954 487.029 571.339 606.625 305.328 140.616 138.034 95.3601 54.919 85.178 18.7228 5.4669
threshold=1.0000000180025095e-35 1.0000000180025095e-35 1.0000000180025095e-35 471.79627313617294 972.19520944691556 1.0000000180025095e-35 1.0000000180025095e-35 -1.0000000180025095e-35 1.0000000180025095e-35 1.0000000180025095e-35 1.0000000180025095e-35 1.0000000180025095e-35 1.0000000180025095e-35 1.0000000180025095e-35 7.9990707954880813
decision_type=2 2 2 2 2 2 2 2 2 2 2 2 2 2 2
left_child=1 2 7 9 5 6 -3 -1 -5 -4 -7 12 -6 14 -2
right_child=13 4 3 8 11 10 -8 -9 -10 -11 -12 -13 -14 -15 -16
leaf_value=-0.00074037367383930261 -0.0089132739134838556 0.0057508977091270935 0.0069414418144186293 -0.00052072140114717963 0 -0.0027676938744850867 -0.0073596617695858967 0.017995151936744575 -0.0064051816600099992 -0.0073007255019854733 -0.0099711277648838904 -0.010996701186638608 -0.0075185132838903861 -0 -0.012218004007615847
leaf_count=323 3173 6022 3377 2742 710 1525 1792 6199 4687 237 1987 1759 2648 125 2334
internal_value=0 0.162822 0.568675 -0.0946876 -0.267872 -0.0314795 0.266717 1.69984 -0.430351 0.582361 -0.701902 -0.779115 -0.588678 -1.02834 -1.04639
internal_count=39640 34008 17565 11043 16443 11326 7814 6522 7429 3614 3512 5117 3358 5632 5507
shrinkage=0.01


Tree=19
num_leaves=20
num_cat=0
split_feature=55 76 77 82 81 96 13 13 96 14 76 13 58 221 58 16 13 96 13
split_gain=2499.42 1273 1048.44 1127.68 1756.6 241.624 245.365 108.671 144.074 41.4901 38.9613 31.2968 27.4134 8.40217 21.3658 8.12309 7.99216 56.1706 4.93904
threshold=1.0000000180025095e-35 1.0000000180025095e-35 1.0000000180025095e-35 1.0000000180025095e-35 1.0000000180025095e-35 1.0000000180025095e-35 5.9947038443570291 3.9858965823886625 1.0000000180025095e-35 2310.1540000000005 1.0000000180025095e-35 10.998628750119455 1.0000000180025095e-35 1.0000000180025095e-35 1.0000000180025095e-35 2.9998278160077301 7.9990707954880813 1.0000000180025095e-35 3.9858965823886625
decision_type=2 2 2 2 2 2 2 2 2 2 2 2 2 2 2 2 2 2 2
left_child=1 2 3 4 -1 6 9 8 -4 10 -2 15 -9 14 -7 -8 17 -3 -5
right_child=5 16 7 18 -6 13 11 12 -10 -11 -12 -13 -14 -15 -16 -17 -18 -19 -20
leaf_value=0.013659607104426721 0.004031964913309421 -0.000940968022259511 0.0055983215657493942 -0.0051366960409763018 0.00090083935153270037 -0.0070893609029396591 -0.0017919162807381087 -0.0034609108991205569 -0.0044050271475291371 -0.0048472937608841854 -0.004685077447552157 -0.0099815764289641878 -0.0087256779412039319 -0.012241079033392829 -0.010886236070812363 -0.0072792705380661741 -0.010573573402689659 -0.0090257000769366717 -0.0099044163390197421
leaf_count=10511 1435 641 920 861 7523 2718 670 1190 1398 277 164 1552 1286 2119 2505 300 1337 1283 950
internal_value=0 0.319652 0.477025 0.681427 0.834681 -0.782274 -0.390741 -0.355849 -0.0241381 0.138301 0.279929 -0.797246 -0.645108 -1.00877 -0.905384 -0.410666 -0.846246 -0.660692 -0.80144
internal_count=39640 27900 24639 19845 18034 11740 4398 4794 2318 1876 1599 2522 2476 7342 5223 970 3261 1924 1811
shrinkage=0.01


Tree=20
num_leaves=17
num_cat=0
split_feature=55 56 57 15 221 222 59 76 207 93 13 90 222 16 12 13
split_gain=2452.5 3374.85 951.884 928.164 788.961 584.064 175.189 176.788 140.165 179.024 126.04 81.4906 72.3279 18.5072 5.41207 0.311127
threshold=1.0000000180025095e-35 1.0000000180025095e-35 1.0000000180025095e-35 896.71966838652179 1.0000000180025095e-35 1.0000000180025095e-35 1.0000000180025095e-35 1.0000000180025095e-35 1.0000000180025095e-35 1.0000000180025095e-35 4.999270647171099 1.0000000180025095e-35 1.0000000180025095e-35 2.9998278160077301 224.50000000000003 6.9772455692875583
decision_type=2 2 2 2 2 2 2 2 2 2 2 2 2 2 2 2
left_child=1 2 -1 4 5 -3 7 -5 9 10 12 -6 -2 -12 -8 -10
right_child=8 3 -4 6 11 -7 14 -9 15 -11 13 -13 -14 -15 -16 -17
leaf_value=0.017534033479069667 0.0012789958360059587 0.0075537545539467038 -0.010174682362524787 -0.001202077314466955 -0.0028480584824088113 -0.0066965306172541072 -0.013023927750260971 -0.010548621841498147 -0.0087216478167592929 -0.012223939648667831 -0.0047441202414865886 -0.010695936556838538 -0.0083030607021963628 -0.009887172218037631 -0.0080116109501651277 -0.011671569233818067
leaf_count=6385 2037 8136 494 4294 1287 1282 545 1013 3296 1250 1655 1236 332 763 3228 2407
internal_value=0 0.316524 1.54042 -0.0794084 0.285478 0.554606 -0.562486 -0.312208 -0.77537 -0.541432 -0.347949 -0.695046 -0.00116897 -0.666496 -0.897012 -1.0109
internal_count=39640 27900 6879 21021 11941 9418 9080 5307 11740 6037 4787 2523 2369 2418 3773 5703
shrinkage=0.01


Tree=21
num_leaves=18
num_cat=0
split_feature=55 56 18 15 93 222 87 87 228 76 77 82 228 13 93 15 219
split_gain=2406.13 3316.59 936.392 910.311 598.257 435.542 220.397 129.856 93.1354 86.3241 105.603 119.382 82.5165 47.237 44.2655 21.9033 12.8204
threshold=1.0000000180025095e-35 1.0000000180025095e-35 1.0000000180025095e-35 896.71966838652179 1.0000000180025095e-35 1.0000000180025095e-35 1.0000000180025095e-35 1.0000000180025095e-35 1.0000000180025095e-35 1.0000000180025095e-35 1.0000000180025095e-35 1.0000000180025095e-35 1.0000000180025095e-35 10.998628750119455 1.0000000180025095e-35 2960.8300000000004 1.0000000180025095e-35
decision_type=2 2 2 2 2 2 2 2 2 2 2 2 2 2 2 2 2
left_child=1 2 -1 4 5 -3 12 13 -8 10 11 -9 -5 14 15 -2 -6
right_child=7 3 -4 6 16 -7 8 9 -10 -11 -12 -13 -14 -15 -16 -17 -18
leaf_value=0.017400739775098446 0.0039290627859551773 0.0061760480510285199 -0.010080879079399205 0.0034968984758231552 -0.0091098353460602709 -0.0063623362292355937 -0.0052420694748855582 -0.003964622697327524 -0.010485902447987243 -0.012461694403730902 -0.01098156520162317 -0.011731061629348994 -0.0045097047946373999 -0.007613251542517404 -0.0076916770928467876 -0.0020532562461084763 -0.0017258775337349727
leaf_count=6385 729 9093 494 1214 1370 1202 4472 4492 2560 2140 2503 1073 834 380 190 233 276
internal_value=0 0.313466 1.52834 -0.0788269 0.282606 0.465019 -0.557306 -0.768428 -0.72523 -0.851392 -0.736471 -0.560195 0.00195364 -0.183814 0 0.205619 -0.817763
internal_count=39640 27900 6879 21021 11941 10295 9080 11740 7032 10208 8068 5565 2048 1532 1152 962 1646
shrinkage=0.01


Tree=22
num_leaves=19
num_cat=0
split_feature=76 77 82 67 90 15 87 87 15 96 15 93 13 11 15 15 96 207
split_gain=1615.48 1483.15 1599.37 1329.8 994.253 274.511 178.98 79.8262 78.5817 130.28 72.8135 47.8447 23.5006 12.2116 4.81357 31.5352 3.22083 2.2902
threshold=1.0000000180025095e-35 1.0000000180025095e-35 1.0000000180025095e-35 1.0000000180025095e-35 1.0000000180025095e-35 471.79627313617294 1.0000000180025095e-35 1.0000000180025095e-35 1056.7023230476179 1.0000000180025095e-35 2711.0260855395259 1.0000000180025095e-35 5.9947038443570291 590.50000000000011 0.010133982497340989 -0.92291212202449302 1.0000000180025095e-35 1.0000000180025095e-35
decision_type=2 2 2 2 2 2 2 2 2 2 2 2 2 2 2 2 2 2
left_child=1 2 3 4 -1 -5 10 12 9 -8 11 -3 17 -12 15 -4 -10 -2
right_child=7 6 14 5 -6 -7 8 -9 16 -11 13 -13 -14 -15 -16 -17 -18 -19
leaf_value=0.011828363514108495 0.0014872406182696082 0.0050632663923207144 -0.0081558604741622399 0.0013398149035242085 0.0017837920634375434 -0.0075019783868268755 0.00026563842398953359 -0.011032904296947378 -0.0080735550894476833 -0.0078607290258170277 -0 -0.0055613224556162449 -0.0062565524961289169 -0.0079153326575792365 -0.010736170354585392 0 -0.012441438537656063 -0.0012829863525197873
leaf_count=11575 237 883 642 2809 6240 2657 1055 4817 1569 2299 149 141 432 345 2209 188 1247 146
internal_value=0 0.157628 0.385679 0.566236 0.833379 -0.291041 -0.613236 -1.00037 -0.764331 -0.520957 0 0.306995 -0.324881 -0.599903 -0.970339 -0.612369 -1.02929 0
internal_count=39640 34008 26320 23281 17815 5466 7688 5632 6170 3354 1518 1024 815 494 3039 830 2816 383
shrinkage=0.01


Tree=23
num_leaves=20
num_cat=0
split_feature=55 56 18 207 206 205 14 96 96 97 14 207 58 221 93 207 58 12 12
split_gain=2342.48 3233.87 920.388 657.218 750.046 801.673 267.2 233.814 176.668 904.906 126.854 71.9977 56.2446 53.4593 21.5227 34.2336 27.1291 11.4322 12.7105
threshold=1.0000000180025095e-35 1.0000000180025095e-35 1.0000000180025095e-35 1.0000000180025095e-35 1.0000000180025095e-35 1.0000000180025095e-35 19.075853828297245 1.0000000180025095e-35 1.0000000180025095e-35 1.0000000180025095e-35 21.632386068135279 1.0000000180025095e-35 1.0000000180025095e-35 1.0000000180025095e-35 1.0000000180025095e-35 1.0000000180025095e-35 1.0000000180025095e-35 1844.5000000000002 527.50000000000011
decision_type=2 2 2 2 2 2 2 2 2 2 2 2 2 2 2 2 2 2 2
left_child=1 2 -1 4 5 -3 -6 10 9 -5 17 12 -12 -10 15 16 -9 18 -2
right_child=7 3 -4 8 6 -7 -8 14 13 -11 11 -13 -14 -15 -16 -17 -18 -19 -20
leaf_value=0.017220525050879204 -0 0.013312437298423546 -0.010025408178459719 0.017016794874025489 0.0028849708797800445 -0.0052496427438929408 -0.005523946144826597 -0.0036784831775972322 -0.0059168921559699245 -0.0054570824946895934 0.00018168161095623848 -0.0083635735276199972 -0.0063782655143588638 -0.012186741903496699 -0.012724077008345894 -0.010494040829389957 -0.008903370928067731 -0 0.006072591053461006
leaf_count=6385 138 3586 494 820 2520 1201 3576 1328 4048 4398 1172 1714 773 872 1699 3146 1169 138 463
internal_value=0 0.309315 1.51136 -0.0778205 0.261907 0.855272 -0.198793 -0.75883 -0.445715 -0.176135 -0.373546 -0.530546 -0.229667 -0.719646 -0.98199 -0.879728 -0.637881 0.33721 0.457984
internal_count=39640 27900 6879 21021 10883 4787 6096 11740 10138 5218 4398 3659 1945 4920 7342 5643 2497 739 601
shrinkage=0.01


Tree=24
num_leaves=21
num_cat=0
split_feature=55 56 18 15 221 222 96 13 87 88 96 90 15 12 13 93 15 58 156 14
split_gain=2298.82 3178.47 905.722 880.097 763.513 560.017 229.791 232.378 216.306 600.336 81.4198 77.7569 53.0675 33.6612 30.5898 21.1187 58.9957 18.5241 17.2407 2.14412
threshold=1.0000000180025095e-35 1.0000000180025095e-35 1.0000000180025095e-35 851.94100000000014 1.0000000180025095e-35 1.0000000180025095e-35 1.0000000180025095e-35 5.9947038443570291 1.0000000180025095e-35 1.0000000180025095e-35 1.0000000180025095e-35 1.0000000180025095e-35 2833.4433333333336 447.50000000000006 12.936776228671164 1.0000000180025095e-35 76.905661636233887 1.0000000180025095e-35 1.0000000180025095e-35 1840.7541865079372
decision_type=2 2 2 2 2 2 2 2 2 2 2 2 2 2 2 2 2 2 2 2
left_child=1 2 -1 4 5 -3 7 12 9 -5 -10 -6 13 -2 18 16 17 -8 -9 -14
right_child=6 3 -4 8 11 -7 15 14 10 -11 -12 -13 19 -15 -16 -17 -18 -19 -20 -21
leaf_value=0.017094899130510342 -0.0026236385480149171 0.007507123311623262 -0.0099337244637580369 0.015047285959357561 -0.0027862843776376841 -0.0065162946087370527 -0.0027281958582427187 -5.756652782460882e-05 -0.0050212119940634282 -0.007290087185157953 -0.009839139608572885 -0.010476658227571567 -0 0.0045687425896910319 -0.010255269445458544 -0.01262036060410803 -0.010303735463317988 -0.0078925051150787635 -0.0061911795760061306 -0.0060800054317333065
leaf_count=6385 220 8010 494 692 1285 1271 1109 404 4257 1384 2887 1235 128 1302 1246 1699 3784 750 872 226
internal_value=0 0.306463 1.49995 -0.0770908 0.283322 0.551716 -0.752098 -0.370009 -0.541594 0.00904359 -0.70671 -0.680895 0.144295 0.323036 -0.766687 -0.973516 -0.87195 -0.514307 -0.461471 -0.477112
internal_count=39640 27900 6879 21021 11801 9281 11740 4398 9220 2076 7144 2520 1876 1522 2522 7342 5643 1859 1276 354
shrinkage=0.01


Tree=25
num_leaves=21
num_cat=0
split_feature=55 56 18 15 221 207 96 13 59 58 90 15 12 13 93 15 207 156 12 14
split_gain=2256.62 3124.67 891.414 862.883 740.008 355.47 225.413 227.981 169.406 990.322 76.6965 52.1756 33.1036 29.9282 20.7389 57.7325 18.3263 15.8459 5.2517 2.05755
threshold=1.0000000180025095e-35 1.0000000180025095e-35 1.0000000180025095e-35 896.71966838652179 1.0000000180025095e-35 1.0000000180025095e-35 1.0000000180025095e-35 5.9947038443570291 1.0000000180025095e-35 1.0000000180025095e-35 1.0000000180025095e-35 2833.4433333333336 447.50000000000006 10.998628750119455 1.0000000180025095e-35 76.905661636233887 1.0000000180025095e-35 1.0000000180025095e-35 224.50000000000003 1840.7541865079372
decision_type=2 2 2 2 2 2 2 2 2 2 2 2 2 2 2 2 2 2 2 2
left_child=1 2 -1 4 5 -3 7 11 9 -5 -6 12 -2 17 15 16 -8 -9 -10 -13
right_child=6 3 -4 8 10 -7 14 13 18 -11 -12 19 -14 -15 -16 -17 -18 -19 -20 -21
leaf_value=0.016972276408956839 -0.0026014976213743434 0.0088489079509228349 -0.009843323606569929 0.012632295242634572 -0.0027531881537899185 0.00088830019953430712 -0.0022401008724998745 -0 -0.012705828516973522 -0.0077203309376522823 -0.010389728442319279 -0 0.0045251891395119009 -0.009563719971282145 -0.012518291188285367 -0.010212332834258804 -0.0072876435310724264 -0.0055254529786485321 -0.0077760731325695566 -0.0060299929232814345
leaf_count=6385 220 5235 494 1204 1287 4183 919 316 545 4103 1236 128 1302 1552 1699 3784 940 654 3228 226
internal_value=0 0.303617 1.48879 -0.0764517 0.275672 0.536725 -0.745636 -0.366994 -0.542748 -0.296484 -0.674552 0.142232 0.319647 -0.760102 -0.965129 -0.864237 -0.509805 -0.38305 -0.871934 -0.473714
internal_count=39640 27900 6879 21021 11941 9418 11740 4398 9080 5307 2523 1876 1522 2522 7342 5643 1859 970 3773 354
shrinkage=0.01


Tree=26
num_leaves=21
num_cat=0
split_feature=55 56 18 15 221 222 96 87 88 15 59 11 76 77 87 93 207 58 15 15
split_gain=2215.21 3072.05 877.45 846.586 735.26 548.641 221.209 210.92 584.593 206.015 79.7314 74.6735 37.2336 33.2341 31.9575 20.3734 33.6068 26.6818 14.4546 10.4833
threshold=1.0000000180025095e-35 1.0000000180025095e-35 1.0000000180025095e-35 851.94100000000014 1.0000000180025095e-35 1.0000000180025095e-35 1.0000000180025095e-35 1.0000000180025095e-35 1.0000000180025095e-35 490.39733333333339 1.0000000180025095e-35 423.50000000000006 1.0000000180025095e-35 1.0000000180025095e-35 1.0000000180025095e-35 1.0000000180025095e-35 1.0000000180025095e-35 1.0000000180025095e-35 3124.6341666666672 2833.4433333333336
decision_type=2 2 2 2 2 2 2 2 2 2 2 2 2 2 2 2 2 2 2 2
left_child=1 2 -1 4 5 -3 9 8 -5 12 -9 -6 13 -2 18 16 17 -8 -11 -16
right_child=6 3 -4 7 11 -7 15 10 -10 14 -12 -13 -14 -15 19 -17 -18 -19 -20 -21
leaf_value=0.016852554730482132 0.0059230920346115025 0.0073856629978367753 -0.0097541739622380372 0.014894267908646813 -0.011318707946267898 -0.0064956931951179724 -0.0035095401765831685 -0.0049781822618660257 -0.0071593628256991972 0.00099805257797706435 -0.0097769153132433156 -0.0035140605845990977 -0.0052339068535967792 -0.00075186141408206859 -0.0050397731420623358 -0.01241782069501436 -0.010244657540188716 -0.0086728881376881631 -0.0042744861978977347 -0.0094437007256805757
leaf_count=6385 910 8010 494 692 933 1271 1328 4359 1384 271 2785 1587 132 281 1221 1699 3146 1169 321 1262
internal_value=0 0.300826 1.47789 -0.075777 0.277823 0.541373 -0.73922 -0.531602 0.0121638 -0.363921 -0.694763 -0.668692 0.269954 0.404685 -0.650857 -0.956851 -0.856619 -0.617651 -0.131195 -0.755013
internal_count=39640 27900 6879 21021 11801 9281 11740 9220 2076 4398 7144 2520 1323 1191 3075 7342 5643 2497 592 2483
shrinkage=0.01


Tree=27
num_leaves=18
num_cat=0
split_feature=55 56 18 76 254 90 96 13 14 76 13 87 87 93 58 156 13
split_gain=2174.42 3020.83 863.819 696.987 551.084 768.027 217.208 221.182 37.997 36.538 29.4661 27.4903 23.2756 20.0123 22.331 16.6268 8.96632
threshold=1.0000000180025095e-35 1.0000000180025095e-35 1.0000000180025095e-35 1.0000000180025095e-35 1.0000000180025095e-35 1.0000000180025095e-35 1.0000000180025095e-35 5.9947038443570291 2310.1540000000005 1.0000000180025095e-35 12.936776228671164 1.0000000180025095e-35 1.0000000180025095e-35 1.0000000180025095e-35 1.0000000180025095e-35 1.0000000180025095e-35 5.9947038443570291
decision_type=2 2 2 2 2 2 2 2 2 2 2 2 2 2 2 2 2
left_child=1 2 -1 4 5 -3 7 8 9 -2 15 16 -6 14 -8 -9 -5
right_child=6 3 -4 11 12 -7 13 10 -10 -11 -12 -13 -14 -15 -16 -17 -18
leaf_value=0.016735636930851068 0.0039602552414908137 0.0054971427890681849 -0.0096662445974129239 -0 -0.0024762686344159245 -0.00381696594819407 -0.0066340375476010875 -1.4737776397829171e-06 -0.0045321706023475038 -0.0044505218128467871 -0.010030308201159036 -0.010475489250642464 -0.0090286561923720084 -0.012318902311918376 -0.010256674691727238 -0.0060276977707842717 -0.0058027993263380061
leaf_count=6385 1435 10012 494 243 492 5442 2948 404 277 164 1246 2581 1975 1699 2695 872 276
internal_value=0 0.298053 1.46723 -0.075156 0.0752977 0.218539 -0.732849 -0.36078 0.14053 0.276367 -0.748378 -0.949774 -0.794105 -0.948704 -0.849125 -0.448186 -0.354703
internal_count=39640 27900 6879 21021 17921 15454 11740 4398 1876 1599 2522 3100 2467 7342 5643 1276 519
shrinkage=0.01


Tree=28
num_leaves=19
num_cat=0
split_feature=55 56 18 15 221 15 87 87 228 228 11 221 15 13 58 218 15 58
split_gain=2134.26 2971 850.51 825.922 718.782 268.635 204.879 120.123 99.8585 74.7966 72.5632 58.6357 170.096 43.7036 36.7869 32.436 25.5481 19.2214
threshold=1.0000000180025095e-35 1.0000000180025095e-35 1.0000000180025095e-35 851.94100000000014 1.0000000180025095e-35 95.144971998911259 1.0000000180025095e-35 1.0000000180025095e-35 1.0000000180025095e-35 1.0000000180025095e-35 423.50000000000006 1.0000000180025095e-35 76.905661636233887 10.998628750119455 1.0000000180025095e-35 1.0000000180025095e-35 2960.8300000000004 1.0000000180025095e-35
decision_type=2 2 2 2 2 2 2 2 2 2 2 2 2 2 2 2 2 2
left_child=1 2 -1 4 5 -3 9 13 -8 -5 -6 12 14 15 -9 16 -2 -14
right_child=7 3 -4 6 10 -7 8 11 -10 -11 -12 -13 17 -15 -16 -17 -18 -19
leaf_value=0.016621429793542784 0.0044992436848510361 0.0080527123515115526 -0.0095795062880715508 0.0034065240409047867 -0.011187094173098074 0.00088915285399812974 -0.0048194187915948155 0.00061707410433242845 -0.01015425739088075 -0.0041651304326360506 -0.0034788991493737683 -0.011519690924370093 -0.0068943822171869751 -0.0072155562965044362 -0.0048424657621671512 -0.0051302673238335641 -0.0021178482303070914 -0.010232791518336996
leaf_count=6385 640 5716 494 1230 933 3565 4541 1101 2603 846 1587 2080 3168 380 732 278 234 3127
internal_value=0 0.295246 1.4568 -0.0745414 0.274826 0.535542 -0.52498 -0.72655 -0.685854 0.010862 -0.661298 -0.806594 -0.708768 -0.163097 -0.14007 0.00460171 0.2274 -0.866779
internal_count=39640 27900 6879 21021 11801 9281 9220 11740 7144 2076 2520 10208 8128 1532 1833 1152 874 6295
shrinkage=0.01


Tree=29
num_leaves=20
num_cat=0
split_feature=55 56 18 15 96 93 96 13 87 88 222 96 15 12 13 93 15 207 37
split_gain=2094.58 2922.08 837.512 810.094 659.033 241.208 212.46 215.24 196.207 563.713 160.998 79.6411 49.3541 32.2607 28.8812 19.5516 56.1566 18.1155 15.954
threshold=1.0000000180025095e-35 1.0000000180025095e-35 1.0000000180025095e-35 896.71966838652179 1.0000000180025095e-35 1.0000000180025095e-35 1.0000000180025095e-35 5.9947038443570291 1.0000000180025095e-35 1.0000000180025095e-35 1.0000000180025095e-35 1.0000000180025095e-35 2833.4433333333336 447.50000000000006 12.936776228671164 1.0000000180025095e-35 76.905661636233887 1.0000000180025095e-35 1.0000000180025095e-35
decision_type=2 2 2 2 2 2 2 2 2 2 2 2 2 2 2 2 2 2 2
left_child=1 2 -1 4 10 -6 7 12 9 -5 -3 -10 13 -2 18 16 17 -8 -9
right_child=6 3 -4 8 5 -7 15 14 11 -11 -12 -13 -14 -15 -16 -17 -18 -19 -20
leaf_value=0.016509844565653527 -0.0025623980065110326 0.0088108818668048046 -0.0094939305088772019 0.014718522950817093 0.00049781942791799014 -0.0086124061787744705 -0.0020460993941449897 -0 -0.004815299463469566 -0.0071374245682624526 -0.0065096957740849786 -0.0096178779309977445 -0.0045574791891719599 0.0044637277863599431 -0.0098718598141397836 -0.012145310403235014 -0.0099018789024566158 -0.0070244765103977414 -0.0058098916641642438
leaf_count=6385 220 5012 494 677 5252 1444 919 378 4197 1371 233 2835 354 1302 1246 1699 3784 940 898
internal_value=0 0.292542 1.4466 -0.0738876 0.267482 -0.144114 -0.720159 -0.352052 -0.526165 0.00102703 0.800396 -0.684978 0.142179 0.314979 -0.73495 -0.933924 -0.835349 -0.486299 -0.437812
internal_count=39640 27900 6879 21021 11941 6696 11740 4398 9080 2048 5245 7032 1876 1522 2522 7342 5643 1859 1276
shrinkage=0.01


Tree=30
num_leaves=22
num_cat=0
split_feature=207 93 94 15 221 228 230 24 59 13 221 15 64 12 248 13 14 87 247 12 87
split_gain=1332.12 1209.77 659.422 524.326 376.926 311.782 960.656 302.562 199.876 171.66 247.531 90.2218 79.2193 58.5357 31.5875 31.0627 15.1248 13.642 17.7962 2.6894 1.38496
threshold=1.0000000180025095e-35 1.0000000180025095e-35 1.0000000180025095e-35 1030.5007962456632 1.0000000180025095e-35 1.0000000180025095e-35 1.0000000180025095e-35 1.0000000180025095e-35 1.0000000180025095e-35 6.9772455692875583 1.0000000180025095e-35 181.18413789482369 1.0000000180025095e-35 664.50000000000011 1.0000000180025095e-35 15.952318891078839 139.30695512820515 1.0000000180025095e-35 1.0000000180025095e-35 209.50000000000003 1.0000000180025095e-35
decision_type=2 2 2 2 2 2 2 2 2 2 2 2 2 2 2 2 2 2 2 2 2
left_child=1 2 7 4 -4 6 12 -1 -5 10 -8 13 15 19 -11 -2 -15 18 -3 -7 -13
right_child=5 17 3 8 -6 11 9 -9 -10 14 -12 20 -14 16 -16 -17 -18 -19 -20 -21 -22
leaf_value=0.017086945123144199 0.013820176406857128 0 0.0079162704790572951 0.0018434114514229737 -0.0035019904387679217 -0 -0.0011114659405742908 -0.0017328001173460047 -0.0055111613218613497 -0.0046112661785445317 -0.011385801844036494 -0.0058726477513264472 -0.0010119255433840072 -0.0079549531926349122 -0.0098979210741336875 0.0002453639062472062 -0 -0.0093838905974951183 -0.0072605684282074749 0.0022649615045324946 -0.010438516357994618
leaf_count=2335 1411 261 8776 3722 1269 120 6324 351 2413 1159 1115 673 120 597 2308 138 136 2486 203 409 3314
internal_value=0 0.326165 0.515714 0.357281 0.64103 -0.415914 -0.237913 1.44405 -0.100852 -0.458401 -0.275128 -0.829764 1.16534 -0.29978 -0.832104 1.28975 -0.664918 -0.86239 -0.333926 0.146139 -0.983184
internal_count=39640 21816 18866 16180 10045 17824 12575 2686 6135 10906 7439 5249 1669 1262 3467 1549 733 2950 464 529 3987
shrinkage=0.01


Tree=31
num_leaves=20
num_cat=0
split_feature=55 56 18 15 221 222 87 88 96 13 228 11 15 12 13 93 15 58 156
split_gain=2043.8 2856.74 821.205 786.6 727.446 559.524 212.06 612.899 207.168 208.774 121.946 76.2156 47.8448 31.4274 28.1258 17.9312 54.2269 18.0037 15.9017
threshold=1.0000000180025095e-35 1.0000000180025095e-35 1.0000000180025095e-35 571.35078446600062 1.0000000180025095e-35 1.0000000180025095e-35 1.0000000180025095e-35 1.0000000180025095e-35 1.0000000180025095e-35 5.9947038443570291 1.0000000180025095e-35 423.50000000000006 2833.4433333333336 447.50000000000006 12.936776228671164 1.0000000180025095e-35 76.905661636233887 1.0000000180025095e-35 1.0000000180025095e-35
decision_type=2 2 2 2 2 2 2 2 2 2 2 2 2 2 2 2 2 2 2
left_child=1 2 -1 4 5 -3 7 -5 9 12 -8 -6 13 -2 18 16 17 -10 -11
right_child=8 3 -4 6 11 -7 10 -9 15 14 -12 -13 -14 -15 -16 -17 -18 -19 -20
leaf_value=0.016363398566699553 -0.0025404342274444945 0.0080643653291102377 -0.0093921943588638045 0.014844285944742037 -0.011069766992440609 -0.0063364537470189308 -0.0042359513415951228 -0.0068699399372120886 -0.0024648803455256697 -0 -0.009738906019005001 -0.0031714085125828309 -0.0045009648570811861 0.0043874699927647989 -0.0097527462378721713 -0.011982957961276883 -0.0097955661261100065 -0.0075157192178595365 -0.0058254208113296038
leaf_count=6385 220 7127 494 769 921 1216 5167 1444 1109 404 2821 1556 354 1302 1246 1699 3784 750 872
internal_value=0 0.289063 1.43308 -0.0729497 0.301934 0.588348 -0.473626 0.0589199 -0.712073 -0.348254 -0.626055 -0.638773 0.138245 0.308748 -0.725689 -0.923458 -0.82686 -0.482569 -0.431657
internal_count=39640 27900 6879 21021 10820 8343 10201 2213 11740 4398 7988 2477 1876 1522 2522 7342 5643 1859 1276
shrinkage=0.01


Tree=32
num_leaves=22
num_cat=0
split_feature=55 76 77 82 81 96 13 15 96 15 12 13 156 221 15 58 15 13 96 121 14
split_gain=2006.6 1093.46 915.877 989.942 1574.64 203.363 204.925 118.632 126.825 46.9543 30.9091 27.6675 14.4864 8.01321 95.468 10.5452 7.46431 5.63204 48.8909 7.45261 2.17301
threshold=1.0000000180025095e-35 1.0000000180025095e-35 1.0000000180025095e-35 1.0000000180025095e-35 1.0000000180025095e-35 1.0000000180025095e-35 5.9947038443570291 2315.1766129032262 1.0000000180025095e-35 2833.4433333333336 447.50000000000006 10.998628750119455 1.0000000180025095e-35 1.0000000180025095e-35 3.5769461750124654 1.0000000180025095e-35 0.0099769323200753976 7.9990707954880813 1.0000000180025095e-35 1.0000000180025095e-35 1840.7541865079372
decision_type=2 2 2 2 2 2 2 2 2 2 2 2 2 2 2 2 2 2 2 2 2
left_child=1 2 3 4 -1 6 9 8 -4 10 -2 12 -8 14 15 -7 -5 18 19 -3 -11
right_child=5 17 7 16 -6 13 11 -9 -10 20 -12 -13 -14 -15 -16 -17 -18 -19 -20 -21 -22
leaf_value=0.012818555102373164 -0.0025190217768415106 0.00089654603527142523 0.0028180226305393008 -0.0033469968725214211 0.00066217182616403456 -0 -0 -0.008180413625459005 -0.0048910119300407942 -0 0.0043457931939221272 -0.0090907873248851356 -0.0051817857697722767 -0.011212601152255268 -0.0095595621682997775 -0.0045452481637898957 -0.0088008812101793878 -0.0099492856347159746 -0.008504711599682838 -0.0026868688373373256 -0.0057268448402196803
leaf_count=10511 220 221 1554 486 7523 641 316 1475 1765 128 1302 1552 654 2119 4188 394 1325 1337 1283 420 226
internal_value=0 0.286446 0.433594 0.626614 0.771907 -0.706063 -0.345393 -0.346493 -0.117863 0.136414 0.305506 -0.719563 -0.355851 -0.915712 -0.817386 -0.208688 -0.765864 -0.797918 -0.623297 -0.0880149 -0.446157
internal_count=39640 27900 24639 19845 18034 11740 4398 4794 3319 1876 1522 2522 970 7342 5223 1035 1811 3261 1924 641 354
shrinkage=0.01


Tree=33
num_leaves=22
num_cat=0
split_feature=55 207 206 48 15 211 228 230 229 221 15 207 221 15 222 247 15 218 87 58 87
split_gain=1969.69 1069.08 1130.47 974.266 448.275 319.812 279.024 669.255 287.992 269.536 147.68 126.472 124.445 129.339 98.9933 95.4452 73.7111 80.7275 66.5416 60.8618 7.28959
threshold=1.0000000180025095e-35 1.0000000180025095e-35 1.0000000180025095e-35 1.0000000180025095e-35 378.80049758756587 1.0000000180025095e-35 1.0000000180025095e-35 1.0000000180025095e-35 1.0000000180025095e-35 1.0000000180025095e-35 212.77265601482915 1.0000000180025095e-35 1.0000000180025095e-35 76.905661636233887 1.0000000180025095e-35 1.0000000180025095e-35 155.00250000000003 1.0000000180025095e-35 1.0000000180025095e-35 1.0000000180025095e-35 1.0000000180025095e-35
decision_type=2 2 2 2 2 2 2 2 2 2 2 2 2 2 2 2 2 2 2 2 2
left_child=1 2 3 5 9 -1 7 8 -3 -4 -9 12 13 14 -2 -5 17 -8 -6 -15 -18
right_child=11 6 4 15 18 -7 16 10 -10 -11 -12 -13 -14 19 -16 -17 20 -19 -20 -21 -22
leaf_value=0.015911795840434072 0.0057741391601230227 0.016626705820389699 0.0074520578395496475 0.00064992462871833973 0.0003477765902849946 -0.0049484678237554942 0.0034881938476784618 0.0013802496720499542 -0.0053438539205963951 -0.004980729658354931 -0.0044397213190009782 -0.009248260024972246 -0.009935727616541391 -0.0021901318954859741 -0.00684222226274144 -0.0095269246642244749 -0.0037008365589874365 -0.0084666302136424728 -0.0063231961150955187 -0.0080958996236933454 -0.0090435173058158614
leaf_count=6380 923 1224 3465 1133 635 263 530 2713 246 813 4551 5703 1482 1847 279 473 494 326 2617 1506 2037
internal_value=0 0.283739 0.631747 1.15141 0.0620502 1.49755 -0.16247 0.024268 1.25664 0.494925 -0.222133 -0.700077 -0.477375 -0.295871 0.240535 -0.225874 -0.649751 -0.0798321 -0.491046 -0.501802 -0.822874
internal_count=39640 27900 15779 8249 7530 6643 12121 8734 1470 4278 7264 11740 6037 4555 1202 1606 3387 856 3252 3353 2531
shrinkage=0.01


Tree=34
num_leaves=21
num_cat=0
split_feature=55 56 18 15 221 207 96 13 59 58 90 15 207 13 15 221 15 207 14 14
split_gain=1932.94 2763.34 807.968 754.452 652.022 326.298 198.809 199.524 157.903 928.798 71.4694 45.8553 29.9385 27.3654 15.859 7.5856 93.0312 13.6116 4.2551 2.18531
threshold=1.0000000180025095e-35 1.0000000180025095e-35 1.0000000180025095e-35 896.71966838652179 1.0000000180025095e-35 1.0000000180025095e-35 1.0000000180025095e-35 5.9947038443570291 1.0000000180025095e-35 1.0000000180025095e-35 1.0000000180025095e-35 2833.4433333333336 1.0000000180025095e-35 12.936776228671164 2960.8300000000004 1.0000000180025095e-35 3.5769461750124654 1.0000000180025095e-35 59.731332025833574 1840.7541865079372
decision_type=2 2 2 2 2 2 2 2 2 2 2 2 2 2 2 2 2 2 2 2
left_child=1 2 -1 4 5 -3 7 11 9 -5 -6 12 -2 14 -9 16 17 -8 -10 -13
right_child=6 3 -4 8 10 -7 15 13 18 -11 -12 19 -14 -15 -16 -17 -18 -19 -20 -21
leaf_value=0.016143539989356869 0.0050553130293917404 0.0083605648710921784 -0.009406319924793672 0.01239744246043567 -0.0025205942367887584 0.00071751192287748461 0 -0.0014237722491618606 -0.0016118137296606471 -0.0073520540519365915 -0.0099066711259383107 -0 -0.00015079078515431262 -0.0095329023845576386 -0.0069904306437142917 -0.011044891944303921 -0.009414818628964405 -0.0041042029223301536 -0.0085514429036563123 -0.0056253011369444099
leaf_count=6385 1000 5235 494 1204 1287 4183 483 748 205 4103 1236 128 522 1246 528 2119 4188 552 3568 226
internal_value=0 0.281118 1.41114 -0.0744664 0.255351 0.501191 -0.693931 -0.33717 -0.511563 -0.273256 -0.637836 0.137977 0.305102 -0.706932 -0.417067 -0.901538 -0.804454 -0.203036 -0.830085 -0.437153
internal_count=39640 27900 6879 21021 11941 9418 11740 4398 9080 5307 2523 1876 1522 2522 1276 7342 5223 1035 3773 354
shrinkage=0.01


Tree=35
num_leaves=21
num_cat=0
split_feature=55 56 18 207 206 48 13 96 13 13 96 248 207 13 234 93 207 58 156 58
split_gain=1897.85 2719.02 796.037 579.13 700.323 841.678 328.261 195.044 195.849 169.093 286.206 89.7207 41.5819 26.8143 18.9704 17.9511 31.3546 25.7738 14.2081 9.5257
threshold=1.0000000180025095e-35 1.0000000180025095e-35 1.0000000180025095e-35 1.0000000180025095e-35 1.0000000180025095e-35 1.0000000180025095e-35 2.9809475619689798 1.0000000180025095e-35 5.9947038443570291 5.9947038443570291 1.0000000180025095e-35 1.0000000180025095e-35 1.0000000180025095e-35 10.998628750119455 1.0000000180025095e-35 1.0000000180025095e-35 1.0000000180025095e-35 1.0000000180025095e-35 1.0000000180025095e-35 1.0000000180025095e-35
decision_type=2 2 2 2 2 2 2 2 2 2 2 2 2 2 2 2 2 2 2 2
left_child=1 2 -1 4 5 -3 -6 8 12 10 -5 -11 14 18 -2 16 17 -9 -10 -14
right_child=7 3 -4 9 6 -7 -8 15 13 11 -12 -13 19 -15 -16 -17 -18 -19 -20 -21
leaf_value=0.01604271013282366 0.0047492343001123332 0.013647923637948329 -0.0093230322830350175 0.0036393863434739221 0.0026411920998977651 -0.0046074905432633767 -0.0065779018186454584 -0.0030895139969638551 0 -0.003640119087826907 -0.005505270834865926 -0.0098210871283691201 -0 -0.0088787766622433241 -0.00095180557111603403 -0.011665072256359691 -0.0096072476922647067 -0.0081152468478348956 -0.0050385955865657438 -0.0049209635679684349
leaf_count=6385 1043 3395 494 2258 2997 1392 3099 1328 316 2113 3334 2433 434 1552 145 1699 3146 1169 654 254
internal_value=0 0.278619 1.40187 -0.0737998 0.246138 0.822437 -0.199601 -0.688077 -0.33449 -0.42 -0.174321 -0.70964 0.136072 -0.70107 0.371674 -0.893934 -0.798439 -0.568074 -0.342917 -0.212883
internal_count=39640 27900 6879 21021 10883 4787 6096 11740 4398 10138 5592 4546 1876 2522 1188 7342 5643 2497 970 688
shrinkage=0.01


Tree=36
num_leaves=21
num_cat=0
split_feature=55 56 18 15 221 222 87 96 15 59 228 11 76 87 12 93 15 58 15 15
split_gain=1863.47 2675.74 784.37 735.999 682.784 539.012 200.29 191.596 179.177 137.901 115.557 74.7426 34.9677 30.5654 25.9621 17.6752 52.0325 17.8277 12.658 9.9516
threshold=1.0000000180025095e-35 1.0000000180025095e-35 1.0000000180025095e-35 571.35078446600062 1.0000000180025095e-35 1.0000000180025095e-35 1.0000000180025095e-35 1.0000000180025095e-35 490.39733333333339 1.0000000180025095e-35 1.0000000180025095e-35 423.50000000000006 1.0000000180025095e-35 1.0000000180025095e-35 447.50000000000006 1.0000000180025095e-35 76.905661636233887 1.0000000180025095e-35 3124.6341666666672 2833.4433333333336
decision_type=2 2 2 2 2 2 2 2 2 2 2 2 2 2 2 2 2 2 2 2
left_child=1 2 -1 4 5 -3 9 8 12 -5 -8 -6 14 18 -2 16 17 -9 -10 -15
right_child=7 3 -4 6 11 -7 10 15 13 -11 -12 -13 -14 19 -16 -17 -18 -19 -20 -21
leaf_value=0.015944075607765711 -0.0017065513424934892 0.0078291828649745612 -0.0092408259279404409 0.0055760914360409456 -0.010858304042167411 -0.0063111657230035621 -0.0041203069967358195 -0.0022228639415293491 0.0011722674465308716 -0.0042369363549371614 -0.0094922991317781136 -0.0030371671797496088 -0.0050853287272687574 -0.0046003263087363699 0.0051590411375433921 -0.011577109502521233 -0.0094140612073249034 -0.0071983076044620986 -0.0038238686947372775 -0.0088485232748611985
leaf_count=6385 157 7127 494 1124 921 1216 5167 1109 271 1089 2821 1556 132 1221 1034 1699 3784 750 321 1262
internal_value=0 0.276123 1.39279 -0.0731333 0.289954 0.568103 -0.461251 -0.682308 -0.33167 0.0565986 -0.609577 -0.621955 0.258376 -0.600927 0.389845 -0.886561 -0.791625 -0.454601 -0.0964129 -0.702233
internal_count=39640 27900 6879 21021 10820 8343 10201 11740 4398 2213 7988 2477 1323 3075 1191 7342 5643 1859 592 2483
shrinkage=0.01


Tree=37
num_leaves=19
num_cat=0
split_feature=55 56 18 76 77 81 96 13 13 207 13 12 156 58 221 222 58 13
split_gain=1829.58 2633.6 772.96 636.192 513.1 657.285 188.216 190.135 76.8066 40.541 26.3916 18.3302 15.305 9.34158 7.72106 32.0613 33.999 0.922543
threshold=1.0000000180025095e-35 1.0000000180025095e-35 1.0000000180025095e-35 1.0000000180025095e-35 1.0000000180025095e-35 1.0000000180025095e-35 1.0000000180025095e-35 5.9947038443570291 2.9809475619689798 1.0000000180025095e-35 12.936776228671164 447.50000000000006 1.0000000180025095e-35 1.0000000180025095e-35 1.0000000180025095e-35 1.0000000180025095e-35 1.0000000180025095e-35 7.9990707954880813
decision_type=2 2 2 2 2 2 2 2 2 2 2 2 2 2 2 2 2 2
left_child=1 2 -1 4 5 -3 7 9 -6 11 12 -2 -9 -11 15 16 -8 -5
right_child=6 3 -4 17 8 -7 14 10 -10 13 -12 -13 -14 -15 -16 -17 -18 -19
leaf_value=0.015847569105686767 -0.00096960073040023122 0.0068911583813726709 -0.0091596758548573142 -0.0073142338568775193 -0.0014406720712610097 -0.0019333981080400212 -0.0041666861455794324 -0 -0.0073032214369867319 -0 -0.0093316789364674101 0.0046733620068058939 -0.0055237673225128252 -0.0048613018635790591 -0.010806732640415453 -0.0112412360100137 -0.0087203752050859853 -0.011088048628235066
leaf_count=6385 139 7136 494 1828 1666 6398 2040 404 2721 434 1246 1049 872 254 2119 1273 1910 1272
internal_value=0 0.273632 1.38389 -0.0725508 0.0713504 0.267411 -0.676586 -0.328874 -0.519957 0.134491 -0.690531 0.367333 -0.40524 -0.209657 -0.879256 -0.783074 -0.652771 -0.91098
internal_count=39640 27900 6879 21021 17921 13534 11740 4398 4387 1876 2522 1188 1276 688 7342 5223 3950 3100
shrinkage=0.01


Tree=38
num_leaves=17
num_cat=0
split_feature=55 56 18 15 221 76 87 88 207 93 58 59 228 90 13 13
split_gain=1796.43 2592.47 761.798 717.967 623.817 314.004 176.487 519.235 120.947 147.566 117.628 387.673 79.9572 69.732 20.2466 0.694285
threshold=1.0000000180025095e-35 1.0000000180025095e-35 1.0000000180025095e-35 896.71966838652179 1.0000000180025095e-35 1.0000000180025095e-35 1.0000000180025095e-35 1.0000000180025095e-35 1.0000000180025095e-35 1.0000000180025095e-35 1.0000000180025095e-35 1.0000000180025095e-35 1.0000000180025095e-35 1.0000000180025095e-35 4.999270647171099 6.9772455692875583
decision_type=2 2 2 2 2 2 2 2 2 2 2 2 2 2 2 2
left_child=1 2 -1 4 5 -3 7 -5 9 10 11 -2 -8 -6 -12 -10
right_child=8 3 -4 6 13 -7 12 -9 15 -11 14 -13 -14 -15 -16 -17
leaf_value=0.015753125666314576 0.012293165961484959 0.0061112913621706559 -0.009079557841340789 0.014201691388834712 -0.0024308635376365305 -0.0061508606240684724 -0.0046288196071781517 -0.0068371478060147697 -0.0076144387607073594 -0.010801243727329077 -0.0030322983861646876 -0.004546664606581579 -0.0095193701406489032 -0.0097306970995476774 -0.0083682766447335487 -0.010375720211958584
leaf_count=6385 712 8551 494 677 1287 867 4472 1371 3296 1250 875 2022 2560 1236 1178 2407
internal_value=0 0.271121 1.37517 -0.0719521 0.250015 0.490802 -0.498872 0.00121407 -0.670967 -0.452855 -0.277308 -0 -0.649906 -0.62414 -0.638121 -0.891318
internal_count=39640 27900 6879 21021 11941 9418 9080 2048 11740 6037 4787 2734 7032 2523 2053 5703
shrinkage=0.01


Tree=39
num_leaves=18
num_cat=0
split_feature=76 77 82 81 78 15 87 87 15 96 15 96 96 13 11 15 15
split_gain=1332 1240.02 1365.06 2585.99 1050.22 363.471 150.335 66.8089 61.2908 97.161 59.9157 34.178 19.9079 19.7553 11.5302 2.21631 27.3244
threshold=1.0000000180025095e-35 1.0000000180025095e-35 1.0000000180025095e-35 1.0000000180025095e-35 1.0000000180025095e-35 1007.7271317562144 1.0000000180025095e-35 1.0000000180025095e-35 95.144971998911259 1.0000000180025095e-35 2711.0260855395259 1.0000000180025095e-35 1.0000000180025095e-35 5.9947038443570291 590.50000000000011 0.010133982497340989 -0.92291212202449302
decision_type=2 2 2 2 2 2 2 2 2 2 2 2 2 2 2 2 2
left_child=1 2 3 4 -1 -5 10 13 9 -8 11 -3 -10 -2 -12 16 -4
right_child=7 6 15 5 -6 -7 8 -9 12 -11 14 -13 -14 -15 -16 -17 -18
leaf_value=0.01325744944165155 0 0.0056735306823356693 -0.0076436939315243195 0.00095927499959573884 -0.011779949617932337 -0.0065717229466081316 0.0031660127620355832 -0.010127397552366251 -0.0063606430083439002 -0.0063306120209692387 -0 -0.0010461503096502078 -0.010489469455769234 -0.005683218818190997 -0.0073260210266230929 -0.010006710723121422 0
leaf_count=11499 383 635 642 7105 677 4000 516 4817 2108 1519 149 389 2027 432 345 2209 188
internal_value=0 0.142536 0.353647 0.522692 1.1759 -0.173415 -0.565938 -0.917267 -0.705423 -0.370165 0 0.279156 -0.855697 -0.290584 -0.547283 -0.90627 -0.573507
internal_count=39640 34008 26320 23281 12176 11105 7688 5632 6170 2035 1518 1024 4135 815 494 3039 830
shrinkage=0.01


Tree=40
num_leaves=21
num_cat=0
split_feature=96 97 15 15 221 222 223 7 222 16 16 223 90 247 254 59 58 233 15 15
split_gain=1247.49 3468.94 547.891 375.99 511.205 603.96 325.11 318.757 135.49 120.77 677.031 116.528 73.9433 64.7651 60.4877 55.9028 393.221 18.7634 5.35696 3.7012
threshold=1.0000000180025095e-35 1.0000000180025095e-35 294.49784900380826 549.62295918367306 1.0000000180025095e-35 1.0000000180025095e-35 1.0000000180025095e-35 -1.0000000180025095e-35 1.0000000180025095e-35 2.9998278160077301 2.0002562093739753 1.0000000180025095e-35 1.0000000180025095e-35 1.0000000180025095e-35 1.0000000180025095e-35 1.0000000180025095e-35 1.0000000180025095e-35 1.0000000180025095e-35 676.48355243151263 3188.1492857142862
decision_type=2 2 2 2 2 2 2 2 2 2 2 2 2 2 2 2 2 2 2 2
left_child=1 7 8 4 5 6 -2 -1 11 10 -4 -3 13 -6 15 16 -5 -7 -17 -11
right_child=3 2 9 14 12 17 -8 -9 -10 19 -12 -13 -14 -15 -16 18 -18 -19 -20 -21
leaf_value=-0.0018907809798728965 0.0075764843733108749 0.0068377298926658482 -0.0053627256088610541 0.0071113705767097595 -0.00046335460434111602 -0.0088688585221325389 -0.0049606928614052657 0.016612991300954016 -0.0080485492032394655 -0.0062432720467977603 0.015998267280226477 -0.0060840008517175385 -0.0092953884293754171 -0.0090453172344009229 -0.010763337800380784 -0.0001496881903078426 -0.0079319134533211207 -0.0031643193994890747 -0.0088586158682760503 -0.0098549663021436501
leaf_count=351 4567 2955 5924 901 1275 1425 957 6341 262 1707 637 247 2512 535 1806 128 2734 666 2209 1501
internal_value=0 0.349055 -0.242165 -0.369445 -0.138699 0.17234 0.528129 1.55358 0.43877 -0.488199 -0.317296 0.563712 -0.694028 -0.335583 -0.716288 -0.594397 -0.406764 -0.732823 -0.856187 -0.815713
internal_count=39640 19925 13233 19715 11937 7615 5524 6692 3464 9769 6561 3202 4322 1810 7778 5972 3635 2091 2337 3208
shrinkage=0.01


Tree=41
num_leaves=20
num_cat=0
split_feature=55 56 21 76 77 82 96 13 87 207 13 87 234 93 207 58 156 58 13
split_gain=1727.04 2499.47 751.805 598.905 486.046 629.702 179.979 180.55 76.5949 38.0593 25.4015 24.1273 18.1824 17.038 29.954 24.1071 14.6767 9.09208 7.76623
threshold=1.0000000180025095e-35 1.0000000180025095e-35 1.0000000180025095e-35 1.0000000180025095e-35 1.0000000180025095e-35 1.0000000180025095e-35 1.0000000180025095e-35 5.9947038443570291 1.0000000180025095e-35 1.0000000180025095e-35 12.936776228671164 1.0000000180025095e-35 1.0000000180025095e-35 1.0000000180025095e-35 1.0000000180025095e-35 1.0000000180025095e-35 1.0000000180025095e-35 1.0000000180025095e-35 5.9947038443570291
decision_type=2 2 2 2 2 2 2 2 2 2 2 2 2 2 2 2 2 2 2
left_child=1 2 -1 4 5 -3 7 9 -6 12 16 18 -2 14 15 -8 -9 -11 -5
right_child=6 3 -4 11 8 -7 13 10 -10 17 -12 -13 -14 -15 -16 -17 -18 -19 -20
leaf_value=0.015562710104365622 0.0046044330842307871 0.0042989592942260972 -0.0091103073451375711 -0 -0 -0.008528006531252472 -0.002882010286036817 -0 -0.006486671884360729 -0 -0.0091061267495481987 -0.0097817368329399038 -0.00095783183056670073 -0.011248830188316818 -0.0092358050889910781 -0.0077563213561958168 -0.0053537218938758662 -0.0047208818491404486 -0.0053096462131582353
leaf_count=6385 1043 11802 494 243 986 1732 1328 404 3401 434 1246 2581 145 1699 3146 1169 872 254 276
internal_value=0 0.266096 1.3556 -0.0703296 0.0693229 0.260482 -0.659056 -0.318471 -0.506687 0.132678 -0.671866 -0.885472 0.358698 -0.857867 -0.76464 -0.539477 -0.391389 -0.199613 -0.321041
internal_count=39640 27900 6879 21021 17921 13534 11740 4398 4387 1876 2522 3100 1188 7342 5643 2497 1276 688 519
shrinkage=0.01


Tree=42
num_leaves=20
num_cat=0
split_feature=55 56 18 15 221 222 228 34 96 13 11 15 12 13 93 15 222 37 254
split_gain=1695.88 2461.12 741.174 682.408 644.258 508.89 181.208 219.882 176.787 177.239 72.5525 42.2299 28.7028 25.011 16.794 49.9475 42.4838 13.7611 9.6291
threshold=1.0000000180025095e-35 1.0000000180025095e-35 1.0000000180025095e-35 532.40869753056552 1.0000000180025095e-35 1.0000000180025095e-35 1.0000000180025095e-35 1.0000000180025095e-35 1.0000000180025095e-35 5.9947038443570291 423.50000000000006 2833.4433333333336 447.50000000000006 10.998628750119455 1.0000000180025095e-35 76.905661636233887 1.0000000180025095e-35 1.0000000180025095e-35 1.0000000180025095e-35
decision_type=2 2 2 2 2 2 2 2 2 2 2 2 2 2 2 2 2 2 2
left_child=1 2 -1 4 5 -3 7 -5 9 11 -6 12 -2 17 15 16 -10 -11 -8
right_child=8 3 -4 6 10 -7 18 -9 14 13 -12 -13 -14 -15 -16 -17 -18 -19 -20
leaf_value=0.01547431378261494 -0.0024193228038071959 0.0077149233573827573 -0.0090308148184704579 0.0028289558812042872 -0.010583262947209357 -0.0061312413236914781 -0.0063309822160392496 -0.0048637816211442335 -0.0017032079086955487 0 -0.0028674229724195248 -0.0042001687411090107 0.0041727861118013836 -0.0084752413644006933 -0.01116641604958853 -0.0090526026473153089 -0.008815646421417642 -0.0047066449893367144 -0.010106029755891883
leaf_count=6385 220 7006 494 2164 921 1199 2311 4437 1275 293 1551 354 1302 1552 1699 3784 584 677 1432
internal_value=0 0.263682 1.3474 -0.069758 0.285266 0.559928 -0.439187 -0.228052 -0.653634 -0.315885 -0.60096 0.130894 0.292143 -0.666288 -0.850911 -0.7582 -0.428094 -0.319351 -0.797181
internal_count=39640 27900 6879 21021 10677 8205 10344 6601 11740 4398 2472 1876 1522 2522 7342 5643 1859 970 3743
shrinkage=0.01


Tree=43
num_leaves=20
num_cat=0
split_feature=55 56 21 15 221 222 87 88 96 13 228 11 15 76 13 15 221 15 222
split_gain=1665.19 2423.57 730.766 669.126 632.371 499.51 190.658 560.407 173.72 173.912 107.522 71.2847 41.4447 28.3171 24.5839 15.3627 7.89166 88.5208 80.8368
threshold=1.0000000180025095e-35 1.0000000180025095e-35 1.0000000180025095e-35 532.40869753056552 1.0000000180025095e-35 1.0000000180025095e-35 1.0000000180025095e-35 1.0000000180025095e-35 1.0000000180025095e-35 5.9947038443570291 1.0000000180025095e-35 423.50000000000006 2833.4433333333336 1.0000000180025095e-35 12.936776228671164 2960.8300000000004 1.0000000180025095e-35 3.5769461750124654 1.0000000180025095e-35
decision_type=2 2 2 2 2 2 2 2 2 2 2 2 2 2 2 2 2 2 2
left_child=1 2 -1 4 5 -3 7 -5 9 12 -8 -6 13 -2 15 -11 17 18 -10
right_child=8 3 -4 6 11 -7 10 -9 16 14 -12 -13 -14 -15 -16 -17 -18 -19 -20
leaf_value=0.015387738834858252 0.0039524711085249069 0.0076454737347722707 -0.0089523171915386751 0.014262151683104385 -0.010496075233947659 -0.0060741871642947046 -0.0039022361117176121 -0.0064367684798626512 0.0027920196216302279 -0.0011628746955388001 -0.0090683523820658998 -0.002840008124633633 -0.0041636239797501525 -0.0035427398487922479 -0.0089629519539174904 -0.0065859144957014495 -0.010429966849166021 -0.0088347272070847267 -0.0079146549353422049
leaf_count=6385 1374 7006 494 783 921 1199 5255 1456 578 748 2850 1551 354 148 1246 528 2119 4188 457
internal_value=0 0.261319 1.33937 -0.0692203 0.282485 0.554768 -0.435096 0.0680531 -0.648234 -0.313229 -0.579068 -0.595706 0.129144 0.289071 -0.66059 -0.383811 -0.844023 -0.749267 -0.163596
internal_count=39640 27900 6879 21021 10677 8205 10344 2239 11740 4398 8105 2472 1876 1522 2522 1276 7342 5223 1035
shrinkage=0.01


Tree=44
num_leaves=18
num_cat=0
split_feature=76 77 82 81 78 15 87 87 15 96 15 93 13 96 11 15 15
split_gain=1249.7 1165.14 1284.84 2473 1003.78 340.553 141.549 63.0994 57.5824 89.7921 56.178 37.1723 18.4188 18.324 11.1717 1.66019 25.9601
threshold=1.0000000180025095e-35 1.0000000180025095e-35 1.0000000180025095e-35 1.0000000180025095e-35 1.0000000180025095e-35 1007.7271317562144 1.0000000180025095e-35 1.0000000180025095e-35 95.144971998911259 1.0000000180025095e-35 2711.0260855395259 1.0000000180025095e-35 5.9947038443570291 1.0000000180025095e-35 590.50000000000011 0.010133982497340989 -0.92291212202449302
decision_type=2 2 2 2 2 2 2 2 2 2 2 2 2 2 2 2 2
left_child=1 2 3 4 -1 -5 10 12 9 -8 11 -3 -2 -10 -12 16 -4
right_child=7 6 15 5 -6 -7 8 -9 13 -11 14 -13 -14 -15 -16 -17 -18
leaf_value=0.01299034941537707 0 0.0045062322617751742 -0.0074364984338028683 0.00088356269441936864 -0.011536482763396987 -0.0064175741249910059 0.0029998630385721196 -0.0098507107251300137 -0.0061814834714986376 -0.0061271400015893689 -0 -0.0048210815003330108 -0.0054866581258511534 -0.010203930116729992 -0.0071322503496795281 -0.0097360565754335496 0
leaf_count=11499 383 883 642 7105 677 4000 516 4817 2108 1519 149 141 432 2027 345 2209 188
internal_value=0 0.137858 0.343425 0.508182 1.15129 -0.172708 -0.550179 -0.891797 -0.685894 -0.359054 0 0.270808 -0.279826 -0.832214 -0.53078 -0.881816 -0.556832
internal_count=39640 34008 26320 23281 12176 11105 7688 5632 6170 2035 1518 1024 815 4135 494 3039 830
shrinkage=0.01


Tree=45
num_leaves=21
num_cat=0
split_feature=55 56 18 15 93 222 228 230 96 15 87 76 77 87 218 93 15 207 16 239
split_gain=1677.27 2371.7 684.298 621.826 514.134 369.45 183.931 633.359 157.548 132.879 29.4667 26.2053 20.3786 17.1021 16.0672 13.7638 46.2662 15.7493 13.5697 8.92673
threshold=1.0000000180025095e-35 1.0000000180025095e-35 1.0000000180025095e-35 549.62295918367306 1.0000000180025095e-35 1.0000000180025095e-35 1.0000000180025095e-35 1.0000000180025095e-35 1.0000000180025095e-35 407.32023018746219 1.0000000180025095e-35 1.0000000180025095e-35 1.0000000180025095e-35 1.0000000180025095e-35 1.0000000180025095e-35 1.0000000180025095e-35 76.905661636233887 1.0000000180025095e-35 2.9998278160077301 1.0000000180025095e-35
decision_type=2 2 2 2 2 2 2 2 2 2 2 2 2 2 2 2 2 2 2 2
left_child=1 2 -1 4 5 -3 7 -5 9 11 19 12 -2 -8 -6 16 17 -10 -12 -11
right_child=8 3 -4 6 14 -7 13 -9 15 10 18 -13 -14 -15 -16 -17 -18 -19 -20 -21
leaf_value=0.015254299000198174 0.0049213884618694833 0.0062124032741509893 -0.008768029604054605 0.01081518341822388 -0.00079498579145058769 -0.0056170118579891605 -0.0039835570676059525 -0.0050892090094742286 -0.0016204607677312328 0.0004227589299754292 -0.0045369598592983401 -0.0043643445639347861 -0.00027496679973207101 -0.0087619659182685255 -0.0084904079406407113 -0.010827887995283529 -0.0088545551887621466 -0.0062321784209659181 -0.0090406211387868991 -0.0041866490783254925
leaf_count=6435 835 8022 471 1208 259 1161 859 5294 926 405 1662 131 249 2830 1351 1721 3791 960 900 170
internal_value=0 0.268362 1.33655 -0.0591537 0.276026 0.463709 -0.417126 -0.203231 -0.645373 -0.321889 -0.544504 0.212653 0.339811 -0.780396 -0.753776 -0.830906 -0.742209 -0.424485 -0.638931 -0.046031
internal_count=39640 27890 6906 20984 10793 9183 10191 6502 11750 4352 3137 1215 1084 3689 1610 7398 5677 1886 2562 575
shrinkage=0.01


Tree=46
num_leaves=22
num_cat=0
split_feature=55 56 19 15 221 76 87 88 96 13 254 90 76 77 58 59 93 15 207 13 121
split_gain=1647.05 2336.11 674.91 609.715 588.696 255.131 166.473 534.313 154.832 135.253 83.9267 66.8635 38.6161 42.2221 21.4538 44.5745 13.5757 45.3515 15.411 4.8295 4.47438
threshold=1.0000000180025095e-35 1.0000000180025095e-35 1.0000000180025095e-35 549.62295918367306 1.0000000180025095e-35 1.0000000180025095e-35 1.0000000180025095e-35 1.0000000180025095e-35 1.0000000180025095e-35 3.9858965823886625 1.0000000180025095e-35 1.0000000180025095e-35 1.0000000180025095e-35 1.0000000180025095e-35 1.0000000180025095e-35 1.0000000180025095e-35 1.0000000180025095e-35 76.905661636233887 1.0000000180025095e-35 1.9880708012109933 1.0000000180025095e-35
decision_type=2 2 2 2 2 2 2 2 2 2 2 2 2 2 2 2 2 2 2 2 2
left_child=1 2 -1 4 5 -3 7 -5 9 14 -8 -6 13 -11 15 -2 17 18 -10 -19 -16
right_child=8 3 -4 6 11 -7 10 -9 16 12 -12 -13 -14 -15 20 -17 -18 19 -20 -21 -22
leaf_value=0.015172242677593168 0.010759844341257997 0.0064726317788378765 -0.008692191490001373 0.013950618670316861 -0.0018890873395051341 -0.00529638200042859 -0.0040928544617038955 -0.00648619935430281 -0.0016051747881604803 -0.0015990588437455129 -0.0091622669010845634 -0.0091107139484966019 -0.010279029392679979 -0.0077702263931650941 0 0.00029458355701931588 -0.010749550785326425 -0.0013429455264253177 -0.0061784300123611888 -0.0090198181238022677 -0.002625311651669896
leaf_count=6435 227 7580 471 774 1205 756 5950 1405 926 1549 2062 1252 664 803 136 672 1721 179 960 3612 301
internal_value=0 0.265995 1.32886 -0.0586884 0.273299 0.532225 -0.41328 0.0633604 -0.640049 -0.319192 -0.54795 -0.579155 -0.558929 -0.396423 0.18549 0.369766 -0.824212 -0.735983 -0.420862 -0.878104 -0.107535
internal_count=39640 27890 6906 20984 10793 8336 10191 2179 11750 4352 8012 2457 3016 2352 1336 899 7398 5677 1886 3791 437
shrinkage=0.01


Tree=47
num_leaves=22
num_cat=0
split_feature=55 76 93 94 16 96 7 15 87 87 76 12 15 87 16 93 15 58 239 15 15
split_gain=1617.27 896.946 672.429 647.304 540.832 152.36 135.284 128.877 52.9437 28.9814 25.5715 21.3071 16.8744 13.7716 13.3856 13.3739 44.4868 9.44286 8.69009 7.12116 0.156787
threshold=1.0000000180025095e-35 1.0000000180025095e-35 1.0000000180025095e-35 1.0000000180025095e-35 2.9998278160077301 1.0000000180025095e-35 -1.0000000180025095e-35 407.32023018746219 1.0000000180025095e-35 1.0000000180025095e-35 1.0000000180025095e-35 431.50000000000006 0.0099769323200753976 1.0000000180025095e-35 2.9998278160077301 1.0000000180025095e-35 76.905661636233887 1.0000000180025095e-35 1.0000000180025095e-35 8637.8113333333349 896.71966838652179
decision_type=2 2 2 2 2 2 2 2 2 2 2 2 2 2 2 2 2 2 2 2 2
left_child=1 2 3 6 -5 7 -1 10 19 18 11 -2 13 -4 -11 16 17 -7 -9 20 -3
right_child=5 8 12 4 -6 15 -8 9 -10 14 -12 -13 -14 -15 -16 -17 -18 -19 -20 -21 -22
leaf_value=-0 -0.001737584426443832 0.00047828685067605273 0 0.005543781584118607 -0.0025257231790718373 -0.0022569391057898846 0.015800101746708404 0.00044930639305462212 -0.0085046094402701986 -0.0044558791611988063 -0.0043030186854044732 0.00460051465707614 -0.0085214063012823537 -0.0046239192463384867 -0.0089265629161225362 -0.010672158593427754 -0.0087094689922624421 -0.0063271821042086215 -0.0041135712035366657 -0.0045026391979306728 -0
leaf_count=197 145 237 159 15421 4283 1138 2541 405 2662 1662 131 939 1162 888 900 1721 3791 748 170 124 216
internal_value=0 0.263664 0.398346 0.506275 0.374377 -0.634738 1.44975 -0.316297 -0.727805 -0.535823 0.209859 0.335761 -0.649099 -0.361622 -0.629463 -0.817649 -0.729901 -0.417273 -0.0415132 -0.0843359 0
internal_count=39640 27890 24651 22442 19704 11750 2738 4352 3239 3137 1215 1084 2209 1047 2562 7398 5677 1886 575 577 453
shrinkage=0.01


Tree=48
num_leaves=17
num_cat=0
split_feature=55 76 93 94 15 1 76 221 15 222 87 87 15 87 13 15
split_gain=1587.96 880.301 659.95 638.407 532.633 133.756 98.6173 98.0579 145.217 216.41 51.8858 31.519 16.5118 13.5761 8.47246 2.18028
threshold=1.0000000180025095e-35 1.0000000180025095e-35 1.0000000180025095e-35 1.0000000180025095e-35 294.49784900380826 -1.0000000180025095e-35 1.0000000180025095e-35 1.0000000180025095e-35 471.79627313617294 1.0000000180025095e-35 1.0000000180025095e-35 1.0000000180025095e-35 0.0099769323200753976 1.0000000180025095e-35 5.9947038443570291 5926.8079629629638
decision_type=2 2 2 2 2 2 2 2 2 2 2 2 2 2 2 2
left_child=1 2 3 5 -5 -1 7 8 9 -2 14 -10 13 -4 -3 -16
right_child=6 10 12 4 -6 -7 -8 -9 11 -11 -12 -13 -14 -15 15 -17
leaf_value=-0 0.0027378989045896639 0.00056805183081961111 0 0.0074809477042033111 0.00068819837940788705 0.015704619651544093 -0.01021445387387602 -0.0097421100250840668 -0.0014240748286857075 -0.0095091127434541196 -0.0084310425411261054 -0.0070435158427803813 -0.0084451662105307548 -0.0045811504874155411 -0 -0.0050526335285474913
leaf_count=197 2140 290 159 8724 10980 2541 2391 1766 692 766 2662 3995 1162 888 145 142
internal_value=0 0.261179 0.394657 0.501649 0.370788 1.44046 -0.629532 -0.522688 -0.410163 -0.0402974 -0.721512 -0.631259 -0.643198 -0.357941 -0.0836256 -0.339268
internal_count=39640 27890 24651 22442 19704 2738 11750 9359 7593 2906 3239 4687 2209 1047 577 287
shrinkage=0.01


Tree=49
num_leaves=24
num_cat=0
split_feature=55 207 206 48 15 211 76 77 81 221 96 13 247 224 76 77 58 59 96 207 221 58 121
split_gain=1558.84 888.583 991.022 826.732 340.636 307.845 252.907 223.042 282.564 197.514 149.017 129.999 78.7311 59.0545 37.5676 41.7591 20.984 43.4644 17.4533 12.7022 22.4797 14.8252 4.32566
threshold=1.0000000180025095e-35 1.0000000180025095e-35 1.0000000180025095e-35 1.0000000180025095e-35 378.80049758756587 1.0000000180025095e-35 1.0000000180025095e-35 1.0000000180025095e-35 1.0000000180025095e-35 1.0000000180025095e-35 1.0000000180025095e-35 3.9858965823886625 1.0000000180025095e-35 1.0000000180025095e-35 1.0000000180025095e-35 1.0000000180025095e-35 1.0000000180025095e-35 1.0000000180025095e-35 1.0000000180025095e-35 1.0000000180025095e-35 1.0000000180025095e-35 1.0000000180025095e-35 1.0000000180025095e-35
decision_type=2 2 2 2 2 2 2 2 2 2 2 2 2 2 2 2 2 2 2 2 2 2 2
left_child=1 2 3 5 9 -1 7 8 -3 -4 11 16 -5 -6 15 -13 17 -2 -9 20 21 -12 -18
right_child=10 6 4 12 13 -7 -8 18 -10 -11 19 14 -14 -15 -16 -17 22 -19 -20 -21 -22 -23 -24
leaf_value=0.01497097737970053 0.010660298841277867 0.0049889634544636983 0.0064739527740938427 0.00068544934539213783 -0.0021258073544125704 -0.0052830467870606671 -0.0083808503741363179 -0.0032147699243430896 -0.0026669600215716116 -0.0042073712149726609 -0.0025381554050746529 -0.0014964972684644218 -0.0085507970375712193 -0.0082959612472532102 -0.010081512672062658 -0.0076263544620968939 0 0.00030542406736027534 -0.007780277444106593 -0.0093333499784198724 -0.0090927889265088411 -0.0068347303053644037 -0.0025696674704572026
leaf_count=6415 227 4284 3439 1126 2197 271 1833 1279 3567 812 1240 1549 482 1078 664 803 136 672 1107 3772 1355 1031 301
internal_value=0 0.258773 0.579902 1.07444 0.0432549 1.4009 -0.151295 -0.0217178 0.140658 0.428052 -0.62422 -0.309128 -0.197053 -0.437428 -0.544734 -0.384414 0.185326 0.367584 -0.559692 -0.805475 -0.653293 -0.473507 -0.103589
internal_count=39640 27890 15820 8294 7526 6686 12070 10237 7851 4251 11750 4352 1608 3275 3016 2352 1336 899 2386 7398 3626 2271 437
shrinkage=0.01


Tree=50
num_leaves=22
num_cat=0
split_feature=55 56 18 15 221 222 228 230 96 13 11 13 121 58 59 87 93 15 207 13 121
