tree
version=v2
num_class=1
num_tree_per_iteration=1
label_index=0
max_feature_idx=276
objective=binary sigmoid:1
feature_names=age job_year frs_agn_dt_cnt l12mon_buy_fin_mng_whl_tms l12_mon_fnd_buy_whl_tms l12_mon_insu_buy_whl_tms l12_mon_gld_buy_whl_tms ovd_30d_loan_tot_cnt his_lng_ovd_day cur_debit_cnt cur_credit_cnt cur_debit_min_opn_dt_cnt cur_credit_min_opn_dt_cnt Trx_Cod2_Cd trx/Flg1_B trx/Flg1_C Trx_Cod1_Cd page_no gdr_cd_flag_0 mrg_situ_cd_flag_0 edu_deg_cd_flag_0 acdm_deg_cd_flag_0 deg_cd_flag_0 job_year_flag_0 ic_ind_flag_0 fr_or_sh_ind_flag_0 dnl_mbl_bnk_ind_flag_0 dnl_bind_cmb_lif_ind_flag_0 hav_car_grp_ind_flag_0 hav_hou_grp_ind_flag_0 l6mon_agn_ind_flag_0 frs_agn_dt_cnt_flag_0 vld_rsk_ases_ind_flag_0 fin_rsk_ases_grd_cd_flag_0 confirm_rsk_ases_lvl_typ_cd_flag_0 cust_inv_rsk_endu_lvl_cd_flag_0 l6mon_daim_aum_cd_flag_0 tot_ast_lvl_cd_flag_0 pot_ast_lvl_cd_flag_0 bk1_cur_year_mon_avg_agn_amt_cd_flag_0 l12mon_buy_fin_mng_whl_tms_flag_0 l12_mon_fnd_buy_whl_tms_flag_0 l12_mon_insu_buy_whl_tms_flag_0 l12_mon_gld_buy_whl_tms_flag_0 loan_act_ind_flag_0 pl_crd_lmt_cd_flag_0 ovd_30d_loan_tot_cnt_flag_0 his_lng_ovd_day_flag_0 hld_crd_card_grd_cd_flag_0 crd_card_act_ind_flag_0 l1y_crd_card_csm_amt_dlm_cd_flag_0 atdd_type_flag_0 perm_crd_lmt_cd_flag_0 cur_debit_min_opn_dt_cnt_flag_0 cur_credit_min_opn_dt_cnt_flag_0 gdr_cd_0 gdr_cd_1 gdr_cd_2 mrg_situ_cd_0 mrg_situ_cd_1 mrg_situ_cd_2 mrg_situ_cd_3 mrg_situ_cd_4 edu_deg_cd_0 edu_deg_cd_1 edu_deg_cd_2 edu_deg_cd_3 edu_deg_cd_4 edu_deg_cd_5 edu_deg_cd_6 edu_deg_cd_7 edu_deg_cd_8 edu_deg_cd_9 edu_deg_cd_10 edu_deg_cd_11 edu_deg_cd_12 acdm_deg_cd_0 acdm_deg_cd_1 acdm_deg_cd_2 acdm_deg_cd_3 acdm_deg_cd_4 acdm_deg_cd_5 acdm_deg_cd_6 acdm_deg_cd_7 ic_ind_0 ic_ind_1 ic_ind_2 fr_or_sh_ind_0 fr_or_sh_ind_1 fr_or_sh_ind_2 dnl_mbl_bnk_ind_0 dnl_mbl_bnk_ind_1 dnl_mbl_bnk_ind_2 dnl_bind_cmb_lif_ind_0 dnl_bind_cmb_lif_ind_1 dnl_bind_cmb_lif_ind_2 hav_car_grp_ind_0 hav_car_grp_ind_1 hav_car_grp_ind_2 hav_hou_grp_ind_0 hav_hou_grp_ind_1 hav_hou_grp_ind_2 l6mon_agn_ind_0 l6mon_agn_ind_1 l6mon_agn_ind_2 vld_rsk_ases_ind_0 vld_rsk_ases_ind_1 vld_rsk_ases_ind_2 fin_rsk_ases_grd_cd_0 fin_rsk_ases_grd_cd_1 fin_rsk_ases_grd_cd_2 fin_rsk_ases_grd_cd_3 fin_rsk_ases_grd_cd_4 fin_rsk_ases_grd_cd_5 fin_rsk_ases_grd_cd_6 fin_rsk_ases_grd_cd_7 fin_rsk_ases_grd_cd_8 fin_rsk_ases_grd_cd_9 fin_rsk_ases_grd_cd_10 fin_rsk_ases_grd_cd_11 fin_rsk_ases_grd_cd_12 confirm_rsk_ases_lvl_typ_cd_0 confirm_rsk_ases_lvl_typ_cd_1 confirm_rsk_ases_lvl_typ_cd_2 confirm_rsk_ases_lvl_typ_cd_3 confirm_rsk_ases_lvl_typ_cd_4 confirm_rsk_ases_lvl_typ_cd_5 confirm_rsk_ases_lvl_typ_cd_6 confirm_rsk_ases_lvl_typ_cd_7 confirm_rsk_ases_lvl_typ_cd_8 confirm_rsk_ases_lvl_typ_cd_9 confirm_rsk_ases_lvl_typ_cd_10 confirm_rsk_ases_lvl_typ_cd_11 confirm_rsk_ases_lvl_typ_cd_12 confirm_rsk_ases_lvl_typ_cd_13 cust_inv_rsk_endu_lvl_cd_0 cust_inv_rsk_endu_lvl_cd_1 cust_inv_rsk_endu_lvl_cd_2 cust_inv_rsk_endu_lvl_cd_3 cust_inv_rsk_endu_lvl_cd_4 cust_inv_rsk_endu_lvl_cd_5 cust_inv_rsk_endu_lvl_cd_6 cust_inv_rsk_endu_lvl_cd_7 cust_inv_rsk_endu_lvl_cd_8 cust_inv_rsk_endu_lvl_cd_9 l6mon_daim_aum_cd_0 l6mon_daim_aum_cd_1 l6mon_daim_aum_cd_2 l6mon_daim_aum_cd_3 l6mon_daim_aum_cd_4 l6mon_daim_aum_cd_5 l6mon_daim_aum_cd_6 l6mon_daim_aum_cd_7 l6mon_daim_aum_cd_8 l6mon_daim_aum_cd_9 l6mon_daim_aum_cd_10 tot_ast_lvl_cd_0 tot_ast_lvl_cd_1 tot_ast_lvl_cd_2 tot_ast_lvl_cd_3 tot_ast_lvl_cd_4 tot_ast_lvl_cd_5 tot_ast_lvl_cd_6 tot_ast_lvl_cd_7 tot_ast_lvl_cd_8 tot_ast_lvl_cd_9 tot_ast_lvl_cd_10 tot_ast_lvl_cd_11 tot_ast_lvl_cd_12 tot_ast_lvl_cd_13 tot_ast_lvl_cd_14 pot_ast_lvl_cd_0 pot_ast_lvl_cd_1 pot_ast_lvl_cd_2 pot_ast_lvl_cd_3 pot_ast_lvl_cd_4 pot_ast_lvl_cd_5 pot_ast_lvl_cd_6 pot_ast_lvl_cd_7 bk1_cur_year_mon_avg_agn_amt_cd_0 bk1_cur_year_mon_avg_agn_amt_cd_1 bk1_cur_year_mon_avg_agn_amt_cd_2 bk1_cur_year_mon_avg_agn_amt_cd_3 bk1_cur_year_mon_avg_agn_amt_cd_4 bk1_cur_year_mon_avg_agn_amt_cd_5 bk1_cur_year_mon_avg_agn_amt_cd_6 bk1_cur_year_mon_avg_agn_amt_cd_7 bk1_cur_year_mon_avg_agn_amt_cd_8 bk1_cur_year_mon_avg_agn_amt_cd_9 bk1_cur_year_mon_avg_agn_amt_cd_10 bk1_cur_year_mon_avg_agn_amt_cd_11 loan_act_ind_0 loan_act_ind_1 loan_act_ind_2 pl_crd_lmt_cd_0 pl_crd_lmt_cd_1 pl_crd_lmt_cd_2 pl_crd_lmt_cd_3 pl_crd_lmt_cd_4 pl_crd_lmt_cd_5 pl_crd_lmt_cd_6 pl_crd_lmt_cd_7 pl_crd_lmt_cd_8 pl_crd_lmt_cd_9 pl_crd_lmt_cd_10 hld_crd_card_grd_cd_0 hld_crd_card_grd_cd_1 hld_crd_card_grd_cd_2 hld_crd_card_grd_cd_3 hld_crd_card_grd_cd_4 hld_crd_card_grd_cd_5 hld_crd_card_grd_cd_6 hld_crd_card_grd_cd_7 hld_crd_card_grd_cd_8 hld_crd_card_grd_cd_9 hld_crd_card_grd_cd_10 hld_crd_card_grd_cd_11 hld_crd_card_grd_cd_12 crd_card_act_ind_0 crd_card_act_ind_1 crd_card_act_ind_2 l1y_crd_card_csm_amt_dlm_cd_0 l1y_crd_card_csm_amt_dlm_cd_1 l1y_crd_card_csm_amt_dlm_cd_2 l1y_crd_card_csm_amt_dlm_cd_3 l1y_crd_card_csm_amt_dlm_cd_4 l1y_crd_card_csm_amt_dlm_cd_5 l1y_crd_card_csm_amt_dlm_cd_6 atdd_type_0 atdd_type_1 atdd_type_2 perm_crd_lmt_cd_0 perm_crd_lmt_cd_1 perm_crd_lmt_cd_2 perm_crd_lmt_cd_3 perm_crd_lmt_cd_4 perm_crd_lmt_cd_5 perm_crd_lmt_cd_6 perm_crd_lmt_cd_7 perm_crd_lmt_cd_8 perm_crd_lmt_cd_9 cur_debit_crd_lvl_0 cur_debit_crd_lvl_1 cur_debit_crd_lvl_2 cur_debit_crd_lvl_3 cur_debit_crd_lvl_4 cur_debit_crd_lvl_5 Dat_Flg3_Cd_0 Dat_Flg3_Cd_1 Dat_Flg3_Cd_2 Dat_Flg3_Cd_3 page_cls_0 page_cls_1 page_cls_2 page_cls_3 page_cls_4 page_cls_5 page_cls_6 page_cls_7 page_cls_8 page_cls_9 page_cls_10 page_cls_11 page_cls_12 page_cls_13 page_cls_14 page_cls_15 page_cls_16 page_cls_17 page_cls_18 page_cls_19 page_cls_20 page_cls_21 page_cls_22 page_cls_23 page_cls_24 page_cls_25
feature_infos=[19:84] [-1:99] [-1:1278] [-1:260] [-1:610] [-1:7] [-1:333] [-1:28] [-1:1623] [0:177] [0:173] [-1:9538] [-1:6056] [-1:34] [-1:2000000.0049999999] [-1:4609157.5782352937] [-1:3] [-1:3175.644554167282] [0:1] [0:1] [0:1] [0:1] [0:1] [0:1] [0:1] [0:1] [0:1] [0:1] [0:1] [0:1] [0:1] [0:1] [0:1] [0:1] [0:1] [0:1] [0:1] [0:1] [0:1] [0:1] [0:1] [0:1] [0:1] [0:1] [0:1] [0:1] [0:1] [0:1] [0:1] [0:1] [0:1] none none [0:1] [0:1] [0:1] [0:1] [0:1] [0:1] [0:1] [0:1] [0:1] [0:1] [0:1] [0:1] [0:1] [0:1] [0:1] [0:1] none [0:1] [0:1] [0:1] [0:1] [0:1] [0:1] [0:1] [0:1] [0:1] [0:1] [0:1] [0:1] [0:1] [0:1] [0:1] [0:1] [0:1] [0:1] [0:1] [0:1] [0:1] [0:1] [0:1] [0:1] [0:1] [0:1] [0:1] [0:1] [0:1] [0:1] [0:1] [0:1] [0:1] [0:1] [0:1] [0:1] [0:1] [0:1] [0:1] [0:1] none none [0:1] [0:1] [0:1] [0:1] none none none none [0:1] [0:1] [0:1] none none none none [0:1] [0:1] [0:1] [0:1] [0:1] none none [0:1] [0:1] [0:1] [0:1] [0:1] [0:1] [0:1] [0:1] [0:1] none [0:1] [0:1] [0:1] [0:1] [0:1] [0:1] [0:1] [0:1] [0:1] [0:1] [0:1] none [0:1] none [0:1] [0:1] [0:1] none [0:1] [0:1] [0:1] [0:1] [0:1] [0:1] [0:1] [0:1] [0:1] [0:1] [0:1] [0:1] [0:1] [0:1] [0:1] [0:1] [0:1] [0:1] [0:1] [0:1] [0:1] [0:1] [0:1] [0:1] [0:1] [0:1] [0:1] none none [0:1] [0:1] [0:1] [0:1] [0:1] [0:1] [0:1] [0:1] [0:1] [0:1] [0:1] [0:1] [0:1] none [0:1] [0:1] [0:1] [0:1] [0:1] [0:1] [0:1] [0:1] [0:1] [0:1] none none [0:1] [0:1] [0:1] [0:1] [0:1] [0:1] [0:1] [0:1] [0:1] [0:1] [0:1] [0:1] [0:1] [0:1] none [0:1] [0:1] [0:1] [0:1] [0:1] [0:1] [0:1] [0:1] [0:1] [0:1] [0:1] [0:1] [0:1] none none [0:1] [0:1] [0:1] [0:1] [0:1] none none [0:1] none none [0:1] [0:1] none [0:1] none none none none none none none none none none none none [0:1] none [0:1] [0:1]
tree_sizes=3391 3326 2832 3303 3351 3403 3353 3370 3380 3359 3381 3329 3375 3362 3380 3370 3372 3354 3335 3388 3394 3398 3274 3366 3353 3291 3305 3371 3381 3324 3355 2920 3304 2857 3317 3357 3389 3319 3339 3130 3268 3382 3131 3347 3394 3373 3360 3364 3211 3295 3336 3381 3335 3332 3336 3342 3342 3284 3336 3292 3337 3309 3372 3301 3275 3377 3252 3327 2594 3345 3262 3351 3283 3319 2921 3295 3283 3271 3337 3129 3307 3342 2136 3293 3321 3237 3259 2039 3348 3257 3315 2710 3325 2911 3236 3299 3202 3355 2273 2574 2700 3329 3283 2818 1805 2496 2562 2413 2553 3226 3293 3327 3295 2075 3204 3235 2818 1759 2701 3246 2687 3036 2413 1842 2518 2460 2258 1590 1868 3305 2713 2237 2186 3303 3260 2569 2278 2185 3267 3102 2652 2367 3301 1913 3265 2629 1992 2294 1682 3200 2041 3328 2993 3272 2137 2701 2518 1833 2789 2463 2158 1241 2123 3257 2010 3058 1645 2290 2341 2449 2603 1713 1444 2658 3187 2239 1740 1860 2158 2283 2648 2571 2769 2600 3005 1993 2009 2326 2113 2798 2882 2351 2547 2204 2513 2627 1584 3329 2448 2434 1938 2726 2546 1349 3307 3059 3290 1565 2052 2062 2856 1314 2883 2170 2784 3284 2414 2143 1964 1472 3287 2499 1535 1957 3221 3273 2494 2129 2808 2796 1454 2632 2089 2258 2470 2103 2219 2253 2507 1875 1995 2557 3272 1725 2511 1731 2206 2719 2322 2228 1460 2428 3037 2624 1807 2260 3272 2081 1732 3235 1347 2476 1806 2117 2092 1749 2675 2791 2729 1907 2132 3029 2456 1537 2322 2027 2180 2705 2229 1577 1985 3344 3135 2748 2448 1946 2688 1720 1766 1967 988 3269 3275 2935 1452 2929 2812 2673 3290 2174 1570 1684 1672 1829 3251 1124 2162 1567 2551 1568 2669 2167 1936 2916 1453 2031 2738 2558 2101 2068 3204 2659 2446 2808 3293 1689 2656 2269 1655 3135 2919 3086 2062 3167 2157 3204 1563 2225 3093 3191 1654 3058 2272 1741 2590 1604 2416 2504 3278 3270 1904 1696 2226 2323 1827 1617 2696 2371 2017 1941 2340 2576 2311 2169 2308 3236 3275 2139 2554 2546 2449 3319 1982 1974 2001 2439 2103 3217 3065 2384 2175 2116 1654 2544 1142 2753 3179 3181 1290 3265 3254 928 2628 3100 2554 2592 2504 2932 2059 1348 1883 2872 2803 3080 2651 2060 1938 2348 1572 1907 1667 2216 1962 3123 3236 3279 2051 2091 1193 3292 2989 3115 3170 2200 3320 2797 2486 1791 1781 1747 3152 1562 1622 2857 1418 1781 2386 3246 2746 1856 1782 2281 1925 2829 2997 1788 2300 1200 2210 2972 3172 3238 3290 3287 2959 3245 3231 3246 2357 2078 3290 3324 2216 3196 2831 2300 2210 3234 3230 3218 2078 3229 2664 2714 2411 3302 1778 1975 2864 2015 1554 3091 1492 1786 3220 2242 2449 2268 3260 3071 2495 1645 2697 1941 3127 2979 3251 2946 2515 3048 3266 2534

Tree=0
num_leaves=40
num_cat=0
split_feature=55 76 77 82 81 83 15 96 15 15 96 97 87 88 64 222 77 82 93 15 222 221 76 93 87 207 77 15 15 96 96 58 34 148 15 228 15 14 93
split_gain=3303.21 1718.96 1289.92 1421.47 2216.83 979.379 552.383 340.52 296.17 205.742 220.221 114.708 102.9 117.728 86.2777 77.1814 75.9202 68.8484 63.1601 91.5856 58.4319 124.378 56.099 52.5645 36.519 36.1485 33.5547 31.2294 30.1224 44.933 24.3319 17.0954 16.1902 17.524 15.843 13.4297 10.8198 8.02539 7.95558
threshold=1.0000000180025095e-35 1.0000000180025095e-35 1.0000000180025095e-35 1.0000000180025095e-35 1.0000000180025095e-35 1.0000000180025095e-35 918.74266138191376 1.0000000180025095e-35 471.79627313617294 1030.5007962456632 1.0000000180025095e-35 1.0000000180025095e-35 1.0000000180025095e-35 1.0000000180025095e-35 1.0000000180025095e-35 1.0000000180025095e-35 1.0000000180025095e-35 1.0000000180025095e-35 1.0000000180025095e-35 76.905661636233887 1.0000000180025095e-35 1.0000000180025095e-35 1.0000000180025095e-35 1.0000000180025095e-35 1.0000000180025095e-35 1.0000000180025095e-35 1.0000000180025095e-35 2315.1766129032262 3832.0958333333333 1.0000000180025095e-35 1.0000000180025095e-35 1.0000000180025095e-35 1.0000000180025095e-35 1.0000000180025095e-35 1222.8869588483919 1.0000000180025095e-35 3405.360073571946 370.96135624538061 1.0000000180025095e-35
decision_type=2 2 2 2 2 2 2 2 2 2 2 2 2 2 2 2 2 2 2 2 2 2 2 2 2 2 2 2 2 2 2 2 2 2 2 2 2 2 2
left_child=1 2 3 4 5 -1 -6 8 15 10 11 -4 13 -3 16 22 17 -10 19 20 21 -9 26 -12 27 31 -2 -11 29 -5 -26 -21 33 35 38 -14 -18 -36 -15
right_child=7 12 9 28 6 -7 -8 18 14 24 23 -13 32 34 -16 -17 36 -19 -20 25 -22 -23 -24 -25 30 -27 -28 -29 -30 -31 -32 -33 -34 -35 37 -37 -38 -39 -40
leaf_value=0.085381238606851928 0.043385511356607891 0.075985887552143111 0.087381381738092623 -0.012793829980712809 0.028179451244889634 -0.058377626466025595 -0.027735284193455337 0.0090731034690411921 -0.0084976520277949413 0.023684629955863411 -0.013493928935950274 0.014963855437310093 -0.018884455250137638 0.0028750767800881597 -0.070921935796308969 -0.063322694581637667 -0.042383165186082039 -0.067129065628972209 -0.073080139437222691 -0.036025770148396724 -0.058348440604278247 -0.052923811805082814 -0.041209552413154986 -0.058504213972874218 -0.037707631532824866 -0.068228268053993193 0.0014530193063364597 -0.031410186648561482 -0.069900971722829011 -0.050744610720594503 -0.064408658672447536 -0.058140269913226426 -0.062722060769399166 -0.075088546439066067 -0.00093845410812782638 -0.048390680847509276 -0.06971025361414615 -0.056009699252796391 -0.047330149221526639
leaf_count=10034 834 122 296 511 4832 493 2778 685 1474 135 1112 850 297 130 617 98 437 231 1711 798 587 600 104 345 1027 2194 246 365 386 890 604 831 1751 166 39 434 335 226 35
internal_value=0 0.37885 0.557951 0.780964 0.948771 1.54313 0.125682 -0.884195 -0.439808 -0.379671 -0.000683588 0.652465 -0.998955 -0.202881 -0.774854 0.365581 -0.603627 -0.363065 -1.14585 -1.04058 -0.67096 -0.425033 0.510337 -0.517534 -0.839858 -1.21964 0.647999 -0.350648 -0.918256 -0.771556 -0.986159 -0.980017 -1.16284 -0.918206 -0.701901 -0.766071 -1.12516 -1.00515 -0.178933
internal_count=39640 27858 24658 19924 18137 10527 7610 11782 4376 4734 2603 1146 3200 552 3094 1282 2477 1705 7406 5695 1872 1285 1184 1457 2131 3823 1080 500 1787 1401 1631 1629 2648 897 430 731 772 265 165
shrinkage=1


Tree=1
num_leaves=40
num_cat=0
split_feature=76 96 97 15 77 82 81 78 1 87 88 222 221 87 88 12 228 15 93 94 4 13 96 13 87 60 93 121 93 235 15 17 177 207 15 191 11 15 11
split_gain=2024.62 1761.9 3772.74 754.9 644.413 742.48 1487.65 711.974 329.504 236.922 748.539 200.517 178.66 104.292 152.622 93.237 85.8334 59.9776 50.8666 83.5901 38.7081 21.2079 41.1687 20.1037 13.8986 13.8564 12.751 11.9279 11.8682 9.75547 9.45388 9.11187 9.06898 7.87989 7.86438 5.96205 4.82564 4.61934 4.61017
threshold=1.0000000180025095e-35 1.0000000180025095e-35 1.0000000180025095e-35 456.27928571428578 1.0000000180025095e-35 1.0000000180025095e-35 1.0000000180025095e-35 1.0000000180025095e-35 -1.0000000180025095e-35 1.0000000180025095e-35 1.0000000180025095e-35 1.0000000180025095e-35 1.0000000180025095e-35 1.0000000180025095e-35 1.0000000180025095e-35 308.50000000000006 1.0000000180025095e-35 1056.7023230476179 1.0000000180025095e-35 1.0000000180025095e-35 -1.0000000180025095e-35 7.9990707954880813 1.0000000180025095e-35 5.9947038443570291 1.0000000180025095e-35 1.0000000180025095e-35 1.0000000180025095e-35 1.0000000180025095e-35 1.0000000180025095e-35 1.0000000180025095e-35 0.37473077352925482 512.44519740568001 1.0000000180025095e-35 1.0000000180025095e-35 1833.0106818181823 1.0000000180025095e-35 1805.5000000000002 456.27928571428578 4777.5000000000009
decision_type=2 2 2 2 2 2 2 2 2 2 2 2 2 2 2 2 2 2 2 2 2 2 2 2 2 2 2 2 2 2 2 2 2 2 2 2 2 2 2
left_child=1 2 8 11 5 6 7 -3 25 10 -5 15 -8 14 20 -4 -11 18 19 -6 -2 22 27 26 34 -1 32 29 33 -15 -13 -23 -16 -24 -19 37 -20 -7 -37
right_child=13 4 3 9 17 35 12 -9 -10 16 -12 30 -14 21 23 -17 -18 24 36 -21 -22 31 28 -25 -26 -27 -28 -29 -30 -31 -32 -33 -34 -35 -36 38 -38 -39 -40
leaf_value=-0 -0.03101592468028368 0.062281597458913186 -0.022053991534662767 0.096453108910178484 0.08964853507880971 0 -0.016183980311115533 -0.075767639988042423 0.096872794508457635 -0.023469572536437801 -0.036825960219880799 -0.026589075230657667 -0.057715530543686555 0.004231985979249819 -0.020492176974834925 0.04439981435364828 -0.049780831376498295 7.6532702892376592e-05 -0.073575342831788043 -0.034777916544073716 0.09247157135687481 -0.070469974179841008 -0.045030958417622995 -0.05867121137970395 -0.070195912214522829 -0.06962005360765515 -0.05405015568649562 -0.040125006561324436 -0.074752735578219695 -0.051719337023350555 -0.071357803129536962 -0.0008781162459348753 0.024623998476687337 -0.062977903538754418 -0.046725431137972971 -0.059715740387302089 -0.050629931560297742 -0.043375535427702776 -0.081942519438017877
leaf_count=288 27 4204 220 636 51 27 4645 406 6190 3712 1232 111 1342 131 136 3127 1915 36 366 1881 121 1995 590 361 1216 28 79 493 649 35 135 25 59 866 148 1589 312 63 193
internal_value=0 0.185827 0.62618 -0.0831015 -0.284103 -0.0592444 0.145782 1.00047 1.83567 -0.444808 0.170658 0.669957 -0.511158 -1.11525 -0.427631 0.798996 -0.649764 -0.981363 -0.795975 -0.624214 1.36797 -1.22652 -1.10069 -0.85808 -1.32102 -0.143517 -0.417431 -0.645147 -1.23992 -0.14653 -1.05414 -1.39422 -0.112304 -1.1197 -0.733927 -1.21972 -1.27338 -0.582775 -1.24826
internal_count=39640 34073 17594 11088 16479 12469 10597 4610 6506 7495 1868 3593 5987 5567 783 3347 5627 4010 2610 1932 148 4784 2764 635 1400 316 274 659 2105 166 246 2020 195 1456 184 1872 678 90 1782
shrinkage=0.05


Tree=2
num_leaves=33
num_cat=0
split_feature=55 56 18 76 93 207 206 13 207 93 13 222 221 64 222 221 14 248 148 13 93 171 13 13 221 13 248 221 84 207 97 37
split_gain=2806.84 3869.42 1071.69 829.327 660.804 731.418 893.907 235.374 171.264 195.614 158.053 80.7953 80.8648 35.2425 40.4551 41.9189 91.7895 34.2018 52.737 25.9776 24.1412 19.714 16.6617 13.5591 20.9622 10.4892 6.81402 5.59852 3.48292 2.17058 1.77357 0.110017
threshold=1.0000000180025095e-35 1.0000000180025095e-35 1.0000000180025095e-35 1.0000000180025095e-35 1.0000000180025095e-35 1.0000000180025095e-35 1.0000000180025095e-35 5.9947038443570291 1.0000000180025095e-35 1.0000000180025095e-35 5.9947038443570291 1.0000000180025095e-35 1.0000000180025095e-35 1.0000000180025095e-35 1.0000000180025095e-35 1.0000000180025095e-35 21.632386068135279 1.0000000180025095e-35 1.0000000180025095e-35 7.9990707954880813 1.0000000180025095e-35 1.0000000180025095e-35 12.936776228671164 7.9990707954880813 1.0000000180025095e-35 1.9880708012109933 1.0000000180025095e-35 1.0000000180025095e-35 1.0000000180025095e-35 1.0000000180025095e-35 1.0000000180025095e-35 1.0000000180025095e-35
decision_type=2 2 2 2 2 2 2 2 2 2 2 2 2 2 2 2 2 2 2 2 2 2 2 2 2 2 2 2 2 2 2 2
left_child=1 2 -1 4 5 6 -3 -7 9 10 11 12 -2 14 15 16 -10 18 -12 20 21 -5 -19 24 -6 -13 31 -11 -28 -4 -25 -21
right_child=8 3 29 19 23 7 -8 -9 13 27 17 25 -14 -15 -16 -17 -18 22 -20 26 -22 -23 -24 30 -26 -27 28 -29 -30 -31 -32 -33
leaf_value=0.094090379390161363 0.012396181075208587 0.06847580859600147 -0.044610328194844076 -0.024939660408431139 -0.028512585483753679 0.0044206588786554436 0.0024873283940285507 -0.030968651606568139 0.0012508426473653942 -0.048687800738894088 -0.0063832763203755848 -0.02773182062079356 -0.03557061533863283 -0.071065007254990681 -0.071622614122640954 -0.068021402297947994 -0.046924731460389488 -0.040541748310051258 -0.065964040227159237 -0.04422685595302138 -0.064987598591600124 -0.050269916066327427 -0.065587514034669739 -0.044879096746533759 -0.053740579753582131 -0.065211395715331799 -0.024340508425900159 -0.068991832409207379 -0.07412070382651062 -0.066636823180594121 -0.075999764004806888 -0.059268996271317057
leaf_count=6342 1886 3696 199 748 557 4249 4663 3366 451 315 568 192 428 1000 737 699 2826 874 203 258 435 614 484 85 1097 177 32 942 623 293 258 343
internal_value=0 0.34946 1.6599 -0.0756555 0.0881063 0.224187 0.633419 -0.224124 -0.816435 -0.580121 -0.394747 -0.0696981 0.0679256 -1.06629 -0.989097 -0.904566 -0.804722 -0.80175 -0.451745 -1.04043 -0.874349 -0.732308 -0.995574 -0.996275 -0.909062 -0.935088 -1.27153 -1.28459 -1.44308 -1.17126 -1.38962 -1.06959
internal_count=39640 27858 6834 21024 17971 15974 8359 7615 11782 6069 4812 2683 2314 5713 4713 3976 3277 2129 771 3053 1797 1362 1358 1997 1654 369 1256 1257 655 492 343 601
shrinkage=0.05


Tree=3
num_leaves=40
num_cat=0
split_feature=76 77 82 81 78 83 15 96 87 15 96 97 15 87 16 90 13 96 106 15 218 96 90 13 13 96 13 90 9 96 87 247 8 34 12 37 12 60 16
split_gain=1677.05 1531.14 1681.49 3077.68 1310.8 849.447 501.276 423.317 183.328 114.005 153.431 115.421 107.628 91.1629 64.2372 52.1927 30.1279 29.2475 28.4433 25.0331 65.1309 22.2756 20.6491 19.219 17.4882 36.1791 17.4739 15.3469 14.563 13.4284 12.4204 12.0339 11.5237 10.4844 10.2781 9.91083 8.77359 8.56205 8.23056
threshold=1.0000000180025095e-35 1.0000000180025095e-35 1.0000000180025095e-35 1.0000000180025095e-35 1.0000000180025095e-35 1.0000000180025095e-35 998.74215492076053 1.0000000180025095e-35 1.0000000180025095e-35 1007.7271317562144 1.0000000180025095e-35 1.0000000180025095e-35 2833.4433333333336 1.0000000180025095e-35 2.9998278160077301 1.0000000180025095e-35 5.9947038443570291 1.0000000180025095e-35 1.0000000180025095e-35 0.0099769323200753976 1.0000000180025095e-35 1.0000000180025095e-35 1.0000000180025095e-35 7.9990707954880813 7.9990707954880813 1.0000000180025095e-35 11.980916229969603 1.0000000180025095e-35 1.0000000180025095e-35 1.0000000180025095e-35 1.0000000180025095e-35 1.0000000180025095e-35 2.5000000000000004 1.0000000180025095e-35 790.50000000000011 1.0000000180025095e-35 378.50000000000006 1.0000000180025095e-35 2.9998278160077301
decision_type=2 2 2 2 2 2 2 2 2 2 2 2 2 2 2 2 2 2 2 2 2 2 2 2 2 2 2 2 2 2 2 2 2 2 2 2 2 2 2
left_child=1 2 3 4 5 -1 7 -5 12 10 11 -10 15 16 -8 18 21 26 -3 20 37 27 -12 38 25 33 -11 34 -25 -17 -22 35 -21 36 -2 -23 -15 -4 -14
right_child=13 8 19 6 -6 -7 14 -9 9 17 22 -13 23 24 -16 29 -18 -19 -20 32 30 31 -24 28 -26 -27 -28 -29 -30 -31 -32 -33 -34 -35 -36 -37 -38 -39 -40
leaf_value=0.077878130831303918 -0.0066389308778836975 0.036638594194775859 0.018623204536657431 0.03676151255991416 -0.069091318231248575 -0.055865773754025398 -0.027728436319350569 -0.01294596723643409 0.086212751274342928 -0.034162002036625505 -0.030407292075486182 -0.0077875797493901951 0.00035240365009553295 -0.055275910583366387 -0.054781439681541512 0.0031305489712426995 -0.037098959798842542 -0.065583539227156776 -0.019196346318887392 -0.057055464550902546 -0 0.035923640948129075 -0.050481961010537257 0 -0.063851759917866888 -0.056953518007710917 -0.056961710368645085 -0.027495862160594881 -0.063755976847193863 -0.046718994589361115 -0.057770138956903583 -0.058522220514511204 -0 -0.03638921825623833 0.055787345740575506 -0.020945652111445636 0.0034858141983300419 -0.027597531581602663 -0.040816263775772854
leaf_count=11027 26 731 193 2887 696 493 2723 4229 151 919 1153 882 134 26 1355 82 416 1242 97 2194 46 39 1123 41 2020 2105 659 33 250 122 497 56 38 493 114 99 140 44 65
internal_value=0 0.169061 0.398201 0.580009 1.27883 1.44144 -0.176899 0.143613 -0.619815 -0.774322 -0.518719 0.117867 0.000101768 -1.0188 -0.736248 0.369988 -0.374232 -1.07192 0.595658 -1.01038 -0.681273 0.0343534 -0.809301 -0.766494 -1.12325 -1.00797 -0.878499 0.560468 -1.09622 -0.520323 -1.06355 -0.416408 -1.12216 -0.580112 0.858228 -0.0576932 -0.112168 0.177885 -0.252966
internal_count=39640 34073 26422 23410 12216 11520 11194 7116 7651 6129 3309 1033 1522 5567 4078 1032 783 2820 828 3012 780 367 2276 490 4784 2764 1578 173 291 204 543 194 2232 659 140 138 166 237 199
shrinkage=0.05


Tree=4
num_leaves=40
num_cat=0
split_feature=55 207 206 48 13 76 221 211 254 90 91 96 13 222 247 210 224 13 14 248 148 12 13 247 93 13 13 76 14 222 207 13 8 248 248 17 148 9 96
split_gain=2403.07 1169.72 1175.09 1048.7 397.15 376.701 348.724 344.295 297.804 339.342 627.749 250.097 243.179 139.022 123.568 119.268 114.119 112.863 85.1696 81.672 76.4298 68.8027 54.1285 47.6324 44.5776 73.7516 62.4507 40.8621 34.2787 27.5645 26.7452 26.5827 26.5169 20.9619 12.3899 19.8745 22.4537 9.26545 7.01106
threshold=1.0000000180025095e-35 1.0000000180025095e-35 1.0000000180025095e-35 1.0000000180025095e-35 2.9809475619689798 1.0000000180025095e-35 1.0000000180025095e-35 1.0000000180025095e-35 1.0000000180025095e-35 1.0000000180025095e-35 1.0000000180025095e-35 1.0000000180025095e-35 10.998628750119455 1.0000000180025095e-35 1.0000000180025095e-35 1.0000000180025095e-35 1.0000000180025095e-35 4.999270647171099 4986.0420801548744 1.0000000180025095e-35 1.0000000180025095e-35 1107.5000000000002 3.9858965823886625 1.0000000180025095e-35 1.0000000180025095e-35 1.9880708012109933 1.0000974311686588 1.0000000180025095e-35 510.05054687500007 1.0000000180025095e-35 1.0000000180025095e-35 7.9990707954880813 2.5000000000000004 1.0000000180025095e-35 1.0000000180025095e-35 69.022589821933963 1.0000000180025095e-35 2.5000000000000004 1.0000000180025095e-35
decision_type=2 2 2 2 2 2 2 2 2 2 2 2 2 2 2 2 2 2 2 2 2 2 2 2 2 2 2 2 2 2 2 2 2 2 2 2 2 2 2
left_child=1 2 3 7 6 8 13 15 9 10 -3 12 18 -4 27 -1 20 -11 19 23 -6 -8 -21 -2 25 26 30 -5 -18 31 -13 -27 33 -10 35 36 -14 -9 -7
right_child=11 5 4 14 16 38 21 37 32 17 -12 24 34 -15 -16 -17 28 -19 -20 22 -22 -23 -24 -25 -26 29 -28 -29 -30 -31 -32 -33 -34 -35 -36 -37 -38 -39 -40
leaf_value=0.084654610098687716 0.043907964993238791 0.09005719058061977 0.052124302489059998 0.012854100108932526 0 -0.041057546298798146 -0.060844818403437029 -0.045076980579415664 -0.033871462340637641 -0.0047662691913445705 0.0055146036900411421 -0.016137421816298375 -0.0022599595651570108 -0.0089318647444063155 -0.055838967733494484 -0.073696618554015075 -0.027708130092667971 -0.043995751555281293 -0.059769879286361932 0.012457717100277772 -0.055576087679378119 -0.0017250467714789283 -0.023586026392323323 -0.0053882246173269652 -0.063827184637392953 -0.039093876579408583 0.084611238530603511 -0.045958010524035725 -0.06437749668795438 -0.07037025863555392 -0.04325938245165209 -0.057899711611315408 0.037142675235596681 -0.060718307033537991 -0.060004239978730112 -0.055972883859820882 -0.059128950727398946 0 -0.055710689625595937
leaf_count=6280 614 1131 2657 981 2247 914 385 197 968 2488 4164 788 232 429 463 44 596 1055 227 694 276 420 1026 278 1711 1843 45 131 506 734 752 1533 37 488 827 376 102 55 946
internal_value=0 0.324474 0.688797 1.22041 0.116417 -0.141379 0.562609 1.57611 0.00785188 0.148641 0.471128 -0.757871 -0.37577 0.870558 -0.248549 1.66919 -0.360623 -0.330953 -0.0266955 0.0748949 -0.122479 -0.608704 -0.178563 0.567092 -0.983475 -0.8944 -0.519722 0.112181 -0.898127 -1.03768 -0.591355 -0.954688 -0.818883 -0.863201 -1.01903 -0.796962 -0.413505 -0.701818 -0.974379
internal_count=39640 27858 15667 8151 7516 12191 3891 6576 10331 8838 5295 11782 4376 3086 1575 6324 3625 3543 2839 2612 2523 805 1720 892 7406 5695 1585 1112 1102 4110 1540 3376 1493 1456 1537 710 334 252 1860
shrinkage=0.05


Tree=5
num_leaves=40
num_cat=0
split_feature=55 76 77 82 81 83 15 96 13 15 96 15 223 87 88 222 222 93 15 222 221 93 15 221 207 8 254 64 248 148 14 17 34 148 222 13 149 13 96
split_gain=2179.93 1076.33 881.036 978.457 1521.21 709.273 410.692 227.907 221.31 147.35 146.311 106.63 74.6639 71.3199 83.1169 59.0444 50.3825 41.3499 69.5904 44.0555 94.4098 36.5251 25.5258 33.0632 25.1561 24.748 25.3782 19.1606 19.8251 20.43 15.9201 18.3494 13.8525 14.7669 12.8721 12.8002 12.0136 9.82116 12.4907
threshold=1.0000000180025095e-35 1.0000000180025095e-35 1.0000000180025095e-35 1.0000000180025095e-35 1.0000000180025095e-35 1.0000000180025095e-35 896.71966838652179 1.0000000180025095e-35 10.998628750119455 1030.5007962456632 1.0000000180025095e-35 2960.8300000000004 1.0000000180025095e-35 1.0000000180025095e-35 1.0000000180025095e-35 1.0000000180025095e-35 1.0000000180025095e-35 1.0000000180025095e-35 85.492914172548694 1.0000000180025095e-35 1.0000000180025095e-35 1.0000000180025095e-35 3832.0958333333333 1.0000000180025095e-35 1.0000000180025095e-35 6.5000000000000009 1.0000000180025095e-35 1.0000000180025095e-35 1.0000000180025095e-35 1.0000000180025095e-35 4986.0420801548744 1.0000000180025095e-35 1.0000000180025095e-35 1.0000000180025095e-35 1.0000000180025095e-35 5.9947038443570291 1.0000000180025095e-35 7.9990707954880813 1.0000000180025095e-35
decision_type=2 2 2 2 2 2 2 2 2 2 2 2 2 2 2 2 2 2 2 2 2 2 2 2 2 2 2 2 2 2 2 2 2 2 2 2 2 2 2
left_child=1 2 3 4 5 -1 -6 8 11 10 16 12 15 14 -3 -2 -4 18 19 20 -9 -12 23 -5 34 26 -11 28 29 -10 31 -13 33 36 -20 -16 -15 38 -34
right_child=7 13 9 22 6 -7 -8 17 27 25 21 30 -14 32 35 -17 -18 -19 24 -21 -22 -23 -24 -25 -26 -27 -28 -29 -30 -31 -32 -33 37 -35 -36 -37 -38 -39 -40
leaf_value=0.070059081124841105 0.01949302364993593 0.065525891386534904 0.032254710606273773 -0.0212949094510014 0.022844757100948718 -0.052691981959583023 -0.025368631991683335 0.0089235331285577712 -0.0086076676697934076 -0.030062492903667692 -0.012090210539689257 -0.033857039722897879 -0.063125579676348645 -0.022591046818043758 -0.0070625077690966544 -0.05281042072154743 -0.051930837357361238 -0.061165011927383675 -0.036634358425284161 -0.049426428407282529 -0.045069523134044914 -0.049853966279355219 -0.062300815982393148 -0.055460670622314537 -0.057998916097637757 0.039925446427647483 -0.0557500101613062 -0.066886935437862727 -0.053042247928674929 -0.053798008574207301 -0.058605346023863802 0.0098684890490649078 -0.027144460211881188 -0.063288325672859844 -0.066200606397490369 -0.043291089325639513 -0.06339869751690512 -0.063774654345719911 -0.052487640449314803
leaf_count=10034 1861 122 1075 970 4800 493 2810 694 319 1519 1112 417 126 641 198 116 71 1711 1423 595 602 345 386 431 2185 37 575 461 601 156 204 115 331 166 196 232 90 596 824
internal_value=0 0.309631 0.452456 0.639158 0.780318 1.28292 0.0998676 -0.723489 -0.358358 -0.324502 -0.00243543 -0.0254431 0.203045 -0.789332 -0.122727 0.301101 0.533058 -0.939615 -0.853712 -0.532658 -0.319252 -0.424329 -0.775911 -0.640722 -1.01241 -0.715562 -0.745752 -0.973944 -0.811811 -0.482847 -0.682455 -0.480691 -0.927278 -0.702356 -0.809698 -0.544611 -0.563878 -1.03864 -0.90961
internal_count=39640 27858 24658 19924 18137 10527 7610 11782 4376 4734 2603 2839 2103 3200 552 1977 1146 7406 5695 1891 1296 1457 1787 1401 3804 2131 2094 1537 1076 475 736 532 2648 897 1619 430 731 1751 1155
shrinkage=0.05


Tree=6
num_leaves=40
num_cat=0
split_feature=55 56 18 15 221 222 223 87 88 207 93 58 59 82 228 230 90 91 1 15 15 13 13 221 222 15 15 15 207 223 16 218 15 15 87 15 228 0 15
split_gain=1980.1 3074.93 823.701 816.076 795.187 663.221 307.282 223.816 563.813 136.662 148.641 141.313 411.945 106.924 98.404 382.419 93.316 138.682 93.1764 57.2855 33.2011 30.3142 26.9662 32.0483 52.5478 81.7007 21.7543 14.9614 12.7977 10.5891 8.01629 5.1145 8.36345 6.02431 4.70087 3.60677 2.9567 3.89024 2.27888
threshold=1.0000000180025095e-35 1.0000000180025095e-35 1.0000000180025095e-35 851.94100000000014 1.0000000180025095e-35 1.0000000180025095e-35 1.0000000180025095e-35 1.0000000180025095e-35 1.0000000180025095e-35 1.0000000180025095e-35 1.0000000180025095e-35 1.0000000180025095e-35 1.0000000180025095e-35 1.0000000180025095e-35 1.0000000180025095e-35 1.0000000180025095e-35 1.0000000180025095e-35 1.0000000180025095e-35 -1.0000000180025095e-35 471.79627313617294 -1.0000000180025095e-35 5.9947038443570291 10.998628750119455 1.0000000180025095e-35 1.0000000180025095e-35 76.905661636233887 2603.5139726541561 4659.5468059389559 1.0000000180025095e-35 1.0000000180025095e-35 2.9998278160077301 1.0000000180025095e-35 31.946999690446479 22910.066875000004 1.0000000180025095e-35 3.5769461750124654 1.0000000180025095e-35 45.500000000000007 944.33098342667097
decision_type=2 2 2 2 2 2 2 2 2 2 2 2 2 2 2 2 2 2 2 2 2 2 2 2 2 2 2 2 2 2 2 2 2 2 2 2 2 2 2
left_child=1 2 -1 4 5 6 -3 8 18 10 11 12 13 -2 15 -9 17 -6 -5 -14 -7 29 23 24 25 -11 -10 -16 -18 -13 -23 32 -12 -33 38 -36 37 -24 -4
right_child=9 3 34 7 16 20 -8 14 26 22 31 21 19 -15 27 -17 28 -19 -20 -21 -22 30 36 -25 -26 -27 -28 -29 -30 -31 -32 33 -34 -35 35 -37 -38 -39 -40
leaf_value=0.08438904542449023 0.07917819102020969 0.044986686026239536 0 -0.054642204299214452 0.08528650031268889 -0.015391282832366064 -0.01574025050690378 0.04576381537345979 -0.013366932511305253 0.0043649810023580742 0.0010969673814224645 -0.019411990550928095 -0.0042642560938992808 -0.040681614658603704 -0.044648698014764565 -0.037968566169465416 -0.047385139765098394 -0.028306009364101676 0.085258695463257428 -0.038465050390189784 -0.050767436507834357 -0.040228301372005795 -0.052509448614983849 -0.060524825867722731 -0.060499122462364753 -0.03903914666895017 -0.043097484908277077 -0.062312686603771816 -0.071124647683127012 -0.059607444162447891 -0.061685404961994164 -0.060477199876372859 -0.045902103967114957 -0.0035227702825411118 -0.032090630911600471 -0.060464719258639971 -0.064474268977562643 -0.0030046838950146286 -0.035322385761271995
leaf_count=6342 623 7101 29 47 117 418 947 644 366 540 36 930 885 81 1682 3889 777 1126 672 1166 877 689 749 779 774 2106 995 898 468 75 363 966 227 28 113 325 739 26 25
internal_value=0 0.295889 1.48729 -0.0826087 0.267384 0.537825 0.754763 -0.533158 0.0475552 -0.691436 -0.479135 -0.317632 -0.0184687 1.30095 -0.702943 -0.521623 -0.742586 -0.346296 1.50576 -0.476176 -0.791882 -0.716783 -0.916879 -0.828404 -0.739841 -0.60066 -0.705757 -1.01915 -1.13353 -0.457008 -0.960463 -1.10224 -0.775076 -1.18203 -1.00464 -1.07879 -1.15837 -1.02253 -0.300502
internal_count=39640 27858 6834 21024 11831 9343 8048 9193 2080 11782 6069 4812 2755 704 7113 4533 2488 1243 719 2051 1295 2057 5713 4199 3420 2646 1361 2580 1245 1005 1052 1257 263 994 492 438 1514 775 54
shrinkage=0.05


Tree=7
num_leaves=40
num_cat=0
split_feature=55 56 18 15 221 222 224 96 97 96 97 3 15 1 90 91 121 207 93 58 207 13 14 13 222 14 76 2 13 221 222 207 84 15 0 15 15 207 17
split_gain=1800.36 2829.1 759.75 739.87 712.063 597.93 334.555 203.121 764.48 158.85 866.43 121.034 100.645 87.904 85.6538 126.389 54.2701 35.878 46.0657 46.3393 32.8235 32.3537 30.5533 28.2064 25.0742 22.9562 14.7583 14.3594 13.4006 13.4434 25.1668 11.8567 6.15482 5.09795 4.79941 4.42224 3.39146 3.55869 2.77113
threshold=1.0000000180025095e-35 1.0000000180025095e-35 1.0000000180025095e-35 896.71966838652179 1.0000000180025095e-35 1.0000000180025095e-35 1.0000000180025095e-35 1.0000000180025095e-35 1.0000000180025095e-35 1.0000000180025095e-35 1.0000000180025095e-35 -1.0000000180025095e-35 456.27928571428578 -1.0000000180025095e-35 1.0000000180025095e-35 1.0000000180025095e-35 1.0000000180025095e-35 1.0000000180025095e-35 1.0000000180025095e-35 1.0000000180025095e-35 1.0000000180025095e-35 2.9809475619689798 1357.162336686237 10.998628750119455 1.0000000180025095e-35 4986.0420801548744 1.0000000180025095e-35 364.50000000000006 7.9990707954880813 1.0000000180025095e-35 1.0000000180025095e-35 1.0000000180025095e-35 1.0000000180025095e-35 1670.0570611716223 28.500000000000004 22910.066875000004 1056.7023230476179 1.0000000180025095e-35 123.45891910130588
decision_type=2 2 2 2 2 2 2 2 2 2 2 2 2 2 2 2 2 2 2 2 2 2 2 2 2 2 2 2 2 2 2 2 2 2 2 2 2 2 2
left_child=1 2 -1 4 5 6 -3 8 11 10 13 34 24 -5 15 -6 -12 18 19 21 -7 -9 27 25 26 -14 -10 -11 29 30 -19 -16 -24 -21 -2 38 37 -4 -20
right_child=7 3 36 9 14 20 -8 17 12 22 16 -13 23 -15 31 -17 -18 28 35 33 -22 -23 32 -25 -26 -27 -28 -29 -30 -31 -32 -33 -34 -35 -36 -37 -38 -39 -40
leaf_value=0.081627909620810526 0.0060360498972971037 0.04992761870846369 -0.020168524235837038 -0.051037514855819456 0.082129655277643931 -0.018512347435726273 0.0065111850678901259 0.00032536147939689623 0.0049942829209080513 -0.029842682561753122 -0.018561015773754956 0.091279811312677345 -0.028408296660593371 0.085172066667614912 -0.045216466150199391 -0.026863174834747872 -0.040464363291366476 -0.032647292778856786 -0.055918298730787241 -0.037729120794452391 -0.051608106510677092 -0.030369842546677291 -0.013929949512651918 -0.055866043302589097 -0.053161020348307664 -0.066889753499515078 -0.036651574084895715 -0.053567159583864703 -0.060993880097837253 -0.058864001774734942 -0.05831580116335755 -0.068162812612123425 -0.05696574865223545 -0.055630012470326999 -0.03185790613353208 -0.0050859795601398009 -0.059747826133234309 -0.048712465046184199 -0.0090314720838269719
leaf_count=6342 43 5458 121 46 117 557 2718 658 702 1448 1945 657 1145 832 777 1128 3037 1306 1030 872 750 704 51 1364 98 197 94 366 1082 734 637 469 1325 328 76 29 221 150 26
internal_value=0 0.283131 1.43723 -0.0788838 0.250314 0.503416 0.707808 -0.661216 -0.315597 -0.514877 -0.315818 1.4873 -0.709189 1.54681 -0.708039 -0.328459 -0.639708 -0.866956 -0.718408 -0.567406 -0.754774 -0.30767 -0.877968 -0.904473 -0.120346 -0.686456 -0 -0.696638 -1.01023 -0.922944 -0.823749 -1.08389 -1.11131 -0.858682 -0.335671 -1.07751 -0.961561 -0.743158 -1.10005
internal_count=39640 27858 6834 21024 11974 9483 8176 11782 4376 9050 5860 776 3600 878 2491 1245 4982 7406 3647 2562 1307 1362 3190 2706 894 1342 796 1814 3759 2677 1943 1246 1376 1200 119 1085 492 271 1056
shrinkage=0.05


Tree=8
num_leaves=40
num_cat=0
split_feature=55 56 18 15 96 93 228 230 229 96 13 222 222 12 15 235 224 222 207 93 13 12 15 13 13 64 248 15 14 17 13 77 11 218 15 91 248 15 15
split_gain=1639.04 2610.19 703.123 674.471 537.324 257.943 186.777 642.508 337.921 185.488 175.599 173.278 154.9 100.893 85.7499 76.8475 60.3224 59.773 33.2682 42.971 41.9805 27.0475 24.9327 22.9868 18.5694 17.1259 17.4334 18.9434 13.0217 15.9148 12.5633 12.4356 12.3669 11.1672 33.5078 7.96136 7.29298 4.01445 3.32863
threshold=1.0000000180025095e-35 1.0000000180025095e-35 1.0000000180025095e-35 549.62295918367306 1.0000000180025095e-35 1.0000000180025095e-35 1.0000000180025095e-35 1.0000000180025095e-35 1.0000000180025095e-35 1.0000000180025095e-35 10.998628750119455 1.0000000180025095e-35 1.0000000180025095e-35 331.50000000000006 2960.8300000000004 1.0000000180025095e-35 1.0000000180025095e-35 1.0000000180025095e-35 1.0000000180025095e-35 1.0000000180025095e-35 2.9809475619689798 351.50000000000006 3333.3416666666667 2.0865516550390271 2.9809475619689798 1.0000000180025095e-35 1.0000000180025095e-35 1670.0570611716223 4986.0420801548744 1.0000000180025095e-35 7.9990707954880813 1.0000000180025095e-35 1769.5000000000002 1.0000000180025095e-35 3.5769461750124654 1.0000000180025095e-35 1.0000000180025095e-35 22910.066875000004 26393.421875000004
decision_type=2 2 2 2 2 2 2 2 2 2 2 2 2 2 2 2 2 2 2 2 2 2 2 2 2 2 2 2 2 2 2 2 2 2 2 2 2 2 2
left_child=1 2 -1 4 11 12 7 8 -5 10 14 15 -6 -9 16 -3 17 -2 19 20 23 -8 -23 -11 -18 26 27 -12 29 -16 33 -22 -7 34 -20 -28 -13 -21 -30
right_child=9 3 -4 6 5 32 21 13 -10 18 25 36 -14 -15 28 -17 24 -19 30 37 31 22 -24 -25 -26 -27 35 -29 38 -31 -32 -33 -34 -35 -36 -37 -38 -39 -40
leaf_value=0.079167188035455083 0.027418575114032853 0.049834271990249784 -0.046079496122385752 0.085047274966696951 0.014639597601092942 -0.052484261037541162 -0.059490529697109898 -0.055942802059736146 -0.038737267341499508 -0.013996201267093458 0.011467666961138765 -0.022846680501653893 -0.030758635372494375 -0.020287330465684476 -0.0300214251469125 0.0078222339570088815 0.0069223264037007754 -0.046639104564718092 -0.006332257579518337 -0.052914423933358504 -0.031803565126487819 -0.026439269542413629 -0.045525396874098907 0.075659439934293707 -0.028055488938147573 -0.060364134284837348 -0.029288037242150913 -0.032339967646911022 -0.05761455682286859 0.010806409697419904 -0.058700934172321112 -0.054258177464493434 -0.031344197428697013 -0.053418257034985976 -0.045126944424290757 -0.056997352463871845 -0.065053402773027041 -0.0048676357366097206 -0.0068424991052587819
leaf_count=6342 1345 3847 492 927 3863 803 675 1008 292 1030 131 106 944 4320 417 518 227 116 290 1056 1107 1489 1532 25 415 461 229 344 178 115 1082 400 589 1021 1366 372 111 29 26
internal_value=0 0.27119 1.39234 -0.0753669 0.278049 -0.107786 -0.447283 -0.24091 1.09108 -0.633181 -0.301938 0.806948 0.112393 -0.542428 -0.00549435 0.896757 0.199512 0.426878 -0.830672 -0.687201 -0.541407 -0.811587 -0.724191 -0.227676 -0.308477 -0.858043 -0.704559 -0.394846 -0.599066 -0.415799 -0.969481 -0.760003 -0.875945 -0.88463 -0.768032 -0.940301 -0.922898 -1.0365 -1.04813
internal_count=39640 27858 6834 21024 10781 6199 10243 6547 1219 11782 4376 4582 4807 5328 2839 4365 2103 1461 7406 3647 2562 3696 3021 1055 642 1537 1076 475 736 532 3759 1507 1392 2677 1656 601 217 1085 204
shrinkage=0.05


Tree=9
num_leaves=40
num_cat=0
split_feature=55 56 21 15 221 222 224 87 88 96 97 3 15 1 228 34 11 247 93 13 13 15 15 221 13 223 222 222 14 15 96 14 12 87 12 15 15 13 12
split_gain=1492.45 2414.8 651.745 613.49 623.365 502.333 286.107 190.236 477.417 169.89 677.672 111.987 84.8259 80.1758 80.1243 108.42 77.7505 61.341 31.7614 55.4582 52.3694 29.485 28.6464 23.2906 23.2116 22.4297 26.2197 22.3036 19.4002 19.3142 13.5272 5.15607 4.99558 4.45609 4.36399 3.32643 1.9246 1.56071 1.34423
threshold=1.0000000180025095e-35 1.0000000180025095e-35 1.0000000180025095e-35 851.94100000000014 1.0000000180025095e-35 1.0000000180025095e-35 1.0000000180025095e-35 1.0000000180025095e-35 1.0000000180025095e-35 1.0000000180025095e-35 1.0000000180025095e-35 -1.0000000180025095e-35 456.27928571428578 -1.0000000180025095e-35 1.0000000180025095e-35 1.0000000180025095e-35 473.50000000000006 1.0000000180025095e-35 1.0000000180025095e-35 1.9880708012109933 1.0000974311686588 -1.0000000180025095e-35 0.040067171239989333 1.0000000180025095e-35 10.998628750119455 1.0000000180025095e-35 1.0000000180025095e-35 1.0000000180025095e-35 4986.0420801548744 3573.1238190556483 1.0000000180025095e-35 152.17036764705884 1866.5000000000002 1.0000000180025095e-35 1107.5000000000002 3.5769461750124654 944.33098342667097 2.9809475619689798 1540.5000000000002
decision_type=2 2 2 2 2 2 2 2 2 2 2 2 2 2 2 2 2 2 2 2 2 2 2 2 2 2 2 2 2 2 2 2 2 2 2 2 2 2 2
left_child=1 2 -1 4 5 6 -3 8 13 10 11 32 25 -5 15 -9 34 -18 19 20 23 -7 31 -11 28 26 -12 -24 -14 -10 -16 -21 -2 36 -6 -35 -4 -27 -26
right_child=9 3 33 7 16 21 -8 14 29 18 12 -13 24 -15 30 -17 17 -19 -20 22 -22 -23 27 -25 38 37 -28 -29 -30 -31 -32 -33 -34 35 -36 -37 -38 -39 -40
leaf_value=0.076962577970820373 -0.00096955555786561631 0.046847305678087738 0.0016633109392240792 -0.048628053925447487 -0.060129112845972749 -0.011523564742005846 0.0061750286061887606 0.00049700246371793663 -0.014667868647943758 -0.01300298334154442 0.0058152498137612404 0.087346342793879539 -0.026732562500708424 0.081264234354911091 -0.038842671622906402 -0.033328476606698458 -0.0050386397455888347 -0.050088719941621999 -0.052574406585091493 -0.016039245500193977 0.081868258547411893 -0.044890144387235736 -0.040104510726491092 -0.039288165581380527 -0.044812414302372677 -0.027137818596226684 -0.049144622078909857 -0.061316878325961 -0.06254760739560962 -0.040452095978305264 -0.055247201046223632 0.022960994841917992 -0.04787777419434374 -0.027016813831337874 -0.039186221501084861 -0.053941927101053166 -0.029969224315449478 -0.073900711879996181 -0.056672257388832636
leaf_count=6342 86 5391 29 47 750 418 2657 1394 509 962 716 657 1145 672 1547 3139 1058 442 1711 59 45 877 3281 578 577 40 98 703 197 852 1033 67 33 113 238 325 25 40 787
internal_value=0 0.259893 1.35197 -0.0719996 0.233175 0.474212 0.6648 -0.465424 0.0741004 -0.606258 -0.288695 1.41795 -0.661217 1.43578 -0.622859 -0.458432 -0.666114 -0.370514 -0.796295 -0.720477 -0.393211 -0.686425 -0.847444 -0.460267 -0.842352 -0.119847 -0.0122868 -0.878264 -0.64352 -0.61936 -0.910836 0.0667639 -0.334644 -0.882423 -1.10976 -0.954109 -0.207948 -1.10598 -1.03871
internal_count=39640 27858 6834 21024 11831 9343 8048 9193 2080 11782 4376 776 3600 719 7113 4533 2488 1500 7406 5695 1585 1295 4110 1540 2706 894 814 3984 1342 1361 2580 126 119 492 988 438 54 80 1364
shrinkage=0.05


Tree=10
num_leaves=40
num_cat=0
split_feature=55 56 18 76 207 93 16 96 97 221 13 3 13 207 93 58 14 248 13 8 13 96 13 221 222 234 248 235 0 17 14 207 2 16 64 248 17 219 102
split_gain=1360.31 2238.77 606.138 473.009 404.784 379.016 212.552 154.868 617.948 146.512 193.069 103.736 69.2028 31.6633 38.5694 41.5439 29.7542 31.0077 25.5162 24.7023 17.5994 28.225 11.75 11.7906 23.9178 10.3338 7.59654 4.57918 4.08345 2.49211 3.82718 2.1053 1.46632 1.4586 1.01484 3.46076 0.525994 0.114395 0.0215784
threshold=1.0000000180025095e-35 1.0000000180025095e-35 1.0000000180025095e-35 1.0000000180025095e-35 1.0000000180025095e-35 1.0000000180025095e-35 2.9998278160077301 1.0000000180025095e-35 1.0000000180025095e-35 1.0000000180025095e-35 4.999270647171099 -1.0000000180025095e-35 10.998628750119455 1.0000000180025095e-35 1.0000000180025095e-35 1.0000000180025095e-35 4986.0420801548744 1.0000000180025095e-35 1.9880708012109933 9.5000000000000018 7.9990707954880813 1.0000000180025095e-35 7.9990707954880813 1.0000000180025095e-35 1.0000000180025095e-35 1.0000000180025095e-35 1.0000000180025095e-35 1.0000000180025095e-35 28.500000000000004 138.11968963883268 20752.361136363641 1.0000000180025095e-35 1060.5000000000002 2.0712851951360629 1.0000000180025095e-35 1.0000000180025095e-35 57.956568266452827 1.0000000180025095e-35 1.0000000180025095e-35
decision_type=2 2 2 2 2 2 2 2 2 2 2 2 2 2 2 2 2 2 2 2 2 2 2 2 2 2 2 2 2 2 2 2 2 2 2 2 2 2 2
left_child=1 2 -1 4 5 6 -3 8 11 10 -6 28 16 14 15 18 17 -10 -9 20 21 -5 23 24 -15 -7 -22 -17 -2 30 -16 38 -25 -33 35 -14 -11 -36 -4
right_child=7 3 31 19 9 25 -8 13 12 36 -12 -13 34 22 29 27 -18 -19 -20 -21 26 -23 -24 32 -26 -27 -28 -29 -30 -31 -32 33 -34 -35 37 -37 -38 -39 -40
leaf_value=0.074978091028031255 0.0046826486654013228 0.033094004335066179 -0.0073041201491097626 -0.01539802479569562 0.0070782077079374131 -0.02882620408591487 -0.0076887766255520507 0.0052716081899806359 0.003106685334391453 -0.060388187378244966 -0.024953734192751528 0.084190675725978534 -0.035737105367056744 -0.027905432096141131 -0.050019846772182242 -0.033806290244756544 -0.057082826042397353 -0.02437946977467232 -0.022861066236320379 0.044666949785440051 -0.041172937190344622 -0.043583705196079681 -0.055006279543694414 -0.054172334878696604 -0.053145952690795362 -0.051687418033992384 -0.060163568407267144 -0.051984355210768135 -0.029983299906249147 -0.0074888105375613108 -0.0041447906688606385 -0.056873489596741447 -0.013581252527849265 -0.030713748408951996 -0.028138577808206774 -0.05213769909102705 -0.033815643238476988 -0.059311176678588831 -0.03197726445430113
leaf_count=6342 43 6729 26 570 3736 916 1630 517 573 616 3956 657 406 1306 1024 934 211 1392 845 29 594 1209 1082 706 637 324 651 266 76 30 31 197 28 96 41 560 64 417 173
internal_value=0 0.249286 1.31534 -0.0688592 0.0560909 0.343399 0.500465 -0.581175 -0.276875 -0.267659 -0.187229 1.36318 -0.632969 -0.763516 -0.622982 -0.484997 -0.405144 -0.325015 -0.238735 -0.812648 -0.831882 -0.691685 -0.900207 -0.817843 -0.724551 -0.70229 -1.02898 -0.763484 -0.321384 -0.958985 -0.977524 -0.846636 -1.06035 -0.991923 -0.991037 -0.911616 -1.16834 -1.14525 -0.599152
internal_count=39640 27858 6834 21024 17971 9599 8359 11782 4376 8372 7692 776 3600 7406 3647 2562 2176 1965 1362 3053 3024 1779 3759 2677 1943 1240 1245 1200 119 1085 1055 492 734 293 1424 966 680 458 199
shrinkage=0.05


Tree=11
num_leaves=40
num_cat=0
split_feature=55 56 21 15 221 222 223 87 96 97 59 58 4 228 230 11 15 93 233 58 59 82 15 77 223 222 13 12 15 12 12 13 12 12 87 222 93 15 16
split_gain=1240.21 2079.97 565.584 545.532 572.394 460.615 259.627 191.303 141.601 564.599 123.747 143.053 96.1356 87.5122 366.213 75.2212 73.9057 44.8845 32.059 30.042 236.651 129.364 29.8894 22.5835 20.5525 23.9236 20.0462 15.9164 15.8363 14.057 12.7791 9.62484 5.92154 4.43538 3.9692 3.88833 6.4798 3.26444 3.00477
threshold=1.0000000180025095e-35 1.0000000180025095e-35 1.0000000180025095e-35 532.40869753056552 1.0000000180025095e-35 1.0000000180025095e-35 1.0000000180025095e-35 1.0000000180025095e-35 1.0000000180025095e-35 1.0000000180025095e-35 1.0000000180025095e-35 1.0000000180025095e-35 -1.0000000180025095e-35 1.0000000180025095e-35 1.0000000180025095e-35 417.50000000000006 456.27928571428578 1.0000000180025095e-35 1.0000000180025095e-35 1.0000000180025095e-35 1.0000000180025095e-35 1.0000000180025095e-35 4220.4815922971011 1.0000000180025095e-35 1.0000000180025095e-35 1.0000000180025095e-35 10.998628750119455 160.50000000000003 4659.5468059389559 609.50000000000011 1540.5000000000002 7.9990707954880813 1107.5000000000002 1866.5000000000002 1.0000000180025095e-35 1.0000000180025095e-35 1.0000000180025095e-35 3.5769461750124654 2.0712851951360629
decision_type=2 2 2 2 2 2 2 2 2 2 2 2 2 2 2 2 2 2 2 2 2 2 2 2 2 2 2 2 2 2 2 2 2 2 2 2 2 2 2
left_child=1 2 -1 4 5 6 -3 10 9 12 11 -5 33 14 -9 32 24 -17 -7 20 21 23 -12 -10 25 -11 29 -22 -15 -18 -29 35 -6 -2 -4 36 -21 -36 -39
right_child=8 3 34 7 15 18 -8 13 19 16 22 -13 -14 28 -16 17 26 -19 -20 31 27 -23 -24 -25 -26 -27 -28 30 -30 -31 -32 -33 -34 -35 37 -37 -38 38 -40
leaf_value=0.073184176958298736 -0.00031816797451068472 0.043064782219843729 -0.0086824182052573154 0.071146588415433948 -0.058944060707442972 -0.044333778044458608 -0.016843358177363411 0.045523849799188235 0.069205479037069667 0.0062192515855902415 0 -0.0016351899367243667 0.081392863333770077 -0.036161662689587891 -0.030521061331087326 0.0011978463291301186 -0.047999370576953151 -0.03343641460070558 -0.0097059210861594521 -0.032040507371330205 -0.055859768440208846 -0.044340280657933613 -0.03320825679988517 0 -0.052278510788368981 -0.046604045154336853 -0.048140530595575895 -0.031428868030932609 -0.05376519112261624 -0.022992468140893424 -0.047144426008887352 -0.052684401965700789 -0.035752104548714338 -0.044607540036009918 -0.023890363281155558 -0.050150790028248064 -0.048035032666136519 -0.06034174714626131 -0.032332993004735897
leaf_count=6342 86 6222 54 509 690 761 828 770 350 716 516 634 657 1936 4461 740 339 776 453 1255 683 178 594 61 80 98 1364 1811 898 1003 979 1146 236 33 113 444 499 194 131
internal_value=0 0.238858 1.28185 -0.0657824 0.256527 0.513533 0.715812 -0.399906 -0.557504 -0.265417 0.126123 0.603137 1.31447 -0.545701 -0.388631 -0.607603 -0.605789 -0.3249 -0.631031 -0.732767 -0.609244 0.576959 -0.353138 1.19023 -0.100631 -0 -0.777133 -0.816644 -0.836513 -0.591784 -0.740928 -0.881929 -1.06889 -0.304747 -0.813435 -0.790407 -0.732705 -0.881812 -1.00471
internal_count=39640 27858 6834 21024 10706 8264 7050 10318 11782 4376 2253 1143 776 8065 5231 2442 3600 1516 1214 7406 4062 589 1110 411 894 814 2706 3473 2834 1342 2790 3344 926 119 492 2198 1754 438 325
shrinkage=0.05


Tree=12
num_leaves=40
num_cat=0
split_feature=55 56 57 15 221 222 223 87 88 96 97 3 59 58 1 90 15 11 12 207 93 58 59 248 13 223 222 15 14 15 218 222 207 15 12 15 87 228 14
split_gain=1131.91 1935.24 528.884 494.91 520.205 418.835 236.985 173.662 456.25 129.425 516.251 89.8151 86 577.664 76.4908 71.5183 67.7435 47.3887 32.4679 29.3657 35.109 35.5718 138.076 29.2701 18.9038 18.7029 21.8751 18.6787 17.2438 11.4826 14.0427 33.734 8.83434 5.05708 4.04561 3.74074 3.62304 3.57163 3.97814
threshold=1.0000000180025095e-35 1.0000000180025095e-35 1.0000000180025095e-35 532.40869753056552 1.0000000180025095e-35 1.0000000180025095e-35 1.0000000180025095e-35 1.0000000180025095e-35 1.0000000180025095e-35 1.0000000180025095e-35 1.0000000180025095e-35 -1.0000000180025095e-35 1.0000000180025095e-35 1.0000000180025095e-35 -1.0000000180025095e-35 1.0000000180025095e-35 456.27928571428578 1449.5000000000002 324.50000000000006 1.0000000180025095e-35 1.0000000180025095e-35 1.0000000180025095e-35 1.0000000180025095e-35 1.0000000180025095e-35 10.998628750119455 1.0000000180025095e-35 1.0000000180025095e-35 2603.5139726541561 4986.0420801548744 514.53833333333353 1.0000000180025095e-35 1.0000000180025095e-35 1.0000000180025095e-35 1670.0570611716223 1866.5000000000002 22910.066875000004 1.0000000180025095e-35 1.0000000180025095e-35 4.9990787748987344
decision_type=2 2 2 2 2 2 2 2 2 2 2 2 2 2 2 2 2 2 2 2 2 2 2 2 2 2 2 2 2 2 2 2 2 2 2 2 2 2 2
left_child=1 2 -1 4 5 6 -3 8 14 10 11 34 13 -9 -5 17 25 -6 -14 20 21 22 -11 -7 28 26 -12 -10 -18 30 31 -21 -17 -23 -2 -22 -4 38 -31
right_child=9 3 36 7 15 23 -8 12 27 19 16 -13 18 -15 -16 32 24 -19 -20 29 35 33 -24 -25 -26 -27 -28 -29 -30 37 -32 -33 -34 -35 -36 -37 -38 -39 -40
leaf_value=0.071556345088145262 -0.00030296892082856133 0.041242410457365847 -0.0082907721806494 -0.041519392335857906 -0.031460797805167952 -0.013660823064433053 -0.015989415737433062 0.056975037858459476 -0.0097113747383190015 0.047548579350525595 0.0059114388892471306 0.078897155452994278 -0.058623522571762968 -0.033711179817874963 0.077747103573969523 -0.038513068555272277 -0.02315842982798921 0.0085680124588320295 -0.033336919506767905 -0.010414357009505194 -0.04572409831362776 -0.029772970130538336 -0.028329050363291444 -0.04582231237049289 -0.046354944725509356 -0.049960719066188 -0.0448192803637621 -0.035557081607248887 -0.057398821119096013 -0.0079571661786426891 -0.045256780802713337 -0.050451970525367235 -0.058918099863646801 -0.047271021921455651 -0.042780489119876419 -8.2123062136341888e-05 -0.042413707201302019 -0.055839225914822557 -0.044555120443507672
leaf_count=6342 86 6222 54 54 596 601 828 881 440 314 716 657 747 4163 764 775 1145 603 2274 588 1056 872 1048 613 1364 80 98 995 197 49 916 387 468 328 33 29 438 703 1116
internal_value=0 0.229351 1.25123 -0.06292 0.245104 0.490981 0.684762 -0.381854 0.12043 -0.535122 -0.254677 1.26972 -0.521126 -0.356121 1.37581 -0.580858 -0.580017 -0.223739 -0.794238 -0.703597 -0.567461 -0.435808 -0.207367 -0.602296 -0.745216 -0.0962009 -0 -0.554349 -0.565124 -0.836763 -0.709792 -0.523726 -0.928567 -0.696092 -0.292965 -0.893082 -0.782202 -0.962698 -0.863818
internal_count=39640 27858 6834 21024 10706 8264 7050 10318 2253 11782 4376 776 8065 5044 818 2442 3600 1199 3021 7406 3647 2562 1362 1214 2706 894 814 1435 1342 3759 1891 975 1243 1200 119 1085 492 1868 1165
shrinkage=0.05


Tree=13
num_leaves=40
num_cat=0
split_feature=55 56 18 15 96 97 93 94 87 88 96 97 3 13 3 1 96 97 15 207 93 58 59 207 12 13 8 15 15 13 218 15 106 11 15 0 12 15 96
split_gain=1034.06 1803.67 494.869 454.903 387.103 500.02 153.827 218.36 134.825 363.807 118.325 472.701 105.586 92.2714 84.2068 63.1328 62.2741 562.561 62.1668 27.3838 32.8376 32.611 125.07 18.026 21.5953 17.8028 16.6946 14.4652 13.7457 10.829 9.605 28.9865 8.81149 8.02262 4.72383 3.79405 3.6927 3.59795 5.4498
threshold=1.0000000180025095e-35 1.0000000180025095e-35 1.0000000180025095e-35 1030.5007962456632 1.0000000180025095e-35 1.0000000180025095e-35 1.0000000180025095e-35 1.0000000180025095e-35 1.0000000180025095e-35 1.0000000180025095e-35 1.0000000180025095e-35 1.0000000180025095e-35 -1.0000000180025095e-35 4.999270647171099 -1.0000000180025095e-35 -1.0000000180025095e-35 1.0000000180025095e-35 1.0000000180025095e-35 456.27928571428578 1.0000000180025095e-35 1.0000000180025095e-35 1.0000000180025095e-35 1.0000000180025095e-35 1.0000000180025095e-35 406.50000000000006 10.998628750119455 2.5000000000000004 2603.5139726541561 2960.8300000000004 7.9990707954880813 1.0000000180025095e-35 3.5769461750124654 1.0000000180025095e-35 1769.5000000000002 1670.0570611716223 26.500000000000004 1866.5000000000002 1056.7023230476179 1.0000000180025095e-35
decision_type=2 2 2 2 2 2 2 2 2 2 2 2 2 2 2 2 2 2 2 2 2 2 2 2 2 2 2 2 2 2 2 2 2 2 2 2 2 2 2
left_child=1 2 -1 4 5 12 7 -6 9 15 11 14 -3 -7 36 -5 17 -10 23 20 21 22 -12 24 -13 28 -18 -11 -20 30 31 -21 -25 -8 -23 -32 -2 38 -4
right_child=10 3 37 8 6 13 33 -9 16 27 19 18 -14 -15 -16 -17 26 -19 25 29 -22 34 -24 32 -26 -27 -28 -29 -30 -31 35 -33 -34 -35 -36 -37 -38 -39 -40
leaf_value=0.07007411700166373 -0.00028849645158608554 -0.010137489726013117 -0.00021429832633495702 -0.047251315703739888 0.079769221486573463 0.017716822587272515 -0.043476693097287619 -0.0039599506656999165 0.083584568817061666 -0.0083222616990637627 0.045195708869370077 -0.047157193178322676 0.076577213807752495 -0.018079475147200291 0.076658792945064794 0.075563827288774768 -0.041565687295520924 -0.034216451835243376 -0.016612205248736859 -0.00091778415669138366 -0.043084597781245314 -0.028473540280798827 -0.027051808269997542 -0.02836648779650823 0.015241611113398598 -0.044659118346363373 0.030155128337742355 -0.033983663818234068 -0.038192737035354335 -0.050051575576509966 -0.025977527554015546 -0.037307442528700344 0.010068667761695226 -0.026141493612159197 -0.045509857198765692 -0.048320865012722904 -0.041056617320825328 -0.049089349692607837 -0.035845412846333705
leaf_count=6342 86 154 74 41 352 2252 841 5133 481 324 314 59 2001 1102 657 624 2573 3523 700 290 1085 872 1048 316 455 1364 28 995 642 1082 165 1366 64 600 328 856 33 221 197
internal_value=0 0.220454 1.22322 -0.0602522 0.189852 0.599963 -0.128343 0.0246738 -0.42355 0.0461147 -0.513985 -0.244566 1.39868 0.115195 1.22888 1.33234 -0.563575 -0.401132 -0.555644 -0.675965 -0.543991 -0.416634 -0.197567 -0.0919854 0.147343 -0.715082 -0.813059 -0.555453 -0.54012 -0.805534 -0.72606 -0.617266 -0.426399 -0.728397 -0.667141 -0.90058 -0.28176 -0.751084 -0.540356
internal_count=39640 27858 6834 21024 12435 5509 6926 5485 8589 1984 11782 4376 2155 3354 776 665 6605 4004 3600 7406 3647 2562 1362 894 514 2706 2601 1319 1342 3759 2677 1656 380 1441 1200 1021 119 492 271
shrinkage=0.05


Tree=14
num_leaves=40
num_cat=0
split_feature=55 56 18 15 221 222 223 224 254 17 96 97 3 11 15 93 14 8 207 93 15 222 221 34 13 222 224 14 223 222 96 12 22 12 12 15 96 15 0
split_gain=945.048 1682.8 464.248 417.696 489.34 347.96 160.346 155.973 147.324 170.637 108.236 433.187 79.199 65.3126 57.5897 37.1151 30.7242 28.5765 26.4462 25.9352 45.872 34.7541 71.0065 23.2785 20.6628 17.3675 19.2011 17.3036 15.5926 16.3895 12.3697 4.31105 3.39053 3.3725 3.37108 3.33128 4.96 1.53214 0.802155
threshold=1.0000000180025095e-35 1.0000000180025095e-35 1.0000000180025095e-35 303.04666666666674 1.0000000180025095e-35 1.0000000180025095e-35 1.0000000180025095e-35 1.0000000180025095e-35 1.0000000180025095e-35 -0.9736862235094923 1.0000000180025095e-35 1.0000000180025095e-35 -1.0000000180025095e-35 473.50000000000006 251.88552229756291 1.0000000180025095e-35 66.304315920859992 13.500000000000002 1.0000000180025095e-35 1.0000000180025095e-35 76.905661636233887 1.0000000180025095e-35 1.0000000180025095e-35 1.0000000180025095e-35 10.998628750119455 1.0000000180025095e-35 1.0000000180025095e-35 4986.0420801548744 1.0000000180025095e-35 1.0000000180025095e-35 1.0000000180025095e-35 1107.5000000000002 1.0000000180025095e-35 1866.5000000000002 650.50000000000011 1056.7023230476179 1.0000000180025095e-35 32245.967421672962 44.500000000000007
decision_type=2 2 2 2 2 2 2 2 2 2 2 2 2 2 2 2 2 2 2 2 2 2 2 2 2 2 2 2 2 2 2 2 2 2 2 2 2 2 2
left_child=1 2 -1 4 5 6 -3 8 9 -5 11 12 33 31 28 -15 30 -10 -7 20 21 22 -12 -18 27 26 -22 -16 29 -13 -9 -6 -26 -2 -23 36 -4 38 -21
right_child=10 3 35 7 13 18 -8 16 17 -11 19 14 -14 15 24 -17 23 -19 -20 37 25 34 -24 -25 32 -27 -28 -29 -30 -31 -32 -33 -34 -35 -36 -37 -38 -39 -40
leaf_value=0.068720229798047275 -0.00027471544384016815 0.042557610627287357 -0.00020417002515072823 -0.01232131853256177 -0.052793355831779992 -0.0075250819817965289 -0.010697223627180841 0.012813324813412448 -0.034207359441302626 0.024442808986670034 0.015509982229781616 0.0095143489367375093 0.074641413201182866 0.0032679118988293964 -0.02003953269631386 -0.029165670084724704 -0.02554068775502584 0.049754577986886192 -0.039848338435555013 -0.047199268858091704 -0.024466082478908628 -0.025614544043214144 -0.032459424421378037 -0.04431639372113539 -0.036278896949506832 -0.053401701576963403 -0.041254101760701628 -0.054311626978284705 -0.047241802191564403 -0.037741151480827621 -0.022492108194975269 -0.032205760176659957 -0.049909253886707888 -0.039425863801422469 -0.045407098642826202 -0.047346579877900044 -0.034379890054960886 -0.0099391592600979375 -0.035341690289745695
leaf_count=6342 86 5395 74 3919 719 488 638 176 1931 2047 685 579 657 699 1272 745 1221 38 607 1331 1708 275 600 1942 746 583 1532 197 64 85 223 236 657 33 312 221 197 33 347
internal_value=0 0.212113 1.19733 -0.0575491 0.261386 0.533577 0.731645 -0.320998 -0.158557 0.00187219 -0.493716 -0.234793 1.1914 -0.538286 -0.532129 -0.261558 -0.67566 -0.647139 -0.511757 -0.649518 -0.58041 -0.313512 -0.123123 -0.743794 -0.667278 -0.714573 -0.650433 -0.492174 -0.0226472 0.0655765 -0.130525 -0.961601 -0.859233 -0.271096 -0.735382 -0.722185 -0.517872 -0.888836 -0.899748
internal_count=39640 27858 6834 21024 9527 7128 6033 11497 7935 5966 11782 4376 776 2399 3600 1444 3562 1969 1095 7406 5695 1872 1285 3163 2872 3823 3240 1469 728 664 399 955 1403 119 587 492 271 1711 1678
shrinkage=0.05


Tree=15
num_leaves=40
num_cat=0
split_feature=76 77 82 81 78 80 15 12 87 87 88 15 15 96 22 93 96 1 90 218 230 13 96 13 13 228 13 235 248 247 13 93 13 14 12 90 218 15 16
split_gain=762.881 756.251 858.864 1642.67 763.396 873.888 207.592 157.867 91.3381 48.7615 62.8391 46.8746 44.9145 46.5405 43.0715 35.272 29.0642 25.4667 23.5547 21.8067 17.1159 13.4899 20.7932 12.9195 11.0656 10.2123 10.0695 9.46809 8.79366 21.5783 61.3145 14.7181 10.3232 7.49484 6.82367 9.00256 5.7881 4.12766 4.0683
threshold=1.0000000180025095e-35 1.0000000180025095e-35 1.0000000180025095e-35 1.0000000180025095e-35 1.0000000180025095e-35 1.0000000180025095e-35 998.74215492076053 126.50000000000001 1.0000000180025095e-35 1.0000000180025095e-35 1.0000000180025095e-35 2833.4433333333336 62.391405516127008 1.0000000180025095e-35 1.0000000180025095e-35 1.0000000180025095e-35 1.0000000180025095e-35 -1.0000000180025095e-35 1.0000000180025095e-35 1.0000000180025095e-35 1.0000000180025095e-35 7.9990707954880813 1.0000000180025095e-35 6.9772455692875583 1.9880708012109933 1.0000000180025095e-35 6.9772455692875583 1.0000000180025095e-35 1.0000000180025095e-35 1.0000000180025095e-35 4.0502606453523615 1.0000000180025095e-35 7.9990707954880813 4986.0420801548744 308.50000000000006 1.0000000180025095e-35 1.0000000180025095e-35 11.44803895925874 2.9998278160077301
decision_type=2 2 2 2 2 2 2 2 2 2 2 2 2 2 2 2 2 2 2 2 2 2 2 2 2 2 2 2 2 2 2 2 2 2 2 2 2 2 2
left_child=1 2 3 4 5 -1 7 -5 11 10 17 15 13 27 -8 20 18 -2 -14 -15 -3 22 33 38 -18 -25 34 -10 29 30 31 -11 37 -4 -12 -36 -24 -30 -13
right_child=9 8 21 6 -6 -7 14 -9 12 28 26 23 16 19 -16 -17 24 -19 -20 -21 -22 -23 36 25 -26 -27 -28 -29 32 -31 -32 -33 -34 -35 35 -37 -38 -39 -40
leaf_value=0.067321767278340411 -0.029165270156232565 0.033812297681752916 -0.0092600169553539811 -0.038080630552397202 -0.054727126523355075 -0.028970565404167994 -0.014889562157804966 0.0099016344355323128 0.020271773934364114 -0.017467460808282643 -0.050685792259029798 0.0079427938686142101 -0.018887899805985681 -0.0051112338930570482 -0.036448356644845137 -0.035238947747211299 -0.0084082275202798634 0.072495950085961436 -0.04407411109007825 -0.032797992167162594 0.0044307383588105672 -0.048032713394002093 -0.03002932756171281 -0.015162363777624819 -0.045399247302492965 -0.055929470114769786 -0.038309104329875235 -0.015028840079284509 -0.015557950451883525 -0.043748298811921681 0.082086077536602506 -0.044716894943308917 -0.053288270977292967 -0.049029150339796636 0.0086482818316505096 -0.03045966476058223 -0.045452480141535433 -0.039837802573480074 -0.023663681405107571
leaf_count=10428 27 477 474 820 696 1092 2203 6296 382 558 37 113 1582 453 1875 138 106 121 558 1021 417 1018 639 141 1938 175 336 89 118 1414 51 427 1111 59 174 88 822 1105 61
internal_value=0 0.11882 0.291049 0.43043 0.9959 1.13681 -0.126671 0.0860517 -0.452734 -0.720174 -0.229139 0 -0.565671 -0.300902 -0.497613 0.252855 -0.687936 1.00152 -0.513857 -0.483321 0.405874 -0.752336 -0.643881 -0.523477 -0.870708 -0.774616 -0.510883 0.256417 -0.800835 -0.700043 -0.458247 -0.582248 -0.901987 -0.284155 -0.215519 -0.076781 -0.77626 -0.753251 -0.0459811
internal_count=39640 34073 26422 23410 12216 11520 11194 7116 7651 5567 783 1522 6129 1945 4078 1032 4184 148 2140 1474 894 3012 1994 490 2044 316 635 471 4784 2450 1036 985 2334 533 299 262 1461 1223 174
shrinkage=0.05


Tree=16
num_leaves=40
num_cat=0
split_feature=207 206 48 15 211 221 221 15 222 222 240 248 247 13 224 239 247 87 13 218 87 12 147 12 15 34 12 174 11 38 122 12 60 59 226 11 87 11 33
split_gain=658.936 1103.73 1054.51 328.595 320.394 216.944 169.717 298.35 277.225 169.614 154.896 111.246 553.488 104.5 93.5593 79.4509 70.6732 59.8254 59.0261 57.4134 54.7895 31.8094 29.0567 27.9311 26.5374 26.0078 23.9973 23.5486 22.6516 21.7993 20.5514 18.9528 18.4662 14.6833 13.1954 12.3782 11.5923 10.072 7.11983
threshold=1.0000000180025095e-35 1.0000000180025095e-35 1.0000000180025095e-35 407.32023018746219 1.0000000180025095e-35 1.0000000180025095e-35 1.0000000180025095e-35 95.144971998911259 1.0000000180025095e-35 1.0000000180025095e-35 1.0000000180025095e-35 1.0000000180025095e-35 1.0000000180025095e-35 7.9990707954880813 1.0000000180025095e-35 1.0000000180025095e-35 1.0000000180025095e-35 1.0000000180025095e-35 7.0000462036210438 1.0000000180025095e-35 1.0000000180025095e-35 2959.5000000000005 1.0000000180025095e-35 351.50000000000006 3188.1492857142862 1.0000000180025095e-35 1172.5000000000002 1.0000000180025095e-35 -1.0000000180025095e-35 1.0000000180025095e-35 1.0000000180025095e-35 811.50000000000011 1.0000000180025095e-35 1.0000000180025095e-35 1.0000000180025095e-35 466.50000000000006 1.0000000180025095e-35 2020.5000000000002 1.0000000180025095e-35
decision_type=2 2 2 2 2 2 2 2 2 2 2 2 2 2 2 2 2 2 2 2 2 2 2 2 2 2 2 2 2 2 2 2 2 2 2 2 2 2 2
left_child=1 2 4 5 10 9 7 8 19 14 15 12 28 18 -3 -1 25 29 -13 21 24 -2 -14 -22 33 30 -11 -25 -9 -7 -4 -21 -27 -5 -6 -19 -15 -26 -10
right_child=6 3 16 20 34 17 -8 11 38 26 -12 13 22 36 -16 -17 -18 35 -20 31 23 -23 -24 27 37 32 -28 -29 -30 -31 -32 -33 -34 -35 -36 -37 -38 -39 -40
leaf_value=0.073049546122574319 0.03830990321437247 0.039000677721665995 0.03273013946939618 0.029475505089642869 -0.056189657972860907 0.035839281949697606 -0.045006504808123564 0 -0.010418691259491259 -0.0073157519931030274 -0.029405121655832495 -0.018589116921203207 -0.034837000334953946 -0.023674409041709553 0.0040838965712046331 0.030327605930354159 -0.043808101618223211 -0.047988295784160168 0.071599194841830846 0.012710774322464048 -0.051852741683900784 -0.019990910334835868 -0.012633527948584336 -0.02487406103114561 -0.010703390536426584 -0.0098546104946180251 -0.041960068818743479 -0.049354915662759555 0.073205290565367648 -0.035167080539154065 -0.027126398319266734 -0.029622039194081424 -0.067222180091135716 -0.006094006235885476 -0.014104042389152508 -0.023844065089207975 -0.044371789601604816 -0.04755744989877856 -0.040099463352371349
leaf_count=6392 2402 2759 275 275 154 179 1883 50 125 550 174 5230 1807 411 1204 588 847 697 80 285 661 96 1064 3421 288 1206 362 527 859 57 72 176 61 214 207 440 2653 126 783
internal_value=0 0.251634 0.794922 -0.172209 1.22189 0.156971 -0.295817 -0.226172 0.278433 0.365146 1.33166 -0.388176 -0.0851226 -0.521832 0.558131 1.38646 -0.379487 -0.574841 -0.344395 0.590032 -0.542689 0.717192 -0.52993 -0.634368 -0.0648309 -0.121494 -0.424688 -0.563919 1.38088 0.356998 0.381088 -0.0688184 -0.261034 0.259291 -0.662566 -0.776475 -0.833751 -0.45585 -0.725354
internal_count=39640 21736 9976 11760 7515 6248 17904 16021 3867 4875 7154 12154 3780 8374 3963 6980 2461 1373 5310 2959 5512 2498 2871 4609 903 1614 912 3948 909 236 347 461 1267 489 361 1137 3064 414 908
shrinkage=0.05


Tree=17
num_leaves=40
num_cat=0
split_feature=55 56 18 15 96 16 93 94 16 87 88 96 13 3 96 13 15 223 224 13 58 93 207 15 14 228 11 16 16 13 239 236 238 87 13 15 2 93 87
split_gain=763.953 1418.31 443.652 331.462 292.495 114.118 110.443 190.499 105.87 95.1778 284.539 88.3021 85.4515 55.5191 48.6179 65.9668 44.8751 46.3384 59.2667 26.2188 24.152 26.64 29.328 19.7652 19.1747 13.6237 12.0283 8.18353 38.9438 7.92266 7.51761 7.72256 7.81607 7.2185 3.68887 3.86842 3.45517 2.89441 2.86256
threshold=1.0000000180025095e-35 1.0000000180025095e-35 1.0000000180025095e-35 1196.0198625427304 1.0000000180025095e-35 2.9998278160077301 1.0000000180025095e-35 1.0000000180025095e-35 2.0002562093739753 1.0000000180025095e-35 1.0000000180025095e-35 1.0000000180025095e-35 10.998628750119455 -1.0000000180025095e-35 1.0000000180025095e-35 9.9998788957956624 2960.8300000000004 1.0000000180025095e-35 1.0000000180025095e-35 6.9772455692875583 1.0000000180025095e-35 1.0000000180025095e-35 1.0000000180025095e-35 676.48355243151263 684.56091962286007 1.0000000180025095e-35 2080.5000000000005 2.9998278160077301 2.0335940343459811 7.9990707954880813 1.0000000180025095e-35 1.0000000180025095e-35 1.0000000180025095e-35 1.0000000180025095e-35 17.996878057965372 1168.5232727350997 812.50000000000011 1.0000000180025095e-35 1.0000000180025095e-35
decision_type=2 2 2 2 2 2 2 2 2 2 2 2 2 2 2 2 2 2 2 2 2 2 2 2 2 2 2 2 2 2 2 2 2 2 2 2 2 2 2
left_child=1 2 -1 4 5 8 7 -6 -3 10 13 12 16 -5 15 -11 17 18 -2 -7 21 22 23 -13 -16 -12 -24 28 -18 36 31 32 -14 -8 35 -32 37 -22 -4
right_child=11 3 38 9 6 19 33 -9 -10 14 25 20 30 -15 24 -17 27 -19 -20 -21 29 -23 26 -25 -26 -27 -28 -29 -30 -31 34 -33 -34 -35 -36 -37 -38 -39 -40
leaf_value=0.066166864578996218 0.024109845770532726 0.02639004522549105 -0.0083111152926561918 -0.049434223504505471 0.075201494409652958 0.0065722463437541071 -0.011165796452009975 -0.0043538461556957217 0.073291539199963507 -0.0049471742960640747 -0.0136624665760225 0.0022683588887025988 -0.015837562693223266 0.071724278891561605 -0.023377341014036143 -0.032478395103559592 -0.023409532098268796 -0.051010259129267523 -0.013623777384333841 -0.027401393621528533 -0.027914423527312666 -0.038969966994374002 -0.024384409575168416 -0.022709192505633108 -0.043874485782496427 -0.035659356477639875 -0.051325305191581454 -0.038609996621800868 0.075803186596297104 -0.044643111583867287 -0 -0.047666442219289631 -0.043924507682248023 -0.034797877698624698 -0.054867592450912508 -0.036653571761205851 -0.050872789405443222 -0.039790346071914666 -0.039616847176446132
leaf_count=6342 1335 4036 54 37 359 726 193 5310 654 2016 631 804 745 585 831 1786 451 126 642 347 1557 1088 1361 558 1586 660 251 243 42 1146 40 170 153 1267 239 190 152 489 438
internal_value=0 0.193904 1.1365 -0.051385 0.15523 0.509953 -0.120272 0.00646556 0.654768 -0.380935 0.0257913 -0.4499 -0.212794 1.25359 -0.504998 -0.356443 -0.00343868 0.147365 0.228626 -0.0891592 -0.592687 -0.479301 -0.37628 -0.152847 -0.738653 -0.501155 -0.574451 -0.448611 -0.276577 -0.730803 -0.626103 -0.512321 -0.419926 -0.63563 -0.872963 -0.605309 -0.646443 -0.615055 -0.731716
internal_count=39640 27858 6834 21024 12892 5763 7129 5669 4690 8132 1913 11782 4376 622 6219 3802 2839 2103 1977 1073 7406 4062 2974 1362 2417 1291 1612 736 493 3344 1537 1068 898 1460 469 230 2198 2046 492
shrinkage=0.05


Tree=18
num_leaves=40
num_cat=0
split_feature=55 56 18 76 15 221 222 59 87 76 77 82 67 234 90 12 87 88 15 13 147 12 90 233 15 248 228 248 84 0 15 87 16 87 0 16 1 15 177
split_gain=697.668 1328.69 417.618 308.434 282.072 333.596 218.863 162.526 133.615 74.6719 94.464 129.216 123.819 103.151 61.0966 54.7298 26.3981 17.0547 15.7752 13.4329 13.045 12.8799 9.23569 7.04244 5.53624 5.65473 4.9845 15.115 4.9654 4.8208 2.85866 3.96182 3.28993 2.79803 3.00088 2.19587 1.95436 2.29158 1.7727
threshold=1.0000000180025095e-35 1.0000000180025095e-35 1.0000000180025095e-35 1.0000000180025095e-35 278.6233369863466 1.0000000180025095e-35 1.0000000180025095e-35 1.0000000180025095e-35 1.0000000180025095e-35 1.0000000180025095e-35 1.0000000180025095e-35 1.0000000180025095e-35 1.0000000180025095e-35 1.0000000180025095e-35 1.0000000180025095e-35 324.50000000000006 1.0000000180025095e-35 1.0000000180025095e-35 407.32023018746219 4.999270647171099 1.0000000180025095e-35 316.50000000000006 1.0000000180025095e-35 1.0000000180025095e-35 100.00166666666668 1.0000000180025095e-35 1.0000000180025095e-35 1.0000000180025095e-35 1.0000000180025095e-35 28.500000000000004 1056.7023230476179 1.0000000180025095e-35 2.0712851951360629 1.0000000180025095e-35 42.500000000000007 1.9962319567067721 4.5000000000000009 0.010133982497340989 1.0000000180025095e-35
decision_type=2 2 2 2 2 2 2 2 2 2 2 2 2 2 2 2 2 2 2 2 2 2 2 2 2 2 2 2 2 2 2 2 2 2 2 2 2 2 2
left_child=1 2 -1 4 5 6 -3 8 -6 10 11 12 13 -2 -7 -9 17 28 -14 21 -19 38 -23 33 29 -26 27 -21 -5 -18 31 -4 -32 34 -11 -25 37 -13 -12
right_child=9 3 30 16 7 14 -8 15 -10 23 19 36 18 -15 -16 -17 24 20 -20 26 -22 22 -24 35 25 -27 -28 -29 -30 -31 32 -33 -34 -35 -36 -37 -38 -39 -40
leaf_value=0.06513779849880319 0.016415150592328964 0.036657828699886701 0.0025905553924777066 0 0.034773174054183516 -0.0023239860963006754 -0.018845206263752707 -0.050303253876368609 -0.0057623665717751347 -0.031821949868948006 -0.048149739816267773 -0.031608281563381323 -0.015161900642491186 -0.027389841420842043 -0.039515319614507161 -0.019394664120374456 -0.012044035313685184 -0.03019691239597826 -0.036706872218623364 -0.0095428690831822691 0.0085436981308002046 -0.0093215007459565395 -0.029731018747068124 0.003644526108662761 -0.032364627496107738 -0.04706307408534386 -0.049150402379299435 -0.042940647701786301 0.062312625166194173 -0.033921765750348824 -0.058204595424373284 -0.03010745210803319 -0.02389502661404188 -0.041743691050204451 -0 -0.024776890698280256 -0.024876183493111492 -0.047868754677761784 -0.018227545287280239
leaf_count=6342 2902 5503 31 33 1126 958 845 798 4817 169 290 276 727 735 955 2969 185 305 909 237 118 552 515 55 679 1071 643 617 34 628 131 240 90 2043 54 46 153 796 63
internal_value=0 0.186444 1.11622 -0.0491151 0.0536533 0.339219 0.573793 -0.184323 0.0294218 -0.431671 -0.347763 -0.205913 -0.0650786 0.149492 -0.41333 -0.519581 -0.668372 -0.214175 -0.544521 -0.666986 -0.373867 -0.509405 -0.38602 -0.778579 -0.75624 -0.832681 -0.816035 -0.682008 0.718147 -0.587085 -0.703019 -0.508775 -0.917242 -0.804131 -0.498679 -0.15052 -0.837523 -0.879282 -0.876194
internal_count=39640 27858 6834 21024 17971 8261 6348 9710 5943 11782 9415 6498 5273 3637 1913 3767 3053 490 1636 2917 423 1420 1067 2367 2563 1750 1497 854 67 813 492 271 221 2266 223 101 1225 1072 353
shrinkage=0.05


Tree=19
num_leaves=40
num_cat=0
split_feature=55 235 254 93 248 247 58 96 97 3 15 15 218 248 247 10 14 235 234 15 233 218 234 223 156 11 223 224 222 15 15 224 14 87 1 224 14 221 1
split_gain=636.86 477.811 392.091 348.415 338.452 222.265 185.282 80.2164 337.584 69.2445 41.4128 40.5096 68.8602 40.0548 60.9923 25.1472 24.9643 23.3623 36.1098 38.6786 47.9643 22.7362 21.4823 21.2915 19.9782 20.158 17.7476 19.5586 17.1558 14.852 12.2375 9.63124 8.98818 8.93722 8.39411 7.66497 14.3625 7.26617 6.32232
threshold=1.0000000180025095e-35 1.0000000180025095e-35 1.0000000180025095e-35 1.0000000180025095e-35 1.0000000180025095e-35 1.0000000180025095e-35 1.0000000180025095e-35 1.0000000180025095e-35 1.0000000180025095e-35 -1.0000000180025095e-35 1056.7023230476179 0.071452321771948227 1.0000000180025095e-35 1.0000000180025095e-35 1.0000000180025095e-35 1.5000000000000002 9.9506497134901242 1.0000000180025095e-35 1.0000000180025095e-35 610.9100000000002 1.0000000180025095e-35 1.0000000180025095e-35 1.0000000180025095e-35 1.0000000180025095e-35 1.0000000180025095e-35 2496.5000000000005 1.0000000180025095e-35 1.0000000180025095e-35 1.0000000180025095e-35 4659.5468059389559 85.492914172548694 1.0000000180025095e-35 4986.0420801548744 1.0000000180025095e-35 -1.0000000180025095e-35 1.0000000180025095e-35 261.55447230248313 1.0000000180025095e-35 1.0000000180025095e-35
decision_type=2 2 2 2 2 2 2 2 2 2 2 2 2 2 2 2 2 2 2 2 2 2 2 2 2 2 2 2 2 2 2 2 2 2 2 2 2 2 2
left_child=1 2 3 4 5 -1 -6 8 9 -2 26 12 28 14 16 22 -4 18 19 20 -9 -16 -5 24 25 -13 27 -10 34 -26 -15 -21 33 -12 -3 -20 -37 38 -14
right_child=7 11 13 15 6 -7 -8 17 10 -11 32 23 37 30 21 -17 -18 -19 35 31 -22 -23 -24 -25 29 -27 -28 -29 -30 -31 -32 -33 -34 -35 -36 36 -38 -39 -40
leaf_value=0.04887652354507796 -0.012562485150409071 -0.013226606499355651 -0.012566825588093368 -0.0093583609133305774 0.023121588578929795 0.0073868384852909478 -0.0068077197000729469 0.0052644395853694362 0.0063874402674121899 0.0705815278895187 -0.010775429158916449 0 0.010366315352803166 -0.0011877885931343495 -0.013452213135272393 -0.051329664817220601 0.062092382719203448 -0.038864106899299214 -0.040940718262366275 -0.023054974940168334 -0.028173162716360486 -0.042994270666521256 -0.037324059676200609 -0.064655893668721112 -0.028149895652350484 -0.047011296386158204 -0.04697686131705428 -0.019619266968578856 -0.034806340489725855 -0.0509612625755691 -0.045798320108911016 -0.040291739987117783 -0.049644078468789529 -0.031751244708095261 0.033852816207611595 -0.0007644515638657221 -0.042271905183861924 -0.036692998059435544 -0.025242618420956237
leaf_count=7426 119 36 62 1106 6042 1883 3872 1186 709 657 310 450 76 82 1340 309 172 1729 1408 1224 796 389 445 196 1622 123 110 512 43 446 735 672 325 1634 404 192 199 470 129
internal_value=0 0.179252 0.29862 0.402789 0.492223 0.797823 0.217617 -0.413963 -0.186851 1.11224 -0.451413 -0.488719 -0.151469 -0.44113 -0.271088 -0.470014 0.772255 -0.551623 -0.48286 -0.364481 -0.156786 -0.404273 -0.353324 -0.62389 -0.568596 -0.204435 -0.164569 -0.088336 0.450455 -0.664717 -0.829168 -0.587727 -0.631795 -0.570165 0.584644 -0.738043 -0.442806 -0.583691 -0.222425
internal_count=39640 27858 23863 21083 19223 9309 9914 11782 4376 776 3600 3995 1158 2780 1963 1860 234 7406 5677 3878 1982 1729 1551 2837 2641 573 1331 1221 483 2068 817 1896 2269 1944 440 1799 391 675 205
shrinkage=0.05


Tree=20
num_leaves=40
num_cat=0
split_feature=55 207 206 48 15 211 228 230 221 13 96 240 96 97 222 3 224 247 11 15 13 121 254 15 218 248 127 15 207 221 15 222 60 223 226 176 222 13 106
split_gain=580.584 473.269 598.362 516.578 198.657 169.305 132.471 393.412 124.416 86.3329 102.43 85.7774 73.1763 310.531 72.4657 65.543 49.6584 48.7126 43.2956 42.2741 39.1068 33.4772 32.9579 28.4723 44.3489 28.1639 27.3894 23.6865 22.5427 24.7022 38.0061 23.2563 22.1743 21.5327 15.07 13.5159 13.0281 10.2196 9.68029
threshold=1.0000000180025095e-35 1.0000000180025095e-35 1.0000000180025095e-35 1.0000000180025095e-35 303.04666666666674 1.0000000180025095e-35 1.0000000180025095e-35 1.0000000180025095e-35 1.0000000180025095e-35 6.9772455692875583 1.0000000180025095e-35 1.0000000180025095e-35 1.0000000180025095e-35 1.0000000180025095e-35 1.0000000180025095e-35 -1.0000000180025095e-35 1.0000000180025095e-35 1.0000000180025095e-35 1072.5000000000002 3741.1861859440473 10.998628750119455 1.0000000180025095e-35 1.0000000180025095e-35 95.144971998911259 1.0000000180025095e-35 1.0000000180025095e-35 1.0000000180025095e-35 2960.8300000000004 1.0000000180025095e-35 1.0000000180025095e-35 31.946999690446479 1.0000000180025095e-35 1.0000000180025095e-35 1.0000000180025095e-35 1.0000000180025095e-35 1.0000000180025095e-35 1.0000000180025095e-35 1.9880708012109933 1.0000000180025095e-35
decision_type=2 2 2 2 2 2 2 2 2 2 2 2 2 2 2 2 2 2 2 2 2 2 2 2 2 2 2 2 2 2 2 2 2 2 2 2 2 2 2
left_child=1 2 3 5 8 11 7 22 14 10 -9 -1 13 15 -4 -2 19 32 -10 -6 27 23 26 24 -8 -11 -3 33 29 30 31 -14 -5 -15 -7 -25 -32 -18 -24
right_child=12 6 4 17 16 34 21 9 18 25 -12 -13 28 20 -16 -17 37 -19 -20 -21 -22 -23 38 35 -26 -27 -28 -29 -30 -31 36 -33 -34 -35 -36 -37 -38 -39 -40
leaf_value=0.065231257368828413 -0.011960060069319697 0.063412934521296427 0.033001372104335146 0.0052048309653354831 0.0022677989619410183 -0.054110327049815436 0.030074096721325761 0.016268233124498183 -0.038929347760121913 -0.010453538303750058 -0.014258659189057785 -0.022744903051267109 0.025769840270750889 -0.0024186677243262437 -0.0090856731567244536 0.069124221823364779 0 -0.038685144404951188 0.0095627591899386574 -0.027380424982478703 -0.036161035903095773 -0.036611267686385771 0.031580036483185074 -0.015749101061008814 -0.036983658270916722 -0.035628262932321922 -0.013955887601083371 -0.030324171339219615 -0.03260037548437951 -0.032445236742896726 -0.017319550130068077 -0.017269602543792763 -0.071381598761221285 -0.046282741755483879 -0.0011169923133132916 -0.038677747486252995 -0.043534300599083059 -0.038948126057295127 -0.013648624854094349
leaf_count=6204 119 1211 2836 1074 1395 99 318 2114 506 802 2960 120 338 1408 505 657 69 463 319 855 1424 1427 114 1143 157 1416 46 642 3759 1339 1487 209 38 126 153 403 274 1031 80
internal_value=0 0.171397 0.429588 0.871353 0.0107255 1.1789 -0.136345 0.00347512 0.327054 -0.188562 -0.034631 1.26245 -0.39754 -0.179473 0.517045 1.08337 -0.366412 -0.192604 -0.392875 -0.18067 -0.432319 -0.484116 1.05933 -0.304717 0.137838 -0.53345 1.19901 -0.261818 -0.529683 -0.40737 -0.274561 0.18744 0.0409399 -0.124039 -0.464818 -0.443688 -0.430387 -0.726343 0.228642
internal_count=39640 27858 15667 8151 7516 6576 12191 8743 4166 7292 5074 6324 11782 4376 3341 776 3350 1575 825 2250 3600 3448 1451 2021 475 2218 1257 2176 7406 3647 2308 547 1112 1534 252 1546 1761 1100 194
shrinkage=0.05


Tree=21
num_leaves=40
num_cat=0
split_feature=55 207 206 48 13 211 235 239 236 233 221 240 96 97 3 16 224 247 87 13 218 58 59 82 60 224 8 12 77 12 226 58 12 14 13 2 87 12 218
split_gain=530.07 434.102 558.334 487.034 161.675 159.845 127.283 109.998 129.914 133.448 105.647 81.1956 66.6982 285.887 62.1694 60.1187 54.8766 44.5493 43.8618 36.8105 34.6829 22.5275 173.302 93.2196 20.352 20.2547 18.8869 17.8766 15.2863 14.4293 13.8427 13.5043 12.7867 14.0467 12.4783 24.3578 12.4211 12.3486 11.7288
threshold=1.0000000180025095e-35 1.0000000180025095e-35 1.0000000180025095e-35 1.0000000180025095e-35 2.9809475619689798 1.0000000180025095e-35 1.0000000180025095e-35 1.0000000180025095e-35 1.0000000180025095e-35 1.0000000180025095e-35 1.0000000180025095e-35 1.0000000180025095e-35 1.0000000180025095e-35 1.0000000180025095e-35 -1.0000000180025095e-35 2.9998278160077301 1.0000000180025095e-35 1.0000000180025095e-35 1.0000000180025095e-35 3.9858965823886625 1.0000000180025095e-35 1.0000000180025095e-35 1.0000000180025095e-35 1.0000000180025095e-35 1.0000000180025095e-35 1.0000000180025095e-35 3.5000000000000004 406.50000000000006 1.0000000180025095e-35 160.50000000000003 1.0000000180025095e-35 1.0000000180025095e-35 371.50000000000006 3103.5941698173706 10.998628750119455 4.5000000000000009 1.0000000180025095e-35 1540.5000000000002 1.0000000180025095e-35
decision_type=2 2 2 2 2 2 2 2 2 2 2 2 2 2 2 2 2 2 2 2 2 2 2 2 2 2 2 2 2 2 2 2 2 2 2 2 2 2 2
left_child=1 2 3 5 10 11 7 8 9 -3 15 -1 13 14 -2 -4 20 24 -12 27 -6 22 23 28 -5 26 -9 -15 -14 -24 -7 -29 -8 38 35 -21 -10 -31 -34
right_child=12 6 4 17 16 30 32 25 36 -11 18 -13 21 19 -16 -17 -18 -19 -20 34 -22 -23 29 -25 -26 -27 -28 31 -30 37 -32 -33 33 -35 -36 -37 -38 -39 -40
leaf_value=0.063978884630853633 -0.011387090418913233 0.016056715368739399 0.031467897717955516 0.0049468674081839569 -0.0025610205428551833 -0.052075009869974577 -0.041197552081413187 -0.024915893513533682 -0.0011725369196685404 -0.018316367343663022 0.029023831302378483 -0.021686155851369512 0.065721291417715377 -0.037807204106411724 0.067787822857342875 -0.011501236988479947 -0.034607286028673551 -0.037174489002436827 -0.030315587285975949 -0.026494043392799222 -0.047275739719346468 -0.032238904681746935 -0.044358483069287288 -0.034074848281824617 -0.068669969039321821 -0.056718183703710429 0.053284801280220284 0.013002060459542842 0.0047717959788579414 -0.020151020692720109 -0.0010628537676998979 -0.014018310059567888 -0.014579374097356504 -0.050916682795623572 -0.034873601897443256 0.0097690791702543904 -0.036631619495448096 -0.035974755209648594 -0.03850592592459328
leaf_count=6204 119 5907 2685 1074 2314 99 669 1059 139 1567 167 120 350 130 657 401 1102 463 638 1014 209 3344 683 178 38 244 30 490 61 1811 153 307 1230 188 1424 235 856 979 302
internal_value=0 0.164589 0.414293 0.847822 0.0101873 1.15385 -0.130278 -0.021086 0.0693467 0.168383 0.318949 1.2373 -0.38181 -0.172448 1.05629 0.50628 -0.306133 -0.183968 -0.350946 -0.414203 -0.129029 -0.508611 -0.397814 0.639372 0.038442 -0.581378 -0.447505 -0.0632471 1.15298 -0.587889 -0.44537 0.0471312 -0.564001 -0.461274 -0.546586 -0.389335 -0.638185 -0.514628 -0.388862
internal_count=39640 27858 15667 8151 7516 6576 12191 9802 8469 7474 3891 6324 11782 4376 776 3086 3625 1575 805 3600 2523 7406 4062 589 1112 1333 1089 927 411 3473 252 797 2389 1720 2673 1249 995 2790 1532
shrinkage=0.05


Tree=22
num_leaves=39
num_cat=0
split_feature=76 77 82 67 90 78 207 12 14 90 13 96 8 13 8 174 14 148 248 218 13 12 8 13 13 221 13 96 239 14 96 14 16 230 9 17 14 11
split_gain=505.925 527.727 609.55 559.375 479.831 351.126 81.0304 75.0798 67.7678 52.3276 67.3264 49.1064 24.9967 23.3793 22.2571 18.4766 18.2481 13.2658 13.6954 29.2222 17.6707 12.7944 11.3156 11.1651 9.54066 13.7532 8.92114 10.3792 8.63327 6.58534 4.69957 3.71325 3.65273 3.16988 2.4767 1.47938 0.815086 0.485163
threshold=1.0000000180025095e-35 1.0000000180025095e-35 1.0000000180025095e-35 1.0000000180025095e-35 1.0000000180025095e-35 1.0000000180025095e-35 1.0000000180025095e-35 351.50000000000006 1250.0375000000001 1.0000000180025095e-35 4.999270647171099 1.0000000180025095e-35 5.5000000000000009 4.999270647171099 9.5000000000000018 1.0000000180025095e-35 1121.5799958337159 1.0000000180025095e-35 1.0000000180025095e-35 1.0000000180025095e-35 18.820948807722843 324.50000000000006 2.5000000000000004 3.9858965823886625 7.9990707954880813 1.0000000180025095e-35 7.9990707954880813 1.0000000180025095e-35 1.0000000180025095e-35 -1.0000000180025095e-35 1.0000000180025095e-35 792.66225617519751 2.0002562093739753 1.0000000180025095e-35 5.5000000000000009 196.01846101697319 104.21130434782611 8.5000000000000018
decision_type=2 2 2 2 2 2 2 2 2 2 2 2 2 2 2 2 2 2 2 2 2 2 2 2 2 2 2 2 2 2 2 2 2 2 2 2 2 2
left_child=1 2 3 4 5 -1 -6 13 -9 10 11 21 15 -5 17 -12 -13 18 19 20 -2 -3 24 28 25 -4 27 -20 30 -21 -11 37 -33 -30 -26 -19 -28 -25
right_child=14 9 22 7 6 -7 -8 8 -10 23 12 16 -14 -15 -16 -17 -18 35 26 29 -22 -23 -24 31 34 -27 36 -29 33 -31 -32 32 -34 -35 -36 -37 -38 -39
leaf_value=0.047231472937027619 -0.00015171349839876851 -0.021505359482364279 -0.02173267394894593 -0.019043490394109335 0.017233533024660925 -0.044831375229664946 -0.007356698080035153 0.0049685107271433626 -0.029868521188307753 -0.014824173572633154 -0.021432609178211191 -0.0074118820915837552 0.047676615565188499 -0.045738510546038752 0.039842681746763788 -0.045091490346451914 -0.040857464858245623 -0.047980712544863573 -0.016263379585309812 -0.026166748747045634 -0.036465944624788783 0.021067153858355489 0.013623155847962636 -0.040838773900739256 -0.044142522979738398 -0.041339089345912343 -0.05453688421491365 -0.036347916008089946 -0.019390002978329532 -0.043613875216606396 -0.031813692972305581 -0.039364606761776541 -0.01415347594339751 0.01237840163337108 -0.0092047499179020737 -0.016529046581569642 -0.039450903555020726 -0.057023892889181582
leaf_count=11131 771 76 1238 1079 3266 484 3023 3056 772 292 2282 1056 46 599 45 489 231 641 534 891 204 954 48 369 951 730 207 821 54 510 1112 240 146 79 45 51 892 225
internal_value=0 0.0996444 0.250351 0.373458 0.573929 0.855802 0.0980461 -0.204084 -0.0400167 -0.388553 -0.263449 0.000533552 -0.486544 -0.57529 -0.607021 -0.514612 -0.26908 -0.620268 -0.57705 -0.451267 -0.156905 0.350365 -0.652686 -0.640998 -0.670341 -0.575261 -0.694098 -0.567148 -0.516969 -0.654759 -0.566923 -0.828306 -0.61433 -0 -0.856936 -0.922824 -0.855911 -0.954701
internal_count=39640 34073 26422 23410 17904 11615 6289 5506 3828 7651 5134 2317 2817 1678 5567 2771 1287 5522 4830 2376 975 1030 3012 2517 2964 1968 2454 1355 1537 1401 1404 980 386 133 996 692 1099 594
shrinkage=0.05


Tree=23
num_leaves=40
num_cat=0
split_feature=76 77 81 78 73 80 15 12 234 87 87 88 15 15 96 13 33 93 8 16 16 230 11 177 254 248 96 224 146 12 12 93 248 13 22 247 56 148 13
split_gain=462.395 480.613 608.1 368.691 415.268 472.244 132.046 133.089 81.5254 57.7302 33.1871 40.7841 32.6645 29.8677 28.1746 26.7825 24.1075 22.173 20.7438 15.4791 87.1263 13.8386 12.4553 10.9269 9.87452 9.16971 8.11411 7.57641 7.36316 7.24356 5.43854 5.02128 10.9631 8.69943 5.83855 4.36973 3.98622 4.96229 3.84912
threshold=1.0000000180025095e-35 1.0000000180025095e-35 1.0000000180025095e-35 1.0000000180025095e-35 1.0000000180025095e-35 1.0000000180025095e-35 2461.7139889156424 351.50000000000006 1.0000000180025095e-35 1.0000000180025095e-35 1.0000000180025095e-35 1.0000000180025095e-35 2603.5139726541561 2315.1766129032262 1.0000000180025095e-35 9.9998788957956624 1.0000000180025095e-35 1.0000000180025095e-35 -1.0000000180025095e-35 2.9998278160077301 2.0114813081811254 1.0000000180025095e-35 137.50000000000003 1.0000000180025095e-35 1.0000000180025095e-35 1.0000000180025095e-35 1.0000000180025095e-35 1.0000000180025095e-35 1.0000000180025095e-35 286.50000000000006 726.50000000000011 1.0000000180025095e-35 1.0000000180025095e-35 7.9990707954880813 1.0000000180025095e-35 1.0000000180025095e-35 1.0000000180025095e-35 1.0000000180025095e-35 1.9880708012109933
decision_type=2 2 2 2 2 2 2 2 2 2 2 2 2 2 2 2 2 2 2 2 2 2 2 2 2 2 2 2 2 2 2 2 2 2 2 2 2 2 2
left_child=1 2 3 4 5 -1 7 16 -9 13 11 18 14 17 15 -11 -4 21 -2 20 -8 -3 -16 35 25 -15 28 31 -14 -6 -21 32 34 -34 -12 -13 37 -5 -29
right_child=10 9 6 36 29 -7 19 8 -10 12 27 23 26 24 22 -17 -18 -19 -20 30 -22 -23 -24 -25 -26 -27 -28 38 -30 -31 -32 -33 33 -35 -36 -37 -38 -39 -40
leaf_value=0.045074874784104491 -0.026219018755757315 0.030269504461066687 -0.0039448316761451262 -0.039541425844954924 -0.042701951259350647 -0.026989526353253707 -0.028691382842037341 0.014198537536236783 -0.012632418439054572 0.00089951586582146632 -0.011970303659739962 -0.015881201279436125 -0.020367212755374321 0.01435729021323464 -0.034177473139289691 -0.028928054202200505 -0.028822970833733249 -0.028474251040730553 0.066820695189771878 -0.052397491393259832 0.0746167406173672 0.0024171217504757019 -0.01896321165576817 0.0076623344333949447 -0.0423626087275654 -0.020597573887906083 -0.046668983574707404 -0.020075384696657598 -0.040887989512452434 -0.022447085081709315 -0.031169070939231602 -0.038589932016488707 -0.024523801425921695 -0.043379880426902391 -0.02755413171202022 -0.038149782196237179 -0.056175533116692357 0 -0.043041354446143043
leaf_count=12273 27 457 624 293 348 1065 1415 4980 1657 1174 698 284 569 114 1105 464 1654 133 121 349 98 390 1741 115 165 263 672 134 404 846 417 803 684 724 612 236 371 32 1129
internal_value=0 0.0952981 0.239852 0.549344 0.63301 0.757139 -0.121196 -0.00444386 0.146716 -0.371901 -0.583868 -0.165561 -0.464508 -0 -0.368805 -0.145551 -0.444029 0.220412 0.882339 -0.573939 -0.441626 0.349701 -0.499235 -0.394694 -0.400492 -0.194471 -0.728931 -0.653764 -0.588043 -0.57021 -0.826226 -0.593519 -0.541612 -0.681527 -0.388185 -0.529883 -0.953736 -0.701697 -0.811251
internal_count=39640 34073 26422 15228 14532 13338 11194 8915 6637 7651 5567 783 6129 1522 4484 1638 2278 980 148 2279 1513 847 2846 635 542 377 1645 4784 973 1194 766 3521 2718 1408 1310 520 696 325 1263
shrinkage=0.05


Tree=24
num_leaves=40
num_cat=0
split_feature=55 56 18 87 88 15 221 1 222 34 106 96 13 13 15 90 91 1 15 12 12 93 13 13 222 15 13 228 221 34 87 64 81 77 82 15 15 225 87
split_gain=439.575 1057.5 394.894 224.316 462.61 158.947 256.861 141.72 130.955 73.9749 157.431 54.9124 55.4538 40.2384 39.0019 34.1172 55.8546 51.9896 28.5586 27.4336 25.4746 20.4012 33.1012 30.9982 21.5436 18.9367 14.224 14.5615 14.006 10.5257 10.4878 9.75495 10.3974 23.3997 2.93761 2.39385 2.28546 5.17342 3.90899
threshold=1.0000000180025095e-35 1.0000000180025095e-35 1.0000000180025095e-35 1.0000000180025095e-35 1.0000000180025095e-35 95.144971998911259 1.0000000180025095e-35 -1.0000000180025095e-35 1.0000000180025095e-35 1.0000000180025095e-35 1.0000000180025095e-35 1.0000000180025095e-35 10.998628750119455 5.9947038443570291 2603.5139726541561 1.0000000180025095e-35 1.0000000180025095e-35 -1.0000000180025095e-35 2960.8300000000004 1.0000000180025095e-35 564.50000000000011 1.0000000180025095e-35 1.9880708012109933 1.0000974311686588 1.0000000180025095e-35 3.5769461750124654 5.9947038443570291 1.0000000180025095e-35 1.0000000180025095e-35 1.0000000180025095e-35 1.0000000180025095e-35 1.0000000180025095e-35 1.0000000180025095e-35 1.0000000180025095e-35 1.0000000180025095e-35 32245.967421672962 2170.0988374761632 1.0000000180025095e-35 1.0000000180025095e-35
decision_type=2 2 2 2 2 2 2 2 2 2 2 2 2 2 2 2 2 2 2 2 2 2 2 2 2 2 2 2 2 2 2 2 2 2 2 2 2 2 2
left_child=1 2 -1 4 7 6 8 34 -5 10 -7 12 15 -11 20 16 17 -2 -18 -8 -6 22 23 28 25 -24 27 -17 -13 -16 -28 32 33 -14 -3 -23 37 38 -4
right_child=11 3 36 5 14 9 19 -9 -10 13 -12 21 31 -15 29 26 18 -19 -20 -21 -22 35 24 -25 -26 -27 30 -29 -30 -31 -32 -33 -34 -35 -36 -37 -38 -39 -40
leaf_value=0.06234002874283933 -0.011668503045644735 -0.016341798940220944 0 0.028719692573015543 -0.02829006729149754 0.018427031458764467 -0.0097541871208791028 0.068696771402270332 -0.017941223284526124 -0.01509404767447212 -0.023637485788635098 -0.002174267439580593 0.0058790868285525499 -0.032385995066708938 -0.013009653157969512 -0.00016015656005128974 0.0081934917212922852 0.071515204399409352 -0.026962091357096991 -0.036460704898374996 0.0063408828110889121 -0.035380487955530192 0.016022213719781825 0.073182085611367256 -0.043602398214002872 -0.023613767389353543 0.013147480268327908 -0.046503167451755201 -0.023383756893665165 -0.036168604994144274 -0.040023460697739092 -0.040413571555118384 -0.03698275417665637 -0.032056203014750588 -0.057679026995363952 -0 -0.049610853339908945 0.0049256914489263903 -0.036900125915297226
leaf_count=6342 105 167 30 3511 273 1763 691 1953 781 2988 2277 962 409 3124 416 650 1029 300 352 1260 1216 1678 122 45 734 3254 39 80 578 579 284 461 291 376 25 33 151 32 279
internal_value=0 0.151518 1.04048 -0.0556377 0.367143 -0.169743 0.0977279 1.16997 0.390393 -0.331555 -0.107272 -0.352421 -0.159948 -0.477016 -0.214977 0.0072431 0.188577 0.908773 -0.00371309 -0.537904 -0.000612046 -0.46899 -0.406421 -0.14541 -0.513366 -0.437751 -0.289521 -0.118076 -0.201151 -0.537199 -0.657333 -0.509668 -0.386378 -0.238285 -0.482556 -0.695068 -0.716916 -0.576085 -0.660022
internal_count=39640 27858 6834 21024 4629 16395 6243 2145 4292 10152 4040 11782 4376 6112 2484 2839 1786 405 1381 1951 1489 7406 5695 1585 4110 3376 1053 730 1540 995 323 1537 1076 785 192 1711 492 341 309
shrinkage=0.05


Tree=25
num_leaves=40
num_cat=0
split_feature=76 82 207 206 48 15 211 222 16 16 93 15 15 87 88 12 1 147 12 226 9 15 218 11 58 12 233 15 0 17 14 15 15 2 11 11 135 15 15
split_gain=402.998 372.302 342.756 712.963 475.655 178.836 112.082 110.422 104.312 438.506 95.5833 38.0813 33.835 29.273 34.8261 29.2226 18.8249 11.9714 9.2401 9.18814 7.7282 8.56761 19.3604 5.5567 6.856 10.1459 5.87202 5.47833 6.14963 4.62831 4.18596 3.95657 5.05398 3.80808 3.79074 3.4291 3.27391 6.27471 3.24777
threshold=1.0000000180025095e-35 1.0000000180025095e-35 1.0000000180025095e-35 1.0000000180025095e-35 1.0000000180025095e-35 944.33098342667097 1.0000000180025095e-35 1.0000000180025095e-35 2.9998278160077301 2.0002562093739753 1.0000000180025095e-35 303.04666666666674 610.9100000000002 1.0000000180025095e-35 1.0000000180025095e-35 781.50000000000011 -1.0000000180025095e-35 1.0000000180025095e-35 4991.0000000000009 1.0000000180025095e-35 5.5000000000000009 0.0099769323200753976 1.0000000180025095e-35 2881.5000000000005 1.0000000180025095e-35 209.50000000000003 1.0000000180025095e-35 7.0517388012548308 24.500000000000004 35.021028309787816 1318.012702591338 44.156292323470005 2505.9520358664827 747.50000000000011 219.50000000000003 2231.5000000000005 1.0000000180025095e-35 3405.360073571946 0.010133982497340989
decision_type=2 2 2 2 2 2 2 2 2 2 2 2 2 2 2 2 2 2 2 2 2 2 2 2 2 2 2 2 2 2 2 2 2 2 2 2 2 2 2
left_child=1 2 3 4 6 10 -1 8 9 -4 -5 -10 -6 14 16 -7 -2 38 20 35 21 22 -3 24 25 -15 -27 28 -9 -29 -21 -26 -33 -22 -23 -19 37 -25 -16
right_child=13 18 7 5 12 15 -8 27 11 -11 -12 -13 -14 23 17 -17 -18 19 -20 30 33 34 -24 36 31 26 -28 29 -30 -31 -32 32 -34 -35 -36 -37 -38 -39 -40
leaf_value=0.063127907169747352 -0.024494538771145928 0.0034473623090773113 -0.0037394828613018256 0.01477893416926261 0.0020519372746128999 -0.036727835176187343 -0.018639255054157335 0.0019273803666457678 0.0032144223280634108 0.074211278504358075 -0.028814780908306914 -0.024880516231480253 -0.036433559672013498 -0.044154030069606665 -0.0049485517119405506 -0.014352115796532582 0.064599900623964646 -0 -0.0605760187154816 0.052026481291449378 0.033030252713486995 -0.043736663813014443 -0.032095073455465327 0.0052745812905772198 -0.023108466286309207 -0.020057068999874278 0.010512141134451994 -0.045359160889138939 -0.029073234414154991 -0.020752756050346446 0 -0.041573893789632249 -0.02758294437800651 -0.015734457035743925 -0.031041859835170771 -0.03973824177659644 -0.043352027337439508 -0.038537497661698353 -0.031952789329562248
leaf_count=6723 27 232 7899 5325 1373 1000 187 70 676 1044 661 2362 322 245 82 2213 121 69 138 42 28 548 529 57 547 1249 64 629 409 168 28 1010 789 32 1505 34 735 88 380
internal_value=0 0.0895824 0.163582 0.373312 0.887232 -0.0231631 1.20177 -0.0942079 -0.0287584 0.0909337 0.198844 -0.367861 -0.103093 -0.551213 -0.154265 -0.430788 0.837342 -0.365156 -0.63179 0.0802775 -0.600456 -0.61718 -0.403968 -0.617703 -0.57585 -0.449497 -0.36562 -0.692262 -0.482371 -0.814857 0.661234 -0.6575 -0.715879 0.0899977 -0.694192 -0.289701 -0.79871 -0.393628 -0.549535
internal_count=39640 34073 31061 17804 8605 9199 6910 13257 11981 8943 5986 3038 1695 5567 783 3213 148 635 3012 173 2874 2814 761 4784 3904 1558 1313 1276 479 797 70 2346 1799 60 2053 103 880 145 462
shrinkage=0.05


Tree=26
num_leaves=40
num_cat=0
split_feature=55 56 57 235 59 76 82 15 221 93 222 15 223 221 12 15 221 219 221 87 16 223 12 15 222 59 12 15 12 221 0 11 0 15 225 87 16 14 12
split_gain=383.315 959.858 366.225 202.032 183.359 162.342 151.786 61.0931 73.104 49.0543 59.4016 73.6918 85.3601 60.3058 37.0787 25.6445 31.8043 22.9025 36.9121 18.0568 14.8662 14.314 14.8711 10.5274 10.2856 5.57477 3.0883 2.75277 2.74685 5.1176 5.86145 2.58103 2.42227 2.05456 4.76468 3.5676 1.98568 1.42149 1.18526
threshold=1.0000000180025095e-35 1.0000000180025095e-35 1.0000000180025095e-35 1.0000000180025095e-35 1.0000000180025095e-35 1.0000000180025095e-35 1.0000000180025095e-35 266.26473737449948 1.0000000180025095e-35 1.0000000180025095e-35 1.0000000180025095e-35 1056.7023230476179 1.0000000180025095e-35 1.0000000180025095e-35 300.50000000000006 0.040067171239989333 1.0000000180025095e-35 1.0000000180025095e-35 1.0000000180025095e-35 1.0000000180025095e-35 1.0000495114953845 1.0000000180025095e-35 251.50000000000003 0.040067171239989333 1.0000000180025095e-35 1.0000000180025095e-35 1325.5000000000002 32245.967421672962 3274.0000000000005 1.0000000180025095e-35 30.500000000000004 439.50000000000006 48.500000000000007 2170.0988374761632 1.0000000180025095e-35 1.0000000180025095e-35 2.0712851951360629 63.112555555555559 55.500000000000007
decision_type=2 2 2 2 2 2 2 2 2 2 2 2 2 2 2 2 2 2 2 2 2 2 2 2 2 2 2 2 2 2 2 2 2 2 2 2 2 2 2
left_child=1 2 -1 4 5 6 -3 8 -6 10 11 12 13 -2 -9 16 24 18 -13 -7 -19 22 -17 25 -5 26 -12 28 29 30 -11 -18 -27 34 35 -4 -35 -14 -31
right_child=9 3 33 15 7 19 -8 14 -10 27 23 17 37 -15 -16 21 31 20 -20 -21 -22 -23 -24 -25 -26 32 -28 -29 -30 38 -32 -33 -34 36 -36 -37 -38 -39 -40
leaf_value=0.061322232830446681 0.012555733983311668 0.019823287348997954 0 0.012047515183349193 0.012033309732093446 0.003967967386400339 -0.028325442949994263 -0.045290188840126727 -0.025185861224862823 -0.041580653049200694 0.00030217166668998453 0.043091376763796096 -0.031000087494553043 -0.022273740786553083 -0.016051591869739625 -0.047578164681512075 -0.043277574325189472 -0.032199148726662415 -0.027516897126285057 -0.029447451894650003 -0.017525004282743527 -0.059942246574249382 -0.0244244711078263 -0.042697539312766916 -0.020666752847816508 -0.036760163076783182 -0.027861074981232303 -0 -0.047968853487674545 -0.028203596519914137 -0.010050423332766878 -0.022335125567871886 -0 -0.060245212422595833 0.0048406115492347496 -0.035181253449815701 -0.023310781908862554 -0.049424074098014928 -0.039758609801567056
leaf_count=6342 2877 8849 30 460 1880 204 789 604 870 109 156 165 223 712 3063 434 218 1388 187 1164 2635 190 1941 916 127 188 51 42 247 515 306 231 29 89 32 279 62 259 777
internal_value=0 0.143372 1.01737 -0.0521992 0.0441182 0.214859 0.313332 -0.239616 6.69799e-05 -0.331512 -0.269444 -0.20228 0 0.114602 -0.417889 -0.50869 -0.219705 -0.406061 0.123871 -0.482195 -0.453773 -0.623777 -0.572567 -0.706763 0.08858 -0.403389 -0.119764 -0.662936 -0.675821 -0.629132 -0.383844 -0.655588 -0.647143 -0.682263 -0.546639 -0.628251 -0.948721 -0.828579 -0.710159
internal_count=39640 27858 6834 21024 17423 11006 9638 6417 2750 11782 9786 8446 4071 3589 3667 3601 1036 4375 352 1368 4023 2565 2375 1340 587 424 207 1996 1954 1707 415 449 217 492 341 309 151 482 1292
shrinkage=0.05


Tree=27
num_leaves=40
num_cat=0
