tree
version=v3
num_class=1
num_tree_per_iteration=1
label_index=0
max_feature_idx=50
objective=binary sigmoid:1
feature_names=age job_year frs_agn_dt_cnt l12mon_buy_fin_mng_whl_tms l12_mon_fnd_buy_whl_tms l12_mon_insu_buy_whl_tms l12_mon_gld_buy_whl_tms ovd_30d_loan_tot_cnt his_lng_ovd_day cur_debit_cnt cur_credit_cnt cur_debit_min_opn_dt_cnt cur_credit_min_opn_dt_cnt Trx_Cod2_Cd trx/Flg1_B trx/Flg1_C acdm_deg_cd_0 acdm_deg_cd_1 acdm_deg_cd_2 acdm_deg_cd_3 acdm_deg_cd_4 acdm_deg_cd_5 acdm_deg_cd_6 acdm_deg_cd_7 fr_or_sh_ind_0 fr_or_sh_ind_1 fr_or_sh_ind_2 l6mon_daim_aum_cd_0 l6mon_daim_aum_cd_1 l6mon_daim_aum_cd_2 l6mon_daim_aum_cd_3 l6mon_daim_aum_cd_4 l6mon_daim_aum_cd_5 l6mon_daim_aum_cd_6 l6mon_daim_aum_cd_7 l6mon_daim_aum_cd_8 l6mon_daim_aum_cd_9 l6mon_daim_aum_cd_10 l1y_crd_card_csm_amt_dlm_cd_0 l1y_crd_card_csm_amt_dlm_cd_1 l1y_crd_card_csm_amt_dlm_cd_2 l1y_crd_card_csm_amt_dlm_cd_3 l1y_crd_card_csm_amt_dlm_cd_4 l1y_crd_card_csm_amt_dlm_cd_5 l1y_crd_card_csm_amt_dlm_cd_6 cur_debit_crd_lvl_0 cur_debit_crd_lvl_1 cur_debit_crd_lvl_2 cur_debit_crd_lvl_3 cur_debit_crd_lvl_4 cur_debit_crd_lvl_5
feature_infos=[19:84] [0:99] [0:1278] [0:260] [0:610] [0:7] [0:333] [0:28] [0:1623] [0:177] [0:173] [0:9538] [1:6056] [1:34] [0:2000000.0049999999] [0:4609157.5782352937] [0:1] [0:1] [0:1] [0:1] [0:1] [0:1] [0:1] [0:1] [0:1] [0:1] [0:1] [0:1] [0:1] [0:1] [0:1] [0:1] [0:1] [0:1] [0:1] [0:1] none none [0:1] [0:1] [0:1] [0:1] [0:1] [0:1] [0:1] [0:1] [0:1] [0:1] [0:1] none none
tree_sizes=2351 2334 1681 1502 2228 2119 1792 2358 2290 2369 2277 2319 2321 2353 2169 2114 1697 2219 2131 2373 2029 2023 2007 2368 2125 2218 2266 2354 2188 2286 1998 2227 2084 2319 2337 2417 2300 1955 2173 2320 2287 2180 2077 2390 2148 2278 2284 2150 2402 2302 1959 2230 2209 1781 2137 2310 2231 2203 2202 2131 1917 2172 2517 2322 2305 2570 2481 1913 2280 2147 2063 2590 2418 2227 2614 1952 2221 1827 2608 2083 2144 2067 2366 2050 2015 1920 1946 2186 1743 2382 2004 2558 2094 1641 2026 1736 2602 2433 2153 1521 2232 2058 2532 2169 1599 2564 2605 1935 2130 2259 2078 2292 2619 2060 1902 2093 2241 2299 2339 2350 2275 1982 1810 2006 2373 1935 2486 2365 1740 2115 2275 2135 1464 2037 2412 2094 2295 2136 1980 1907 2384 2217 2016 1876 2409 2233 1888 2510 2324 2414 1996 1817 2160 2276 2320 1501 1757 1576 2216 2220 1910 2219 1862 2351 1652 2510 1634 1991 2041 2290 1494 1656 2099 1692 2293 1662 1307 1749 1905 1659 1771 1671 2541 2296 2300 2226 1892 2296 1960 2588 2137 1784 2219 2108 1655 1786 2543 2221 1874 2156 1965 1828 2349 2350 2421 2175 1564 1589 2240 2224 1842 1941 1828 2556 1914 1273 1797 2145 2146 1999 2591 2498 1640 2298 2167 2179 1549 1689 1332 1795 1659 2196 2311 1639 1639 2060 1734 1660 1560 1744 1773 2397 1966 1609 1898 2417 1549 1849 2313 1880 2520 2425 1799 1607 1739 1807 2300 1580 1783 2471 1570 1925 2557 1813 2559 1919 1756 1615 1919 2327 2177 2117 2092 2394 2063 2095 2461 2104 2234 1961 2093 2088 2502 2347 2172 2121 2368 2173 2537 2116 2122 2219 2362 2627 1957 2475 2065 2449 1973 1994 2584 2576 1703 2576 2145 2506 1923 2384 2101 2308 2123 2026 2213 1901 2223 2591 2324 2557 2259 1763 2557 2330 1767 2219 2336 1771 2289 1925 2454 2391 1917 2551 2093 1794 2350 2566 1869 2419 2261 2464 2102 1820 2065 1697 1819 2247 2573 2262 1702 2095 1672 1799 2189 2171 2430 2561 2422 1877 1694 1730 2490 2578 2514 2490 2570 2481 2483 2512 2298 2554 2524 2512 2412 2498 2443 2063 2526 2516 2050 1963 1995 2275 1610 1947 1988 1847 1613 2574 2557 1544 2513 2522 1487 2572 1662 2470 1901 1487 1730 2049 2469 1702 1786 2526 2092 2070 2556 2552 2575 2634 2552 2543 2555 2570 2520 2575 2377 1796 1952 2598 1860 2360 1651 2521 1774 1702 2309 2592 2066 1905 1871 1702 2086 1653 1826 1794 2101 1758 1499 2046 2061 2061 1576 1731 1504 1751

Tree=0
num_leaves=21
num_cat=0
split_feature=21 21 24 24 17 17 15 20 20 41 41 39 38 24 15 15 15 8 28 11
split_gain=3003.92 4813.2 929.233 1550.94 483.814 2343.85 480.533 272.243 295.43 195.562 982.298 156.773 170.477 99.2057 84.4031 72.4939 58.6812 23.9422 6.77141 2.34495
threshold=1.0000000180025095e-35 0.99994488409908888 0.99997593805284424 1.0000000180025095e-35 1.0000000180025095e-35 0.99996625117671289 80.993348258358068 0.0029661212754067416 0.99987735474400352 1.0000000180025095e-35 0.99996625117671289 0.99995121521903674 0.99987377275471911 0.99997593805284424 0.0068242981164722332 500.00166666666672 0.0068242981164722332 11.478411529714203 0.025326593075180651 541.01713846532414
decision_type=2 2 2 2 2 2 2 2 2 2 2 2 2 2 2 2 2 2 2 2
left_child=2 -2 3 15 7 -6 11 16 -9 13 -11 12 -3 -8 -7 18 -4 -17 -1 -13
right_child=1 6 4 -5 5 14 9 8 -10 10 -12 19 -14 -15 -16 17 -18 -19 -20 -21
leaf_value=-0.0034405377456997108 0.10045934889215018 0.058923431411297411 0.0013900569039664793 0.097579977720261252 0.097424550630398385 0.0061214003246053859 0.0014530193063364597 0.08197233388192926 -0.029280869329501351 0.094374463886092677 -0.027819043501792515 0.0014530193063364597 -0.029671106469254586 -0.035622739888697734 -0.043675588845290027 -0.037014093136182008 -0.05516509232598385 0.0048620481420299051 0.016592000174836658 -0.033791375539957598
leaf_weight=98.749947026371956 1617.7491321712732 384.49979373812675 64.999965131282806 384.49979373812675 368.9998020529747 69.249962851405144 237.99987232685089 67.24996392428875 245.99986803531647 203.99989056587219 699.74962462484837 27.249985381960869 48.749973848462105 1129.7493939548731 1474.249209150672 516.74972279369831 2161.2488406151533 11.749993696808813 52.499971836805344 43.999976396560669
leaf_count=395 6471 1538 260 1538 1476 277 952 269 984 816 2799 109 195 4519 5897 2067 8645 47 210 176
internal_value=0 0.614276 -0.492833 0.337867 -0.693965 -0.304176 -0.182352 -0.981248 -0.0710136 -0.38146 -0.00855063 0.684679 0.917926 -0.618754 -0.851138 -0.558881 -1.10396 -0.731231 0 -0.548967
internal_weight=0 4393.75 5516.25 1064.25 4452 1912.5 2776 2539.5 313.25 2271.5 903.75 504.5 433.25 1367.75 1543.5 679.75 2226.25 528.5 151.25 71.25
internal_count=39640 17575 22065 4257 17808 7650 11104 10158 1253 9086 3615 2018 1733 5471 6174 2719 8905 2114 605 285
shrinkage=1


Tree=1
num_leaves=21
num_cat=0
split_feature=21 21 24 24 15 20 20 42 42 43 24 24 39 38 38 15 15 13 28 11
split_gain=2711.81 4361.61 840.691 1405.61 431.806 330.262 482.584 247.78 915.27 186.504 173.187 401.581 143.746 156.038 106.028 65.5207 35.2222 18.3771 6.20809 1.87855
threshold=1.0000000180025095e-35 0.99994488409908888 0.99997593805284424 1.0000000180025095e-35 80.993348258358068 0.0029661212754067416 0.99987735474400352 1.0000000180025095e-35 0.99997593805284424 1.0000000180025095e-35 0.99997593805284424 1.0000000180025095e-35 0.99995121521903674 0.99987377275471911 0.99987377275471911 500.00166666666672 236.91269741663021 8.9683290994147615 0.025326593075180651 541.01713846532414
decision_type=2 2 2 2 2 2 2 2 2 2 2 2 2 2 2 2 2 2 2 2
left_child=2 -2 3 15 12 7 -7 9 -9 -4 11 -6 13 -3 -12 18 -8 -17 -1 -14
right_child=1 4 5 -5 10 6 16 8 -10 -11 14 -13 19 -15 -16 17 -18 -19 -20 -21
leaf_value=-0.0046713898455890369 0.094326696068766452 0.054716793206723652 -0.048346069818864135 0.091658487096761096 -0.021663421621563334 0.085402332860970695 0 0.090477112749917682 -0.044004996486329495 -0.017757688123536886 -0.018725578485288167 0.086408087786303212 -0 -0.029838332219047189 -0.053542462813837247 -0.021933137832852983 -0.038811813397883754 -0.048003551953673534 0.014503990493510772 -0.033816492323600365
leaf_weight=98.749705702066422 1613.6752548515797 384.16645163297653 2756.5346991568804 383.58616822957993 255.2194412946701 131.23493629693985 51.98885440826416 163.01559367775917 455.69846561551094 696.1822654902935 1624.2821304500103 115.13858725130558 27.249985381960869 48.739272058010101 275.91246485710144 301.64970089495182 193.95841836929321 226.67327974736691 52.496385723352432 43.987442970275879
leaf_count=395 6471 1538 11034 1538 1021 526 208 653 1824 2787 6500 461 109 195 1104 1207 776 907 210 176
internal_value=0 0.58419 -0.46826 0.321991 -0.173676 -0.65966 0.210336 -0.743025 -0.138031 -0.847839 -0.362578 0.240165 0.648154 0.872188 -0.485933 -0.530713 -0.585267 -0.694624 0 -0.529964
internal_weight=0 4388.37 5511.77 1063.16 2774.7 4448.61 377.182 4071.43 618.714 3452.72 2270.55 370.358 504.143 432.906 1900.19 679.569 245.947 528.323 151.246 71.2374
internal_count=39640 17575 22065 4257 11104 17808 1510 16298 2477 13821 9086 1482 2018 1733 7604 2719 984 2114 605 285
shrinkage=0.05


Tree=2
num_leaves=15
num_cat=0
split_feature=16 16 38 38 13 24 24 24 24 8 15 29 10 15
split_gain=1822.62 2539.21 1078.6 1248.74 882.992 91.6704 104.338 71.8893 108.774 15.1888 7.36688 6.20507 2.85943 0.792473
threshold=0.99987377275471911 1.0000000180025095e-35 0.99987377275471911 1.0000000180025095e-35 8.9683290994147615 0.99997593805284424 0.042166944744907293 0.99997593805284424 1.0000000180025095e-35 1.7967395959758501 0.0068242981164722332 0.15905766170515914 0.99884855206262302 156.89171969746442
decision_type=2 2 2 2 2 2 2 2 2 2 2 2 2 2
left_child=1 2 3 4 -1 6 11 8 -4 10 -7 13 -9 -2
right_child=5 -3 7 -5 -6 9 -8 12 -10 -11 -12 -13 -14 -15
leaf_value=0.012842459641578225 -0 0.091979540324453338 -0.03341022909593705 0.090911513458577828 -0.030288879817009826 -0.001472473879694179 0.054651924429856127 -0.037751723855419195 0.057572021522311126 -0 -0.05921454691727162 -0.0035038899128714907 -0.05752059587281038 -0.043113405381440206
leaf_weight=4567.2326531112194 14.74801169335842 816.0917971432209 126.1568546295166 408.92491638660431 1590.3308901041746 23.988882601261139 28.494135662913322 322.67491766810417 31.24310664832592 11.478141352534292 1171.4140006005764 49.710998982191086 605.59085296094418 108.85667772591114
leaf_count=18329 59 3287 505 1646 6377 96 115 1294 126 46 4697 199 2428 436
internal_value=0 0.173943 -0.00456006 0.147178 0.0318138 -1.05067 -0.331804 -0.92442 -0.20007 -1.15895 -1.16985 -0.667455 -1.03314 -0.809631
internal_weight=0 8468.25 7652.15 6566.49 6157.56 1408.69 201.81 1085.67 157.4 1206.88 1195.4 173.316 928.266 123.605
internal_count=39640 33992 30705 26352 24706 5648 809 4353 631 4839 4793 694 3722 495
shrinkage=0.05


Tree=3
num_leaves=13
num_cat=0
split_feature=16 16 41 41 25 25 13 22 25 25 7 29
split_gain=1654.21 2316.38 1019 3058.48 451.046 1001.53 260.488 238.95 75.3268 96.1537 14.3244 6.08105
threshold=0.99987377275471911 1.0000000180025095e-35 1.0000000180025095e-35 0.99996625117671289 1.0000000180025095e-35 0.99994488409908888 8.9683290994147615 0.99948487109938877 0.0036464938117364292 0.99994488409908888 0.0032095421072192362 0.15905766170515914
decision_type=2 2 2 2 2 2 2 2 2 2 2 2
left_child=1 2 4 -4 7 -6 -5 -1 10 -10 -2 -11
right_child=8 -3 3 6 5 -7 -8 -9 9 11 -12 -13
leaf_value=-0.017165896811995936 -0.055513321079163895 0.088186306876513909 0.09122717826503618 -0.0034874604676181017 0.086824056994164706 -0.022421822638290789 -0.046150161531202757 -0.055141856942181433 0.052392040299165249 -0.04025256488298587 0 -0.0033582772537526133
leaf_weight=3315.1133271753788 1199.024993956089 809.22991470992565 1041.9714953750372 1437.0353786498308 318.06110717356205 562.87828455865383 481.51682013273239 487.87490583956242 27.834034755825996 116.15764975547791 11.220110133290289 49.706794872879982
leaf_count=13307 4825 3287 4203 5762 1286 2256 1932 1959 113 466 45 199
internal_value=0 0.165624 -0.00432519 0.452704 -0.295674 0.339835 -0.292759 -0.446014 -1.00286 -0.323663 -1.09983 -0.657174
internal_weight=0 8453.68 7644.45 2960.52 4683.93 880.939 1918.55 3802.99 1403.94 193.698 1210.25 165.864
internal_count=39640 33992 30705 11897 18808 3542 7694 15266 5648 778 4870 665
shrinkage=0.05


Tree=4
num_leaves=20
num_cat=0
split_feature=21 21 24 24 15 17 17 20 20 39 41 41 38 15 24 15 15 8 17
split_gain=2215.43 3676.13 661.39 1131.15 373.043 345.47 1867.66 190.661 219.972 144.844 144.783 795.15 126.887 77.9204 72.9776 55.5716 48.0057 20.3575 5.2552
threshold=1.0000000180025095e-35 0.99994488409908888 0.99997593805284424 1.0000000180025095e-35 100.00166666666668 1.0000000180025095e-35 0.99996625117671289 0.0029661212754067416 0.99987735474400352 0.99995121521903674 1.0000000180025095e-35 0.99996625117671289 0.99987377275471911 55.005000000000017 0.99997593805284424 500.00166666666672 0.0068242981164722332 11.478411529714203 0.018750715712197445
decision_type=2 2 2 2 2 2 2 2 2 2 2 2 2 2 2 2 2 2 2
left_child=2 -2 3 15 9 7 -7 16 -9 12 14 -12 -3 -8 -6 18 -4 -17 -1
right_child=1 4 5 -5 10 6 13 8 -10 -11 11 -13 -14 -15 -16 17 -18 -19 -20
leaf_value=-0.0059886110559936746 0.087028191995371637 0.04988744604346617 -0 0.082833546916648529 -0 0.086804257009883187 -0.004914123134044629 0.069674306456644075 -0.026948826323249353 -0.027874392258773018 0.083873501453339383 -0.027038890326730639 -0.025311226561564967 -0.041911913700338317 -0.032810497526781605 -0.033413920534800232 -0.048409053985370175 0.0040134243327938643 0.010778571395702895
leaf_weight=73.94916920363903 1583.9944630414248 401.56854577362537 64.865087255835533 374.53117749094963 234.90843878686428 363.91537620127201 197.25375652313232 65.835593894124031 245.51417544484138 77.684531435370445 199.87348751723766 690.65787394344807 49.312948018312454 1341.0182657688856 1112.9219709634781 514.94968174397945 2142.2051491886377 11.723329767584799 77.170727416872978
leaf_count=296 6471 1615 260 1538 942 1476 791 269 984 311 809 2766 198 5383 4463 2067 8645 47 309
internal_value=0 0.530322 -0.424701 0.279302 -0.162682 -0.594797 -0.263413 -0.839108 -0.0685866 0.578821 -0.344023 -0.0187042 0.804147 -0.75106 -0.549881 -0.480278 -0.942495 -0.631798 0
internal_weight=0 4350.92 5472.93 1052.32 2766.93 4420.61 1902.19 2518.42 311.35 528.566 2238.36 890.531 450.881 1538.27 1347.83 677.793 2207.07 526.673 151.12
internal_count=39640 17575 22065 4257 11104 17808 7650 10158 1253 2124 8980 3575 1813 6174 5405 2719 8905 2114 605
shrinkage=0.05


Tree=5
num_leaves=19
num_cat=0
split_feature=21 21 24 24 15 16 16 29 29 29 39 38 13 15 29 8 15 14
split_gain=2010.81 3377.01 600.891 1037.13 336.361 320.476 1377.89 171.229 138.064 539.401 132.251 116.587 98.7357 50.2981 20.3175 13.5947 5.60767 3.76372
threshold=1.0000000180025095e-35 0.99994488409908888 0.99997593805284424 1.0000000180025095e-35 100.00166666666668 0.99987377275471911 1.0000000180025095e-35 0.0029374709946926596 1.0000000180025095e-35 0.99997593805284424 0.99995121521903674 0.99987377275471911 8.9683290994147615 500.00166666666672 1.0000000180025095e-35 1.7967395959758501 0.0068242981164722332 107.02635934841584
decision_type=2 2 2 2 2 2 2 2 2 2 2 2 2 2 2 2 2 2
left_child=2 -2 3 13 10 6 7 -4 12 -10 11 -3 -6 17 -15 16 -7 -1
right_child=1 4 5 -5 8 15 -8 -9 9 -11 -12 -13 -14 14 -16 -17 -18 -19
leaf_value=-0.0037428069344024751 0.083886665421787243 0.047640930183095301 -0.038379721128978861 0.079970765977257247 -0.017579846069184012 -0 0.083487700191282599 -0.011242930784539473 0.085733513143125578 -0.021071068703528553 -0.02665997621962149 -0.024293934621945162 -0.051230151721764441 -0.036234016020314612 -0.0073348231004555136 0 -0.05191649770690502 0.010371776589178464
leaf_weight=86.16490513086319 1562.0682815909386 399.99009150266647 2016.8558325022459 369.03693461418152 1282.9223050177097 23.941024526953697 281.83168075978756 913.23976042866707 142.03163251280785 517.1993615925312 77.61915011703968 49.229840621352196 291.52301938831806 391.19227614998817 134.44625714421272 11.42018276453018 1154.567848905921 64.945487409830093
leaf_count=345 6471 1615 8130 1538 5155 96 1156 3683 575 2078 311 198 1172 1574 540 46 4697 260
internal_value=0 0.507236 -0.405204 0.267724 -0.155158 -0.567589 -0.396072 -0.603178 -0.327595 0.0426027 0.549791 0.766229 -0.488202 -0.456612 -0.601013 -1.01506 -1.02552 0
internal_weight=0 4322.58 5447.64 1045.79 2760.52 4401.86 3211.93 2930.1 2233.68 659.231 526.839 449.22 1574.45 676.749 525.639 1189.93 1178.51 151.11
internal_count=39640 17575 22065 4257 11104 17808 12969 11813 8980 2653 2124 1813 6327 2719 2114 4839 4793 605
shrinkage=0.05


Tree=6
num_leaves=16
num_cat=0
split_feature=16 16 38 38 13 24 24 24 24 8 42 42 13 9 9
split_gain=1260.59 1834.96 843.766 995.245 676.716 59.0291 74.5996 51.9068 78.258 12.5399 5.96846 71.3554 4.73346 2.95856 1.69925
threshold=0.99987377275471911 1.0000000180025095e-35 0.99987377275471911 1.0000000180025095e-35 8.9683290994147615 0.99997593805284424 0.042166944744907293 0.99997593805284424 1.0000000180025095e-35 1.7967395959758501 0.0074291746075980667 0.99997593805284424 7.998739119148591 1.0366417802192871 2.2591636769913452
decision_type=2 2 2 2 2 2 2 2 2 2 2 2 2 2 2
left_child=1 2 3 4 -1 6 12 8 -4 10 -7 -12 14 -9 -2
right_child=5 -3 7 -5 -6 9 -8 13 -10 -11 11 -13 -14 -15 -16
leaf_value=0.011317803708710007 -0.011721812306302114 0.080036833782499789 -0.029294207922099882 0.082495984863361668 -0.026645744395623977 -0.051737666248310499 0.046327835283825392 -0.049265352688165225 0.048524452681548841 0 0.045597555384055653 -0.040473269631669653 -0.039167827530771734 -0.027286798232939304 0
leaf_weight=4516.1106491684914 67.88346154987812 775.00931245088577 125.53833916783333 394.55097728967667 1573.1008640378714 1013.3693747967482 27.292150929570198 737.35462999343872 29.784472569823265 11.42018276453018 14.879498183727263 141.78824016451836 90.505903348326683 180.22891131043434 13.695644095540045
leaf_count=18329 273 3287 505 1646 6377 4152 115 2991 126 46 60 581 366 731 55
internal_value=0 0.145527 -0.00431586 0.130638 0.0280126 -0.882801 -0.284432 -0.822775 -0.186298 -0.972151 -0.982269 -0.541067 -0.571749 -0.916563 -0.167887
internal_weight=0 8331.68 7556.67 6483.76 6089.21 1380.83 199.377 1072.91 155.323 1181.46 1170.04 156.668 172.085 917.584 81.5791
internal_count=39640 33992 30705 26352 24706 5648 809 4353 631 4839 4793 641 694 3722 328
shrinkage=0.05


Tree=7
num_leaves=21
num_cat=0
split_feature=21 21 24 24 15 17 17 20 20 24 24 39 29 38 15 42 15 8 17 11
split_gain=1757.24 3039.47 515.7 915.496 297.693 270.968 1574.65 153.369 184.52 128.537 311.677 107.482 106.686 104.696 68.0123 48.0403 43.9445 17.9786 4.35755 2.15697
threshold=1.0000000180025095e-35 0.99994488409908888 0.99997593805284424 1.0000000180025095e-35 80.993348258358068 1.0000000180025095e-35 0.99996625117671289 0.0029661212754067416 0.99987735474400352 0.99997593805284424 1.0000000180025095e-35 0.99995121521903674 0.0029374709946926596 0.99987377275471911 55.005000000000017 0.0074291746075980667 500.00166666666672 11.478411529714203 0.018750715712197445 541.01713846532414
decision_type=2 2 2 2 2 2 2 2 2 2 2 2 2 2 2 2 2 2 2 2
left_child=2 -2 3 16 11 7 -7 15 -9 10 -6 13 -11 -3 -8 -4 18 -18 -1 -13
right_child=1 4 5 -5 9 6 14 8 -10 12 -12 19 -14 -15 -16 -17 17 -19 -20 -21
leaf_value=-0.0056165174206349276 0.080289176704986864 0.046048472049663058 -0.045353883538846791 0.076118443584741735 -0.018634168125716912 0.08140472676549354 -0.0035031439119382088 0.06521793695561931 -0.024194967235103622 -0.028241998648187602 0.077222125291882604 -0 -0.0011367687484190854 -0.022589083249986333 -0.038159216081150971 -0.018988321891695036 -0.029967356851346064 0.004412506660610941 0.0097325923347343322 -0.030563680006165474
leaf_weight=73.89948396384716 1523.3601622581482 378.14088727533817 1883.4563480615616 358.15768803656101 254.45032344758511 354.06489369273186 196.84891179203987 63.933391198515892 244.59561689198017 1334.4705861955881 112.49836552143097 27.234550416469574 552.38380527496338 48.202271774411201 1332.1375246047974 289.33493612706661 511.79876996576786 11.690079256892203 77.066677510738373 43.850645437836647
leaf_count=296 6471 1538 7722 1538 1021 1476 791 269 984 5375 461 109 2229 195 5383 1183 2067 47 309 176
internal_value=0 0.476986 -0.380404 0.24666 -0.147962 -0.531279 -0.235629 -0.749784 -0.0526263 -0.305487 0.213916 0.538017 -0.412365 0.736052 -0.681481 -0.843502 -0.428518 -0.563881 0 -0.470693
internal_weight=0 4274.59 5396.98 1032.61 2751.23 4364.37 1883.05 2481.32 308.529 2253.8 366.949 497.428 1886.85 426.343 1528.99 2172.79 674.455 523.489 150.966 71.0852
internal_count=39640 17575 22065 4257 11104 17808 7650 10158 1253 9086 1482 2018 7604 1733 6174 8905 2719 2114 605 285
shrinkage=0.05


Tree=8
num_leaves=21
num_cat=0
split_feature=21 21 24 24 15 29 29 28 28 41 41 41 24 20 42 15 29 14 8 28
split_gain=1598.45 2814.42 469.611 844.284 268.066 247.055 1082.32 185.109 317.534 123.27 685.936 85.1431 59.7196 57.9187 53.3242 39.8115 18.3065 12.9652 8.48565 4.99549
threshold=1.0000000180025095e-35 0.99994488409908888 0.99997593805284424 1.0000000180025095e-35 80.993348258358068 1.0000000180025095e-35 0.99997593805284424 1.0000000180025095e-35 0.99990256883134154 1.0000000180025095e-35 0.99996625117671289 1.0000000180025095e-35 0.99997593805284424 0.0070392758497426775 0.0034734805285946964 500.00166666666672 1.0000000180025095e-35 1279.9300982256245 1.3180965878827291 0.025326593075180651
decision_type=2 2 2 2 2 2 2 2 2 2 2 2 2 2 2 2 2 2 2 2
left_child=2 -2 3 15 11 7 -7 18 -9 12 -11 14 -6 -8 -3 19 -17 -13 -4 -1
right_child=1 4 5 -5 9 6 13 8 -10 10 -12 17 -14 -15 -16 16 -18 -19 -20 -21
leaf_value=-0.0041755912356222251 0.077897862496610945 -0.0052997911912348759 -0.053753435564279695 0.073942196850849504 -0 0.085674114417203448 -0.032889605698513964 0.07446524346808002 -0.028455951804253855 0.079725856767851003 -0.023601911904677891 0.051979129469184232 -0.02877475868219111 0 0.041704610637833373 -0.032665518699900156 -0.005376490186312784 -0 -0 0.013035063487508805
leaf_weight=98.589226931333542 1492.698541611433 216.37127177417278 868.0401768386364 350.74563744664192 236.19089639186859 243.97621740400791 959.70064736902714 65.857550919055939 2065.0161984860897 197.88818751275539 696.32584811747074 199.87264081835747 1119.5255497545004 120.44641210138798 67.611919656395912 388.10314178466797 133.91661566495895 10.99434222280979 15.223829478025435 52.357840269804001
leaf_count=395 6471 877 3577 1538 952 1016 3930 274 8459 816 2799 820 4519 490 276 1574 540 45 62 210
internal_value=0 0.457221 -0.363679 0.237121 -0.141247 -0.507971 -0.13696 -0.666659 -0.49417 -0.290795 -0 0.511185 -0.47978 -0.575982 0.104568 -0.407592 -0.536747 0.983989 -1.0614 0
internal_weight=0 4237.48 5361.97 1023.71 2744.78 4338.26 1324.12 3014.14 2130.87 2249.93 894.214 494.85 1355.72 1080.15 283.983 672.967 522.02 210.867 883.264 150.947
internal_count=39640 17575 22065 4257 11104 17808 5436 12372 8733 9086 3615 2018 5471 4420 1153 2719 2114 865 3639 605
shrinkage=0.05


Tree=9
num_leaves=21
num_cat=0
split_feature=21 21 24 24 15 17 17 20 20 41 41 12 13 15 15 13 12 15 29 40
split_gain=1456.56 2609.88 425.527 781.419 247.254 240.328 1388.86 133.748 163.895 107.279 121.291 85.8614 92.1503 61.5078 41.154 40.5597 35.0281 14.3725 11.7422 5.08954
threshold=1.0000000180025095e-35 0.99994488409908888 0.99997593805284424 1.0000000180025095e-35 600.33682341502345 1.0000000180025095e-35 0.99996625117671289 0.0029661212754067416 0.99987735474400352 1.0000000180025095e-35 0.99996625117671289 349.01137517132685 8.9683290994147615 55.005000000000017 0.0068242981164722332 7.998739119148591 523.05077419809675 4186.6895319538989 0.023274788386394633 1.0000000180025095e-35
decision_type=2 2 2 2 2 2 2 2 2 2 2 2 2 2 2 2 2 2 2 2
left_child=2 -2 3 15 9 7 -7 14 -9 16 -11 19 -13 -8 -4 18 -3 -17 -1 -6
right_child=1 4 5 -5 11 6 13 8 -10 10 -12 12 -14 -15 -16 17 -18 -19 -20 -21
leaf_value=-0.01266440679534679 0.075749592083257364 -0.018045767562256631 0 0.071967388649429101 -0.044662779416349135 0.078267095978555482 -0.002096632926175845 0.062674317666554347 -0.022239295861820746 0.073035690384203239 0.011787649022623135 -0.0039319916722554442 -0.033589435526265969 -0.035067370999940867 -0.040220940623466046 -0.015701775611158507 0.008267191608550618 -0.046488670663549392 0.0038901623104235735 -0.0099343825892879919
leaf_weight=247.51849952340126 1459.405405163765 187.01309467852116 64.379780873656273 342.82663019001484 281.13913515210152 346.6177786886692 196.3617337346077 62.645380213856697 243.70697748661041 123.08531957864761 287.48076519370079 1106.6851019263268 357.44818720221519 1321.5588098466396 2081.2128146439791 161.25977785885334 333.81198415160179 147.05935803055763 115.55439706146717 59.125871747732162
leaf_count=999 6471 755 260 1538 1139 1476 791 269 984 515 1168 4482 1452 5383 8645 655 1354 601 464 239
internal_value=0 0.439445 -0.347382 0.227072 -0.134091 -0.484882 -0.205016 -0.691942 -0.0372537 0.276478 0.652767 -0.351885 -0.233808 -0.623422 -0.780174 -0.389305 -0.00802121 -0.659122 -0.121847 -0.810233
internal_weight=0 4195.19 5330.7 1014.22 2735.79 4316.48 1864.54 2451.94 306.352 931.391 410.566 1804.4 1464.13 1517.92 2145.59 671.392 520.825 308.319 363.073 340.265
internal_count=39640 17575 22065 4257 11104 17808 7650 10158 1253 3792 1683 7312 5934 6174 8905 2719 2109 1256 1463 1378
shrinkage=0.05


Tree=10
num_leaves=20
num_cat=0
split_feature=21 21 17 17 15 29 29 39 24 24 24 24 38 13 42 42 15 29 8
split_gain=1327.1 2429.02 388.072 1704.45 229.526 111.079 452.565 108.757 104.955 272.721 97.2474 151.76 87.1848 75.7036 74.9459 267.72 56.9366 38.4211 17.6607
threshold=1.0000000180025095e-35 0.99994488409908888 1.0000000180025095e-35 0.99996625117671289 107.65166666666669 1.0000000180025095e-35 0.99997593805284424 0.99995121521903674 0.99997593805284424 1.0000000180025095e-35 0.99997593805284424 1.0000000180025095e-35 0.99987377275471911 8.9683290994147615 1.0000000180025095e-35 0.99997593805284424 0.0068242981164722332 1.0000000180025095e-35 5.8032633318369937
decision_type=2 2 2 2 2 2 2 2 2 2 2 2 2 2 2 2 2 2 2
left_child=2 -2 8 -4 7 13 -7 12 9 18 11 -5 -3 -6 17 -16 -12 -10 -1
right_child=1 4 3 10 5 6 -8 -9 14 -11 16 -13 -14 -15 15 -17 -18 -19 -20
leaf_value=-0.029764796115157113 0.073810560345155138 0.040956604913513155 0.076411942480011485 -0.017319824036195083 -0.014801679045974139 0.08075643381631406 -0.018091492636695641 -0.025684477117281397 -0.041283139611260788 0.062161211984432578 0.0082665524582802088 0.059756928978055915 -0.020789911308357792 -0.044628230336734506 0.074660290854935071 -0.032198834526690784 -0.031975819604845787 -0.022658056374381518 0.004519702178176324
leaf_weight=342.12361150979996 1424.0160295069218 396.24693413078785 531.49335908889771 287.05665615200996 1269.8824895173311 138.22754010558128 512.22505290806293 78.902456656098366 1540.3331258296967 100.53690667450428 69.048778250813484 71.29351170361042 48.809251204133034 286.48811247944832 63.352773562073708 264.62954780459404 1442.5974848866463 566.45804609358311 11.900299936532972
leaf_count=1392 6471 1635 2344 1163 5139 572 2072 317 6438 465 277 321 198 1171 261 1099 5897 2360 48
internal_value=0 0.421746 -0.332575 -0.0307287 -0.127856 -0.272044 0.0612458 0.454434 -0.579037 -0.108093 -0.484912 -0 0.655561 -0.417221 -0.662067 -0.169607 -0.595336 -0.732845 -0.542926
internal_weight=0 4154.8 5290.82 2401.49 2730.78 2206.82 650.453 523.959 2889.33 454.561 1870 358.35 445.056 1556.37 2434.77 327.982 1511.65 2106.79 354.024
internal_count=39640 17575 22065 10002 11104 8954 2644 2150 12063 1905 7658 1484 1833 6310 10158 1360 6174 8798 1440
shrinkage=0.05


Tree=11
num_leaves=21
num_cat=0
split_feature=21 21 17 17 15 39 20 20 40 43 43 24 24 12 13 15 15 15 14 15
split_gain=1208.56 2265.43 353.381 1568.91 209.23 180.429 151.933 193.914 96.1006 91.245 326.594 88.4751 140.525 78.5894 78.4469 53.6531 36.6722 35.1706 10.5144 2.11741
threshold=1.0000000180025095e-35 0.99994488409908888 1.0000000180025095e-35 0.99996625117671289 600.33682341502345 0.99995121521903674 0.0029661212754067416 0.99987735474400352 0.99987735474400352 0.0042893328850922017 0.99984780467738033 0.99997593805284424 1.0000000180025095e-35 349.01137517132685 8.9683290994147615 55.005000000000017 0.0068242981164722332 213.87500000000003 7895.7910256410269 0.060474692802848291
decision_type=2 2 2 2 2 2 2 2 2 2 2 2 2 2 2 2 2 2 2 2
left_child=2 -2 6 -4 5 8 9 -8 -3 16 -11 12 -5 18 -15 -13 -1 -9 -6 -7
right_child=1 4 3 11 13 19 7 17 -10 10 -12 15 -14 14 -16 -17 -18 -19 -20 -21
leaf_value=-0 0.072052905176100565 0.029890288441776675 0.07433813538480509 -0.016509629931234848 -0.040801988405013562 -0 0.064434441522531472 0.0099043457366733648 -0.016594669570346009 0.076230811888082478 -0.029933140224452905 -0.0011524373195799741 0.058203577811531543 -0.0033093593477968187 -0.030795192239810427 -0.032059064176248986 -0.037986269899854978 -0.027602351771247386 -0 -0.04129689243447357
leaf_weight=67.59500178694725 1386.997729793191 674.70110531151295 519.58477093279362 286.58931389451027 309.80829887092113 28.836981371045113 84.878441885113716 57.08905254304409 111.31718094646931 76.837473258376122 397.46021501719952 195.99830323457718 69.840237647294998 1104.6493459194899 354.38079141080379 1308.9574460983276 1968.2986794263124 216.97242146730423 28.356871232390404 110.34097993373871
leaf_count=275 6471 2780 2344 1163 1262 116 377 231 451 330 1664 791 321 4482 1452 5383 8302 884 116 445
internal_value=0 0.405227 -0.318059 -0.028467 -0.122188 0.256445 -0.553972 0.0278062 0.451062 -0.640911 -0.209659 -0.462455 -0 -0.322983 -0.209798 -0.567963 -0.734975 -0.359112 -0.762551 -0.732196
internal_weight=0 4109.39 5250.1 2380.97 2722.39 925.196 2869.13 358.94 786.018 2510.19 474.298 1861.39 356.43 1797.2 1459.03 1504.96 2035.89 274.061 338.165 139.178
internal_count=39640 17575 22065 10002 11104 3792 12063 1492 3231 10571 1994 7658 1484 7312 5934 6174 8577 1115 1378 561
shrinkage=0.05


Tree=12
num_leaves=21
num_cat=0
split_feature=21 21 24 24 29 29 15 28 28 41 41 39 38 24 38 13 15 43 8 11
split_gain=1098.94 2119.72 329 631.385 197.417 880.573 191.915 160.137 259.861 102.15 598.851 76.5642 83.9204 51.5633 45.6771 37.8546 13.748 11.6355 8.01464 2.76934
threshold=1.0000000180025095e-35 0.99994488409908888 0.99997593805284424 1.0000000180025095e-35 1.0000000180025095e-35 0.99997593805284424 80.993348258358068 1.0000000180025095e-35 0.99990256883134154 1.0000000180025095e-35 0.99996625117671289 0.99995121521903674 0.99987377275471911 0.99997593805284424 0.99987377275471911 7.998739119148591 4186.6895319538989 1.0000000180025095e-35 1.3180965878827291 541.01713846532414
decision_type=2 2 2 2 2 2 2 2 2 2 2 2 2 2 2 2 2 2 2 2
left_child=2 -2 3 15 7 -6 11 18 -9 13 -11 12 -3 -8 -7 17 -17 -1 -4 -13
right_child=1 6 4 -5 5 14 9 8 -10 10 -12 19 -14 -15 -16 16 -18 -19 -20 -21
leaf_value=-0.009983464563284826 0.070453444751031921 0.03917551352561395 -0.047797236613701853 0.067396907796208702 0.081164818355496299 -0.017606825352887531 0 0.070908884512737191 -0.023849496813403252 0.076444543445911034 -0.020920436177118144 -0 -0.02200073801600734 -0.025347637506755206 -0.045730530294857741 -0.013219873812961594 -0.042849906234820268 0.0083180627007367856 -0 -0.02717201885963709
leaf_weight=271.23816084861755 1348.7581083327532 367.39376243948936 839.44863611459732 319.14803349971771 232.07994666695595 834.94407127797604 235.39092855155468 63.081563115119934 2016.2509343326092 193.63421189785004 692.12391868233681 27.154789537191391 48.121182978153229 1109.5812944024801 221.9971084445715 159.88029479980469 144.72777360677719 90.043856963515282 14.982430577278135 43.541092053055763
leaf_count=1099 6471 1538 3577 1538 1016 3484 952 274 8459 816 2799 109 195 4519 936 655 601 364 62 176
internal_value=0 0.388677 -0.30432 0.207673 -0.426322 -0.0898793 -0.117514 -0.569942 -0.408197 -0.244621 0.00843946 0.438675 0.611301 -0.417491 -0.487115 -0.335896 -0.596035 -0.0794846 -0.94272 -0.402031
internal_weight=0 4065.7 5207.82 985.038 4222.78 1289.02 2716.94 2933.76 2079.33 2230.73 885.758 486.211 415.515 1344.97 1056.94 665.89 304.608 361.282 854.431 70.6959
internal_count=39640 17575 22065 4257 17808 5436 11104 12372 8733 9086 3615 2018 1733 5471 4420 2719 1256 1463 3639 285
shrinkage=0.05


Tree=13
num_leaves=21
num_cat=0
split_feature=21 21 17 17 15 39 20 20 40 24 24 24 24 24 24 15 12 42 15 0
split_gain=1003.37 1983.13 307.007 1390.55 175.604 157.15 135.038 171.118 83.9664 73.7069 119.865 71.5612 216.117 69.1226 176.123 48.9716 41.4408 40.6713 31.6886 2.40754
threshold=1.0000000180025095e-35 0.99994488409908888 1.0000000180025095e-35 0.99996625117671289 585.4269048136058 0.99995121521903674 0.0029661212754067416 0.99987735474400352 0.99987735474400352 0.99997593805284424 1.0000000180025095e-35 0.99997593805284424 0.003362928168418267 0.99997593805284424 1.0000000180025095e-35 55.005000000000017 349.01137517132685 0.0074291746075980667 213.87500000000003 45.004696949281303
decision_type=2 2 2 2 2 2 2 2 2 2 2 2 2 2 2 2 2 2 2 2
left_child=2 -2 6 -4 5 8 13 -8 -3 10 -5 12 -6 14 -1 -11 -13 -15 -9 -7
right_child=1 4 3 9 11 19 7 18 -10 15 -12 16 -14 17 -16 -17 -18 -19 -20 -21
leaf_value=-0.025585097808745613 0.068992737485980379 0.02813559066000006 0.071946761531028178 -0.015077904134338196 -0.018898873603706637 -0.036553866202335028 0.062127087836103212 0.010168816887852308 -0.015626021600823287 -6.7164049166588697e-05 0.05511097478489832 -0.035989882548119988 0.07034590517484661 -0.036419402540137612 0.055657970105877599 -0.02961721786703337 -0.013989178158846786 -0.012248287514136503 -0.02540040602292272 -0
leaf_weight=319.68992339074612 1309.6516414880753 660.77717740833759 500.02041141688824 285.46936604380608 217.60370439291 124.31858542561531 82.226020023226738 56.978714033961296 108.67702911794186 195.38514751195908 66.546903178095818 325.10943439602852 85.051188454031944 1801.9812743365765 71.699632823467255 1295.4789991527796 1169.9988955557346 279.96429377794266 215.37977290153503 13.844679877161978
leaf_count=1316 6471 2748 2344 1163 879 504 377 231 442 791 321 1336 359 7722 350 5383 4780 1183 884 56
internal_value=0 0.37422 -0.291326 -0.0188756 -0.112205 0.238635 -0.512662 0.0376368 0.423842 -0.425445 -0 -0.295202 0.120581 -0.595415 -0.168809 -0.522079 -0.386255 -0.669643 -0.321835 -0.684312
internal_weight=0 4015.03 5170.82 2342.9 2705.38 907.617 2827.92 354.585 769.454 1842.88 352.016 1797.76 302.655 2473.34 391.39 1490.86 1495.11 2081.95 272.358 138.163
internal_count=39640 17575 22065 10002 11104 3750 12063 1492 3190 7658 1484 7354 1238 10571 1666 6174 6116 8905 1115 560
shrinkage=0.05


Tree=14
num_leaves=19
num_cat=0
split_feature=21 21 24 24 16 16 15 38 29 29 13 38 13 11 15 43 43 43
split_gain=914.776 1859.81 273.064 549.167 175.277 843.066 160.248 113.282 95.4449 393.406 65.2061 51.0936 35.0573 21.6098 12.6284 10.434 61.5025 10.1849
threshold=1.0000000180025095e-35 0.99994488409908888 0.99997593805284424 1.0000000180025095e-35 0.99987377275471911 1.0000000180025095e-35 107.65166666666669 0.99987377275471911 1.0000000180025095e-35 0.99997593805284424 8.9683290994147615 0.99987377275471911 7.998739119148591 71.700554697163994 4186.6895319538989 0.0042893328850922017 0.99984780467738033 1.0000000180025095e-35
decision_type=2 2 2 2 2 2 2 2 2 2 2 2 2 2 2 2 2 2
left_child=2 -2 3 12 5 7 11 -4 10 -10 -8 13 17 -3 -14 -6 -17 -1
right_child=1 6 4 -5 15 -7 8 -9 9 -11 -12 -13 14 -15 -16 16 -18 -19
leaf_value=-0.0087762684859690378 0.067654344269989619 -0.014616740075808593 -0.015679663900192205 0.06472070363442077 -0.039673085464304425 0.073059761692699954 -0.012564596316486138 -0.042069432380667793 0.077462007341081995 -0.015539614304387762 -0.040447696463568758 -0.021395339628837926 -0.011905946040547863 0.027191150655670668 -0.040434299031464255 0.048899174543704821 -0.02963816807319905 0.0084950712596382396
leaf_weight=270.33966016769409 1269.9861150383949 11.064319416880606 2269.1694774627686 301.5055209249258 929.08133850991726 248.32248021662235 1260.2486846148968 539.89606602489948 134.88040541112423 508.10027693212032 281.31119221448898 48.893385708332062 159.03250247240067 453.33728174865246 142.85766495764256 15.935632050037382 159.49737454950809 89.887143492698669
leaf_count=1099 6471 45 9497 1538 4079 1156 5139 2316 572 2072 1171 198 655 1907 601 65 695 364
internal_value=0 0.359775 -0.279049 0.192187 -0.390752 -0.260792 -0.107397 -0.421206 -0.228489 0.0818293 -0.36406 0.383368 -0.306642 0.49708 -0.557452 -0.735955 -0.351109 -0.0600598
internal_weight=0 3967.82 5125.52 963.622 4161.9 3057.39 2697.84 2809.07 2184.54 642.981 1541.56 513.295 662.117 464.402 301.89 1104.51 175.433 360.227
internal_count=39640 17575 22065 4257 17808 12969 11104 11813 8954 2644 6310 2150 2719 1952 1256 4839 760 1463
shrinkage=0.05


Tree=15
num_leaves=19
num_cat=0
split_feature=21 21 17 17 38 38 15 20 20 43 43 15 24 15 39 15 9 15
split_gain=835.016 1746.15 264.852 1235.3 153.569 213.998 160.586 119.013 151.237 75.3359 265.249 63.5525 45.2991 33.042 31.8416 28.7045 4.77174 1.37437
threshold=1.0000000180025095e-35 0.99994488409908888 1.0000000180025095e-35 0.99996625117671289 0.99987377275471911 1.0000000180025095e-35 80.993348258358068 0.0029661212754067416 0.99987735474400352 0.0042893328850922017 0.99984780467738033 55.005000000000017 0.99997593805284424 0.0068242981164722332 0.99995121521903674 236.91269741663021 2.1758980414461546 0.010067578180237692
decision_type=2 2 2 2 2 2 2 2 2 2 2 2 2 2 2 2 2 2
left_child=2 -2 7 -4 5 6 -3 9 -9 13 -11 14 -13 -1 -5 -10 17 -6
right_child=1 4 3 11 16 -7 -8 8 15 10 -12 12 -14 -15 -16 -17 -18 -19
leaf_value=0 0.066424267793248795 0.023715940914463871 0.069826735796713821 0.011461118984615474 -0 0.072361143083407048 -0.01014392820834484 0.059962482199609896 0.0094462638016393 0.07184408855644292 -0.025585310267757119 -0.0035084248331763387 -0.027441449174334678 -0.033199349964436783 -0.034256240564287783 -0.023766724424302037 -0 -0.037702350035351356
leaf_weight=66.806262165307999 1230.0277969539165 417.28005354106426 478.72851623594761 212.58606532216072 12.069098085165022 86.646689087152481 1838.9186863899231 79.265877485275269 60.563812747597694 73.618208050727844 386.83751982450485 295.86215302348137 1282.5465701967478 1904.6454080492258 33.912882834672928 210.10426114499569 13.444631174206732 320.8577523380518
leaf_count=275 6471 1764 2344 875 49 371 7533 377 246 330 1664 1263 5383 8302 137 869 55 1332
internal_value=0 0.346156 -0.267348 -0.0118371 -0.102707 -0.00534234 -0.0716791 -0.474554 0.0437864 -0.553108 -0.154987 -0.392343 -0.466409 -0.639796 0.0426353 -0.289637 -0.714586 -0.737949
internal_weight=0 3919.24 5085.48 2303.64 2689.22 2342.85 2256.2 2781.84 349.934 2431.91 460.456 1824.91 1578.41 1971.45 246.499 270.668 346.371 332.927
internal_count=39640 17575 22065 10002 11104 9668 9297 12063 1492 10571 1994 7658 6646 8577 1012 1115 1436 1381
shrinkage=0.05


Tree=16
num_leaves=15
num_cat=0
split_feature=38 38 13 39 39 13 28 24 24 20 28 9 9 28
split_gain=616.721 925.77 543.584 593.979 495.61 66.3536 50.9125 29.6894 63.5092 14.8037 13.1545 12.7886 91.0289 3.80613
threshold=0.99987377275471911 1.0000000180025095e-35 10.97692040402571 0.99995121521903674 1.0000000180025095e-35 16.999988926648527 0.99990256883134154 0.99997593805284424 1.0000000180025095e-35 0.0029661212754067416 1.0000000180025095e-35 1.0000083050136073 1.9980840488064351 0.016683404094992586
decision_type=2 2 2 2 2 2 2 2 2 2 2 2 2 2
left_child=1 2 3 4 -1 6 -4 8 -2 -5 -7 -9 -13 -14
right_child=7 -3 5 9 -6 10 -8 11 -10 -11 -12 12 13 -15
leaf_value=0.0099479340599405164 -0.024362771577878223 0.073023009619223728 -0.0074052288570089289 -0.036998962503816422 0.073207969788027807 -0.041388039466022798 -0.035144119064727801 -0.038036370259690276 0.041187242348309505 -0 -0.0041681639395388468 0.05271721748846292 -0.034582783196699579 -0
leaf_weight=4578.514849036932 155.42987452447414 466.3311500698328 681.43280597031116 635.21916301548481 326.73286007344723 545.37937726080418 248.87912744283676 903.48741459846497 34.30011260509491 42.901640117168427 59.227720364928246 25.342947363853455 173.03344750404358 38.117737993597984
leaf_count=20207 643 2364 3029 2692 1604 2382 1081 3958 185 184 267 117 759 168
internal_value=0 0.110491 0.0187242 0.165076 0.288074 -0.504789 -0.313051 -0.625406 -0.170804 -0.701368 -0.773653 -0.690227 -0.360389 -0.615404
internal_weight=0 7584.62 7118.29 5583.37 4905.25 1534.92 930.312 1329.71 189.73 678.121 604.607 1139.98 236.494 211.151
internal_count=39640 33810 31446 24687 21811 6759 4110 5830 828 2876 2649 5002 1044 927
shrinkage=0.05


Tree=17
num_leaves=20
num_cat=0
split_feature=21 21 29 29 28 28 15 39 15 10 29 29 15 8 24 41 24 15 8
split_gain=736.272 1609.13 244.636 931.514 198.392 379.411 136.98 143.471 77.1372 68.9061 56.3192 236.717 54.4415 41.4656 41.2547 37.591 15.0699 2.27544 1.09484
threshold=1.0000000180025095e-35 0.99994488409908888 1.0000000180025095e-35 0.99997593805284424 1.0000000180025095e-35 0.99990256883134154 1013.2387800018739 0.99995121521903674 10.157974786519832 1.0000487847809636 0.0029374709946926596 0.99997593805284424 770.0300000000002 0.018186092762694551 0.99997593805284424 0.0055963957975852527 0.99997593805284424 0.060474692802848291 0.99207898967418695
decision_type=2 2 2 2 2 2 2 2 2 2 2 2 2 2 2 2 2 2 2
left_child=2 -2 4 -4 13 -6 7 9 -7 -3 14 -12 15 -1 -8 -5 -14 -9 -15
right_child=1 6 3 12 5 8 10 17 -10 -11 11 -13 16 18 -16 -17 -18 -19 -20
leaf_value=-0.041069855618864892 0.064955290170278138 0.0015133411139687536 0.075546071670894555 -0.013549850265541386 0.068947794766321971 0.012162521565446199 0 -0 -0.019498303147715387 0.029185418720992957 0.069936657467233265 -0.019246931511190463 -0.0039256613919377249 0 -0.024480622422123812 0.013320202323101755 -0.029278956607766662 -0.037888975299142751 -0.0064092077165605055
leaf_weight=983.13839741051197 1175.0878173708916 500.85615660250187 341.4477314054966 346.17190577089787 125.94798444211483 185.45804232358932 200.01406326889992 28.738541126251221 2049.4432334005833 471.82610903680325 87.083902031183243 305.96814227104187 121.59803253412247 37.651302665472031 951.94149887561798 183.20234473049641 582.27442288398743 128.3577633202076 62.034771710634232
leaf_count=4361 6471 2086 1659 1486 620 778 821 116 8912 1983 378 1257 520 161 3936 789 2513 527 266
internal_value=0 0.328462 -0.252205 0.0686584 -0.401596 -0.231184 -0.0974876 0.160689 -0.332116 0.312113 -0.292528 0.0103365 -0.331557 -0.758476 -0.403672 -0.0649857 -0.514316 -0.679597 -0.028449
internal_weight=0 3849.87 5018.37 1574.69 3443.67 2360.85 2674.79 1129.78 2234.9 972.682 1545.01 393.052 1233.25 1082.82 1151.96 529.374 703.872 157.096 99.6861
internal_count=39640 17575 22065 6967 15098 10310 11104 4712 9690 4069 6392 1635 5308 4788 4757 2275 3033 643 427
shrinkage=0.05


Tree=18
num_leaves=19
num_cat=0
split_feature=21 21 17 17 41 41 15 13 38 38 42 42 29 29 13 8 8 1
split_gain=672.121 1514 222.467 1078.4 129.558 576.327 79.2553 70.7261 119.219 197.691 67.0746 231.243 65.2583 256.106 42.6686 31.9489 9.8336 1.69758
threshold=1.0000000180025095e-35 0.99994488409908888 1.0000000180025095e-35 0.99996625117671289 1.0000000180025095e-35 0.99996625117671289 127.6573948089065 10.97692040402571 0.99987377275471911 0.0034190573417394736 0.0034734805285946964 0.99997593805284424 1.0000000180025095e-35 0.99997593805284424 2.9877730913325942 0.0027074950433347571 0.018186092762694551 17.02941135087811
decision_type=2 2 2 2 2 2 2 2 2 2 2 2 2 2 2 2 2 2
left_child=2 -2 7 -4 10 -6 -7 8 9 -1 15 -12 14 -14 -5 -3 17 -9
right_child=1 4 3 12 5 6 -8 16 -10 -11 11 -13 13 -15 -16 -17 -18 -19
leaf_value=-0.013010015417012216 0.063933500178579142 -0.021291554384845313 0.06756008317435129 -0.00092548973464626986 0.073107485775791042 0.019628412860856023 -0.019158933937008939 -0.037439235791048874 -0.036993688574441151 0.068085652454469681 0.075475492640732167 -0.015845008486124443 0.07311218235310861 -0.017391182353401927 -0.028807340173066572 0.012017428543701879 -0 -0
leaf_weight=1433.6903532147408 1135.3425171822309 1174.6803029626608 454.24409422278404 203.03007574379444 253.37676085531712 142.67157481610775 672.50205916166306 667.03239603340626 520.13590821623802 67.931370049715042 78.996597737073898 293.81621752679348 81.22240874171257 515.9986535012722 1002.5856380164623 50.784423902630806 27.370975315570831 10.527355089783667
leaf_count=6226 6471 4873 2344 844 1125 611 2744 3000 2352 317 331 1212 362 2165 4287 208 120 48
internal_value=0 0.316414 -0.241172 -0.00424295 -0.0927562 0.170145 -0.232177 -0.432909 -0.325709 -0.171689 -0.274705 0.0733043 -0.356848 -0.0651581 -0.49139 -0.388408 -0.717515 -0.741367
internal_weight=0 3802.17 4983.77 2257.08 2666.83 1068.55 815.174 2726.69 2021.76 1501.62 1598.28 372.813 1802.84 597.221 1205.62 1225.46 704.931 677.56
internal_count=39640 17575 22065 10002 11104 4480 3355 12063 8895 6543 6624 1543 7658 2527 5131 5081 3168 3048
shrinkage=0.05


Tree=19
num_leaves=21
num_cat=0
split_feature=21 21 29 29 28 28 15 39 40 42 13 13 15 43 8 14 13 43 43 15
split_gain=616.053 1423.94 209.834 819.09 176.482 338.754 118.91 125.934 89.7128 75.1822 64.5623 115.76 49.4878 50.0571 36.4175 33.8544 16.3205 4.31807 2.26583 2.03968
threshold=1.0000000180025095e-35 0.99994488409908888 1.0000000180025095e-35 0.99997593805284424 1.0000000180025095e-35 0.99990256883134154 1013.2387800018739 0.99995121521903674 0.99987735474400352 0.0034734805285946964 6.0003390717344329 8.9683290994147615 720.00400000000013 1.0000000180025095e-35 0.018186092762694551 1719.7102766866385 8.9683290994147615 0.015296681196199259 1.0000000180025095e-35 0.060474692802848291
decision_type=2 2 2 2 2 2 2 2 2 2 2 2 2 2 2 2 2 2 2 2
left_child=2 -2 4 -4 14 -6 7 8 -3 -7 15 -12 13 -5 17 -8 -14 -1 -16 -9
right_child=1 6 3 12 5 9 10 19 -10 -11 11 -13 16 -15 18 -17 -18 -19 -20 -21
leaf_value=-0.042067561935990205 0.062985923618785924 0.02118122969355974 0.072740074674765898 -0.0087667349181757628 0.067031432532596885 -0.019073477996781205 -0.012962404597459327 -0 -0.020453988877937455 0.0057198687602893466 0.0053291212833028005 -0.029586147603118913 -0.014640487541463671 0.037168530448316243 -0.0079898577821670268 -0.043585016940347665 -0.034472358482627481 -0.023071499334743131 0.0026845296736536144 -0.035485433482876264
leaf_weight=743.30749663710594 1095.9510459154844 833.51356674730778 326.87196938693523 452.88121946156025 121.17265810072422 1886.8468853831291 270.58658629655838 28.679682955145836 132.67647358775139 324.9915633648634 700.26990714669228 336.37889994680882 424.8981496989727 56.480427369475365 76.65531425178051 225.19997447729111 286.64753165841103 219.08652985095978 22.476304695010185 127.08892445266247
leaf_count=3379 6471 3526 1659 1957 620 8274 1112 116 543 1416 2931 1426 1849 248 325 923 1254 982 102 527
internal_value=0 0.305753 -0.231113 0.0683518 -0.370394 -0.208882 -0.0876191 0.153337 0.296015 -0.303923 -0.270367 -0.113943 -0.30352 -0.0418582 -0.710769 -0.568946 -0.473796 -0.770782 -0.0192758 -0.635798
internal_weight=0 3750.35 4942.32 1547.78 3394.54 2333.01 2654.39 1121.96 966.19 2211.84 1532.44 1036.65 1220.91 509.362 1061.53 495.787 711.546 962.394 99.1316 155.769
internal_count=39640 17575 22065 6967 15098 10310 11104 4712 4069 9690 6392 4357 5308 2205 4788 2035 3103 4361 427 643
shrinkage=0.05


Tree=20
num_leaves=18
num_cat=0
split_feature=21 21 17 17 38 38 15 20 20 43 43 43 43 41 42 15 9
split_gain=560.792 1344.86 194.703 968.691 120.419 173.043 122.489 96.2384 123.906 63.8402 214.082 56.3508 198.424 43.1521 29.3063 23.4276 4.16597
threshold=1.0000000180025095e-35 0.99994488409908888 1.0000000180025095e-35 0.99996625117671289 0.99987377275471911 1.0000000180025095e-35 80.993348258358068 0.0029661212754067416 0.99987735474400352 0.0042893328850922017 0.99984780467738033 1.0000000180025095e-35 0.99984780467738033 0.0055963957975852527 0.0074291746075980667 213.87500000000003 2.1758980414461546
decision_type=2 2 2 2 2 2 2 2 2 2 2 2 2 2 2 2 2
left_child=2 -2 7 -4 5 6 -3 9 -9 14 -11 13 -13 -5 -1 -10 -6
right_child=1 4 3 11 16 -7 -8 8 15 10 -12 12 -14 -15 -16 -17 -18
leaf_value=-0.030694204358552846 0.062105084335193052 0.021255000872303639 0.065985763742964762 -0.028475971814012176 -0.032699896341275334 0.066997575812358087 -0.0086129220184840323 0.057230883903940433 0.010722704584355413 0.067536278344649245 -0.021517481025789653 0.074947009687374361 -0.015544169544704015 -0.0083792834394036311 -0.010486635505203897 -0.019890697181219261 -0
leaf_weight=1593.0917081981897 1057.04833984375 407.67739714682102 434.61914427578449 849.47948978841305 325.56772729754448 82.3243637830019 1819.5429437756538 74.790301308035851 56.641163975000381 70.827593430876732 375.53757329285145 63.01058404147625 345.74448722600937 525.86530658602715 308.16303952038288 209.90800234675407 13.341566368937491
leaf_count=7217 6471 1764 2344 3663 1381 371 7533 377 231 330 1664 282 1473 2240 1360 884 55
internal_value=0 0.29363 -0.221121 -0 -0.0844094 -0 -0.0570349 -0.401533 0.0679157 -0.47403 -0.102418 -0.329107 -0 -0.425377 -0.55505 -0.228498 -0.631996
internal_weight=0 3705.5 4907.68 2218.72 2648.45 2309.54 2227.22 2688.96 341.339 2347.62 446.365 1784.1 408.755 1375.34 1901.25 266.549 338.909
internal_count=39640 17575 22065 10002 11104 9668 9297 12063 1492 10571 1994 7658 1755 5903 8577 1115 1436
shrinkage=0.05


Tree=21
num_leaves=18
num_cat=0
split_feature=38 38 13 39 39 29 29 43 24 24 13 9 9 28 23 28 9
split_gain=452.587 747.912 418.752 456.87 362.095 150.369 357.855 35.2946 24.6674 45.9995 17.6873 11.6892 71.9777 2.84342 1.55651 0.962266 6.64487
threshold=0.99987377275471911 1.0000000180025095e-35 8.9683290994147615 0.99995121521903674 1.0000000180025095e-35 1.0000000180025095e-35 0.99997593805284424 0.0070458442612567071 0.99997593805284424 1.0000000180025095e-35 8.08054293315036 1.0000083050136073 1.9980840488064351 0.016683404094992586 0.1474998730957198 0.049989632037068861 1.0000000180025095e-35
decision_type=2 2 2 2 2 2 2 2 2 2 2 2 2 2 2 2 2
left_child=1 2 3 4 -1 7 -7 -4 9 15 -5 14 -13 -14 -10 -2 -17
right_child=8 -3 5 10 -6 6 -8 -9 11 -11 -12 12 13 -15 -16 16 -18
leaf_value=0.01052789691060671 -0.026674599783853864 0.069287635100925976 -0.036387454514041039 -0.035100082806612906 0.068983939386139434 0.065759355037623479 -0.018562553203354742 -0.015487597318937958 -0.034091857298794097 0.037601987111535624 -0.006447333319948712 0.04967409901142663 -0.029670206146602596 -0 -0 -0.022649449389416078 0.00029330552751527392
leaf_weight=3983.3228307664394 82.671932235360146 414.51431387662888 772.85137170553207 506.74901409447193 279.33940009772778 149.58416113257408 583.63851740956306 444.96796081960201 847.70804607868195 30.975047320127487 116.3853103518486 23.481177613139153 164.83631326258183 36.768905475735664 16.979227110743523 23.951885357499123 45.003175690770149
leaf_count=18222 350 2364 3536 2199 1537 801 2580 2055 3880 185 516 117 759 168 78 102 191
internal_value=0 0.0975142 0.0160385 0.173816 0.292563 -0.372839 -0.000680686 -0.586932 -0.546886 -0.122958 -0.614491 -0.607063 -0.29014 -0.526787 -0.673868 -0.399048 -0.0640513
internal_weight=0 7251.35 6836.84 4885.8 4262.66 1951.04 733.223 1217.82 1272.38 182.602 623.134 1089.77 225.086 201.605 864.687 151.627 68.9551
internal_count=39640 33810 31446 22474 19759 8972 3381 5591 5830 828 2715 5002 1044 927 3958 643 293
shrinkage=0.05


Tree=22
num_leaves=18
num_cat=0
split_feature=38 38 13 39 39 29 29 46 25 25 13 9 9 28 23 28 9
split_gain=413.264 700.477 380.681 416.088 342.399 137.548 331.915 30.6954 22.5267 42.9439 15.7441 10.4453 67.2896 2.32709 1.20168 0.771553 6.24942
threshold=0.99987377275471911 1.0000000180025095e-35 8.9683290994147615 0.99995121521903674 1.0000000180025095e-35 1.0000000180025095e-35 0.99997593805284424 0.99994488409908888 1.0000000180025095e-35 0.99994488409908888 8.08054293315036 1.0000083050136073 1.9980840488064351 0.016683404094992586 0.1474998730957198 0.049989632037068861 1.0000000180025095e-35
decision_type=2 2 2 2 2 2 2 2 2 2 2 2 2 2 2 2 2
left_child=1 2 3 4 -1 7 -7 -4 11 -10 -5 14 -13 -14 -2 -11 -17
right_child=8 -3 5 10 -6 6 -8 -9 9 15 -12 12 13 -15 -16 16 -18
leaf_value=0.01000631252617781 -0.032752189647696932 0.068010298265961486 -0.019109617806698904 -0.033639127807087062 0.06762029914653421 0.064363780999702386 -0.017709458307410709 -0.038392457384718963 0.036755791637912531 -0.025617839953728957 -0.006158078666294131 0.048296725931110063 -0.028542511929921445 -0 -0 -0.021928782674531758 0.00028129430008784934
leaf_weight=3981.9643049538136 838.89978168904781 401.69799217581749 684.09069141745567 502.85423924028873 271.13419786095619 145.50672151148319 581.69796007871628 524.62182515859604 30.349954396486282 82.202734977006912 116.2331885099411 23.234760954976082 163.21838675439358 36.768905475735664 16.979227110743523 23.833754897117615 45.005315840244293
leaf_count=18222 3880 2364 3181 2199 1537 801 2580 2410 185 350 516 117 759 168 78 102 191
internal_value=0 0.0932621 0.0151567 0.165606 0.27893 -0.35725 -0 -0.562713 -0.525215 -0.115512 -0.589086 -0.58321 -0.276567 -0.507669 -0.647519 -0.383564 -0.0574488
internal_weight=0 7209.8 6808.1 4872.19 4253.1 1935.92 727.205 1208.71 1260.49 181.392 619.087 1079.1 223.222 199.987 855.879 151.042 68.8391
internal_count=39640 33810 31446 22474 19759 8972 3381 5591 5830 828 2715 5002 1044 927 3958 643 293
shrinkage=0.05


Tree=23
num_leaves=21
num_cat=0
split_feature=21 21 24 24 42 42 15 41 41 42 41 12 15 43 15 13 15 42 11 15
split_gain=474.604 1220.26 170.809 374.008 126.4 433.03 99.7618 81.595 610.414 67.2517 61.5588 58.6437 52.5428 51.8598 51.747 24.362 10.8529 9.12523 6.0655 4.61326
threshold=1.0000000180025095e-35 0.99994488409908888 0.99997593805284424 1.0000000180025095e-35 1.0000000180025095e-35 0.99997593805284424 551.08275378320582 1.0000000180025095e-35 0.99996625117671289 0.0034734805285946964 1.0000000180025095e-35 349.01137517132685 1013.2387800018739 1.0000000180025095e-35 5911.2435454545475 7.998739119148591 4186.6895319538989 0.99997593805284424 2231.2148600303017 10081.532837307823
decision_type=2 2 2 2 2 2 2 2 2 2 2 2 2 2 2 2 2 2 2 2
left_child=2 -2 3 15 7 -6 9 13 -9 10 -3 19 -7 -4 -13 18 -17 -11 -1 -8
right_child=1 6 4 -5 5 12 11 8 -10 17 -12 14 -14 -15 -16 16 -18 -19 -20 -21
leaf_value=0.0042924100487590133 0.060800531524061313 -0.0097940506071568963 -0.029838077759388043 0.059645854584676167 0.074202340825222188 0.0074615685452355633 -0.031897033009164348 0.076921263455619962 -0.022501597188489181 0.058366547879103531 0.018734876727331748 -0.0011589349863976328 -0.029111278258825257 -0.010628903704653827 -0.026479504050975423 -0.0068937779516413753 -0.032782102377260786 0.013114686228165903 -0.0080301410837259803 -0
leaf_weight=182.76429356634617 987.93036185204983 391.65117739140987 1506.4747712165117 252.60817568004131 159.76858919113874 105.35092934966087 301.92753474414349 170.01583734154701 1039.3147594183683 64.199641719460487 334.4849840849638 1190.0797807872295 334.58398374915123 598.17370077967644 246.55706493556499 153.57882340252399 134.27178701758385 65.009666174650192 170.73475906252861 27.680034607648849
leaf_count=754 6471 1636 6982 1538 781 455 1286 811 4608 295 1457 5001 1488 2683 1035 655 601 275 709 119
internal_value=0 0.274256 -0.204947 0.181035 -0.295898 0.112404 -0.0801111 -0.372909 -0.151956 0.192631 0.0548836 -0.218163 -0.385415 -0.493821 -0.120062 -0.214358 -0.426872 0.835362 -0.0068172 -0.600178
internal_weight=0 3609.52 4807.64 893.958 3913.68 599.704 2621.59 3313.98 1209.33 855.345 726.136 1766.24 439.935 2104.65 1436.64 641.35 287.851 129.209 353.499 329.608
internal_count=39640 17575 22065 4257 17808 2724 11104 15084 5419 3663 3093 7441 1943 9665 6036 2719 1256 570 1463 1405
shrinkage=0.05


Tree=24
num_leaves=19
num_cat=0
split_feature=21 21 29 29 29 29 24 24 13 38 42 42 13 38 43 12 13 0
split_gain=433.289 1153.01 163.088 650.93 91.7097 368.496 83.9691 226.009 64.2057 71.1218 58.2574 248.351 36.2944 63.6165 27.9607 20.833 13.6662 3.68372
threshold=1.0000000180025095e-35 0.99994488409908888 1.0000000180025095e-35 0.99997593805284424 1.0000000180025095e-35 0.99997593805284424 0.99997593805284424 1.0000000180025095e-35 8.9683290994147615 0.99987377275471911 1.0000000180025095e-35 0.99997593805284424 11.936617553452026 0.99987377275471911 1.0000000180025095e-35 433.10872625934564 3.9997252614959824 50.469930935128708
decision_type=2 2 2 2 2 2 2 2 2 2 2 2 2 2 2 2 2 2
left_child=2 -2 6 -4 8 -6 7 16 9 -3 14 -12 13 -5 -8 -7 -1 -10
right_child=1 4 3 12 5 15 10 -9 17 -11 11 -13 -14 -15 -16 -17 -18 -19
leaf_value=0 0.060067143281710395 -0.00084949151967703368 0.068820340686551268 -0 0.071490484971041809 -0.0222297724525151 -0.025715133312651201 0.05608982476450896 -0.033877673749179819 -0.031460234538596657 0.069934034715554497 -0.022732795693297125 -0.030721798463279573 -0.030604074625104324 -0.0095252964003356057 -0.00090255446108766086 -0.020555319831344981 -0
leaf_weight=102.01118750870228 951.04959359765053 1301.0859172940254 297.12854769825935 739.16929066181183 178.05108670890331 169.64664773643017 1851.4843879193068 132.73860541731119 259.15774112939835 220.55698294937611 83.258844435214996 309.09784670174122 232.61367981135845 217.70622105896473 455.79614228010178 476.32657450437546 345.49673973023891 10.784821271896361
leaf_count=419 6471 5429 1659 3245 817 716 8553 806 1133 965 392 1378 1050 1013 2049 1997 1501 47
internal_value=0 0.264001 -0.196274 0.0727243 -0.0762899 0.192115 -0.321089 0.00745349 -0.205672 -0.115786 -0.395161 -0.011533 -0.253352 -0.149784 -0.455751 -0.150385 -0.318517 -0.654396
internal_weight=0 3566.66 4766.5 1486.62 2615.61 824.024 3279.88 580.247 1791.59 1521.64 2699.64 392.357 1189.49 956.876 2307.28 645.973 447.508 269.943
internal_count=39640 17575 22065 6967 11104 3530 15098 2726 7574 6394 12372 1770 5308 4258 10602 2713 1920 1180
shrinkage=0.05


Tree=25
num_leaves=20
num_cat=0
split_feature=21 21 29 29 28 28 14 12 13 13 40 13 38 0 8 14 43 43 2
split_gain=395.208 1091.06 147.957 606.559 136.603 263.44 89.5964 92.0417 79.1318 53.7683 34.7663 33.1692 58.3782 29.8521 29.268 7.02845 1.38119 1.3191 0.429723
threshold=1.0000000180025095e-35 0.99994488409908888 1.0000000180025095e-35 0.99997593805284424 1.0000000180025095e-35 0.99990256883134154 2884.2892606975379 349.01137517132685 11.936617553452026 1.9989894665965731 1.0000000180025095e-35 11.936617553452026 0.99987377275471911 46.002796997327046 0.018186092762694551 8453.8761904761923 0.015296681196199259 1.0000000180025095e-35 116.05944202907244
decision_type=2 2 2 2 2 2 2 2 2 2 2 2 2 2 2 2 2 2 2
left_child=2 -2 4 -4 14 -6 7 10 -9 -7 -3 12 -5 -8 16 -15 -1 -16 -13
right_child=1 6 3 11 5 9 13 8 -10 -11 -12 18 -14 15 17 -17 -18 -19 -20
leaf_value=-0.036675104369525119 0.059379746448748973 -0.028259484811002735 0.067461604693395724 -0 0.063473333327489667 0.011583296425159621 -0.037256945630173073 0.0088658674979272805 -0.022599668117531332 -0.014877720427608213 0.00016447988970363301 -0 -0.029445988490025429 -0.023096927979456561 -0.0059729322527728584 0.0029438605209703059 -0.019879262247482616 0.0028671968650115839 -0.030311001379516478
leaf_weight=697.72293822467327 914.98582409322262 332.27621082961559 288.38108142465353 739.16929066181183 109.61043947935104 183.84889703989029 230.49269364774227 1623.4013346731663 211.46856254339218 1955.7217393815517 107.13218355178833 11.16467499732971 215.40776631236076 21.468330010771751 75.140880689024925 80.439578860998154 211.24219658970833 21.660415962338448 219.25231216847897
leaf_count=3379 6471 1435 1659 3245 620 808 967 6897 917 8882 453 51 1013 90 325 345 982 102 999
internal_value=0 0.253863 -0.188075 0.0690536 -0.307384 -0.162961 -0.0733562 -0 0.0973121 -0.246561 -0.407348 -0.242807 -0.14327 -0.550268 -0.615726 -0 -0.671493 -0 -0.590465
internal_weight=0 3521.66 4728.32 1473.38 3254.95 2249.18 2606.68 2274.28 1834.87 2139.57 439.408 1184.99 954.577 332.401 1005.77 101.908 908.965 96.8013 230.417
internal_count=39640 17575 22065 6967 15098 10310 11104 9702 7814 9690 1888 5308 4258 1402 4788 435 4361 427 1050
shrinkage=0.05


Tree=26
num_leaves=20
num_cat=0
split_feature=21 21 17 17 41 41 20 20 15 42 42 46 46 43 43 15 15 8 15
split_gain=360.391 1032.91 143.687 772.677 86.479 493.377 76.5394 95.6157 56.1472 45.5981 188.981 45.4371 191.934 44.0346 164.98 29.0104 24.3164 23.5762 19.258
threshold=1.0000000180025095e-35 0.99994488409908888 1.0000000180025095e-35 0.99996625117671289 1.0000000180025095e-35 0.99996625117671289 0.0029661212754067416 0.99987735474400352 127.6573948089065 0.0034734805285946964 0.99997593805284424 1.0000000180025095e-35 0.99994488409908888 0.0042893328850922017 0.99984780467738033 0.020104184131310408 0.0068242981164722332 0.0027074950433347571 236.91269741663021
decision_type=2 2 2 2 2 2 2 2 2 2 2 2 2 2 2 2 2 2 2
left_child=2 -2 6 -4 9 -6 13 -8 -7 17 -11 15 -13 16 -15 -5 -1 -3 -9
right_child=1 4 3 11 5 8 7 18 -10 10 -12 12 -14 14 -16 -17 -18 -19 -20
leaf_value=0 0.058734145681921292 -0.017503286862886935 0.063412599466730044 0.0066048619673055673 0.069329648384433409 0.015305587453739425 0.053828547222294867 0.010930475803562316 -0.01740841684844668 0.069811563228266094 -0.014167168583633994 0.070885462949434361 -0.012505194803166534 0.061841952429587968 -0.018772892622348287 -0.026564608404109742 -0.024871463946304732 0.010710597057912594 -0.016663767803844251
leaf_weight=65.141979202628136 879.79262382537127 1145.8195853233337 388.80751626938581 43.316042691469193 237.73679436743259 138.63760584592819 68.125191450119019 59.646515071392059 665.07871049642563 75.410911589860916 289.64881227910519 63.237182922661304 966.8814340159297 65.351796120405197 365.66497607529163 657.79845078289509 1749.3982034623623 50.164678663015366 201.26227003335953
leaf_count=275 6471 4873 2344 177 1125 611 377 246 2744 331 1212 305 4265 330 1664 2911 8302 208 869
internal_value=0 0.243914 -0.180113 0.00823572 -0.0702034 0.146434 -0.338509 0.0853136 -0.220644 -0.221111 0.0649227 -0.274659 -0.12546 -0.405146 -0.0858206 -0.474963 -0.474631 -0.316526 -0.166784
internal_weight=0 3482.29 4694.63 2120.04 2602.5 1041.45 2574.59 329.034 803.716 1561.04 365.06 1731.23 1030.12 2245.56 431.017 701.114 1814.54 1195.98 260.909
internal_count=39640 17575 22065 10002 11104 4480 12063 1492 3355 6624 1543 7658 4570 10571 1994 3088 8577 5081 1115
shrinkage=0.05


Tree=27
num_leaves=21
num_cat=0
split_feature=21 21 24 24 42 42 15 39 40 41 41 13 13 15 43 14 13 15 11 15
split_gain=329.563 975.84 132.276 303.058 102.299 352.358 82.2808 86.7183 72.5597 71.3243 521.282 69.0326 84.9854 46.3454 40.6467 25.9407 21.414 10.3182 4.79013 2.58731
threshold=1.0000000180025095e-35 0.99994488409908888 0.99997593805284424 1.0000000180025095e-35 1.0000000180025095e-35 0.99997593805284424 1013.2387800018739 0.99995121521903674 0.99987735474400352 1.0000000180025095e-35 0.99996625117671289 6.0003390717344329 8.9683290994147615 1013.2387800018739 1.0000000180025095e-35 1578.797318181819 7.998739119148591 4186.6895319538989 2231.2148600303017 0.060474692802848291
decision_type=2 2 2 2 2 2 2 2 2 2 2 2 2 2 2 2 2 2 2 2
left_child=2 -2 3 16 9 -6 7 8 -3 14 -11 15 -13 -7 -4 -8 18 -18 -1 -9
right_child=1 6 4 -5 5 13 11 19 -10 10 -12 12 -14 -15 -16 -17 17 -19 -20 -21
leaf_value=0.0052831044262058313 0.058126590466929043 0.018744181664521652 -0.026576489430674852 0.057308286651826072 0.070271381928782364 0.0087715662629403845 -0.011544905341926624 -0 -0.018765645003335486 0.074340528967855396 -0.0195737914826844 0.0065491861249522762 -0.023984037721451024 -0.025839957211518685 -0.0091968552056239782 -0.039165826447177525 -0.0047390384748825509 -0.029602851185593262 -0.0060950039737840073 -0.029692849619740409
leaf_weight=181.16768337786198 845.51191513240337 811.22742097079754 1454.8954781889915 226.48823945224285 149.11234767735004 104.15625137090683 253.63769039511681 28.369971796870232 131.73396103084087 161.82739853858948 1013.5784856081009 683.1855815500021 322.3804796487093 324.72565597295761 586.61839389055967 235.71930196881294 150.8597344905138 130.00771574676037 168.72868828475475 122.97216002643108
leaf_count=754 6471 3526 6982 1538 781 455 1052 116 543 811 4608 2931 1426 1488 2683 983 655 601 709 527
internal_value=0 0.235922 -0.171941 0.174491 -0.25308 0.120174 -0.0661233 0.135941 0.256747 -0.323407 -0.11408 -0.220603 -0.0577417 -0.325735 -0.437909 -0.527377 -0.171244 -0.371781 -0 -0.52404
internal_weight=0 3434.74 4652.17 857.252 3794.91 577.994 2589.23 1094.3 942.961 3216.92 1175.41 1494.92 1005.57 428.882 2041.51 489.357 630.764 280.867 349.896 151.342
internal_count=39640 17575 22065 4257 17808 2724 11104 4712 4069 15084 5419 6392 4357 1943 9665 2035 2719 1256 1463 643
shrinkage=0.05


Tree=28
num_leaves=20
num_cat=0
split_feature=21 21 13 43 43 41 41 38 38 14 15 20 25 25 8 9 47 29 15
split_gain=299.725 925.456 128.904 163.474 230.811 113.807 443.833 80.7742 129.139 87.4107 79.3237 46.7321 15.741 59.7346 13.4271 3.64123 2.65442 1.69522 1.38224
threshold=1.0000000180025095e-35 0.99994488409908888 10.97692040402571 1.0000000180025095e-35 0.99984780467738033 1.0000000180025095e-35 0.99996625117671289 0.99987377275471911 1.0000000180025095e-35 2884.2892606975379 1339.4231661801339 0.0029661212754067416 1.0000000180025095e-35 0.99994488409908888 1.0192849743391525 2.1758980414461546 0.0068333718244883443 1.0000000180025095e-35 0.010067578180237692
decision_type=2 2 2 2 2 2 2 2 2 2 2 2 2 2 2 2 2 2 2
left_child=2 -2 3 5 -5 11 -7 8 9 -3 -6 -1 14 -14 16 18 -4 -15 -9
right_child=1 7 12 4 10 6 -8 15 -10 -11 -12 -13 13 17 -16 -17 -18 -19 -20
leaf_value=-0.018399185086896849 0.057553702623579478 0.001382484817466241 -0.030972993269988494 0.066335308303922466 0.033392669186076973 0.069172204656546318 -0.011221995595890656 -0 0.060594386304683862 -0.028658146217712621 -0.013048362712969603 0.007803724290759706 0.039864767969973326 -0.025846061716885051 0 -0 -0.01556946774754947 -0 -0.02782215859000416
leaf_weight=1718.8405510932207 812.17555765062571 1917.8171725273132 620.61349511146545 175.35009414702654 117.13552390038967 202.98168879747391 858.16142286360264 11.811732202768324 75.206817209720612 263.76148883998394 322.10596562922001 154.91956143826246 37.429686285555363 120.84793724119663 13.826345920562742 13.128550827503203 229.60959848761559 40.803373500704765 301.25141839683056
leaf_count=8189 6471 8184 3023 1012 518 1135 3818 49 371 1113 1442 723 244 568 63 55 1152 178 1332
internal_value=0 0.226361 -0.164604 -0.0692522 0.390886 -0.170005 0.083834 -0.063861 0 -0.0427118 -0 -0.318748 -0.470026 -0.132737 -0.53389 -0.521265 -0.552475 -0.440243 -0.542245
internal_weight=0 3395.15 4612.63 3549.49 614.592 2934.9 1061.14 2582.98 2256.79 2181.58 439.241 1873.76 1063.13 199.081 864.049 326.192 850.223 161.651 313.063
internal_count=39640 17575 22065 16837 2972 13865 4953 11104 9668 9297 1960 8912 5228 990 4238 1436 4175 746 1381
shrinkage=0.05


Tree=29
num_leaves=21
num_cat=0
split_feature=29 29 28 28 15 24 15 38 39 8 39 9 9 24 43 43 2 43 8 15
split_gain=288.47 1017.14 286.16 441.529 123.944 94.7865 74.2607 83.6001 79.3703 44.7301 34.1733 22.8952 83.9928 14.488 7.62594 62.1312 1.08458 0.826746 1.79031 0.974613
threshold=1.0000000180025095e-35 0.99997593805284424 1.0000000180025095e-35 0.99990256883134154 4.9475000000000007 0.99997593805284424 551.08275378320582 0.99987377275471911 0.99995121521903674 0.014533898813582729 0.99995121521903674 1.0000083050136073 1.9980840488064351 0.99997593805284424 0.015296681196199259 0.99984780467738033 1126.0633124475896 1.0000000180025095e-35 0.99207898967418695 5617.9066317296683
decision_type=2 2 2 2 2 2 2 2 2 2 2 2 2 2 2 2 2 2 2 2
left_child=2 -2 9 -4 10 -6 7 8 -3 14 -5 13 -13 -8 -1 -16 -9 18 -11 -19
right_child=1 6 3 4 5 -7 11 16 -10 17 -12 12 -14 -15 15 -17 -18 19 -20 -21
leaf_value=-0.034666631338961244 0.065369378580254989 0.023576156057462615 0.065109395188894637 0.02919805059377566 0.012878051539825089 -0.010693726705416774 -0 -0.02622133450418972 -0.021609492291554774 0 -0.0058370992532611257 0.054200233284199741 -0.011987748799955565 -0.02038819348927343 0.041397749760295532 -0.027261084421127842 -0 0.013565708426482357 -0.0090610661031015321 -0
leaf_weight=822.93340573459864 688.87162411957979 519.23676661401987 232.734668597579 312.37830226868391 468.69952406734228 3057.0382482111454 112.62151327729225 135.50996721535921 99.532208755612373 54.690394684672356 56.666661188006401 45.906236574053764 310.1459384560585 686.1754979789257 24.197503916919231 223.77747235447168 9.8331320434808713 11.044331282377245 52.195424936711788 13.237758561968802
leaf_count=4095 4609 2523 1528 1535 2375 14458 521 631 445 237 242 278 1415 3161 131 1059 46 55 229 67
internal_value=0 0.27343 -0.131798 -0.00389299 -0.0876344 -0.147824 -0.0974117 0.134914 0.30569 -0.559073 0.449745 -0.259555 -0.0168117 -0.353844 -0.625998 -0.345563 -0.500632 -0 -0.0464559 0.129452
internal_weight=0 2607.83 5329.59 4127.52 3894.78 3525.74 1918.96 764.112 618.769 1202.08 369.045 1154.85 356.052 798.797 1070.91 247.975 145.343 131.168 106.886 24.2821
internal_count=39640 13629 26011 20138 18610 16833 9020 3645 2968 5873 1777 5375 1693 3682 5285 1190 677 588 466 122
shrinkage=0.05


Tree=30
num_leaves=18
num_cat=0
split_feature=29 29 28 28 41 41 42 38 13 39 7 43 43 0 24 26 12
split_gain=262.727 958.024 262.222 412.657 120.331 665.918 54.0793 53.6219 68.2654 42.4355 34.9343 17.9811 65.0931 4.83526 3.49514 0.774835 0.0279494
threshold=1.0000000180025095e-35 0.99997593805284424 1.0000000180025095e-35 0.99990256883134154 1.0000000180025095e-35 0.99996625117671289 1.0000000180025095e-35 0.99987377275471911 11.936617553452026 0.99995121521903674 9.8163714789142076e-05 0.0070458442612567071 0.99984780467738033 23.941445661216417 0.99997593805284424 0.99950406776518652 1841.1921120719965
decision_type=2 2 2 2 2 2 2 2 2 2 2 2 2 2 2 2 2
left_child=2 -2 10 -4 6 -6 -5 8 9 -3 11 -1 -13 -10 16 -12 -9
right_child=1 7 3 4 5 -7 -8 14 13 -11 15 12 -14 -15 -16 -17 -18
leaf_value=-0.03347166615565194 0.06442189159524947 0.0081339122601224393 0.064032418847141337 -0.014969621293332276 0.066720930314022361 -0.011667570391179997 0.0022915419027241548 -0.0014290287428310774 -0 -0.019701791726333441 0.0092415264824243903 0.044171383461111657 -0.023785143161905789 -0.022646835166703586 -0.025660063481651386 -0 0
leaf_weight=834.84121142327785 664.81081598997116 1115.4805356934667 225.17696291208267 1905.4073350355029 345.88776062428951 1106.2242894247174 529.02222334593534 24.216162607073784 49.570868395268917 138.41474271565676 12.68097000569105 27.535033203661442 237.8201899304986 296.79113461822271 269.48893666267395 75.511118344962597 17.005811147391796
leaf_count=4200 4609 5290 1528 8962 2145 4992 2511 109 226 623 66 153 1137 1391 1306 317 75
internal_value=0 0.263058 -0.125618 -0.00318917 -0.0832338 0.139819 -0.220401 -0.0933075 -0.0119763 0.0906804 -0.537307 -0.585747 -0.271392 -0.40379 -0.467573 0 -0
internal_weight=0 2575.78 5300.11 4111.72 3886.54 1452.11 2434.43 1910.97 1600.26 1253.9 1188.39 1100.2 265.355 346.362 310.711 88.1921 41.222
internal_count=39640 13629 26011 20138 18610 7137 11473 9020 7530 5913 5873 5490 1290 1617 1490 383 184
shrinkage=0.05


Tree=31
num_leaves=20
num_cat=0
split_feature=21 21 16 16 15 12 14 13 41 46 40 40 15 43 43 15 2 7 42
split_gain=243.375 827.688 110.935 589.019 85.435 71.8225 66.0738 60.036 55.72 49.4073 32.976 47.4107 19.5267 19.0233 31.2035 25.8689 12.3759 7.42694 5.55019
threshold=1.0000000180025095e-35 0.99994488409908888 0.99987377275471911 1.0000000180025095e-35 236.91269741663021 349.01137517132685 2884.2892606975379 11.936617553452026 1.0000000180025095e-35 1.0000000180025095e-35 1.0000000180025095e-35 0.99987735474400352 0.045507043093397155 0.0042893328850922017 0.99984780467738033 913.47166666666669 851.88383484632493 0.0032095421072192362 0.0074291746075980667
decision_type=2 2 2 2 2 2 2 2 2 2 2 2 2 2 2 2 2 2 2
left_child=2 -2 3 4 8 10 7 -7 -1 -6 12 -12 -3 17 -15 -16 -8 18 -4
right_child=1 5 13 -5 9 6 16 -9 -10 -11 11 -13 -14 14 15 -17 -18 -19 -20
leaf_value=-0.002617757819424988 0.05647964570880324 0 -0.027364085086862569 0.064737384061711756 -0.021354337099961377 0.0081041589813892825 -0.031366656856552058 -0.01957380276071851 0.027953082493320958 -0.0063683445328223988 0.048791942493129216 -0.015775114090286813 -0.030489657428898823 0.037509976776836845 0.021279145846166882 -0.021597786153175889 -0.0028537130826681509 0 -0.0091160117109963523
leaf_weight=432.45331674814224 743.48312236368656 29.50589457154274 744.28065322339535 283.82526002824306 1133.8099853768945 1593.8844493553042 151.58629401028156 205.63046577572823 199.54711569100618 1332.4810172915459 29.714326053857803 86.364002496004105 347.2938170582056 22.556841805577278 23.768951892852783 175.36584070324898 108.96492138504982 10.561127737164496 152.15499304234982
leaf_count=1985 6471 128 3801 1842 5310 6897 650 917 919 6361 136 363 1538 123 103 844 475 46 731
internal_value=0 0.207928 -0.149045 -0.0545615 -0.185153 -0.059943 0.0180623 0.0914878 0.130818 -0.270361 -0.399741 0 -0.541294 -0.420416 -0.0918213 -0.266328 -0.436732 -0.487951 -0.499063
internal_weight=0 3296.43 4510.81 3382.12 3098.29 2552.94 2060.07 1799.51 632 2466.29 492.878 116.078 376.8 1128.69 221.692 199.135 260.551 906.997 896.436
internal_count=39640 17575 22065 16417 14575 11104 8939 7814 2904 11671 2165 499 1666 5648 1070 947 1125 4578 4532
shrinkage=0.05


Tree=32
num_leaves=19
num_cat=0
split_feature=24 24 29 29 28 28 15 15 38 15 43 15 9 0 10 9 10 11
split_gain=235.626 610.443 172.332 700.911 163.455 186.985 94.6845 52.278 52.9113 27.4844 25.4478 17.3941 16.3438 9.57077 9.06915 3.03165 2.8286 2.79776
threshold=0.99997593805284424 1.0000000180025095e-35 1.0000000180025095e-35 0.99997593805284424 1.0000000180025095e-35 0.99990256883134154 4.9475000000000007 551.08275378320582 0.99987377275471911 5647.4536493837213 1.0000000180025095e-35 2862.5506581938857 1.0000083050136073 48.002230119953971 1.9972816801854767 7.907385777378356 2.0627235554863836 2205.7659877892106
decision_type=2 2 2 2 2 2 2 2 2 2 2 2 2 2 2 2 2 2
left_child=1 9 4 -4 15 -6 -7 8 -5 10 14 -12 -9 16 -1 -2 -11 -15
right_child=2 -3 3 7 5 6 -8 12 -10 13 11 -13 -14 17 -16 -17 -18 -19
leaf_value=-0.00051423459663567925 -0.029796955393848707 0.060602044097974109 0.06440025157206708 0.0109503510803401 0.060966234895820884 0.018206731541196494 -0.0097765739548004681 -0.019021906511062638 -0.024546733919937259 -0.027833083501503614 0.026684593344150027 -0 -0.0020600778019137594 0.01009753828820586 -0.01685745755088295 -0 -0 -0.0090418522760304914
leaf_weight=378.29203170537949 839.37199744582176 528.1566726192832 421.65114884823561 508.53543202579021 93.520214952528477 315.61525920033455 3016.0104546621442 677.25188490003347 117.33634183555841 158.74283853173256 113.37673435360193 60.593768276274204 270.95681414753199 22.201430603861809 137.17156835645437 12.848662883043287 35.199756242334843 35.393309265375137
leaf_count=1687 4313 4030 2928 2418 630 1528 14458 3161 564 730 522 280 1304 102 589 64 169 163
internal_value=0 0.36079 -0.0828129 0.156544 -0.196929 -0.0951598 -0.138589 -0.146447 0.0645556 -0.114212 -0 0.31059 -0.295377 -0.390536 -0.121059 -0.588502 -0.492463 -0
internal_weight=0 1469.13 6273.1 1995.73 4277.37 3425.15 3331.63 1574.08 625.872 940.971 689.434 173.971 948.209 251.537 515.464 852.221 193.943 57.5947
internal_count=39640 8272 31368 10375 20993 16616 15986 7447 2982 4242 3078 802 4465 1164 2276 4377 899 265
shrinkage=0.05


Tree=33
num_leaves=21
num_cat=0
split_feature=41 41 43 43 15 15 42 42 15 14 38 13 13 13 12 15 14 47 29 12
split_gain=224.967 1264.49 138.33 487.529 177.467 119.917 72.6226 268.663 96.6816 58.2875 65.5742 38.5006 85.8563 32.9216 20.9289 19.3778 15.9609 12.1181 1.35062 0.866469
threshold=1.0000000180025095e-35 0.99996625117671289 1.0000000180025095e-35 0.99984780467738033 2651.1420000000003 107.65166666666669 1.0000000180025095e-35 0.99997593805284424 1013.2387800018739 1578.797318181819 0.99987377275471911 9.976485982113422 8.0010367891673297 13.999759380528443 798.59384389794889 0.0068242981164722332 595.2409129465417 1.0000000180025095e-35 0.009910206525476974 1656.0575782802587
decision_type=2 2 2 2 2 2 2 2 2 2 2 2 2 2 2 2 2 2 2 2
left_child=2 -2 6 -4 13 14 9 -8 -9 15 -11 12 -7 -5 16 -1 -3 -6 -13 -16
right_child=1 5 3 4 17 11 7 8 -10 10 -12 18 -14 -15 19 -17 -18 -19 -20 -21
leaf_value=-0 0.065304230028930071 0.033288402643958784 0.065210233030506021 0.026719304493580349 -0.025845769251017114 -0.015354238472338326 0.061178530617606287 0.014865927513400524 -0.02222599742057247 0.0060617499581909796 -0.016531304780389021 -0.033179156175302892 0.019093928014898225 -0.0062388183306502695 0.0044509505483352379 -0.025539009305515687 -0 -0.0041546819494655586 -0.014845873711756497 -0.0032964206461662108
leaf_weight=113.13094589114189 775.0510630607605 169.9522745385766 275.9184152930975 300.6308603733778 584.33537326753139 1056.9596398100257 142.25843673199415 225.54553156346083 579.95029355585575 480.20621877908707 810.53225936740637 277.75157924741507 197.28886976093054 66.104201830923557 69.017058297991753 1180.7022056505084 17.319471545517445 142.16994736343622 172.23898229748011 45.286843225359917
leaf_count=507 5509 835 1938 1439 2761 4806 985 1012 2702 2423 4137 1429 945 323 324 5741 80 717 819 208
internal_value=0 0.228379 -0.12715 0.137425 -0.157141 -0.187501 -0.232623 0 -0.223438 -0.319172 -0.155188 -0.293743 -0.18864 0.38887 0.370948 -0.472649 0.568704 -0.447879 -0.554483 0
internal_weight=0 2780.87 4901.48 1369.16 1093.24 2005.81 3532.33 947.754 805.496 2584.57 1290.74 1704.24 1254.25 366.735 301.576 1293.83 187.272 726.505 449.991 114.304
internal_count=39640 14955 24685 7178 5240 9446 17507 4699 3714 12808 6560 7999 5751 1762 1447 6248 915 3478 2248 532
shrinkage=0.05


Tree=34
num_leaves=21
num_cat=0
split_feature=24 24 41 41 15 42 42 15 43 43 14 12 14 12 43 15 28 0 41 15
split_gain=205.333 558.518 168.154 998.18 92.5058 81.3281 335.36 70.5605 37.2213 165.722 38.2654 31.5408 23.8588 16.4258 12.2936 23.0383 9.21208 7.56817 4.29572 0.161249
threshold=0.99997593805284424 1.0000000180025095e-35 1.0000000180025095e-35 0.99996625117671289 107.65166666666669 1.0000000180025095e-35 0.99997593805284424 1013.2387800018739 1.0000000180025095e-35 0.99984780467738033 1578.797318181819 1531.0701902021626 2884.2892606975379 777.00242288831635 1.0000000180025095e-35 2862.5506581938857 1.0000000180025095e-35 49.008497719862739 0.24450780863566221 13419.91816666667
decision_type=2 2 2 2 2 2 2 2 2 2 2 2 2 2 2 2 2 2 2 2
left_child=1 12 5 -4 13 8 -7 -8 10 -10 -2 -6 14 -5 16 -16 -1 18 -14 -19
right_child=2 -3 3 4 11 6 7 -9 9 -11 -12 -13 17 -15 15 -17 -18 19 -20 -21
leaf_value=-0.010811662116830233 -0.02431608155806169 0.059534157401555779 0.065647136847023779 0.024180283382216963 -0.011226202413980563 0.064080922318765096 0.011646267333272051 -0.022794934722841692 0.060029932559770176 -0.01212142080810385 -0.0098665951374833274 -0.029749526319876748 -0.027109137278592488 -0 0.025245779924270219 -0.0040116991255996944 0.0009930059815480665 0.00054876948319362916 -0 -0.0042887205052354032
leaf_weight=290.38945115357637 1127.089496947825 495.28208520263433 539.98230064660311 163.50434142351151 1139.1494036465883 170.22992683202028 184.17088266462088 483.0299124866724 77.691024094820023 763.13844085484743 1078.1353361681104 367.20016480982304 147.12381878495216 90.350455790758133 106.49707674980164 100.2731444761157 216.69678173959255 35.987685240805149 26.152431003749371 11.164112091064451
leaf_count=1274 5485 4030 3793 794 5307 1142 820 2267 503 3604 5472 1768 673 413 494 474 983 165 125 54
internal_value=0 0.341921 -0.0773273 0.133964 -0.227439 -0.205066 0.060703 -0.250361 -0.281364 -0.0847984 -0.351077 -0.324755 -0.105279 0.30255 -0.000660935 0.184405 -0.0975697 -0.385953 -0.478097 -0
internal_weight=0 1429.57 6183.67 2300.19 1760.2 3883.49 837.431 667.201 3046.05 840.829 2205.22 1506.35 934.285 253.855 713.856 206.77 507.086 220.428 173.276 47.1518
internal_count=39640 8272 31368 12075 8282 19293 4229 3087 15064 4107 10957 7075 4242 1207 3225 968 2257 1017 798 219
shrinkage=0.05


Tree=35
num_leaves=22
num_cat=0
split_feature=29 29 13 39 39 42 15 42 41 46 46 12 14 15 8 25 11 1 15 0 46
split_gain=194.889 786.59 138.742 110.211 294.001 89.026 54.8759 33.6601 35.2559 24.9011 186.87 20.2498 20.3117 16.7952 9.2099 8.63019 8.57691 6.21272 4.43537 3.97716 2.61402
threshold=1.0000000180025095e-35 0.99997593805284424 8.9683290994147615 0.99995121521903674 1.0000000180025095e-35 1.0000000180025095e-35 411.60987823730289 1.0000000180025095e-35 1.0000000180025095e-35 0.99994488409908888 1.0000000180025095e-35 457.09975256798742 2884.2892606975379 2724.364834408429 0.37956200579437577 0.023966973842129091 460.06323205642383 0.99717275227609892 0.010067578180237692 51.005240814865076 1.0000000180025095e-35
decision_type=2 2 2 2 2 2 2 2 2 2 2 2 2 2 2 2 2 2 2 2 2
left_child=2 -2 3 4 5 -1 7 8 -3 10 15 16 -13 18 19 -4 -8 -15 -5 -11 -9
right_child=1 6 9 13 -6 -7 11 20 -10 14 -12 12 -14 17 -16 -17 -18 -19 -20 -21 -22
leaf_value=-0.0049469985072225506 0.062148523901976893 -0.0070289138184866304 -0.025491127815472487 -0.0032839888881914126 0.06494106145518598 0.016724315938836443 -0.012006783229227807 0 0.017830123586470153 -0.031269002137706212 0.060931972600918607 -0.0019470070432165299 -0.024024804075729843 0 0 -0.0044530045266648575 -0.038415266094276979 -0.014939954665114157 -0.036146695411242095 -0 0.038065022966852415
leaf_weight=2755.8364331051707 578.21333212405443 355.78416599333286 472.31071411818266 49.810793995857239 166.94745326787233 558.27473018318415 215.30222053080797 9.527824401855467 215.23325776308775 489.17536006122828 64.465502426028252 778.35531276464462 126.12186732888222 72.256500355899334 10.946470648050306 128.15578608214855 85.700782425701618 100.61419308185577 224.19299068301916 10.836163006722925 75.111187256872654
leaf_count=13616 4609 1683 2440 214 1151 2950 1023 45 1100 2557 406 3763 589 347 57 671 399 472 1074 56 418
internal_value=0 0.233852 -0.109169 -0.0159639 0.0418932 -0.0221327 -0.0792818 0.143299 0.0325247 -0.409316 -0.2481 -0.208753 -0.116028 -0.479598 -0.59113 -0.439331 -0.442538 -0.14153 -0.645183 -0.612366 0.702573
internal_weight=0 2439.35 5103.82 3927.93 3481.06 3314.11 1861.14 655.656 571.017 1175.89 664.932 1205.48 904.477 446.874 510.958 600.467 301.003 172.871 274.004 500.012 84.639
internal_count=39640 13629 26011 19824 17717 16566 9020 3246 2783 6187 3517 5774 4352 2107 2670 3111 1422 819 1288 2613 463
shrinkage=0.05


Tree=36
num_leaves=21
num_cat=0
split_feature=41 41 24 24 15 29 29 28 28 13 13 15 12 15 8 38 0 17 29 12
split_gain=183.202 1094.24 113.196 311.443 96.45 60.916 320.901 49.6915 101.616 34.6458 130.982 21.7197 17.7677 13.2807 7.82848 7.54747 6.94434 6.22443 5.53226 0.734508
threshold=1.0000000180025095e-35 0.99996625117671289 0.99997593805284424 1.0000000180025095e-35 107.65166666666669 1.0000000180025095e-35 0.99997593805284424 1.0000000180025095e-35 0.99990256883134154 8.9683290994147615 8.0010367891673297 5647.4536493837213 798.59384389794889 236.91269741663021 1.2651981991636638 0.99987377275471911 49.008497719862739 0.99996625117671289 0.009910206525476974 1656.0575782802587
decision_type=2 2 2 2 2 2 2 2 2 2 2 2 2 2 2 2 2 2 2 2
left_child=2 -2 3 11 12 7 -7 14 -9 10 -6 15 17 -8 -4 -1 -13 -3 -11 -14
right_child=1 4 5 -5 9 6 13 8 -10 18 -12 16 19 -15 -16 -17 -18 -19 -20 -21
leaf_value=0.0020593648065253042 0.063394845688036133 0.029775209770724884 -0.027739602177109631 0.056807838175831904 -0.014020637536010025 0.060405413051739576 -0.00076867733267264881 0.052588084035590954 -0.011705962319108851 -0.0304777685121237 0.037243527948170561 -0.023988237575492292 0.0038609737281292446 -0.015436790504702636 0 -0.012262863244974734 -0 0 -0.011934992376446818 -0.0034689431985322188
leaf_weight=398.73021078109741 709.7672965452075 154.45961933583021 586.87812761962414 246.02303215116262 1048.1255803480744 174.94633456319571 299.06483007222414 51.085510320961475 2048.5323790758848 308.15746731311083 127.66876931488514 175.5117175579071 68.668902009725571 663.26991090923548 13.306146204471586 103.988888643682 41.483336865901947 29.688501760363579 198.80014350265265 45.140989229083061
leaf_count=1785 5509 794 3149 2129 4806 1281 1424 367 9850 1622 617 826 324 3161 61 462 190 121 954 208
internal_value=0 0.210137 -0.115277 0.184137 -0.168343 -0.193517 0 -0.275038 -0.193255 -0.264623 -0.155311 -0.138702 0.333878 -0.228948 -0.536892 -0.00218855 -0.396885 0.518012 -0.490901 0
internal_weight=0 2690.48 4802.82 965.737 1980.71 3837.08 1137.28 2699.8 2099.62 1682.75 1175.79 719.714 297.958 962.335 600.184 502.719 216.995 184.148 506.958 113.81
internal_count=39640 14955 24685 5392 9446 19293 5866 13427 10217 7999 5423 3263 1447 4585 3210 2247 1016 915 2576 532
shrinkage=0.05


Tree=37
num_leaves=18
num_cat=0
split_feature=38 38 13 39 39 9 9 13 13 20 24 24 0 28 23 9 9
split_gain=172.182 449.528 183.913 200.885 266.421 17.4181 54.8397 14.344 16.8146 8.98285 6.222 5.66598 5.39056 5.02959 2.24012 1.4804 0.189034
threshold=0.99987377275471911 1.0000000180025095e-35 12.998756561133899 0.99995121521903674 1.0000000180025095e-35 1.0000083050136073 1.9980840488064351 16.999988926648527 16.005041304039345 0.0029661212754067416 0.99997593805284424 1.0000000180025095e-35 22.999390202874366 0.016683404094992586 0.1474998730957198 5.4074644533254252 2.0006717477410914
decision_type=2 2 2 2 2 2 2 2 2 2 2 2 2 2 2 2 2
left_child=1 2 3 4 -1 10 -7 8 -4 -5 11 -2 -9 15 -12 -8 -15
right_child=5 -3 7 9 -6 6 13 12 -10 -11 14 -13 -14 16 -16 -17 -18
leaf_value=0.0050113179259807447 -0.010893413101046443 0.063157172156133881 -0.013670401392769 -0.023641789772916977 0.061912089153124628 0.049810102205213619 -0.018459195548159221 -0 0.02284649068245713 0 -0.023592188029641144 0.012467389683806616 -0.027580829325513114 -0.0014222938019966349 -0 0 0.0039540855988688083
leaf_weight=4239.4422439448535 84.590297915041447 289.01548084244132 433.53683231025934 581.17895451188087 209.07915596663952 27.574189014732838 178.54586331546307 20.11828139424324 15.395625516772268 39.522172518074512 746.75308635830879 12.619232729077337 475.36655639857054 31.568981319665909 15.522094801068304 9.9945174604654294 14.848102390766142
leaf_count=21752 376 2364 2297 2795 1657 176 930 97 108 188 3880 104 2552 152 78 52 82
internal_value=0 0.0662607 0.00507689 0.0823827 0.158613 -0.35724 -0.077522 -0.395905 -0.217162 -0.441951 -0.429306 -0.0463407 -0.530572 -0.27988 -0.463962 -0.349255 0
internal_weight=0 6302.66 6013.64 5069.22 4448.52 1122.02 262.532 944.417 448.932 620.701 859.485 97.2095 495.485 234.957 762.275 188.54 46.4171
internal_count=39640 33810 31446 26392 23409 5830 1392 5054 2405 2983 4438 480 2649 1216 3958 982 234
shrinkage=0.05


Tree=38
num_leaves=20
num_cat=0
split_feature=24 24 16 16 29 29 28 14 43 15 28 0 42 42 15 32 15 15 15
split_gain=163.93 486.96 125.198 413.967 109.449 416.701 97.8091 19.9794 10.6996 19.8024 7.68474 6.4967 6.14849 18.2188 5.91779 4.80081 2.89834 2.3418 0.106947
threshold=0.99997593805284424 1.0000000180025095e-35 0.99987377275471911 1.0000000180025095e-35 1.0000000180025095e-35 0.99997593805284424 1.0000000180025095e-35 2884.2892606975379 1.0000000180025095e-35 2862.5506581938857 1.0000000180025095e-35 48.002230119953971 0.0074291746075980667 0.99997593805284424 666.76457559292805 0.0043036474054377613 585.4269048136058 0.0068242981164722332 12137.191447759666
decision_type=2 2 2 2 2 2 2 2 2 2 2 2 2 2 2 2 2 2 2
left_child=1 7 3 4 6 -6 -2 8 10 -10 -1 16 15 -14 -15 17 -9 -4 -13
right_child=2 -3 12 -5 5 -7 -8 11 9 -11 -12 18 13 14 -16 -17 -18 -19 -20
leaf_value=-0.0098759902844646613 -0.028420769086088295 0.058053520256818238 -0 0.060679080256447894 0.060909354043395397 -0.0049632534807872554 -0.0048511295584584601 0 0.023769013493519606 -0.0031776587584345021 0.00079864546759729363 0 0.029769965824568641 0 -0.019611900994276277 -0 -0.024006546286399109 -0.023710046009430125 -0.0034589532255579411
leaf_weight=287.76184786111116 537.72877129912376 445.38234063237906 19.37879441678524 253.05758227035403 283.11231723800302 1271.4134835898876 2765.3684929311275 10.135778076946734 105.37190809100866 98.942598596215248 214.84678266197443 41.575475580990314 14.438707754015921 18.288786917924881 97.074528530240059 28.82858644425869 152.70593114942312 728.92592878639698 12.347103312611578
leaf_count=1274 2828 4030 84 2086 2181 6022 13412 46 494 474 983 193 67 82 506 168 718 3932 60
internal_value=0 0.312955 -0.0692015 -0.00615212 -0.0741111 0.140532 -0.178265 -0.0933332 -0 0.176945 -0.0882201 -0.352099 -0.409644 -0.0845936 -0.290174 -0.449467 -0.44748 -0.464792 -0
internal_weight=0 1369.07 6017.62 5110.68 4857.62 1554.53 3303.1 923.687 706.923 204.315 502.609 216.764 906.935 129.802 115.363 777.133 162.842 748.305 53.9226
internal_count=39640 8272 31368 26529 24443 8203 16240 4242 3225 968 2257 1017 4839 655 588 4184 764 4016 253
shrinkage=0.05


Tree=39
num_leaves=21
num_cat=0
split_feature=21 21 17 17 12 14 20 20 13 13 40 40 43 43 29 15 15 0 39 15
split_gain=153.769 653.304 77.567 505.787 53.8717 50.7858 46.1502 56.8782 38.8913 29.1685 26.0961 33.8239 23.1258 84.8876 18.1571 15.4467 14.5109 13.995 12.3972 11.0359
threshold=1.0000000180025095e-35 0.99994488409908888 1.0000000180025095e-35 0.99996625117671289 349.01137517132685 2884.2892606975379 0.0029661212754067416 0.99987735474400352 11.936617553452026 2.9877730913325942 1.0000000180025095e-35 0.99987735474400352 0.0042893328850922017 0.99984780467738033 1.0000000180025095e-35 0.045507043093397155 0.0068242981164722332 46.246407958171623 0.99995121521903674 213.87500000000003
decision_type=2 2 2 2 2 2 2 2 2 2 2 2 2 2 2 2 2 2 2 2
left_child=2 -2 6 -4 10 8 12 -8 -6 18 15 -12 16 -14 -11 -3 -1 -7 -5 -9
right_child=1 4 3 9 5 17 7 19 -10 14 11 -13 13 -15 -16 -17 -18 -19 -20 -21
leaf_value=0 0.054711399301563268 0 0.060104364404119981 0.0082791067734502548 0.006929570839127386 -0.026777128931724438 0.047630470002778987 0.010588224908922403 -0.015726171494896846 -0.017129720814074569 0.0434246842953014 -0.012532026206835942 0.050593695800147158 -0.012918755062094167 -0.0028634940676632195 -0.027282103385119022 -0.018526412825292268 -0 -0.017481716004543794 -0.010960891848969846
leaf_weight=63.581257201731205 606.02463605627418 28.61194321513176 298.56381672993302 264.6651973053813 1540.4170258268714 178.01096082478762 53.810475319623947 54.844512082636356 195.80230366438627 891.4116652905941 26.951093636453152 84.752355009317398 50.942804604768753 340.04402113705873 425.15919495373964 333.36449033021927 1584.5016827434301 73.854237571358681 38.699303507804871 195.38867704570293
leaf_count=275 6471 128 2344 1195 6897 793 377 231 917 4287 136 363 330 1664 2001 1538 8302 332 175 884
internal_value=0 0.172409 -0.120753 0.0236626 -0.0539831 0.0139593 -0.242846 0.0939148 0.0802562 -0.193436 -0.354212 0 -0.298154 -0.046825 -0.259119 -0.48301 -0.351105 -0.390479 0.0588857 -0.0818231
internal_weight=0 3067.79 4261.61 1918.5 2461.76 1988.08 2343.11 304.044 1736.22 1619.94 473.68 111.703 2039.07 390.987 1316.57 361.976 1648.08 251.865 303.365 250.233
internal_count=39640 17575 22065 10002 11104 8939 12063 1492 7814 7658 2165 499 10571 1994 6288 1666 8577 1125 1370 1115
shrinkage=0.05


Tree=40
num_leaves=21
num_cat=0
split_feature=42 42 41 41 14 43 43 14 14 38 12 14 13 12 0 29 12 20 29 14
split_gain=148.425 594.807 120.063 732.001 67.7047 60.5913 184.914 61.7426 47.4675 50.7356 30.8614 30.5476 52.1905 24.4799 18.0704 15.3521 10.0254 9.03531 3.72567 2.66782
threshold=1.0000000180025095e-35 0.99997593805284424 1.0000000180025095e-35 0.99996625117671289 66.038143623432134 1.0000000180025095e-35 0.99984780467738033 2884.2892606975379 1578.797318181819 0.99987377275471911 1643.9499408218917 583.68890170940188 5.9958421441944489 1643.9499408218917 23.941445661216417 1.0000000180025095e-35 1882.3821321618814 0.21809981025191955 0.99997593805284424 540.30244047619055
decision_type=2 2 2 2 2 2 2 2 2 2 2 2 2 2 2 2 2 2 2 2
left_child=2 -2 5 -4 13 8 -7 -8 14 -10 -6 12 16 -5 -1 17 -3 -13 -17 -14
right_child=1 11 3 4 10 6 7 -9 9 -11 -12 15 19 -15 -16 18 -18 -19 -20 -21
leaf_value=-0 0.062831291279076815 0.028410671679352212 0.061477657062998139 0.018041980537944164 -0.0079939668649471728 0.058234810987323131 0.001376124669531398 -0.023892815503723849 0.0066153296231157652 -0.013669887145302177 -0.026000448576470488 -0.026085623043012936 -0.016474430405982895 -0.0091197117866893638 -0.02250295090868858 0.015698869165552489 -0 0 -0.0057549180047305713 0
leaf_weight=138.82344824075699 428.12265165150166 124.30222717672586 461.2307397685945 285.04150889068842 1230.643402338028 114.2292070761323 724.86232513189316 329.77479512244463 461.58537911623716 776.2182475104928 352.2757304161787 295.36751438677311 188.28778409212828 80.990674234926701 1098.9926772601902 12.082083247601984 29.967576161026955 15.951912641525267 106.90997761487961 10.189722672104834
leaf_count=690 3467 574 3997 1390 5915 968 3612 1628 2423 4137 1756 1392 932 385 5558 82 131 73 480 50
internal_value=0 0.320221 -0.0618607 0.108475 -0.156652 -0.177233 0.00216394 -0.124116 -0.265626 -0.114246 -0.249065 -0.188522 0.00357864 0.212393 -0.406862 -0.365212 0.450484 -0.480158 -0 -0.300765
internal_weight=0 1211.18 6054.67 2410.18 1948.95 3644.49 1168.87 1054.64 2475.62 1237.8 1582.92 783.059 352.747 366.032 1237.82 430.311 154.27 311.319 118.992 198.478
internal_count=39640 7181 32459 13443 9446 19016 6208 5240 12808 6560 7671 3714 1687 1775 6248 2027 705 1465 562 982
shrinkage=0.05


Tree=41
num_leaves=20
num_cat=0
split_feature=24 24 41 41 15 42 42 15 14 43 15 14 15 43 14 15 10 41 11
split_gain=139.64 434.242 106.873 764.82 67.2073 54.0264 260.558 56.6391 26.9498 26.8889 123.661 31.6676 16.7065 14.8919 13.1413 11.2177 8.00043 4.45684 1.60835
threshold=0.99997593805284424 1.0000000180025095e-35 1.0000000180025095e-35 0.99996625117671289 107.65166666666669 1.0000000180025095e-35 0.99997593805284424 1013.2387800018739 66.038143623432134 1.0000000180025095e-35 1029.7865426759097 1578.797318181819 5647.4536493837213 1.0000000180025095e-35 342.2456980056981 2862.5506581938857 1.9972816801854767 0.0096204202814808033 1179.0425448240501
decision_type=2 2 2 2 2 2 2 2 2 2 2 2 2 2 2 2 2 2 2
left_child=1 12 5 -4 14 9 -7 -8 -6 11 -11 -2 13 16 -5 -15 -1 18 -14
right_child=2 -3 3 4 8 6 7 -9 -10 10 -12 -13 17 15 -16 -17 -18 -19 -20
leaf_value=-0 -0.020842039250473936 0.057103646244450947 0.06243738529364861 0.018566888702292613 0.0016974972774320763 0.060831672542040006 0.010993814816676778 -0.020067430514023255 -0.016496450245339408 0.03437375818133636 -0.013266582373529821 -0.0074473274250182048 -0 0.02161539655425828 -0.0042682408240398628 -0 -0.014221184767051812 0 -0.019354513614851881
leaf_weight=369.42472873628139 1077.6184782162309 407.06186477839947 455.97182641550899 209.30190218240023 181.89631386846304 147.65877151861787 181.6825260668993 466.85749576985836 1283.7066669091582 159.57828566804528 648.22404059395194 1036.2103320136666 29.937502041459084 109.9715929068625 39.454988315701485 58.834313869476318 134.4875031709671 28.648774139583111 181.6356189250946
leaf_count=1687 5485 4030 3793 1026 865 1142 820 2267 6210 813 3294 5472 145 522 181 280 589 148 871
internal_value=0 0.294929 -0.0637332 0.109515 -0.193175 -0.167574 0.0528074 -0.211437 -0.278067 -0.231018 -0.0587756 -0.291546 -0.080243 0 0.259755 0.250318 -0.0847149 -0.30086 -0.349764
internal_weight=0 1320 5888.16 2170.33 1714.36 3717.83 796.199 648.54 1465.6 2921.63 807.802 2113.83 912.94 672.718 248.757 168.806 503.912 240.222 211.573
internal_count=39640 8272 31368 12075 8282 19293 4229 3087 7075 15064 4107 10957 4242 3078 1207 802 2276 1164 1016
shrinkage=0.05


Tree=42
num_leaves=19
num_cat=0
split_feature=13 38 38 39 39 13 28 28 12 46 46 15 15 32 18 0 1 20
split_gain=134.283 167.383 295.981 148.234 207.407 21.5347 23.9599 73.1545 16.2261 14.0911 41.2903 12.4557 8.25895 7.2878 3.98647 4.26592 3.96908 0.853661
threshold=10.97692040402571 0.99987377275471911 1.0000000180025095e-35 0.99995121521903674 1.0000000180025095e-35 16.999988926648527 0.99990256883134154 1.0000000180025095e-35 964.06515671893897 1.0000000180025095e-35 0.99994488409908888 2724.5083138244358 2456.7420519994553 0.020754910479257097 0.063422327060120479 21.995537774744118 6.000515128900612 0.018849061356002676
decision_type=2 2 2 2 2 2 2 2 2 2 2 2 2 2 2 2 2 2
left_child=1 2 3 4 -1 6 7 11 17 -10 -11 -2 -5 14 15 -7 -8 -3
right_child=5 8 -4 12 -6 13 16 -9 9 10 -12 -13 -14 -15 -16 -17 -18 -19
leaf_value=0.0051911848312621413 -1.0159319016775277e-05 -0.024303934383308617 0.061048632401802687 -0.023770497524767606 0.059461006132714281 0 -0.024200743002312657 0.049488741873122945 -0.01845603223580428 0.047772429842624385 -0.007204109002130487 -0.016896704273571057 -0.0062702393249836567 -0 -0 -0.026275521612190191 0 -0
leaf_weight=3829.7219054177403 314.91512453556061 371.76655952632427 234.87718142941594 381.24795410037041 177.64954617246985 10.630259618163107 194.71299337595701 50.120372105389833 218.59084562212229 26.829611331224442 370.36729890108109 230.88770905137062 202.21600540727377 33.673381198197603 27.631475016474724 438.32067818194628 15.382927753031252 18.166229628026485
leaf_count=20207 1732 1973 2173 1884 1604 53 1004 418 1155 177 1963 1305 992 201 163 2465 78 93
internal_value=0 0.0676475 0.146449 0.0867657 0.15727 -0.284779 -0.159752 -0.0362497 -0.298334 -0.166179 -0.0236135 -0.164573 -0.375113 -0.456187 -0.487325 -0.510362 -0.447061 -0.472658
internal_weight=0 5831.43 4825.71 4590.84 4007.37 1316.27 806.019 595.923 1005.72 615.788 397.197 545.803 583.464 510.256 476.582 448.951 210.096 389.933
internal_count=39640 32221 26860 24687 21811 7419 4537 3455 5361 3295 2140 3037 2876 2882 2681 2518 1082 2066
shrinkage=0.05


Tree=43
num_leaves=22
num_cat=0
split_feature=29 29 28 28 13 42 15 38 39 8 12 14 11 47 47 2 12 15 15 8 43
split_gain=131.598 608.96 129.413 261.563 70.9505 58.7947 41.41 41.284 38.1702 27.8062 17.5308 16.3877 8.01378 5.2196 74.5827 3.80352 2.55394 0.662777 0.529649 0.115518 0.0724785
threshold=1.0000000180025095e-35 0.99997593805284424 1.0000000180025095e-35 0.99990256883134154 8.9683290994147615 1.0000000180025095e-35 411.60987823730289 0.99987377275471911 0.99995121521903674 0.014533898813582729 457.09975256798742 2884.2892606975379 453.00905350580166 1.0000000180025095e-35 0.99993571913706703 850.78535855600887 1988.0285864299424 4440.762812500001 102258.93153824877 0.11239708110804388 0.18087882621559823
decision_type=2 2 2 2 2 2 2 2 2 2 2 2 2 2 2 2 2 2 2 2 2
left_child=2 -2 9 -4 5 -5 7 8 -3 13 12 -12 -8 18 -15 -6 -9 19 -1 -11 -19
right_child=1 6 3 4 15 -7 10 16 -10 17 11 -13 -14 14 -16 -17 -18 20 -20 -21 -22
leaf_value=-0.027622720730610475 0.059818576376523137 0.020501235203198617 0.059059698567553255 -0.0034675165561796535 -0.024200758441321305 0.015153385377495979 -0.0098268670989279001 -0.018997847380838848 -0.011964934992573886 0 -0.00091240701089907207 -0.021025951809867667 -0.035096068166801539 0.048079793844568203 -0.022088110265322185 -0 -0 -0.0029281406351408974 -0 0.0048405166134687398 0
leaf_weight=560.05501309782267 474.45725107192993 412.5517939440906 167.49993421882391 2729.9745532236993 367.41987044364214 489.41455207765102 204.41119907796383 106.68406992405653 87.249022506177425 18.061480551958084 752.1178408972919 121.31531644240022 85.871664553880692 29.414713609963655 334.21691136062145 31.758794978260994 21.909446582198143 26.774170510470867 12.468434169888495 67.318966180086136 12.749658860266207
leaf_count=3147 4609 2181 1528 13878 1884 2689 1006 541 415 78 3763 589 416 184 1883 159 109 127 71 311 72
internal_value=0 0.200525 -0.090817 -0.00133595 -0.0619344 -0.00887528 -0.0627497 0.133899 0.274588 -0.397773 -0.177694 -0.0895685 -0.397739 -0.456617 -0.27878 -0.454744 -0.321119 0 -0.545678 0.0799147 -0.0329114
internal_weight=0 2266.57 4847.13 3786.07 3618.57 3219.39 1792.11 628.394 499.801 1061.06 1163.72 873.433 290.283 936.155 363.632 399.179 128.594 124.904 572.523 85.3804 39.5238
internal_count=39640 13629 26011 20138 18610 16567 9020 3246 2596 5873 5774 4352 1422 5285 2067 2043 650 588 3218 389 199
shrinkage=0.05


Tree=44
num_leaves=20
num_cat=0
split_feature=24 24 10 10 10 10 29 29 15 14 13 13 9 13 14 43 10 13 15
split_gain=120.037 395.78 96.1752 959.474 120.641 291.235 47.1749 199.725 30.7159 24.8688 89.2363 57.7487 21.4164 16.331 10.4915 10.3531 6.36229 3.95331 2.08287
